[
	{
		"brain_network": {
			"layers": [
				{
					"neurons": [
						{
							"weights": null
						},
						{
							"weights": null
						},
						{
							"weights": null
						},
						{
							"weights": null
						},
						{
							"weights": null
						},
						{
							"weights": null
						},
						{
							"weights": null
						},
						{
							"weights": null
						},
						{
							"weights": null
						},
						{
							"weights": null
						},
						{
							"weights": null
						},
						{
							"weights": null
						},
						{
							"weights": null
						},
						{
							"weights": null
						},
						{
							"weights": null
						},
						{
							"weights": null
						},
						{
							"weights": null
						},
						{
							"weights": null
						},
						{
							"weights": null
						},
						{
							"weights": null
						},
						{
							"weights": null
						},
						{
							"weights": null
						},
						{
							"weights": null
						},
						{
							"weights": null
						},
						{
							"weights": null
						},
						{
							"weights": null
						},
						{
							"weights": null
						},
						{
							"weights": null
						},
						{
							"weights": null
						},
						{
							"weights": null
						},
						{
							"weights": null
						},
						{
							"weights": null
						},
						{
							"weights": null
						},
						{
							"weights": null
						},
						{
							"weights": null
						},
						{
							"weights": null
						},
						{
							"weights": null
						},
						{
							"weights": null
						},
						{
							"weights": null
						},
						{
							"weights": null
						},
						{
							"weights": null
						},
						{
							"weights": null
						},
						{
							"weights": null
						}
					]
				},
				{
					"neurons": [
						{
							"weights": [
								0.5359261,
								-0.541651249,
								0.5533042,
								0.07033074,
								0.175167918,
								-0.7629776,
								0.532197237,
								-0.0516577959,
								-0.1736151,
								0.7781558,
								0.9358368,
								-0.1890608,
								0.1762644,
								0.44373247,
								0.18225944,
								-0.06716955,
								-0.29241097,
								-0.6529362,
								-0.312385678,
								0.452755183,
								-0.0421375036,
								-0.741814852,
								0.1688062,
								0.85502243,
								-1.0,
								-0.136624575,
								-0.28893435,
								-0.117514491,
								0.897748947,
								-0.540382862,
								0.290674657,
								0.06571829,
								0.463046759,
								-0.429706275,
								-0.528871059,
								-0.3097571,
								-0.0135120153,
								0.0660709143,
								-0.399573684,
								0.5788379,
								-0.9305167,
								-0.205501914,
								-0.9929199
							]
						},
						{
							"weights": [
								0.315260381,
								0.71918416,
								-0.33017695,
								0.477972,
								0.8950405,
								0.1473018,
								0.725272655,
								-0.5053159,
								-0.626385,
								0.9778528,
								0.181962132,
								-0.534959555,
								0.534466,
								-0.6282964,
								-0.129372954,
								0.674059331,
								0.5286164,
								0.6980109,
								-0.7703483,
								1.0,
								0.233994424,
								-0.946034431,
								-0.380764842,
								-0.7917955,
								0.149771392,
								0.9879739,
								-0.05784905,
								0.92688036,
								-0.556103945,
								0.645894051,
								-0.588318348,
								-0.172172189,
								-0.0642063,
								-0.236557752,
								-0.5792701,
								0.0297611952,
								-0.159939647,
								0.934258938,
								-0.0593630075,
								-0.5717199,
								0.139689088,
								-0.8796685,
								0.133707643
							]
						},
						{
							"weights": [
								-0.5518215,
								-0.220319271,
								0.3035936,
								-0.8669982,
								-0.298072934,
								0.44895193,
								1.0,
								0.346198529,
								0.5933485,
								-0.103442252,
								0.299082726,
								0.709486961,
								-0.859853,
								-0.10156405,
								0.06951487,
								-0.5918129,
								0.102375388,
								-0.720562,
								-0.1767708,
								-0.925167561,
								0.213371158,
								-0.9842117,
								-0.07488525,
								0.865185,
								0.7816546,
								0.921272039,
								0.320157975,
								-0.5523174,
								0.8821964,
								0.166936755,
								0.07497299,
								0.491657227,
								-0.04858172,
								0.318262547,
								0.6635809,
								0.930016041,
								-0.0754135847,
								0.486275643,
								0.493153781,
								0.4734623,
								-1.0,
								0.159409642,
								-0.3838657
							]
						},
						{
							"weights": [
								-0.5604955,
								0.8010652,
								0.5150635,
								0.104101062,
								0.696680546,
								0.5571828,
								0.647449732,
								0.4884852,
								0.5062647,
								-0.208875716,
								-0.2240198,
								-0.629605055,
								-0.6867416,
								-0.6294539,
								0.725737333,
								0.5485921,
								0.245192766,
								0.658910036,
								-0.306188941,
								0.00714528561,
								-0.773674548,
								-0.460799336,
								-0.1748997,
								0.3012497,
								-0.68512845,
								-1.0,
								0.2516875,
								-0.8319886,
								-0.2050153,
								0.7335849,
								-0.127215981,
								-0.781194,
								0.791505337,
								-0.9557357,
								0.8122978,
								-0.6055896,
								0.930901766,
								-0.910605669,
								0.314781159,
								0.246910453,
								-0.561319351,
								0.249809146,
								0.6446924
							]
						},
						{
							"weights": [
								-0.114872575,
								0.545423269,
								-0.5650544,
								0.898196,
								-0.281185061,
								0.5127411,
								-0.585707664,
								0.68978,
								-0.284564376,
								0.805246353,
								1.0,
								-0.2698999,
								0.09689152,
								0.807644367,
								0.0582765341,
								-0.128642917,
								1.0,
								-0.106189847,
								0.593597651,
								0.3854408,
								0.488661259,
								-0.07740247,
								1.0,
								1.0,
								0.637264967,
								-0.420530915,
								-0.420006633,
								-0.363943666,
								0.9282844,
								-0.331782937,
								-0.689101934,
								-0.479463577,
								0.453561276,
								-0.174837947,
								0.180494666,
								-0.8868542,
								-0.07153571,
								-0.9786458,
								0.5061909,
								-0.637227535,
								0.3908486,
								-0.120626807,
								0.9876199
							]
						},
						{
							"weights": [
								-0.16550529,
								0.170600772,
								0.7511027,
								-0.273812771,
								0.5596347,
								-0.119481444,
								1.0,
								-0.933570862,
								0.532967567,
								-0.720575333,
								-0.9501271,
								-0.718953848,
								-0.111100316,
								-0.6817663,
								-0.709965944,
								0.629303932,
								-0.472615838,
								0.983135,
								-0.938576162,
								-0.6278875,
								0.684771657,
								-0.489107728,
								0.8176522,
								0.203676581,
								0.892615557,
								0.2514138,
								0.403336018,
								0.5471091,
								0.269451827,
								-0.6249368,
								0.8056233,
								0.903143167,
								0.824711561,
								-0.8348782,
								-0.9807801,
								-0.113416553,
								0.668164,
								-0.930232763,
								0.559174538,
								-0.415573716,
								-0.190380216,
								0.128749967,
								-0.659108162
							]
						},
						{
							"weights": [
								0.48137185,
								1.0,
								0.482271165,
								0.224877954,
								0.5908065,
								-0.1594516,
								-0.7180233,
								0.558071136,
								-0.0812133551,
								-0.918392658,
								-0.161435485,
								-0.974137545,
								-0.1632253,
								-0.187266946,
								0.6888776,
								-0.3476373,
								0.7023556,
								-0.569627047,
								0.2912356,
								0.187833637,
								-0.907491446,
								-0.212220013,
								0.231100738,
								0.121174216,
								0.987664461,
								0.898354053,
								-1.0,
								0.196929157,
								-1.0,
								-0.917537332,
								-0.348561883,
								-0.5928097,
								0.6716471,
								-0.9756143,
								-0.2450794,
								-0.81284523,
								-0.8422067,
								0.0484209657,
								0.447779149,
								0.622465134,
								0.0589762926,
								-0.9746516,
								0.265202016
							]
						},
						{
							"weights": [
								0.8009696,
								-0.702407062,
								0.137597919,
								-0.628919363,
								0.276310652,
								-0.04761231,
								0.111948609,
								0.2837095,
								-0.5899823,
								-0.0511437654,
								-0.229911923,
								0.7298026,
								1.0,
								0.06276071,
								-0.651427269,
								0.179842353,
								-1.0,
								-0.8746071,
								-0.498398423,
								0.188144088,
								-0.01091212,
								-0.41473043,
								-0.06323564,
								-0.0007901192,
								0.2757952,
								-0.5211091,
								0.5537958,
								-0.186386943,
								0.403506249,
								0.09232509,
								0.3738249,
								0.8309934,
								-0.329118848,
								0.6049659,
								-0.009396076,
								-0.182945579,
								-0.0503691435,
								-0.543875456,
								0.49050042,
								0.816185951,
								-0.547551155,
								-0.192952037,
								0.182290912
							]
						},
						{
							"weights": [
								-0.607971668,
								0.0506674051,
								-0.461854815,
								0.397090644,
								0.0337206125,
								0.8317437,
								-0.340726733,
								0.9247241,
								0.629172444,
								0.6346476,
								0.40371415,
								-0.765387535,
								-0.5258517,
								0.43484807,
								0.9535856,
								0.669201851,
								-0.7850144,
								0.169689775,
								0.243575215,
								-0.8042724,
								-0.597301,
								0.0423527956,
								-0.05954039,
								-0.7120595,
								-0.733132362,
								-0.0407973528,
								0.481163561,
								0.0630360842,
								0.2781715,
								-0.695001841,
								-0.470847964,
								-0.305787474,
								-0.6561346,
								1.0,
								-0.2090615,
								0.198912263,
								0.7584958,
								0.184915185,
								0.475981444,
								-0.365744,
								-0.36422956,
								-0.996340036,
								0.444407672
							]
						},
						{
							"weights": [
								-0.4636227,
								0.499473363,
								0.44894,
								-1.0,
								-0.7234938,
								0.813256264,
								-0.7768328,
								-0.399251342,
								-0.336951137,
								-0.5941236,
								0.469996184,
								0.2112124,
								0.29795596,
								-1.0,
								0.189392447,
								1.0,
								0.305689067,
								-0.341692328,
								0.579563856,
								0.8662715,
								0.7656243,
								0.007086396,
								-0.811470747,
								0.920757055,
								-0.6186168,
								-0.0132294893,
								-0.0336354971,
								-0.6895654,
								-0.7523401,
								0.49338147,
								0.6948819,
								-0.320283353,
								0.7001598,
								0.4279301,
								0.291174382,
								-0.837082863,
								-0.5870631,
								-0.64130497,
								0.7945163,
								0.00212156773,
								0.5047779,
								-0.3047322,
								1.0
							]
						},
						{
							"weights": [
								-0.93426156,
								0.9103837,
								0.466166228,
								-1.0,
								0.978008032,
								0.8038609,
								-0.06172079,
								-0.0919399559,
								0.8601458,
								0.650943756,
								-0.178118587,
								-0.9170699,
								0.363968343,
								0.249225855,
								-0.9939883,
								0.0009108782,
								-0.292709,
								-0.2793213,
								0.6719892,
								0.370648652,
								-0.024142772,
								-0.905362844,
								-0.740772,
								-0.930601358,
								-1.0,
								0.717275262,
								-0.6350918,
								0.407023042,
								0.480367631,
								-0.237503171,
								-0.03805244,
								-0.376989841,
								-0.04585445,
								-0.8361237,
								0.8156762,
								0.7392607,
								-0.7319696,
								0.550395,
								-0.545538664,
								0.3864004,
								0.7070136,
								0.744013846,
								-0.337845445
							]
						},
						{
							"weights": [
								-0.8649907,
								-1.0,
								0.327108115,
								-0.5054459,
								0.821412563,
								0.862243652,
								-0.511661768,
								-0.851270437,
								-0.245941043,
								-0.2338885,
								-0.2868427,
								0.153604865,
								-0.169378877,
								0.6308813,
								0.338908166,
								0.5593996,
								0.8238025,
								0.04501903,
								-0.706540346,
								0.7660315,
								1.0,
								0.124142289,
								1.0,
								-0.787102,
								-0.796910763,
								-0.16065073,
								-0.6607468,
								0.1858486,
								0.2952689,
								-0.88875556,
								0.7901945,
								0.712715149,
								-0.786745667,
								-0.9119544,
								0.806814,
								0.05453807,
								-1.0,
								0.466036767,
								0.8150263,
								0.292952031,
								-0.0143345594,
								-0.0567959547,
								-0.3617462
							]
						},
						{
							"weights": [
								-0.561344266,
								-0.146278977,
								-0.695174,
								-1.0,
								-0.6920173,
								-0.6510701,
								1.0,
								1.0,
								-0.326973081,
								0.7663021,
								0.7629144,
								-0.44012177,
								0.049675107,
								0.232057214,
								-0.7938621,
								0.6800183,
								0.367483824,
								0.223166376,
								0.4425934,
								0.9550123,
								-0.4114424,
								-0.15150106,
								-0.8408022,
								-0.423250318,
								-0.09691316,
								-0.5045328,
								-0.328211665,
								-0.3386153,
								-0.9999025,
								-0.65027833,
								0.9288428,
								0.6142431,
								0.389844626,
								-0.3337468,
								0.7807267,
								0.53301096,
								-0.342085,
								0.986373663,
								-0.0244780779,
								0.08052409,
								-0.9461391,
								0.5840973,
								0.185568869
							]
						},
						{
							"weights": [
								0.36635682,
								-0.07813907,
								-0.8124547,
								0.7967937,
								-1.0,
								-0.7740085,
								0.09670922,
								-0.168862939,
								-0.673585653,
								0.531332,
								-1.0,
								-0.702221155,
								0.08876622,
								-0.8366525,
								0.773598433,
								0.228317857,
								-0.561978161,
								-0.862808,
								0.229268909,
								0.5948429,
								-0.3303553,
								0.8618188,
								-0.475138783,
								0.8652265,
								0.05093038,
								-0.162962079,
								-0.499421477,
								-0.278203845,
								-0.5602224,
								0.527914643,
								0.7594552,
								-0.744359732,
								-0.6595688,
								0.4101958,
								-0.849055767,
								0.15310514,
								-0.0414165258,
								-0.679732561,
								0.133323073,
								0.237960458,
								-0.548048258,
								0.6401653,
								-0.967983246
							]
						},
						{
							"weights": [
								0.6375818,
								0.619118333,
								-0.944190741,
								-0.4470266,
								0.410113543,
								0.09681857,
								0.353737563,
								-0.324743629,
								0.5055752,
								-1.0,
								0.9287219,
								0.6861279,
								0.5272777,
								-0.6580405,
								-0.9673934,
								0.193565488,
								0.2674167,
								-0.81688714,
								-1.0,
								0.843317032,
								-1.0,
								-1.0,
								-0.502728462,
								-0.113609433,
								-1.0,
								-0.6693647,
								0.7753706,
								0.2918243,
								-0.600883365,
								-0.246449113,
								-0.260728985,
								0.266292542,
								-0.6171658,
								0.8619654,
								-0.7091596,
								0.08444059,
								-0.985207558,
								-0.87192297,
								0.2708952,
								0.547444344,
								0.4068615,
								-1.0,
								0.173609614
							]
						},
						{
							"weights": [
								-0.9964392,
								-0.9291463,
								-0.07854998,
								1.0,
								0.9340887,
								0.100777984,
								-0.6836581,
								-0.945991039,
								-0.330379844,
								1.0,
								-0.429556,
								0.9425247,
								-0.288784146,
								-0.610353649,
								-0.501807,
								0.388938785,
								0.338905543,
								0.949544668,
								-1.0,
								-0.2504176,
								0.43149063,
								0.6678786,
								-0.5349052,
								0.5160544,
								0.178868413,
								-0.391179681,
								-0.369076937,
								-0.0253425837,
								-0.153517336,
								0.74010396,
								-0.720836639,
								0.5330484,
								0.5632236,
								-0.301547885,
								-1.0,
								0.141127229,
								-0.156695008,
								0.139993548,
								-0.7584071,
								-0.9426751,
								0.35197565,
								-0.18511498,
								0.4749429
							]
						},
						{
							"weights": [
								-0.224126935,
								0.6399281,
								0.2395674,
								-0.680485,
								0.99029994,
								-0.858057559,
								0.036735177,
								0.0530073941,
								-0.822744846,
								-0.5948074,
								-0.487209678,
								-0.641489744,
								-0.5573926,
								-0.293845773,
								-0.247506291,
								0.23298347,
								-0.308425784,
								-0.09580362,
								-0.5970361,
								0.533256531,
								0.286828727,
								-0.8429949,
								-0.35406816,
								-1.0,
								0.212035537,
								0.4934939,
								0.161586165,
								-0.06815827,
								-0.140400052,
								-0.734506845,
								-0.0193908811,
								-0.8764012,
								0.009878278,
								0.8446593,
								0.8999702,
								-0.20843637,
								-0.554328442,
								-0.4957778,
								0.6685598,
								0.497018546,
								-0.04038298,
								1.0,
								-0.600471
							]
						},
						{
							"weights": [
								-0.603641748,
								-0.677664757,
								0.424831122,
								0.74599123,
								-0.564418554,
								-0.8456192,
								-0.415906549,
								0.4813285,
								-0.489025235,
								0.136874557,
								-0.9322629,
								0.966227055,
								-0.7383945,
								-0.150392652,
								0.5522914,
								0.642200947,
								0.795011759,
								-0.7988813,
								0.162085176,
								-0.66285044,
								-0.22365725,
								0.360564917,
								-0.729172945,
								-0.328662276,
								0.410648078,
								-0.782837152,
								0.1702255,
								0.500706434,
								0.9251518,
								0.9779296,
								-0.173088163,
								0.03084886,
								0.74166894,
								0.2586865,
								0.323451,
								-0.09908426,
								-0.984337568,
								-0.669943,
								0.7439277,
								0.876498,
								-0.1019727,
								-0.161665916,
								0.6462834
							]
						},
						{
							"weights": [
								-0.247387767,
								0.6498327,
								-0.261687875,
								-0.0523654222,
								-0.129562378,
								0.540840864,
								0.09223187,
								0.6102536,
								-0.586768031,
								0.0377496481,
								-0.687796354,
								-0.62494874,
								0.858227253,
								-0.321388125,
								-0.805184841,
								0.15309608,
								0.7441735,
								-0.09918702,
								0.119378686,
								0.355777472,
								-1.0,
								-0.7939184,
								0.6241691,
								-0.5903964,
								-0.0208634138,
								0.456228733,
								-0.490835071,
								0.593956,
								-0.3492502,
								-0.340560079,
								-0.7753527,
								-0.618000746,
								-0.347095847,
								-0.353304982,
								-0.0547889471,
								0.8186765,
								1.0,
								-0.313793778,
								-0.493188977,
								-0.04186046,
								0.7477349,
								-0.6049297,
								0.7163358
							]
						},
						{
							"weights": [
								0.0142024755,
								0.06858337,
								0.23157537,
								-0.7047119,
								-0.791813135,
								-0.5138303,
								-0.8179138,
								-0.9043243,
								0.412364841,
								0.942111969,
								-0.25868386,
								-0.2791568,
								1.0,
								-0.276091933,
								-0.3496188,
								-0.750965834,
								0.09311259,
								-0.643785536,
								0.595980644,
								0.9239707,
								0.8874719,
								0.572661161,
								0.320955,
								-0.180354,
								-0.5583639,
								0.7537687,
								0.8532591,
								0.9714478,
								-0.9205549,
								-0.07417548,
								-0.9417274,
								-0.250400662,
								0.34851413999999999,
								0.6329889,
								0.9233682,
								-0.962200165,
								-0.981543064,
								-0.85461235,
								-0.510425568,
								-0.008258939,
								-0.30432713,
								-0.9843781,
								0.7252594
							]
						}
					]
				},
				{
					"neurons": [
						{
							"weights": [
								0.008937627,
								0.9195018,
								1.0,
								-1.0,
								0.584775448,
								0.148415208,
								0.9198775,
								0.369057626,
								-0.033546567,
								-0.5069423,
								0.444634646,
								-0.6832473,
								-0.32709372,
								-0.7118504,
								0.527717352,
								0.9274421,
								0.473762721,
								1.0,
								-0.990910769,
								-0.5293883
							]
						},
						{
							"weights": [
								0.334690541,
								1.0,
								0.103104234,
								-0.0698632,
								-0.241880536,
								-0.757770061,
								-0.178894162,
								-0.5797298,
								-0.9241612,
								0.981105566,
								-0.211319566,
								0.09502518,
								0.458678663,
								-0.57374835,
								-0.841656446,
								1.0,
								0.19444415,
								0.8140347,
								1.0,
								0.7753694
							]
						},
						{
							"weights": [
								-0.645338058,
								-0.356532931,
								-0.213409543,
								0.569444656,
								0.298646659,
								0.115609527,
								-0.22254312,
								0.24881494,
								0.7025721,
								0.636829853,
								0.749878168,
								-0.601086855,
								-0.5131891,
								0.8690467,
								0.9785631,
								-0.476166368,
								-0.862066269,
								0.233065963,
								-0.4743439,
								-0.261571527
							]
						},
						{
							"weights": [
								0.6152117,
								0.2698948,
								0.221499562,
								-0.912162542,
								0.8720956,
								0.9587903,
								0.1278516,
								-0.7842827,
								-0.0821057558,
								0.0462499857,
								-0.425843358,
								-0.647650242,
								0.7468269,
								-0.6283419,
								-0.102407575,
								0.6512675,
								0.03429085,
								0.695879,
								0.09989178,
								0.877347231
							]
						},
						{
							"weights": [
								1.0,
								-0.8220496,
								0.5846007,
								0.8227582,
								0.211533666,
								-0.201087117,
								-0.5449649,
								0.597192049,
								-0.358786941,
								0.024099946,
								0.5048969,
								0.6560664,
								-0.67838,
								-0.7675798,
								-0.4965235,
								-1.0,
								-0.134604216,
								-0.733721733,
								0.5393696,
								-0.151050448
							]
						},
						{
							"weights": [
								0.6981025,
								0.6844411,
								1.0,
								-0.735314846,
								-0.225559175,
								0.706052065,
								0.677451968,
								0.7126579,
								-0.9001053,
								0.23417151,
								0.1640259,
								0.415402383,
								0.137556672,
								-0.525132656,
								-0.779410839,
								0.5232341,
								-0.0664990246,
								-1.0,
								-0.153035045,
								-1.0
							]
						},
						{
							"weights": [
								0.35163188,
								-0.987849832,
								-0.0325199366,
								-0.154172778,
								0.8034494,
								-1.0,
								0.6208687,
								1.0,
								-0.908970952,
								-0.962545633,
								-0.918668032,
								0.1716398,
								-0.5503936,
								-0.40543896,
								-0.3288859,
								-0.5797756,
								-0.749365747,
								0.433623523,
								0.9267733,
								0.343518943
							]
						},
						{
							"weights": [
								0.223384738,
								0.341530025,
								-1.0,
								0.125508249,
								0.613235,
								-0.5396069,
								-1.0,
								0.742591858,
								0.192886233,
								0.6874926,
								0.690294266,
								-0.232949138,
								-0.599277,
								-0.316075921,
								0.8016038,
								0.478323728,
								-0.33397615,
								0.158524632,
								-0.3088249,
								0.217696667
							]
						},
						{
							"weights": [
								-0.79427886,
								0.3804433,
								0.720262766,
								0.6974826,
								-0.483983248,
								-0.08376086,
								1.0,
								0.7022295,
								-0.898326635,
								0.604442,
								0.397130936,
								0.6630368,
								-1.0,
								0.182346225,
								-0.5952711,
								-0.6242738,
								0.66440773,
								0.9821515,
								-1.0,
								-1.0
							]
						},
						{
							"weights": [
								-0.918247461,
								0.0212389231,
								-0.04596889,
								0.575677,
								0.509556532,
								0.383180827,
								-1.0,
								-0.409269452,
								0.121613383,
								0.788018,
								-0.611344337,
								-0.122121334,
								0.4305267,
								-1.0,
								-0.22191155,
								0.474695563,
								-0.426988482,
								-0.484946132,
								-1.0,
								-0.415375
							]
						},
						{
							"weights": [
								0.8089012,
								-0.450543761,
								0.6400575,
								1.0,
								0.378480881,
								-0.375620127,
								0.04442984,
								0.357765079,
								-0.708565,
								-0.632413864,
								-0.9876319,
								-0.5029063,
								-0.427171826,
								0.81813693,
								-0.2473079,
								-0.798135757,
								-0.913538,
								-0.9452417,
								1.0,
								0.0514785051
							]
						},
						{
							"weights": [
								0.833680153,
								-0.3662275,
								0.7633856,
								0.565256953,
								-0.771888,
								0.186552763,
								-1.0,
								-0.5540712,
								0.92653656,
								0.6320741,
								-0.401893973,
								-0.3546882,
								0.273316145,
								-0.886333942,
								0.8270495,
								-0.021841526,
								-0.03331673,
								0.415229529,
								-0.583609641,
								0.06622207
							]
						},
						{
							"weights": [
								0.262675256,
								-0.563481569,
								-0.844434261,
								-0.3885604,
								0.0796119,
								-0.02726376,
								-0.7771261,
								0.05235231,
								0.971730947,
								-0.160390735,
								0.115906596,
								-0.417579532,
								0.502061367,
								-0.334878325,
								0.467203349,
								0.4707038,
								-0.198001266,
								0.4320509,
								-0.367799163,
								0.451952636
							]
						},
						{
							"weights": [
								-0.212467074,
								-0.6369587,
								1.0,
								-1.0,
								1.0,
								0.514888048,
								-1.0,
								-0.322873,
								0.5684747,
								-0.843834758,
								0.228499532,
								-0.8093891,
								0.168883979,
								-0.85419,
								-0.6654203,
								0.580265939,
								-0.93672204,
								-0.06637913,
								0.7112868,
								-0.7865312
							]
						},
						{
							"weights": [
								-0.9506712,
								0.6695211,
								-0.8249084,
								0.3660445,
								-0.942454338,
								0.6980368,
								-0.3411349,
								-0.41641748,
								0.284134835,
								-0.162714124,
								-1.0,
								0.734298944,
								0.9207113,
								-0.24431622,
								-0.6749387,
								0.269082516,
								-0.786057949,
								-0.775614262,
								-0.8739922,
								-0.7109337
							]
						},
						{
							"weights": [
								-0.0321811438,
								-0.01754272,
								-1.0,
								0.3398652,
								0.654094,
								-0.7633586,
								0.09989035,
								-0.817906141,
								-0.702554,
								0.157652259,
								-0.7995851,
								0.252681226,
								0.0923938751,
								0.0473624468,
								0.171921134,
								0.372299641,
								-0.4329301,
								0.5828762,
								0.203347564,
								-0.678306341
							]
						},
						{
							"weights": [
								0.57445,
								0.385296077,
								-0.6200862,
								0.8358178,
								0.047329545,
								0.104691863,
								0.3426039,
								0.9187801,
								0.5217735,
								0.687485933,
								-0.453217626,
								-0.679825068,
								0.907825947,
								0.832672834,
								-0.9506974,
								0.239569545,
								-0.478022218,
								-0.0849117041,
								-0.3487321,
								-0.144204259
							]
						},
						{
							"weights": [
								-0.9310267,
								-0.7791238,
								0.323114842,
								0.167889237,
								0.4127774,
								0.5387254,
								-0.3098911,
								-0.6848602,
								0.450490683,
								0.138618827,
								-0.6972134,
								-0.123205781,
								-0.421404,
								0.8580177,
								0.9804938,
								-0.7782402,
								-0.08561361,
								0.300961941,
								-0.442157626,
								-0.7795863
							]
						},
						{
							"weights": [
								-1.0,
								0.08330548,
								1.0,
								0.6719084,
								-0.460768819,
								0.854022264,
								0.520302057,
								-0.427882552,
								-0.467830181,
								-0.4021002,
								0.142563462,
								-0.07232392,
								0.9290581,
								-1.0,
								0.575541,
								0.8214834,
								-0.614788651,
								-0.00735801458,
								-0.855270863,
								1.0
							]
						},
						{
							"weights": [
								-0.888761759,
								0.455389947,
								0.227129579,
								-0.0730387,
								1.0,
								0.110965371,
								-0.8390949,
								-0.5162094,
								-0.8158612,
								-0.0218690634,
								-0.0335849822,
								0.09841144,
								0.331144065,
								1.0,
								-0.150616765,
								-0.322288156,
								-0.8669157,
								0.350642174,
								0.635145664,
								-0.9182079
							]
						}
					]
				},
				{
					"neurons": [
						{
							"weights": [
								-0.03259206,
								0.9396946,
								0.08264753,
								-0.181944132,
								0.160111785,
								0.232544124,
								0.09683883,
								-0.5438447,
								0.390968531,
								0.92475915,
								0.09759021,
								0.258657426,
								0.03845203,
								0.258301377,
								-0.188944459,
								-1.0,
								-0.726393938,
								-0.239883542,
								0.492828846,
								0.31846115
							]
						},
						{
							"weights": [
								1.0,
								0.744938135,
								-0.0531840324,
								1.0,
								0.3447759,
								-0.598076344,
								-0.5681968,
								-0.548155546,
								0.04227379,
								-0.362424016,
								0.9876714,
								-0.8164828,
								-0.440843254,
								0.0770109,
								-0.229215026,
								-1.0,
								-1.0,
								0.177873552,
								-0.0853293538,
								0.627156854
							]
						},
						{
							"weights": [
								0.603153,
								-0.4982122,
								0.511606932,
								0.322418422,
								0.459711522,
								-1.0,
								0.318256348,
								-0.0641953647,
								0.00411105156,
								0.478915423,
								0.184394717,
								0.08496368,
								-0.984653234,
								0.965857,
								1.0,
								1.0,
								-0.275084019,
								0.9858188,
								1.0,
								0.7427149
							]
						},
						{
							"weights": [
								-0.325339437,
								0.2142615,
								-0.99865365,
								1.0,
								-0.07295883,
								-0.6716188,
								0.8741437,
								-0.3462684,
								-1.0,
								-0.8743684,
								-0.875012934,
								0.0275760889,
								0.0182062387,
								0.587484956,
								-0.5178263,
								-0.841639042,
								-0.627456665,
								0.995453358,
								-0.704152942,
								-0.00794518
							]
						},
						{
							"weights": [
								0.854464531,
								-0.120460868,
								1.0,
								-0.5495219,
								-0.0603460073,
								-0.6408391,
								0.488257617,
								-0.8130725,
								1.0,
								0.271717757,
								1.0,
								0.6385286,
								0.5886344,
								-0.302770972,
								-0.529083967,
								0.5135467,
								-0.949687,
								-0.377892852,
								-0.421856046,
								-0.4797126
							]
						},
						{
							"weights": [
								-0.108746409,
								-0.6290879,
								-0.30521667,
								1.0,
								-0.473310441,
								-0.132696986,
								-0.2988519,
								0.185182929,
								0.421652615,
								0.12154758,
								-0.8206842,
								1.0,
								0.710581958,
								-0.694987059,
								-0.398515582,
								-1.0,
								1.0,
								0.3964898,
								1.0,
								0.106711507
							]
						},
						{
							"weights": [
								-0.2318238,
								-0.8279052,
								0.361412972,
								0.2727525,
								-0.09595525,
								-0.3268491,
								-0.492527127,
								0.254447669,
								0.5325868,
								-0.372175574,
								-0.7287233,
								0.186041474,
								-0.7966521,
								0.183958411,
								-0.44204843,
								-0.3122264,
								-0.9337604,
								0.7861955,
								-0.322896659,
								-0.805285
							]
						},
						{
							"weights": [
								-0.279926181,
								-0.108423829,
								0.356517524,
								-0.7779,
								-0.13767612,
								-0.533831835,
								0.330141276,
								0.393434733,
								-0.317046046,
								0.5761092,
								-0.6408706,
								0.08886945,
								0.6827297,
								0.330737084,
								-0.760050058,
								-0.10208118,
								0.8439977,
								-0.8994336,
								0.5057063,
								-0.684718847
							]
						},
						{
							"weights": [
								0.5402715,
								0.156209111,
								-0.744895458,
								0.171174765,
								-1.0,
								-0.298372149,
								-0.244262964,
								-0.110823274,
								-0.269252658,
								0.349997967,
								0.4728179,
								-0.8583226,
								-1.0,
								0.213954091,
								0.9346955,
								-0.476676434,
								0.2759443,
								-0.8418269,
								0.729415059,
								-0.325150371
							]
						},
						{
							"weights": [
								0.411973417,
								0.408005685,
								-0.43335855,
								1.0,
								0.806724846,
								-0.345824838,
								0.5468395,
								-0.298968434,
								0.5569794,
								0.8381541,
								-0.709430337,
								-0.630171955,
								0.522248149,
								1.0,
								0.155804455,
								-0.0592960119,
								-1.0,
								0.337172,
								0.226752639,
								-0.9411409
							]
						},
						{
							"weights": [
								0.3920233,
								0.490755558,
								0.219675422,
								-0.927569866,
								0.266093224,
								0.24239409,
								-1.0,
								-1.0,
								0.988524437,
								-0.7381828,
								-0.101834923,
								0.6914827,
								-1.0,
								-0.7715035,
								-0.227436662,
								-0.88183,
								-0.414207816,
								-0.112974286,
								0.9515009,
								0.65637064
							]
						},
						{
							"weights": [
								0.551322162,
								0.5659158,
								0.03283775,
								0.425746173,
								0.6190831,
								0.822422266,
								0.947828531,
								1.0,
								-0.5248842,
								0.2805147,
								-0.7205992,
								-0.379343867,
								0.131932139,
								-0.749909163,
								-0.596749067,
								1.0,
								0.774953365,
								0.5011813,
								0.472287148,
								-0.126574159
							]
						},
						{
							"weights": [
								-0.47508812,
								1.0,
								-0.8708155,
								0.430577,
								-1.0,
								-0.9895949,
								0.041732192,
								0.8565313,
								0.7949269,
								0.936424255,
								-0.435669243,
								0.0205878019,
								0.584443331,
								-0.485929847,
								-0.4451605,
								-0.8911915,
								-0.8702104,
								-0.325621724,
								0.7873819,
								1.0
							]
						},
						{
							"weights": [
								-0.9036932,
								1.0,
								-0.6253519,
								0.7844534,
								-0.9705088,
								0.1284957,
								-0.7418456,
								-0.2944163,
								0.6318368,
								-0.07173765,
								0.217948884,
								0.650304556,
								-0.2464132,
								-0.003342867,
								0.8489244,
								-0.5090544,
								-0.2944497,
								0.07635629,
								-0.682967544,
								1.0
							]
						},
						{
							"weights": [
								-0.8824363,
								-0.2873603,
								0.763449669,
								-0.0324810743,
								-0.390512347,
								0.491202325,
								-1.0,
								-0.6786858,
								-0.349668384,
								1.0,
								-0.4882655,
								0.896487951,
								-0.517310858,
								-0.8522308,
								-0.835685,
								0.4941107,
								0.0736933947,
								-0.0768578053,
								1.0,
								0.4799914
							]
						}
					]
				},
				{
					"neurons": [
						{
							"weights": [
								-0.136042953,
								-0.747839,
								-0.261630654,
								0.422614783,
								-0.8960469,
								0.537807465,
								0.18982777,
								-0.182314754,
								-0.1939503,
								-0.950604439,
								0.340898126,
								-0.7318604,
								0.62027216,
								0.338415116,
								-0.8448782
							]
						},
						{
							"weights": [
								-0.557780266,
								1.0,
								-1.0,
								0.231067479,
								-0.21797955,
								0.9755416,
								1.0,
								-0.270911217,
								0.00976148248,
								-1.0,
								0.9971303,
								-0.04953748,
								0.4644374,
								-0.176962376,
								1.0
							]
						},
						{
							"weights": [
								-0.283810973,
								0.760751963,
								-0.08804217,
								-0.7209511,
								0.7421591,
								-1.0,
								0.392525017,
								0.60500747,
								-0.5165034,
								-0.748743534,
								0.42457217,
								0.8984055,
								-0.9353886,
								0.698584139,
								-0.380723417
							]
						},
						{
							"weights": [
								0.7779069,
								-0.52296567,
								1.0,
								-0.9996902,
								0.2804775,
								0.8449094,
								-1.0,
								0.312374115,
								-0.35735,
								0.03421551,
								0.621961832,
								0.149679452,
								-0.607131958,
								0.0877752,
								0.4822979
							]
						},
						{
							"weights": [
								-0.3704697,
								-0.612911463,
								1.0,
								0.2718961,
								-0.686292648,
								-0.8273821,
								0.479124576,
								-0.0905009359,
								-0.746842861,
								-0.5127642,
								0.1437012,
								0.685279131,
								1.0,
								-0.7093625,
								-0.010994076699999999
							]
						},
						{
							"weights": [
								0.38793394,
								-0.4214021,
								0.9785452,
								-0.866600752,
								-0.176413655,
								0.301598281,
								-0.822751045,
								1.0,
								0.1785425,
								-0.343274,
								0.7787963,
								0.0885673761,
								-0.9687269,
								-0.470474839,
								0.196778417
							]
						},
						{
							"weights": [
								-0.3053815,
								-0.4077554,
								0.237923265,
								1.0,
								0.3448932,
								-0.23668015,
								0.590000868,
								-0.4447644,
								0.206079185,
								-1.0,
								-0.6154933,
								1.0,
								0.874384,
								0.456135958,
								-1.0
							]
						},
						{
							"weights": [
								0.472928047,
								-0.697112441,
								0.7268648,
								0.198449492,
								-0.429074168,
								0.467858166,
								-0.261182427,
								-1.0,
								0.5530445,
								0.009043574,
								0.486144543,
								-1.0,
								1.0,
								0.07915786,
								0.105651826
							]
						},
						{
							"weights": [
								0.439831,
								-0.181817949,
								-0.755686045,
								1.0,
								0.345282674,
								1.0,
								-0.05212438,
								0.458836675,
								-0.141260982,
								-0.0183180571,
								-0.1857459,
								-1.0,
								1.0,
								-0.09923798,
								0.659145534
							]
						},
						{
							"weights": [
								-0.9023216,
								0.314574718,
								0.4664365,
								-1.0,
								-0.8113167,
								-0.214271426,
								-0.5788867,
								-0.339112163,
								-0.143320441,
								-0.2974323,
								0.426232547,
								-0.5220187,
								0.6448133,
								-0.525651,
								-0.683411837
							]
						}
					]
				},
				{
					"neurons": [
						{
							"weights": [
								0.110942483,
								-0.360232353,
								-1.0,
								0.278449446,
								1.0,
								1.0,
								-0.590676546,
								1.0,
								-0.0358805954,
								1.0
							]
						},
						{
							"weights": [
								1.0,
								-0.0745359659,
								-0.413201451,
								0.4023492,
								-0.5131743,
								-1.0,
								0.06388709,
								-1.0,
								-0.265970618,
								-0.3102603
							]
						},
						{
							"weights": [
								0.3770482,
								1.0,
								-0.0999833345,
								-1.0,
								-0.38489902,
								1.0,
								-0.6555497,
								1.0,
								0.8868482,
								0.929666042
							]
						},
						{
							"weights": [
								-0.602640867,
								0.194709182,
								-0.395740628,
								0.466631621,
								1.0,
								1.0,
								0.0584691763,
								0.6243254,
								-0.6487143,
								0.131790519
							]
						},
						{
							"weights": [
								0.457992524,
								0.228245378,
								0.844633341,
								-0.753011942,
								0.1973387,
								-0.8616121,
								0.290697545,
								0.78169775,
								0.856291056,
								1.0
							]
						},
						{
							"weights": [
								-0.7546097,
								0.115976691,
								-1.0,
								-0.579931736,
								-0.564570665,
								-1.0,
								-0.2222482,
								-0.401681721,
								1.0,
								1.0
							]
						},
						{
							"weights": [
								-0.237924755,
								-0.0617393255,
								1.0,
								-0.2567098,
								-0.444382548,
								-0.96121335,
								-0.327731133,
								-1.0,
								0.568973243,
								0.4273898
							]
						},
						{
							"weights": [
								-0.09597504,
								1.0,
								-1.0,
								0.681039453,
								1.0,
								0.490248531,
								0.2333628,
								-0.6523881,
								1.0,
								-0.67963326
							]
						}
					]
				},
				{
					"neurons": [
						{
							"weights": [
								-0.246315122,
								0.2762577,
								0.671058655,
								-0.6770003,
								-1.0,
								-0.479094625,
								0.127194762,
								-0.0366529226
							]
						},
						{
							"weights": [
								-0.15275538,
								0.607459545,
								0.329843342,
								0.213880077,
								0.376421183,
								-0.610042334,
								0.234694362,
								-0.230154872
							]
						},
						{
							"weights": [
								-0.5462744,
								-0.08954057,
								-0.313634336,
								-0.4360196,
								0.0409871936,
								0.0191437155,
								1.0,
								0.7779815
							]
						},
						{
							"weights": [
								1.0,
								0.554359436,
								-0.788345337,
								-0.35735172,
								1.0,
								-0.0847109556,
								0.146992326,
								-0.0181563944
							]
						},
						{
							"weights": [
								0.607303262,
								-1.0,
								0.401071757,
								-0.9457834,
								0.900601149,
								-0.07096511,
								-0.6205704,
								-0.653138638
							]
						},
						{
							"weights": [
								1.0,
								0.9573879,
								-0.07077386,
								0.0137991905,
								0.315595,
								-0.626611054,
								-0.2760862,
								0.818311453
							]
						},
						{
							"weights": [
								0.6049411,
								0.3232837,
								0.755165339,
								0.3097754,
								-0.68075633,
								0.484235972,
								-0.6334839,
								-1.0
							]
						}
					]
				},
				{
					"neurons": [
						{
							"weights": [
								0.176811159,
								-1.0,
								0.2840243,
								-1.0,
								0.436933637,
								0.418413758,
								-0.6850097
							]
						},
						{
							"weights": [
								-0.277184039,
								1.0,
								-0.8676349,
								-1.0,
								-0.9601543,
								0.8433633,
								-0.464255542
							]
						},
						{
							"weights": [
								1.0,
								0.719180167,
								0.404592872,
								-1.0,
								0.7460311,
								-0.535877347,
								1.0
							]
						},
						{
							"weights": [
								-1.0,
								1.0,
								0.0004797578,
								0.187171459,
								0.9096067,
								-1.0,
								-1.0
							]
						},
						{
							"weights": [
								1.0,
								-1.0,
								0.1930219,
								-0.176557422,
								-0.5939132,
								0.105432391,
								0.714377165
							]
						},
						{
							"weights": [
								0.1387738,
								0.760333538,
								0.0464960337,
								0.5339184,
								-0.854305744,
								-0.278027415,
								0.6178011
							]
						}
					]
				}
			],
			"settings": {
				"layers": [
					43,
					20,
					20,
					15,
					10,
					8,
					7,
					6
				],
				"error_min": 0.1,
				"error_max": 1.0
			}
		},
		"generation": 2611,
		"color": {
			"r": 0.55,
			"g": 1.0,
			"b": 0.2,
			"a": 1.0
		}
	}
]