[
  {
    "brain_network": {
      "layers": [
        {
          "neurons": [
            {
              "weights": null
            },
            {
              "weights": null
            },
            {
              "weights": null
            },
            {
              "weights": null
            },
            {
              "weights": null
            },
            {
              "weights": null
            },
            {
              "weights": null
            },
            {
              "weights": null
            },
            {
              "weights": null
            },
            {
              "weights": null
            },
            {
              "weights": null
            },
            {
              "weights": null
            },
            {
              "weights": null
            },
            {
              "weights": null
            },
            {
              "weights": null
            },
            {
              "weights": null
            },
            {
              "weights": null
            },
            {
              "weights": null
            },
            {
              "weights": null
            },
            {
              "weights": null
            },
            {
              "weights": null
            },
            {
              "weights": null
            },
            {
              "weights": null
            },
            {
              "weights": null
            },
            {
              "weights": null
            },
            {
              "weights": null
            },
            {
              "weights": null
            },
            {
              "weights": null
            },
            {
              "weights": null
            },
            {
              "weights": null
            },
            {
              "weights": null
            },
            {
              "weights": null
            },
            {
              "weights": null
            },
            {
              "weights": null
            },
            {
              "weights": null
            },
            {
              "weights": null
            },
            {
              "weights": null
            },
            {
              "weights": null
            },
            {
              "weights": null
            },
            {
              "weights": null
            },
            {
              "weights": null
            },
            {
              "weights": null
            },
            {
              "weights": null
            }
          ]
        },
        {
          "neurons": [
            {
              "weights": [
                0.5359261,
                -0.541651249,
                0.5533042,
                0.07033074,
                0.175167918,
                -0.7629776,
                0.532197237,
                -0.0516577959,
                -0.1736151,
                0.7781558,
                0.9358368,
                -0.1890608,
                0.1762644,
                0.44373247,
                0.18225944,
                -0.06716955,
                -0.29241097,
                -0.6529362,
                -0.312385678,
                0.452755183,
                -0.0421375036,
                -0.741814852,
                0.1688062,
                0.85502243,
                -0.995180845,
                -0.136624575,
                -0.28893435,
                -0.117514491,
                0.897748947,
                -0.540382862,
                0.290674657,
                0.06571829,
                0.463046759,
                -0.429706275,
                -0.528871059,
                -0.3097571,
                -0.0135120153,
                0.0660709143,
                -0.399573684,
                0.5788379,
                -0.9305167,
                -0.205501914,
                -0.9929199
              ]
            },
            {
              "weights": [
                0.315260381,
                0.71918416,
                -0.33017695,
                0.477972,
                0.8950405,
                0.1473018,
                0.725272655,
                -1.0,
                -0.626385,
                0.9778528,
                0.181962132,
                -0.534959555,
                0.534466,
                -0.6282964,
                -0.129372954,
                -0.153672814,
                0.5286164,
                0.6980109,
                -0.7703483,
                1.0,
                -0.125038981,
                -0.946034431,
                -0.380764842,
                -0.7917955,
                -0.2872094,
                0.9879739,
                -0.05784905,
                0.92688036,
                -0.556103945,
                0.645894051,
                -0.588318348,
                -0.172172189,
                -0.3342296,
                0.0251971483,
                -0.5792701,
                0.0297611952,
                -0.159939647,
                0.934258938,
                -0.0593630075,
                -0.5717199,
                0.139689088,
                -0.8796685,
                0.133707643
              ]
            },
            {
              "weights": [
                -0.5518215,
                -0.00300705433,
                0.3035936,
                -0.8669982,
                -0.298072934,
                0.44895193,
                0.374163121,
                0.346198529,
                0.5933485,
                -0.4711963,
                0.299082726,
                0.709486961,
                -0.859853,
                -0.10156405,
                0.06951487,
                -0.0392545462,
                0.102375388,
                -0.720562,
                -0.1767708,
                -0.925167561,
                0.213371158,
                -0.9842117,
                -0.07488525,
                0.865185,
                0.7816546,
                0.921272039,
                0.320157975,
                -0.5523174,
                0.8821964,
                0.166936755,
                0.07497299,
                0.491657227,
                -0.04858172,
                0.318262547,
                0.6635809,
                0.930016041,
                -0.0754135847,
                0.486275643,
                0.493153781,
                0.4734623,
                -0.7678127,
                -0.273759723,
                -0.3838657
              ]
            },
            {
              "weights": [
                -0.824854851,
                0.8010652,
                0.5150635,
                0.104101062,
                0.696680546,
                0.5571828,
                0.647449732,
                0.9058068,
                0.5062647,
                -0.4537636,
                0.3909926,
                -0.629605055,
                -0.6867416,
                -0.0290905237,
                0.725737333,
                0.5485921,
                0.244564176,
                0.658910036,
                -0.306188941,
                0.00714528561,
                -0.559427261,
                -0.460799336,
                -0.1748997,
                0.3012497,
                -0.68512845,
                -0.7406676,
                0.2516875,
                -0.8319886,
                0.7202456,
                0.225012541,
                -0.127215981,
                -0.781194,
                0.791505337,
                -0.9557357,
                0.8122978,
                -0.6055896,
                0.930901766,
                -0.910605669,
                0.314781159,
                0.246910453,
                -0.561319351,
                0.249809146,
                0.6446924
              ]
            },
            {
              "weights": [
                -0.114872575,
                0.545423269,
                -0.5650544,
                0.420477837,
                -0.8321974,
                0.5127411,
                -0.585707664,
                0.68978,
                -0.284564376,
                0.805246353,
                0.22876966,
                0.501638651,
                0.09689152,
                0.807644367,
                0.0582765341,
                -0.128642917,
                0.491217345,
                -0.106189847,
                0.593597651,
                0.3854408,
                0.488661259,
                -0.07740247,
                0.5298872,
                0.753299,
                0.637264967,
                -0.420530915,
                -0.420006633,
                0.352097958,
                0.9282844,
                -0.331782937,
                -0.689101934,
                0.06677663,
                0.453561276,
                -0.174837947,
                0.180494666,
                -0.8868542,
                -0.07153571,
                -0.9786458,
                0.7218108,
                -0.637227535,
                0.3908486,
                -0.120626807,
                0.9876199
              ]
            },
            {
              "weights": [
                -0.16550529,
                0.170600772,
                0.7511027,
                -0.5914619,
                0.5596347,
                -0.119481444,
                1.0,
                -0.933570862,
                0.532967567,
                -0.720575333,
                -0.9501271,
                -0.718953848,
                -0.111100316,
                -0.6817663,
                -0.709965944,
                0.629303932,
                -0.472615838,
                0.983135,
                -0.8007674,
                -0.6278875,
                0.318734616,
                -0.489107728,
                0.8176522,
                0.203676581,
                0.892615557,
                0.2514138,
                0.403336018,
                0.5471091,
                0.269451827,
                -0.6249368,
                0.8056233,
                0.371273965,
                0.824711561,
                -0.8348782,
                -0.9807801,
                -0.113416553,
                0.668164,
                -0.748757839,
                0.559174538,
                -0.415573716,
                -0.190380216,
                0.128749967,
                -0.659108162
              ]
            },
            {
              "weights": [
                0.48137185,
                0.7005007,
                0.482271165,
                0.224877954,
                0.5908065,
                -0.1594516,
                -0.7180233,
                0.558071136,
                -0.0812133551,
                -0.918392658,
                -0.161435485,
                -0.974137545,
                -0.1632253,
                -0.187266946,
                0.6888776,
                -0.3476373,
                0.197753787,
                -0.569627047,
                0.176700711,
                -0.009778619,
                -0.907491446,
                0.171579,
                1.0,
                0.121174216,
                0.987664461,
                0.898354053,
                -0.265159249,
                0.524451256,
                -0.6666181,
                -0.582324266,
                -0.348561883,
                -0.5928097,
                0.6716471,
                -0.9756143,
                -0.2450794,
                -0.81284523,
                -0.8422067,
                -0.786281347,
                0.447779149,
                0.622465134,
                0.0589762926,
                -0.9746516,
                0.265202016
              ]
            },
            {
              "weights": [
                0.8009696,
                -0.4613825,
                0.137597919,
                -0.628919363,
                0.276310652,
                -0.04761231,
                0.111948609,
                0.2837095,
                -0.5899823,
                -0.0511437654,
                -0.229911923,
                0.7298026,
                0.862457752,
                0.06276071,
                -0.651427269,
                0.179842353,
                -0.7295656,
                -0.8746071,
                -0.498398423,
                0.188144088,
                0.871147633,
                -0.41473043,
                -0.06323564,
                -0.5067222,
                0.2757952,
                -0.5211091,
                0.5537958,
                -0.186386943,
                0.403506249,
                0.09232509,
                0.3738249,
                0.8309934,
                -0.329118848,
                0.6049659,
                -0.8576112,
                -0.0495413542,
                -0.0503691435,
                -0.543875456,
                0.49050042,
                0.816185951,
                -0.547551155,
                -0.547785759,
                0.182290912
              ]
            },
            {
              "weights": [
                -0.607971668,
                0.0506674051,
                -0.461854815,
                0.397090644,
                0.0337206125,
                0.8317437,
                -0.340726733,
                0.9247241,
                0.28607747,
                0.6346476,
                0.40371415,
                -0.765387535,
                -0.5258517,
                0.43484807,
                0.7727847,
                0.669201851,
                -0.7850144,
                0.169689775,
                0.243575215,
                -0.8042724,
                -0.597301,
                0.0423527956,
                -0.05954039,
                -0.7120595,
                -0.733132362,
                0.55478406,
                0.481163561,
                0.0630360842,
                0.2781715,
                -0.695001841,
                -0.470847964,
                0.321080178,
                -0.6561346,
                0.8322986,
                -0.2090615,
                0.198912263,
                0.7584958,
                0.184915185,
                0.475981444,
                -0.365744,
                -0.36422956,
                -0.996340036,
                0.444407672
              ]
            },
            {
              "weights": [
                -0.4636227,
                0.17121613,
                0.44894,
                -0.6960223,
                -0.7234938,
                0.813256264,
                -0.7768328,
                -0.399251342,
                -0.336951137,
                -0.5941236,
                0.469996184,
                -0.0230716467,
                0.29795596,
                -0.980752945,
                0.189392447,
                -0.08783233,
                0.305689067,
                -0.341692328,
                0.579563856,
                0.8662715,
                0.7656243,
                0.7478378,
                -0.811470747,
                0.920757055,
                -0.6186168,
                -0.0132294893,
                -0.0336354971,
                -0.6895654,
                -0.7523401,
                0.49338147,
                0.6948819,
                -0.320283353,
                0.7001598,
                0.4279301,
                0.291174382,
                -0.837082863,
                -0.5870631,
                -0.64130497,
                0.7945163,
                0.00212156773,
                0.5047779,
                -0.3047322,
                0.684834957
              ]
            },
            {
              "weights": [
                -0.93426156,
                0.9103837,
                1.0,
                -0.38368237,
                0.978008032,
                0.8038609,
                -0.42847383,
                0.237340808,
                0.8601458,
                0.650943756,
                -0.178118587,
                -0.9170699,
                0.363968343,
                -0.0434068441,
                -0.9939883,
                0.0009108782,
                -0.292709,
                -0.2793213,
                0.6719892,
                -0.104174018,
                0.391108483,
                -0.905362844,
                -0.740772,
                -0.930601358,
                -0.823500633,
                0.5928569,
                -0.6350918,
                0.407023042,
                0.480367631,
                -0.237503171,
                -0.03805244,
                -0.973312855,
                -0.04585445,
                -0.8361237,
                0.8156762,
                0.7392607,
                -0.7319696,
                0.550395,
                -0.545538664,
                -0.235133529,
                0.7070136,
                -0.0717951059,
                -0.337845445
              ]
            },
            {
              "weights": [
                -0.8649907,
                -0.7552657,
                0.327108115,
                -0.5054459,
                0.1054042,
                0.862243652,
                -0.511661768,
                -0.851270437,
                -0.245941043,
                -0.2338885,
                -0.2868427,
                0.153604865,
                -0.169378877,
                0.6308813,
                0.338908166,
                0.5593996,
                0.8238025,
                0.04501903,
                -0.706540346,
                0.7660315,
                0.9359584,
                0.6950369,
                0.6050327,
                -0.787102,
                -0.796910763,
                -0.7267103,
                -0.6607468,
                0.1858486,
                0.2952689,
                -0.88875556,
                0.7901945,
                0.712715149,
                -0.40950048,
                -0.9119544,
                0.806814,
                0.717478037,
                -0.6295152,
                0.466036767,
                0.8150263,
                0.292952031,
                -0.0143345594,
                -0.0567959547,
                -0.3617462
              ]
            },
            {
              "weights": [
                -0.8350463,
                -0.146278977,
                -0.695174,
                -1.0,
                -0.6920173,
                -0.6510701,
                0.5935185,
                0.397123039,
                -0.326973081,
                0.7663021,
                0.7629144,
                -0.8138535,
                0.049675107,
                -0.4104625,
                -0.7938621,
                0.235910773,
                0.367483824,
                0.223166376,
                -0.463672519,
                0.9550123,
                -0.4114424,
                -0.15150106,
                -0.8408022,
                -0.423250318,
                -0.09691316,
                -0.5045328,
                -0.328211665,
                -0.3386153,
                -0.9999025,
                -0.65027833,
                0.9288428,
                -0.355955958,
                0.389844626,
                -0.3337468,
                0.7807267,
                0.53301096,
                -0.342085,
                0.72228694,
                -0.0244780779,
                0.08052409,
                -0.9461391,
                -0.505373955,
                0.8101778
              ]
            },
            {
              "weights": [
                0.36635682,
                -0.6152265,
                -0.8124547,
                0.7967937,
                -0.838174343,
                -0.7740085,
                -0.08495009,
                -0.168862939,
                -0.673585653,
                0.531332,
                -1.0,
                -0.702221155,
                0.08876622,
                -0.8366525,
                0.773598433,
                0.228317857,
                -0.561978161,
                -0.862808,
                0.229268909,
                0.5948429,
                -0.3303553,
                0.8618188,
                -0.475138783,
                0.8652265,
                0.05093038,
                -0.162962079,
                -0.499421477,
                -0.278203845,
                -0.5602224,
                -0.309038043,
                0.7594552,
                -0.744359732,
                -0.6595688,
                0.4101958,
                -0.849055767,
                0.15310514,
                -0.0414165258,
                -0.679732561,
                0.133323073,
                0.237960458,
                -0.548048258,
                0.6401653,
                -0.967983246
              ]
            },
            {
              "weights": [
                0.6375818,
                0.4050853,
                -0.944190741,
                -0.4470266,
                0.410113543,
                0.09681857,
                0.353737563,
                -0.324743629,
                0.5055752,
                -0.545694351,
                0.9287219,
                0.6861279,
                0.5272777,
                -0.6580405,
                -0.9673934,
                0.193565488,
                0.2674167,
                -0.81688714,
                -1.0,
                0.843317032,
                -1.0,
                -0.8342614,
                -0.502728462,
                -0.113609433,
                -0.416065335,
                -0.6693647,
                0.7753706,
                0.2918243,
                -0.8943114,
                -0.246449113,
                -0.711387634,
                0.266292542,
                -0.6171658,
                0.8619654,
                -0.7091596,
                0.08444059,
                -0.985207558,
                -0.87192297,
                0.2708952,
                0.547444344,
                0.4068615,
                -0.672802,
                0.173609614
              ]
            },
            {
              "weights": [
                -0.9964392,
                -0.9291463,
                -0.07854998,
                1.0,
                0.9340887,
                0.100777984,
                -0.6836581,
                -0.945991039,
                -0.330379844,
                0.8336036,
                -0.429556,
                0.9425247,
                -0.288784146,
                0.155091882,
                -0.501807,
                -0.370944619,
                0.338905543,
                0.949544668,
                -1.0,
                -0.2504176,
                0.43149063,
                0.6678786,
                -0.5349052,
                0.5160544,
                0.178868413,
                -0.391179681,
                0.279654473,
                -0.0253425837,
                -0.153517336,
                0.74010396,
                -0.913009644,
                0.5330484,
                0.5632236,
                -0.301547885,
                -0.3564254,
                0.141127229,
                -0.156695008,
                0.139993548,
                -0.7584071,
                -0.9426751,
                0.35197565,
                -0.18511498,
                0.4749429
              ]
            },
            {
              "weights": [
                -0.224126935,
                0.6399281,
                0.2395674,
                -0.680485,
                0.99029994,
                -0.407716155,
                0.036735177,
                -0.1427716,
                -0.822744846,
                -0.5948074,
                -0.487209678,
                -0.641489744,
                -0.5573926,
                -0.293845773,
                -0.489315867,
                0.23298347,
                -0.308425784,
                -0.09580362,
                -0.5970361,
                0.533256531,
                0.286828727,
                -0.8429949,
                -0.35406816,
                -0.9155524,
                0.212035537,
                0.4934939,
                0.161586165,
                -0.06815827,
                -0.140400052,
                -0.734506845,
                -0.0193908811,
                -0.8764012,
                0.009878278,
                0.8446593,
                0.16125834,
                -0.20843637,
                -0.554328442,
                -0.997282743,
                0.6685598,
                0.497018546,
                -0.04038298,
                0.7502434,
                -0.600471
              ]
            },
            {
              "weights": [
                -0.603641748,
                -0.677664757,
                0.424831122,
                0.74599123,
                -0.564418554,
                -0.8456192,
                -0.415906549,
                0.160665631,
                -0.489025235,
                0.136874557,
                -0.9322629,
                0.966227055,
                -0.7383945,
                -0.150392652,
                0.5522914,
                0.642200947,
                0.795011759,
                -0.7988813,
                0.162085176,
                -0.5320196,
                -0.22365725,
                0.360564917,
                -0.729172945,
                -0.328662276,
                0.410648078,
                -0.782837152,
                0.1702255,
                0.500706434,
                0.9251518,
                0.9779296,
                0.457971781,
                0.03084886,
                0.74166894,
                0.2586865,
                0.323451,
                -0.09908426,
                -0.984337568,
                0.0891946554,
                0.7439277,
                0.876498,
                -0.1019727,
                0.270471543,
                0.6462834
              ]
            },
            {
              "weights": [
                -0.247387767,
                0.6498327,
                -0.261687875,
                -0.0523654222,
                0.6728358,
                0.540840864,
                0.09223187,
                0.08676779,
                0.30304715,
                0.0377496481,
                -0.687796354,
                -0.62494874,
                0.858227253,
                0.5150776,
                -0.805184841,
                0.15309608,
                0.7441735,
                -0.09918702,
                0.119378686,
                0.355777472,
                -0.791457653,
                -0.7939184,
                0.6241691,
                -0.5903964,
                -0.0208634138,
                0.289933652,
                -0.490835071,
                0.593956,
                -0.3492502,
                -0.340560079,
                -0.7753527,
                -0.618000746,
                -0.347095847,
                -0.353304982,
                -0.0547889471,
                0.8186765,
                1.0,
                -0.313793778,
                -1.0,
                -0.04186046,
                0.339494675,
                -0.6049297,
                0.7163358
              ]
            },
            {
              "weights": [
                0.0142024755,
                0.06858337,
                0.23157537,
                -0.0981410742,
                -0.791813135,
                0.0415900946,
                -0.8179138,
                -0.9043243,
                0.412364841,
                0.942111969,
                -0.6142795,
                -0.2791568,
                0.895707846,
                -0.276091933,
                0.222420335,
                -0.750965834,
                0.09311259,
                -0.35669148,
                0.595980644,
                0.9239707,
                0.8874719,
                0.572661161,
                0.320955,
                -0.180354,
                0.282127351,
                0.7537687,
                0.8532591,
                0.5448351,
                -0.9205549,
                -0.07417548,
                -0.9417274,
                -0.250400662,
                0.06790578,
                0.6329889,
                0.9233682,
                -0.962200165,
                -0.981543064,
                -0.85461235,
                -0.510425568,
                -0.008258939,
                -0.30432713,
                -0.9843781,
                0.9616513
              ]
            }
          ]
        },
        {
          "neurons": [
            {
              "weights": [
                0.008937627,
                0.9195018,
                0.988316059,
                -0.915196657,
                0.584775448,
                0.148415208,
                0.9198775,
                -0.370886415,
                -0.033546567,
                -0.5069423,
                0.444634646,
                -0.6832473,
                -0.32709372,
                -0.7118504,
                0.527717352,
                0.9274421,
                0.473762721,
                0.296748847,
                -0.990910769,
                -0.5293883
              ]
            },
            {
              "weights": [
                0.334690541,
                0.3660147,
                -0.768799245,
                -0.0698632,
                -0.241880536,
                -0.757770061,
                -0.178894162,
                -0.5797298,
                -0.9241612,
                0.981105566,
                -0.211319566,
                0.09502518,
                -0.4642824,
                -0.57374835,
                -0.841656446,
                0.5840788,
                -0.6510823,
                0.8140347,
                1.0,
                0.7753694
              ]
            },
            {
              "weights": [
                -0.645338058,
                -0.356532931,
                -0.213409543,
                0.569444656,
                0.298646659,
                0.115609527,
                -0.22254312,
                0.24881494,
                0.7025721,
                0.636829853,
                0.749878168,
                -0.601086855,
                -0.5131891,
                0.8690467,
                0.9785631,
                -0.476166368,
                -0.862066269,
                0.233065963,
                -0.4743439,
                -0.261571527
              ]
            },
            {
              "weights": [
                0.6152117,
                0.2698948,
                0.221499562,
                -0.912162542,
                0.8720956,
                0.9587903,
                0.1278516,
                -0.7842827,
                -0.0821057558,
                0.0462499857,
                -0.425843358,
                -0.647650242,
                0.7468269,
                -0.6283419,
                -0.102407575,
                0.6512675,
                0.03429085,
                0.695879,
                0.09989178,
                0.877347231
              ]
            },
            {
              "weights": [
                0.8418708,
                -0.8220496,
                0.5846007,
                0.8227582,
                0.211533666,
                -0.201087117,
                -0.5449649,
                0.597192049,
                -0.358786941,
                0.024099946,
                0.5048969,
                0.6560664,
                -0.67838,
                -1.0,
                -0.4965235,
                -0.9894221,
                0.5535474,
                -0.733721733,
                0.217568517,
                -0.151050448
              ]
            },
            {
              "weights": [
                0.6981025,
                0.6844411,
                0.225254387,
                -0.735314846,
                0.108127475,
                0.706052065,
                0.677451968,
                0.7126579,
                -0.9001053,
                -0.6784744,
                0.425875217,
                0.415402383,
                0.137556672,
                -0.525132656,
                -0.779410839,
                0.5232341,
                -0.389169574,
                -1.0,
                -0.153035045,
                -0.892287552
              ]
            },
            {
              "weights": [
                0.35163188,
                -0.987849832,
                -0.409386754,
                -0.154172778,
                0.8034494,
                -0.2360264,
                0.6208687,
                0.7797735,
                -0.908970952,
                -0.430072546,
                -0.918668032,
                0.1716398,
                -0.5503936,
                -0.1750955,
                -0.3288859,
                -0.724763155,
                -1.0,
                0.433623523,
                0.9267733,
                0.343518943
              ]
            },
            {
              "weights": [
                0.223384738,
                0.591549635,
                -0.555562735,
                0.125508249,
                0.613235,
                -0.347282529,
                -0.97701335,
                0.742591858,
                0.192886233,
                0.6874926,
                0.690294266,
                -0.232949138,
                -0.599277,
                -0.316075921,
                0.8016038,
                0.2132138,
                -0.33397615,
                0.158524632,
                -0.3088249,
                0.870957136
              ]
            },
            {
              "weights": [
                -0.79427886,
                0.3804433,
                0.720262766,
                0.6974826,
                -0.483983248,
                -0.08376086,
                1.0,
                0.7022295,
                -0.898326635,
                0.130845189,
                0.397130936,
                0.6630368,
                -0.9219506,
                0.182346225,
                -0.5952711,
                -0.6242738,
                0.66440773,
                0.9821515,
                -1.0,
                -0.908645153
              ]
            },
            {
              "weights": [
                -0.918247461,
                0.0212389231,
                -0.04596889,
                0.4610717,
                0.509556532,
                0.383180827,
                -1.0,
                0.880849361,
                0.121613383,
                0.788018,
                -0.6064298,
                0.5522251,
                0.4305267,
                -1.0,
                -0.22191155,
                0.9910457,
                -0.426988482,
                -0.484946132,
                -1.0,
                -0.9880469
              ]
            },
            {
              "weights": [
                0.381047457,
                -0.450543761,
                0.473525733,
                0.166217446,
                0.378480881,
                -0.375620127,
                -0.6758144,
                -0.535313368,
                -0.708565,
                -0.632413864,
                -0.9876319,
                -0.5029063,
                -0.427171826,
                0.81813693,
                -0.2473079,
                -0.798135757,
                -0.913538,
                -0.9452417,
                0.20536077,
                0.0514785051
              ]
            },
            {
              "weights": [
                0.833680153,
                -0.3662275,
                0.9418082,
                0.108684778,
                -0.771888,
                -0.210857272,
                -1.0,
                -0.5540712,
                0.92653656,
                0.6320741,
                -0.401893973,
                0.42740795,
                0.7482152,
                -0.886333942,
                0.8270495,
                -0.021841526,
                -0.03331673,
                0.415229529,
                0.179270864,
                0.06622207
              ]
            },
            {
              "weights": [
                0.262675256,
                -0.563481569,
                -0.844434261,
                -0.3885604,
                0.0796119,
                -0.02726376,
                -0.7771261,
                0.05235231,
                0.971730947,
                -0.160390735,
                0.115906596,
                -0.417579532,
                0.502061367,
                -0.334878325,
                0.467203349,
                0.4707038,
                -0.198001266,
                0.4320509,
                -0.367799163,
                0.6029041
              ]
            },
            {
              "weights": [
                -0.212467074,
                -0.321468472,
                0.4815986,
                -0.95521903,
                1.0,
                0.9356663,
                -0.563511848,
                -0.322873,
                1.0,
                -0.290020585,
                0.228499532,
                -0.8093891,
                -0.671438456,
                -0.85419,
                -0.6654203,
                0.828487158,
                -0.93672204,
                0.8234868,
                0.7112868,
                -0.7865312
              ]
            },
            {
              "weights": [
                -0.9506712,
                0.6695211,
                -0.8249084,
                0.3660445,
                -0.942454338,
                0.104367375,
                -0.3411349,
                -0.41641748,
                0.284134835,
                -0.162714124,
                -0.913802147,
                0.734298944,
                0.9207113,
                -0.24431622,
                -0.6749387,
                0.269082516,
                -0.786057949,
                -0.775614262,
                -0.8739922,
                -1.0
              ]
            },
            {
              "weights": [
                -0.0321811438,
                -0.01754272,
                -0.696689844,
                0.9210346,
                0.654094,
                -0.7633586,
                0.09989035,
                -0.817906141,
                -0.702554,
                0.157652259,
                -0.7995851,
                0.252681226,
                -0.184983611,
                0.0473624468,
                0.171921134,
                0.541499138,
                -0.4329301,
                0.5828762,
                0.203347564,
                -0.678306341
              ]
            },
            {
              "weights": [
                0.227645755,
                0.385296077,
                -0.6200862,
                0.8358178,
                0.047329545,
                0.104691863,
                0.3426039,
                0.9187801,
                0.362588853,
                0.687485933,
                -0.453217626,
                -0.679825068,
                0.907825947,
                0.832672834,
                -0.9506974,
                0.239569545,
                -0.478022218,
                -0.0849117041,
                -0.3487321,
                -0.144204259
              ]
            },
            {
              "weights": [
                -0.9310267,
                -0.7791238,
                0.323114842,
                0.167889237,
                0.4127774,
                0.5387254,
                -0.3098911,
                -0.6848602,
                0.450490683,
                0.138618827,
                -0.6972134,
                -0.123205781,
                -0.421404,
                0.8580177,
                0.9804938,
                -0.7782402,
                -0.08561361,
                0.300961941,
                -0.442157626,
                -0.7795863
              ]
            },
            {
              "weights": [
                -0.0171624422,
                0.08330548,
                0.9512221,
                0.6719084,
                -0.171539187,
                0.5504546,
                0.520302057,
                -0.796915054,
                -0.22804749,
                -0.4021002,
                0.142563462,
                -0.07232392,
                0.9290581,
                -0.6489713,
                0.575541,
                0.8214834,
                -0.0497766733,
                -0.80606097,
                -0.855270863,
                0.121877074
              ]
            },
            {
              "weights": [
                -0.888761759,
                0.455389947,
                0.227129579,
                -0.0730387,
                0.587144136,
                0.357861251,
                -0.8390949,
                -0.616837263,
                -0.8158612,
                -0.0218690634,
                -0.0335849822,
                0.09841144,
                0.331144065,
                1.0,
                -0.150616765,
                -0.322288156,
                -0.8669157,
                0.350642174,
                0.635145664,
                -0.9182079
              ]
            }
          ]
        },
        {
          "neurons": [
            {
              "weights": [
                0.855465651,
                0.511816263,
                0.08264753,
                -0.945589066,
                0.160111785,
                -0.5889659,
                0.09683883,
                -0.5438447,
                0.390968531,
                0.92475915,
                0.09759021,
                0.258657426,
                0.03845203,
                0.997001648,
                -0.188944459,
                -0.906916142,
                -0.8969192,
                -0.239883542,
                -0.319749,
                0.31846115
              ]
            },
            {
              "weights": [
                0.429103583,
                0.744938135,
                -0.631790161,
                0.8968351,
                0.3447759,
                -0.598076344,
                -0.5681968,
                -0.548155546,
                -0.340195179,
                -0.362424016,
                0.9876714,
                -0.8164828,
                -0.440843254,
                -0.05981314,
                -0.229215026,
                -0.5948787,
                -0.7717118,
                -0.0267254114,
                0.724144,
                0.2165209
              ]
            },
            {
              "weights": [
                0.603153,
                -0.135820091,
                0.511606932,
                0.322418422,
                0.459711522,
                -1.0,
                0.318256348,
                0.464328974,
                0.617467642,
                -0.294134,
                0.184394717,
                -0.7325463,
                -0.984653234,
                0.965857,
                0.793273,
                0.210966468,
                -0.8413379,
                0.247707963,
                0.781767845,
                0.7427149
              ]
            },
            {
              "weights": [
                -0.325339437,
                0.2142615,
                -0.99865365,
                0.792861,
                -0.07295883,
                -0.3758706,
                0.111770272,
                0.402381152,
                -0.5823326,
                -0.8743684,
                -0.6211953,
                0.0275760889,
                0.0182062387,
                0.8228872,
                -0.5178263,
                -0.841639042,
                -0.627456665,
                0.995453358,
                -0.48707068,
                0.191895127
              ]
            },
            {
              "weights": [
                0.854464531,
                -0.120460868,
                0.969219446,
                -0.5495219,
                -0.0603460073,
                -0.6408391,
                0.488257617,
                -0.6755128,
                0.704684,
                0.271717757,
                0.99350667,
                0.6385286,
                0.878593445,
                -0.302770972,
                -0.529083967,
                0.5135467,
                -0.949687,
                -0.377892852,
                -0.421856046,
                -0.4797126
              ]
            },
            {
              "weights": [
                -0.108746409,
                -0.6290879,
                -0.30521667,
                0.4281926,
                -0.5171559,
                -0.132696986,
                -0.6610979,
                0.185182929,
                0.8957336,
                0.12154758,
                -0.8206842,
                0.897290468,
                0.935195446,
                -0.694987059,
                -0.398515582,
                -0.0290979147,
                0.09532946,
                0.360560775,
                1.0,
                0.106711507
              ]
            },
            {
              "weights": [
                -0.2318238,
                -0.8279052,
                0.361412972,
                0.2727525,
                -0.09595525,
                -0.3268491,
                -0.492527127,
                0.254447669,
                0.5325868,
                -0.372175574,
                -0.7287233,
                0.186041474,
                -0.7966521,
                0.183958411,
                -0.44204843,
                -0.3122264,
                -0.9337604,
                0.7861955,
                -0.1447829,
                -0.805285
              ]
            },
            {
              "weights": [
                -0.279926181,
                -0.108423829,
                0.356517524,
                -0.7779,
                -0.13767612,
                -0.533831835,
                0.330141276,
                0.393434733,
                -0.317046046,
                0.5761092,
                -0.6408706,
                0.08886945,
                0.6827297,
                0.330737084,
                -0.760050058,
                -0.10208118,
                0.8439977,
                -0.8994336,
                0.5057063,
                -0.684718847
              ]
            },
            {
              "weights": [
                0.5402715,
                0.156209111,
                -0.744895458,
                0.171174765,
                -0.976462364,
                -0.298372149,
                -0.244262964,
                -0.110823274,
                -0.269252658,
                0.349997967,
                0.4728179,
                -0.8583226,
                -0.4726113,
                0.213954091,
                0.9346955,
                -0.856107,
                -0.07464564,
                -0.8418269,
                0.729415059,
                -0.325150371
              ]
            },
            {
              "weights": [
                -0.634075642,
                0.408005685,
                -0.43335855,
                1.0,
                0.6621773,
                -0.345824838,
                0.5468395,
                -0.298968434,
                0.5569794,
                0.8381541,
                -0.82779026,
                -0.225914836,
                0.297162265,
                1.0,
                -0.153806329,
                -0.0592960119,
                -0.555172443,
                0.337172,
                0.226752639,
                -0.9411409
              ]
            },
            {
              "weights": [
                0.3920233,
                0.183159232,
                0.219675422,
                -0.927569866,
                0.266093224,
                -0.662039042,
                -1.0,
                -1.0,
                0.988524437,
                -0.2348901,
                -0.101834923,
                0.951862335,
                -1.0,
                -0.76336503,
                -0.227436662,
                -0.05847156,
                -0.414207816,
                -0.112974286,
                0.9515009,
                0.65637064
              ]
            },
            {
              "weights": [
                0.442898,
                0.5659158,
                0.03283775,
                0.425746173,
                0.8436301,
                0.822422266,
                0.947828531,
                0.8026705,
                -0.5248842,
                0.0963693857,
                -0.7205992,
                -0.379343867,
                0.131932139,
                -0.749909163,
                -0.596749067,
                0.70653677,
                0.774953365,
                -0.111142993,
                0.472287148,
                -0.126574159
              ]
            },
            {
              "weights": [
                -1.0,
                0.28399235,
                -0.8708155,
                0.430577,
                -1.0,
                -0.14076817,
                -0.813860655,
                0.9735527,
                0.7949269,
                0.936424255,
                -0.800854146,
                0.0205878019,
                0.584443331,
                -0.485929847,
                -0.4451605,
                -0.8911915,
                0.107607961,
                -0.325621724,
                0.7873819,
                0.710674763
              ]
            },
            {
              "weights": [
                -0.9036932,
                0.11539495,
                -0.6253519,
                0.7844534,
                -0.9705088,
                0.0202034712,
                -0.7418456,
                -0.2944163,
                0.6318368,
                -0.07173765,
                0.016497016,
                0.650304556,
                -0.09695199,
                -0.437578559,
                0.8489244,
                -0.5090544,
                -0.2944497,
                0.07635629,
                -0.682967544,
                0.683890343
              ]
            },
            {
              "weights": [
                -0.8824363,
                -0.2873603,
                0.0423995256,
                -0.0324810743,
                -0.390512347,
                0.491202325,
                -0.612267256,
                -0.6786858,
                -0.349668384,
                0.039929986,
                -0.6061678,
                0.896487951,
                -0.517310858,
                -0.8522308,
                -0.835685,
                -0.2908908,
                0.0736933947,
                -0.35027802,
                1.0,
                0.4799914
              ]
            }
          ]
        },
        {
          "neurons": [
            {
              "weights": [
                -0.136042953,
                -0.912180662,
                -0.261630654,
                0.422614783,
                -0.8960469,
                0.537807465,
                0.6258271,
                -0.182314754,
                -0.1939503,
                -0.950604439,
                0.340898126,
                -0.7318604,
                0.62027216,
                0.338415116,
                -0.8448782
              ]
            },
            {
              "weights": [
                -0.557780266,
                0.5156641,
                -0.85615027,
                0.9864292,
                -0.21797955,
                0.9755416,
                0.8642216,
                -0.154029727,
                0.4576506,
                -0.6945946,
                0.4475567,
                -0.7721033,
                0.4644374,
                -0.355195642,
                0.8150816
              ]
            },
            {
              "weights": [
                -0.4075061,
                0.760751963,
                0.8085263,
                -0.7360945,
                0.324202031,
                -0.4819001,
                -0.247767091,
                0.827992439,
                -0.7627859,
                -0.748743534,
                1.0,
                0.8984055,
                -0.7715292,
                -0.030605197,
                -0.8969579
              ]
            },
            {
              "weights": [
                0.7779069,
                -0.52296567,
                0.749127865,
                -0.8069093,
                0.2804775,
                1.0,
                -0.9977505,
                0.9682939,
                -0.6971202,
                -0.205073118,
                0.769075155,
                -0.238086343,
                -0.607131958,
                0.0482198,
                0.1430346
              ]
            },
            {
              "weights": [
                -0.3704697,
                -0.612911463,
                0.912438869,
                0.2718961,
                -0.686292648,
                -0.8273821,
                0.650368452,
                -0.242904544,
                -0.746842861,
                -0.5127642,
                0.1437012,
                0.685279131,
                0.979251862,
                -0.7093625,
                -0.0109940767
              ]
            },
            {
              "weights": [
                0.38793394,
                -0.4214021,
                0.9785452,
                -0.970695734,
                -0.176413655,
                0.301598281,
                -0.822751045,
                0.656786442,
                0.1785425,
                -0.343274,
                0.6657166,
                0.0885673761,
                -0.9687269,
                -0.470474839,
                0.196778417
              ]
            },
            {
              "weights": [
                0.4149494,
                -0.8746295,
                0.237923265,
                0.5475123,
                0.3448932,
                -0.207049489,
                -0.217549682,
                -0.4447644,
                0.78441,
                -0.720828,
                -0.6154933,
                0.6372373,
                -0.122773528,
                0.456135958,
                -1.0
              ]
            },
            {
              "weights": [
                0.752061844,
                -0.8705063,
                0.7268648,
                -0.4233929,
                -0.429074168,
                -0.0153907537,
                -0.261182427,
                -0.965830564,
                -0.07501876,
                0.3317227,
                -0.362265229,
                -0.5676906,
                1.0,
                -0.8400202,
                0.105651826
              ]
            },
            {
              "weights": [
                -0.0122407675,
                -0.93575263,
                -0.755686045,
                0.5304475,
                0.333605647,
                0.9476347,
                -0.05212438,
                -0.5330169,
                -0.6398037,
                -0.0183180571,
                -0.1857459,
                -0.680390358,
                0.4636328,
                -0.3386289,
                1.0
              ]
            },
            {
              "weights": [
                -0.9023216,
                0.314574718,
                0.4664365,
                -1.0,
                -0.8113167,
                -0.214271426,
                -0.47475493,
                -0.339112163,
                -0.143320441,
                -0.2974323,
                0.426232547,
                -0.5220187,
                0.6448133,
                -0.525651,
                -0.683411837
              ]
            }
          ]
        },
        {
          "neurons": [
            {
              "weights": [
                0.110942483,
                -0.508965731,
                -0.5618801,
                -0.0275223255,
                0.9365125,
                0.228975177,
                -0.590676546,
                1.0,
                -0.6419177,
                0.689417362
              ]
            },
            {
              "weights": [
                1.0,
                -0.0745359659,
                -0.413201451,
                0.4023492,
                0.381568164,
                -1.0,
                0.207108855,
                -1.0,
                -0.1472413,
                -0.666696668
              ]
            },
            {
              "weights": [
                -0.0615869761,
                -0.278051972,
                -0.08010304,
                -0.527728558,
                -0.6518657,
                0.7557359,
                -0.946647644,
                0.8838303,
                0.8868482,
                -0.6742606
              ]
            },
            {
              "weights": [
                -0.602640867,
                0.194709182,
                -0.395740628,
                0.466631621,
                -0.307070136,
                1.0,
                0.0584691763,
                0.7487116,
                -0.6487143,
                0.131790519
              ]
            },
            {
              "weights": [
                0.457992524,
                0.228245378,
                0.844633341,
                -0.753011942,
                0.824533939,
                -0.8616121,
                0.290697545,
                0.78169775,
                0.856291056,
                0.7993183
              ]
            },
            {
              "weights": [
                -0.7546097,
                0.526806355,
                -0.880378962,
                -0.579931736,
                -0.723060966,
                -0.8337457,
                -0.2222482,
                -0.2767506,
                0.7605598,
                0.723936558
              ]
            },
            {
              "weights": [
                -0.1098398,
                -0.0617393255,
                0.470781773,
                -0.887957335,
                -1.0,
                0.7133268,
                0.0136768222,
                -1.0,
                -0.00190329552,
                1.0
              ]
            },
            {
              "weights": [
                -0.09597504,
                0.721917868,
                -0.459061742,
                0.311932534,
                0.6488054,
                0.6802876,
                0.2333628,
                -0.5948042,
                0.9544275,
                0.402230948
              ]
            }
          ]
        },
        {
          "neurons": [
            {
              "weights": [
                -0.246315122,
                0.2762577,
                0.671058655,
                -0.8317764,
                -1.0,
                -0.479094625,
                0.127194762,
                -0.0366529226
              ]
            },
            {
              "weights": [
                -0.15275538,
                0.607459545,
                0.329843342,
                0.0839136839,
                0.376421183,
                -0.610042334,
                0.234694362,
                -0.230154872
              ]
            },
            {
              "weights": [
                -0.86267525,
                -0.6689708,
                -0.123683669,
                -0.883725643,
                0.0409871936,
                0.8700036,
                1.0,
                0.8376241
              ]
            },
            {
              "weights": [
                0.9889436,
                0.554359436,
                -0.788345337,
                0.307595462,
                0.884121656,
                0.06516194,
                0.146992326,
                -0.0181563944
              ]
            },
            {
              "weights": [
                0.7425046,
                -1.0,
                0.401071757,
                -0.9457834,
                0.900601149,
                -0.07096511,
                -0.6205704,
                -0.653138638
              ]
            },
            {
              "weights": [
                0.6618853,
                0.5219613,
                0.0425122976,
                -1.0,
                0.452547044,
                -0.530577362,
                -0.0551179647,
                -0.132384449
              ]
            },
            {
              "weights": [
                0.5903938,
                0.457437247,
                0.755165339,
                0.5908419,
                -0.68075633,
                0.484235972,
                -0.6334839,
                -1.0
              ]
            }
          ]
        },
        {
          "neurons": [
            {
              "weights": [
                -0.278994977,
                1.0,
                -0.5884203,
                -1.0,
                0.014837265,
                0.141123652,
                -1.0
              ]
            },
            {
              "weights": [
                -0.2262243,
                1.0,
                -0.610839367,
                -0.191554666,
                -1.0,
                0.29886362,
                -0.238426566
              ]
            },
            {
              "weights": [
                -0.155724168,
                0.440310121,
                0.0269656181,
                -1.0,
                -0.147192121,
                -0.11034736,
                1.0
              ]
            },
            {
              "weights": [
                -1.0,
                -0.70964,
                0.854903936,
                0.12389648,
                -0.523731351,
                -0.1174258,
                -1.0
              ]
            },
            {
              "weights": [
                1.0,
                -0.04436195,
                0.1930219,
                -0.176557422,
                -0.5939132,
                0.105432391,
                0.714377165
              ]
            },
            {
              "weights": [
                0.1387738,
                -0.557976246,
                0.0464960337,
                0.5339184,
                -0.854305744,
                -0.278027415,
                0.485213727
              ]
            }
          ]
        }
      ],
      "settings": {
        "layers": [
          43,
          20,
          20,
          15,
          10,
          8,
          7,
          6
        ],
        "error_min": 0.1,
        "error_max": 1.0
      }
    },
    "generation": 660
  },
  {
    "brain_network": {
      "layers": [
        {
          "neurons": [
            {
              "weights": null
            },
            {
              "weights": null
            },
            {
              "weights": null
            },
            {
              "weights": null
            },
            {
              "weights": null
            },
            {
              "weights": null
            },
            {
              "weights": null
            },
            {
              "weights": null
            },
            {
              "weights": null
            },
            {
              "weights": null
            },
            {
              "weights": null
            },
            {
              "weights": null
            },
            {
              "weights": null
            },
            {
              "weights": null
            },
            {
              "weights": null
            },
            {
              "weights": null
            },
            {
              "weights": null
            },
            {
              "weights": null
            },
            {
              "weights": null
            },
            {
              "weights": null
            },
            {
              "weights": null
            },
            {
              "weights": null
            },
            {
              "weights": null
            },
            {
              "weights": null
            },
            {
              "weights": null
            },
            {
              "weights": null
            },
            {
              "weights": null
            },
            {
              "weights": null
            },
            {
              "weights": null
            },
            {
              "weights": null
            },
            {
              "weights": null
            },
            {
              "weights": null
            },
            {
              "weights": null
            },
            {
              "weights": null
            },
            {
              "weights": null
            },
            {
              "weights": null
            },
            {
              "weights": null
            },
            {
              "weights": null
            },
            {
              "weights": null
            },
            {
              "weights": null
            },
            {
              "weights": null
            },
            {
              "weights": null
            },
            {
              "weights": null
            }
          ]
        },
        {
          "neurons": [
            {
              "weights": [
                0.5359261,
                -0.541651249,
                0.5533042,
                0.07033074,
                0.175167918,
                -0.7629776,
                0.532197237,
                -0.0516577959,
                -0.1736151,
                0.7781558,
                0.9358368,
                -0.1890608,
                0.1762644,
                0.44373247,
                0.18225944,
                -0.06716955,
                -0.29241097,
                -0.6529362,
                -0.312385678,
                0.452755183,
                -0.0421375036,
                -0.741814852,
                0.1688062,
                0.85502243,
                -0.995180845,
                -0.136624575,
                -0.28893435,
                -0.117514491,
                0.897748947,
                -0.540382862,
                0.290674657,
                0.06571829,
                0.463046759,
                -0.429706275,
                -0.528871059,
                -0.3097571,
                -0.0135120153,
                0.0660709143,
                -0.399573684,
                0.5788379,
                -0.9305167,
                -0.205501914,
                -0.9929199
              ]
            },
            {
              "weights": [
                0.315260381,
                0.71918416,
                -0.33017695,
                0.477972,
                0.8950405,
                0.1473018,
                0.725272655,
                -1.0,
                -0.626385,
                0.9778528,
                0.181962132,
                -0.534959555,
                0.534466,
                -0.6282964,
                -0.129372954,
                -0.153672814,
                0.5286164,
                0.6980109,
                -0.7703483,
                1.0,
                -0.125038981,
                -0.946034431,
                -0.380764842,
                -0.7917955,
                -0.2872094,
                0.9879739,
                -0.05784905,
                0.92688036,
                -0.556103945,
                0.645894051,
                -0.588318348,
                -0.172172189,
                -0.3342296,
                0.0251971483,
                -0.5792701,
                0.0297611952,
                -0.159939647,
                0.934258938,
                -0.0593630075,
                -0.5717199,
                0.139689088,
                -0.8796685,
                0.133707643
              ]
            },
            {
              "weights": [
                -0.5518215,
                -0.00300705433,
                0.3035936,
                -0.8669982,
                -0.298072934,
                0.44895193,
                0.374163121,
                0.346198529,
                0.5933485,
                -0.4711963,
                0.299082726,
                0.709486961,
                -0.859853,
                -0.10156405,
                0.06951487,
                -0.0392545462,
                0.102375388,
                -0.720562,
                -0.1767708,
                -0.925167561,
                0.213371158,
                -0.9842117,
                -0.07488525,
                0.865185,
                0.7816546,
                0.921272039,
                0.320157975,
                -0.5523174,
                0.8821964,
                0.166936755,
                0.07497299,
                0.491657227,
                -0.04858172,
                0.318262547,
                0.6635809,
                0.930016041,
                -0.0754135847,
                0.486275643,
                0.493153781,
                0.4734623,
                -0.7678127,
                -0.273759723,
                -0.3838657
              ]
            },
            {
              "weights": [
                -0.824854851,
                0.8010652,
                0.5150635,
                0.104101062,
                0.696680546,
                0.5571828,
                0.647449732,
                0.9058068,
                0.5062647,
                -0.4537636,
                0.3909926,
                -0.629605055,
                -0.6867416,
                -0.0290905237,
                0.725737333,
                0.5485921,
                0.244564176,
                0.658910036,
                -0.306188941,
                0.00714528561,
                -0.559427261,
                -0.460799336,
                -0.1748997,
                0.3012497,
                -0.68512845,
                -0.7406676,
                0.2516875,
                -0.8319886,
                0.7202456,
                0.225012541,
                -0.127215981,
                -0.781194,
                0.791505337,
                -0.9557357,
                0.8122978,
                -0.6055896,
                0.930901766,
                -0.910605669,
                0.314781159,
                0.246910453,
                -0.561319351,
                0.249809146,
                0.6446924
              ]
            },
            {
              "weights": [
                -0.114872575,
                0.545423269,
                -0.5650544,
                0.420477837,
                -0.8321974,
                0.5127411,
                -0.585707664,
                0.68978,
                -0.284564376,
                0.805246353,
                0.22876966,
                0.501638651,
                0.09689152,
                0.807644367,
                0.0582765341,
                -0.128642917,
                0.491217345,
                -0.106189847,
                0.593597651,
                0.3854408,
                0.488661259,
                -0.07740247,
                0.5298872,
                0.753299,
                0.637264967,
                -0.420530915,
                -0.420006633,
                0.352097958,
                0.9282844,
                -0.331782937,
                -0.689101934,
                0.06677663,
                0.453561276,
                -0.174837947,
                0.180494666,
                -0.8868542,
                -0.07153571,
                -0.9786458,
                0.7218108,
                -0.637227535,
                0.3908486,
                -0.120626807,
                0.9876199
              ]
            },
            {
              "weights": [
                -0.16550529,
                0.170600772,
                0.7511027,
                -0.5914619,
                0.5596347,
                -0.119481444,
                1.0,
                -0.933570862,
                0.532967567,
                -0.720575333,
                -0.9501271,
                -0.718953848,
                -0.111100316,
                -0.6817663,
                -0.709965944,
                0.629303932,
                -0.472615838,
                0.983135,
                -0.8007674,
                -0.6278875,
                0.318734616,
                -0.489107728,
                0.8176522,
                0.203676581,
                0.892615557,
                0.2514138,
                0.403336018,
                0.5471091,
                0.269451827,
                -0.6249368,
                0.8056233,
                0.371273965,
                0.824711561,
                -0.8348782,
                -0.9807801,
                -0.113416553,
                0.668164,
                -0.748757839,
                0.559174538,
                -0.415573716,
                -0.190380216,
                0.128749967,
                -0.659108162
              ]
            },
            {
              "weights": [
                0.48137185,
                0.7005007,
                0.482271165,
                0.224877954,
                0.5908065,
                -0.1594516,
                -0.7180233,
                0.558071136,
                -0.0812133551,
                -0.918392658,
                -0.161435485,
                -0.974137545,
                -0.1632253,
                -0.187266946,
                0.6888776,
                -0.3476373,
                0.197753787,
                -0.569627047,
                0.176700711,
                -0.009778619,
                -0.907491446,
                0.171579,
                1.0,
                0.121174216,
                0.987664461,
                0.898354053,
                -0.265159249,
                0.524451256,
                -0.6666181,
                -0.582324266,
                -0.348561883,
                -0.5928097,
                0.6716471,
                -0.9756143,
                -0.2450794,
                -0.81284523,
                -0.8422067,
                -0.786281347,
                0.447779149,
                0.622465134,
                0.0589762926,
                -0.9746516,
                0.265202016
              ]
            },
            {
              "weights": [
                0.8009696,
                -0.4613825,
                0.137597919,
                -0.628919363,
                0.276310652,
                -0.04761231,
                0.111948609,
                0.2837095,
                -0.5899823,
                -0.0511437654,
                -0.229911923,
                0.7298026,
                0.862457752,
                0.06276071,
                -0.651427269,
                0.179842353,
                -0.7295656,
                -0.8746071,
                -0.498398423,
                0.188144088,
                0.871147633,
                -0.41473043,
                -0.06323564,
                -0.5067222,
                0.2757952,
                -0.5211091,
                0.5537958,
                -0.186386943,
                0.403506249,
                0.09232509,
                0.3738249,
                0.8309934,
                -0.329118848,
                0.6049659,
                -0.8576112,
                -0.0495413542,
                -0.0503691435,
                -0.543875456,
                0.49050042,
                0.816185951,
                -0.547551155,
                -0.547785759,
                0.182290912
              ]
            },
            {
              "weights": [
                -0.607971668,
                0.0506674051,
                -0.461854815,
                0.397090644,
                0.0337206125,
                0.8317437,
                -0.340726733,
                0.9247241,
                0.28607747,
                0.6346476,
                0.40371415,
                -0.765387535,
                -0.5258517,
                0.43484807,
                0.7727847,
                0.669201851,
                -0.7850144,
                0.169689775,
                0.243575215,
                -0.8042724,
                -0.597301,
                0.0423527956,
                -0.05954039,
                -0.7120595,
                -0.733132362,
                0.55478406,
                0.481163561,
                0.0630360842,
                0.2781715,
                -0.695001841,
                -0.470847964,
                0.321080178,
                -0.6561346,
                0.8322986,
                -0.2090615,
                0.198912263,
                0.7584958,
                0.184915185,
                0.475981444,
                -0.365744,
                -0.36422956,
                -0.996340036,
                0.444407672
              ]
            },
            {
              "weights": [
                -0.4636227,
                0.17121613,
                0.44894,
                -0.6960223,
                -0.7234938,
                0.813256264,
                -0.7768328,
                -0.399251342,
                -0.336951137,
                -0.5941236,
                0.469996184,
                -0.0230716467,
                0.29795596,
                -0.980752945,
                0.189392447,
                -0.08783233,
                0.305689067,
                -0.341692328,
                0.579563856,
                0.8662715,
                0.7656243,
                0.7478378,
                -0.811470747,
                0.920757055,
                -0.6186168,
                -0.0132294893,
                -0.0336354971,
                -0.6895654,
                -0.7523401,
                0.49338147,
                0.6948819,
                -0.320283353,
                0.7001598,
                0.4279301,
                0.291174382,
                -0.837082863,
                -0.5870631,
                -0.64130497,
                0.7945163,
                0.00212156773,
                0.5047779,
                -0.3047322,
                0.684834957
              ]
            },
            {
              "weights": [
                -0.93426156,
                0.9103837,
                1.0,
                -0.38368237,
                0.978008032,
                0.8038609,
                -0.42847383,
                0.237340808,
                0.8601458,
                0.650943756,
                -0.178118587,
                -0.9170699,
                0.363968343,
                -0.0434068441,
                -0.9939883,
                0.0009108782,
                -0.292709,
                -0.2793213,
                0.6719892,
                -0.104174018,
                0.391108483,
                -0.905362844,
                -0.740772,
                -0.930601358,
                -0.823500633,
                0.5928569,
                -0.6350918,
                0.407023042,
                0.480367631,
                -0.237503171,
                -0.03805244,
                -0.973312855,
                -0.04585445,
                -0.8361237,
                0.8156762,
                0.7392607,
                -0.7319696,
                0.550395,
                -0.545538664,
                -0.235133529,
                0.7070136,
                -0.0717951059,
                -0.337845445
              ]
            },
            {
              "weights": [
                -0.8649907,
                -0.7552657,
                0.327108115,
                -0.5054459,
                0.1054042,
                0.862243652,
                -0.511661768,
                -0.851270437,
                -0.245941043,
                -0.2338885,
                -0.2868427,
                0.153604865,
                -0.169378877,
                0.6308813,
                0.338908166,
                0.5593996,
                0.8238025,
                0.04501903,
                -0.706540346,
                0.7660315,
                0.9359584,
                0.6950369,
                0.6050327,
                -0.787102,
                -0.796910763,
                -0.7267103,
                -0.6607468,
                0.1858486,
                0.2952689,
                -0.88875556,
                0.7901945,
                0.712715149,
                -0.40950048,
                -0.9119544,
                0.806814,
                0.717478037,
                -0.6295152,
                0.466036767,
                0.8150263,
                0.292952031,
                -0.0143345594,
                -0.0567959547,
                -0.3617462
              ]
            },
            {
              "weights": [
                -0.8350463,
                -0.146278977,
                -0.695174,
                -1.0,
                -0.6920173,
                -0.6510701,
                0.5935185,
                0.397123039,
                -0.326973081,
                0.7663021,
                0.7629144,
                -0.8138535,
                0.049675107,
                -0.4104625,
                -0.7938621,
                0.235910773,
                0.367483824,
                0.223166376,
                -0.463672519,
                0.9550123,
                -0.4114424,
                -0.15150106,
                -0.8408022,
                -0.423250318,
                -0.09691316,
                -0.5045328,
                -0.328211665,
                -0.3386153,
                -0.9999025,
                -0.65027833,
                0.9288428,
                -0.355955958,
                0.389844626,
                -0.3337468,
                0.7807267,
                0.53301096,
                -0.342085,
                0.72228694,
                -0.0244780779,
                0.08052409,
                -0.9461391,
                -0.505373955,
                0.8101778
              ]
            },
            {
              "weights": [
                0.36635682,
                -0.6152265,
                -0.8124547,
                0.7967937,
                -0.838174343,
                -0.7740085,
                -0.08495009,
                -0.168862939,
                -0.673585653,
                0.531332,
                -1.0,
                -0.702221155,
                0.08876622,
                -0.8366525,
                0.773598433,
                0.228317857,
                -0.561978161,
                -0.862808,
                0.229268909,
                0.5948429,
                -0.3303553,
                0.8618188,
                -0.475138783,
                0.8652265,
                0.05093038,
                -0.162962079,
                -0.499421477,
                -0.278203845,
                -0.5602224,
                -0.309038043,
                0.7594552,
                -0.744359732,
                -0.6595688,
                0.4101958,
                -0.849055767,
                0.15310514,
                -0.0414165258,
                -0.679732561,
                0.133323073,
                0.237960458,
                -0.548048258,
                0.6401653,
                -0.967983246
              ]
            },
            {
              "weights": [
                0.6375818,
                0.4050853,
                -0.944190741,
                -0.4470266,
                0.410113543,
                0.09681857,
                0.353737563,
                -0.324743629,
                0.5055752,
                -0.545694351,
                0.9287219,
                0.6861279,
                0.5272777,
                -0.6580405,
                -0.9673934,
                0.193565488,
                0.2674167,
                -0.81688714,
                -1.0,
                0.843317032,
                -1.0,
                -0.8342614,
                -0.502728462,
                -0.113609433,
                -0.416065335,
                -0.6693647,
                0.7753706,
                0.2918243,
                -0.8943114,
                -0.246449113,
                -0.711387634,
                0.266292542,
                -0.6171658,
                0.8619654,
                -0.7091596,
                0.08444059,
                -0.985207558,
                -0.87192297,
                0.2708952,
                0.547444344,
                0.4068615,
                -0.672802,
                0.173609614
              ]
            },
            {
              "weights": [
                -0.9964392,
                -0.9291463,
                -0.07854998,
                1.0,
                0.9340887,
                0.100777984,
                -0.6836581,
                -0.945991039,
                -0.330379844,
                0.8336036,
                -0.429556,
                0.9425247,
                -0.288784146,
                0.155091882,
                -0.501807,
                -0.370944619,
                0.338905543,
                0.949544668,
                -1.0,
                -0.2504176,
                0.43149063,
                0.6678786,
                -0.5349052,
                0.5160544,
                0.178868413,
                -0.391179681,
                0.279654473,
                -0.0253425837,
                -0.153517336,
                0.74010396,
                -0.913009644,
                0.5330484,
                0.5632236,
                -0.301547885,
                -0.3564254,
                0.141127229,
                -0.156695008,
                0.139993548,
                -0.7584071,
                -0.9426751,
                0.35197565,
                -0.18511498,
                0.4749429
              ]
            },
            {
              "weights": [
                -0.224126935,
                0.6399281,
                0.2395674,
                -0.680485,
                0.99029994,
                -0.407716155,
                0.036735177,
                -0.1427716,
                -0.822744846,
                -0.5948074,
                -0.487209678,
                -0.641489744,
                -0.5573926,
                -0.293845773,
                -0.489315867,
                0.23298347,
                -0.308425784,
                -0.09580362,
                -0.5970361,
                0.533256531,
                0.286828727,
                -0.8429949,
                -0.35406816,
                -0.9155524,
                0.212035537,
                0.4934939,
                0.161586165,
                -0.06815827,
                -0.140400052,
                -0.734506845,
                -0.0193908811,
                -0.8764012,
                0.009878278,
                0.8446593,
                0.16125834,
                -0.20843637,
                -0.554328442,
                -0.997282743,
                0.6685598,
                0.497018546,
                -0.04038298,
                0.7502434,
                -0.600471
              ]
            },
            {
              "weights": [
                -0.603641748,
                -0.677664757,
                0.424831122,
                0.74599123,
                -0.564418554,
                -0.8456192,
                -0.415906549,
                0.160665631,
                -0.489025235,
                0.136874557,
                -0.9322629,
                0.966227055,
                -0.7383945,
                -0.150392652,
                0.5522914,
                0.642200947,
                0.795011759,
                -0.7988813,
                0.162085176,
                -0.5320196,
                -0.22365725,
                0.360564917,
                -0.729172945,
                -0.328662276,
                0.410648078,
                -0.782837152,
                0.1702255,
                0.500706434,
                0.9251518,
                0.9779296,
                0.457971781,
                0.03084886,
                0.74166894,
                0.2586865,
                0.323451,
                -0.09908426,
                -0.984337568,
                0.0891946554,
                0.7439277,
                0.876498,
                -0.1019727,
                0.270471543,
                0.6462834
              ]
            },
            {
              "weights": [
                -0.247387767,
                0.6498327,
                -0.261687875,
                -0.0523654222,
                0.6728358,
                0.540840864,
                0.09223187,
                0.08676779,
                0.30304715,
                0.0377496481,
                -0.687796354,
                -0.62494874,
                0.858227253,
                0.5150776,
                -0.805184841,
                0.15309608,
                0.7441735,
                -0.09918702,
                0.119378686,
                0.355777472,
                -0.791457653,
                -0.7939184,
                0.6241691,
                -0.5903964,
                -0.0208634138,
                0.289933652,
                -0.490835071,
                0.593956,
                -0.3492502,
                -0.340560079,
                -0.7753527,
                -0.618000746,
                -0.347095847,
                -0.353304982,
                -0.0547889471,
                0.8186765,
                1.0,
                -0.313793778,
                -1.0,
                -0.04186046,
                0.339494675,
                -0.6049297,
                0.7163358
              ]
            },
            {
              "weights": [
                0.0142024755,
                0.06858337,
                0.23157537,
                -0.0981410742,
                -0.791813135,
                0.0415900946,
                -0.8179138,
                -0.9043243,
                0.412364841,
                0.942111969,
                -0.6142795,
                -0.2791568,
                0.895707846,
                -0.276091933,
                0.222420335,
                -0.750965834,
                0.09311259,
                -0.35669148,
                0.595980644,
                0.9239707,
                0.8874719,
                0.572661161,
                0.320955,
                -0.180354,
                0.282127351,
                0.7537687,
                0.8532591,
                0.5448351,
                -0.9205549,
                -0.07417548,
                -0.9417274,
                -0.250400662,
                0.06790578,
                0.6329889,
                0.9233682,
                -0.962200165,
                -0.981543064,
                -0.85461235,
                -0.510425568,
                -0.008258939,
                -0.30432713,
                -0.9843781,
                0.9616513
              ]
            }
          ]
        },
        {
          "neurons": [
            {
              "weights": [
                0.008937627,
                0.9195018,
                0.988316059,
                -0.915196657,
                0.584775448,
                0.148415208,
                0.9198775,
                -0.370886415,
                -0.033546567,
                -0.5069423,
                0.444634646,
                -0.6832473,
                -0.32709372,
                -0.7118504,
                0.527717352,
                0.9274421,
                0.473762721,
                0.296748847,
                -0.990910769,
                -0.5293883
              ]
            },
            {
              "weights": [
                0.334690541,
                0.3660147,
                -0.768799245,
                -0.0698632,
                -0.241880536,
                -0.757770061,
                -0.178894162,
                -0.5797298,
                -0.9241612,
                0.981105566,
                -0.211319566,
                0.09502518,
                -0.4642824,
                -0.57374835,
                -0.841656446,
                0.5840788,
                -0.6510823,
                0.8140347,
                1.0,
                0.7753694
              ]
            },
            {
              "weights": [
                -0.645338058,
                -0.356532931,
                -0.213409543,
                0.569444656,
                0.298646659,
                0.115609527,
                -0.22254312,
                0.24881494,
                0.7025721,
                0.636829853,
                0.749878168,
                -0.601086855,
                -0.5131891,
                0.8690467,
                0.9785631,
                -0.476166368,
                -0.862066269,
                0.233065963,
                -0.4743439,
                -0.261571527
              ]
            },
            {
              "weights": [
                0.6152117,
                0.2698948,
                0.221499562,
                -0.912162542,
                0.8720956,
                0.9587903,
                0.1278516,
                -0.7842827,
                -0.0821057558,
                0.0462499857,
                -0.425843358,
                -0.647650242,
                0.7468269,
                -0.6283419,
                -0.102407575,
                0.6512675,
                0.03429085,
                0.695879,
                0.09989178,
                0.877347231
              ]
            },
            {
              "weights": [
                0.8418708,
                -0.8220496,
                0.5846007,
                0.8227582,
                0.211533666,
                -0.201087117,
                -0.5449649,
                0.597192049,
                -0.358786941,
                0.024099946,
                0.5048969,
                0.6560664,
                -0.67838,
                -1.0,
                -0.4965235,
                -0.9894221,
                0.5535474,
                -0.733721733,
                0.217568517,
                -0.151050448
              ]
            },
            {
              "weights": [
                0.6981025,
                0.6844411,
                0.225254387,
                -0.735314846,
                0.108127475,
                0.706052065,
                0.677451968,
                0.7126579,
                -0.9001053,
                -0.6784744,
                0.425875217,
                0.415402383,
                0.137556672,
                -0.525132656,
                -0.779410839,
                0.5232341,
                -0.389169574,
                -1.0,
                -0.153035045,
                -0.892287552
              ]
            },
            {
              "weights": [
                0.35163188,
                -0.987849832,
                -0.409386754,
                -0.154172778,
                0.8034494,
                -0.2360264,
                0.6208687,
                0.7797735,
                -0.908970952,
                -0.430072546,
                -0.918668032,
                0.1716398,
                -0.5503936,
                -0.1750955,
                -0.3288859,
                -0.724763155,
                -1.0,
                0.433623523,
                0.9267733,
                0.343518943
              ]
            },
            {
              "weights": [
                0.223384738,
                0.591549635,
                -0.555562735,
                0.125508249,
                0.613235,
                -0.347282529,
                -0.97701335,
                0.742591858,
                0.192886233,
                0.6874926,
                0.690294266,
                -0.232949138,
                -0.599277,
                -0.316075921,
                0.8016038,
                0.2132138,
                -0.33397615,
                0.158524632,
                -0.3088249,
                0.870957136
              ]
            },
            {
              "weights": [
                -0.79427886,
                0.3804433,
                0.720262766,
                0.6974826,
                -0.483983248,
                -0.08376086,
                1.0,
                0.7022295,
                -0.898326635,
                0.130845189,
                0.397130936,
                0.6630368,
                -0.9219506,
                0.182346225,
                -0.5952711,
                -0.6242738,
                0.66440773,
                0.9821515,
                -1.0,
                -0.908645153
              ]
            },
            {
              "weights": [
                -0.918247461,
                0.0212389231,
                -0.04596889,
                0.4610717,
                0.509556532,
                0.383180827,
                -1.0,
                0.880849361,
                0.121613383,
                0.788018,
                -0.6064298,
                0.5522251,
                0.4305267,
                -1.0,
                -0.22191155,
                0.9910457,
                -0.426988482,
                -0.484946132,
                -1.0,
                -0.9880469
              ]
            },
            {
              "weights": [
                0.381047457,
                -0.450543761,
                0.473525733,
                0.166217446,
                0.378480881,
                -0.375620127,
                -0.6758144,
                -0.535313368,
                -0.708565,
                -0.632413864,
                -0.9876319,
                -0.5029063,
                -0.427171826,
                0.81813693,
                -0.2473079,
                -0.798135757,
                -0.913538,
                -0.9452417,
                0.20536077,
                0.0514785051
              ]
            },
            {
              "weights": [
                0.833680153,
                -0.3662275,
                0.9418082,
                0.108684778,
                -0.771888,
                -0.210857272,
                -1.0,
                -0.5540712,
                0.92653656,
                0.6320741,
                -0.401893973,
                0.42740795,
                0.7482152,
                -0.886333942,
                0.8270495,
                -0.021841526,
                -0.03331673,
                0.415229529,
                0.179270864,
                0.06622207
              ]
            },
            {
              "weights": [
                0.262675256,
                -0.563481569,
                -0.844434261,
                -0.3885604,
                0.0796119,
                -0.02726376,
                -0.7771261,
                0.05235231,
                0.971730947,
                -0.160390735,
                0.115906596,
                -0.417579532,
                0.502061367,
                -0.334878325,
                0.467203349,
                0.4707038,
                -0.198001266,
                0.4320509,
                -0.367799163,
                0.6029041
              ]
            },
            {
              "weights": [
                -0.212467074,
