{
  "experiment_name": "slow",
  "evolutions": [
    [
      {
        "brain_network": {
          "layers": [
            {
              "neurons": [
                {
                  "weights": null
                },
                {
                  "weights": null
                },
                {
                  "weights": null
                },
                {
                  "weights": null
                },
                {
                  "weights": null
                },
                {
                  "weights": null
                },
                {
                  "weights": null
                },
                {
                  "weights": null
                },
                {
                  "weights": null
                },
                {
                  "weights": null
                },
                {
                  "weights": null
                },
                {
                  "weights": null
                },
                {
                  "weights": null
                },
                {
                  "weights": null
                },
                {
                  "weights": null
                },
                {
                  "weights": null
                },
                {
                  "weights": null
                },
                {
                  "weights": null
                },
                {
                  "weights": null
                },
                {
                  "weights": null
                },
                {
                  "weights": null
                },
                {
                  "weights": null
                },
                {
                  "weights": null
                },
                {
                  "weights": null
                },
                {
                  "weights": null
                },
                {
                  "weights": null
                },
                {
                  "weights": null
                },
                {
                  "weights": null
                },
                {
                  "weights": null
                }
              ]
            },
            {
              "neurons": [
                {
                  "weights": [
                    -0.150109708,
                    0.373630732,
                    0.72081,
                    -0.263465941,
                    -0.214101434,
                    0.021851778,
                    -0.909155,
                    -1.0,
                    -0.917238235,
                    -0.9022807,
                    -0.698143,
                    0.513893366,
                    -0.5133661,
                    -1.0,
                    -1.0,
                    0.8055953,
                    -0.5449533,
                    0.8883182,
                    1.0,
                    -0.002634883,
                    -0.37673673,
                    -0.522576451,
                    -0.537045836,
                    -0.2608187,
                    -0.5165773,
                    -1.0,
                    -0.9295726,
                    -1.0,
                    1.0
                  ]
                },
                {
                  "weights": [
                    -0.9404783,
                    0.0195962191,
                    -0.152848691,
                    0.8778603,
                    0.877279758,
                    -0.134394944,
                    -1.0,
                    0.0328954458,
                    0.293370456,
                    0.162090182,
                    0.112636656,
                    -1.0,
                    0.004504472,
                    -1.0,
                    0.128337741,
                    -0.7729218,
                    -0.5306831,
                    0.0177239776,
                    0.9125786,
                    0.551667452,
                    0.5627591,
                    0.793712437,
                    -0.141804874,
                    -1.0,
                    -0.1864151,
                    -0.000282645226,
                    0.267517924,
                    -1.0,
                    1.0
                  ]
                },
                {
                  "weights": [
                    -0.1115011,
                    1.0,
                    -0.397141,
                    -0.201731145,
                    -0.0221577287,
                    -0.762135744,
                    0.99522686,
                    0.007563472,
                    -1.0,
                    0.0596842766,
                    0.432873249,
                    0.440857857,
                    1.0,
                    -1.0,
                    -0.823290467,
                    -0.285353452,
                    1.0,
                    -0.936336935,
                    0.8039895,
                    0.06643778,
                    1.0,
                    0.6634381,
                    0.443867177,
                    -0.130999088,
                    0.612714648,
                    0.7596235,
                    -1.0,
                    -1.0,
                    -1.0
                  ]
                },
                {
                  "weights": [
                    0.8325772,
                    -0.292889059,
                    -0.363069415,
                    0.199497819,
                    -0.849281549,
                    -0.147390723,
                    0.127981663,
                    -0.244414449,
                    -0.0248269439,
                    0.3845814,
                    0.007353425,
                    -1.0,
                    0.2951433,
                    -0.6992147,
                    0.201879144,
                    0.125913054,
                    0.07758391,
                    0.734274745,
                    0.600353241,
                    -0.423143536,
                    0.468762815,
                    -1.0,
                    1.0,
                    -1.0,
                    -0.231720269,
                    0.552770853,
                    -0.679425955,
                    1.0,
                    0.3268168
                  ]
                },
                {
                  "weights": [
                    -0.195083976,
                    0.36627835,
                    -1.0,
                    -0.774880469,
                    -0.315871537,
                    -0.3183114,
                    0.9555831,
                    0.220298052,
                    -1.0,
                    0.248792,
                    -1.0,
                    0.758744359,
                    1.0,
                    -0.6011466,
                    -0.3533367,
                    0.8680217,
                    -1.0,
                    -0.61800766,
                    -0.0280083418,
                    0.401689023,
                    0.169251084,
                    -1.0,
                    0.420532465,
                    0.144459337,
                    0.474562436,
                    -1.0,
                    0.6149832,
                    1.0,
                    0.30782482
                  ]
                },
                {
                  "weights": [
                    0.747209549,
                    -0.6631692,
                    1.0,
                    -0.804631352,
                    -0.2558475,
                    -0.5449892,
                    0.917192,
                    -0.256217,
                    1.0,
                    -0.67690146,
                    0.6183667,
                    -1.0,
                    -1.0,
                    -0.06103611,
                    0.0642646551,
                    1.0,
                    -0.8727669,
                    -0.174002409,
                    1.0,
                    0.523766637,
                    -0.180966735,
                    0.107112378,
                    0.617691159,
                    -0.513247252,
                    0.152061522,
                    -0.5767291,
                    0.932701468,
                    0.8186484,
                    -1.0
                  ]
                },
                {
                  "weights": [
                    1.0,
                    -0.9305427,
                    1.0,
                    -0.6445321,
                    -0.6704532,
                    0.123623967,
                    -0.639128447,
                    1.0,
                    0.7865014,
                    -0.189728379,
                    0.7295022,
                    0.732979357,
                    -0.9773195,
                    1.0,
                    0.5505507,
                    -0.80668503,
                    0.3815742,
                    -1.0,
                    0.282058537,
                    0.190860391,
                    -0.701982,
                    -0.375255972,
                    -0.4054011,
                    1.0,
                    -0.452263,
                    0.5581967,
                    0.0346472263,
                    -0.9243615,
                    0.680421
                  ]
                },
                {
                  "weights": [
                    -0.375799179,
                    0.3711152,
                    1.0,
                    -1.0,
                    0.4229105,
                    1.0,
                    0.07642028,
                    1.0,
                    0.548031569,
                    0.55203414,
                    0.486365736,
                    1.0,
                    -0.138007581,
                    0.22649163,
                    1.0,
                    -1.0,
                    -1.0,
                    1.0,
                    -1.0,
                    -0.848508954,
                    0.0643059,
                    0.05179298,
                    0.793537855,
                    -0.444650531,
                    0.338933676,
                    -0.186942041,
                    -1.0,
                    0.935707331,
                    0.6367286
                  ]
                },
                {
                  "weights": [
                    -0.431457371,
                    -1.0,
                    0.644545555,
                    0.196920991,
                    -1.0,
                    0.8521062,
                    -0.221816421,
                    -1.0,
                    0.475920349,
                    0.2925987,
                    -0.448515177,
                    -0.3197113,
                    -0.316983283,
                    -0.009883523,
                    -0.554258466,
                    0.7686783,
                    -1.0,
                    -0.7277147,
                    1.0,
                    -1.0,
                    0.6868558,
                    0.9899838,
                    -0.182579815,
                    0.32614252,
                    -0.135717809,
                    -0.07098374,
                    -0.2157892,
                    -1.0,
                    0.468269467
                  ]
                },
                {
                  "weights": [
                    -0.2488853,
                    -0.905127764,
                    1.0,
                    -0.9108782,
                    -0.1544869,
                    -1.0,
                    0.945300341,
                    1.0,
                    0.889390469,
                    -0.06714964,
                    -0.6140524,
                    1.0,
                    0.335890949,
                    1.0,
                    -1.0,
                    0.519850135,
                    1.0,
                    -1.0,
                    -1.0,
                    0.100716293,
                    1.0,
                    1.0,
                    -0.7272322,
                    0.017272234,
                    -0.843916833,
                    -0.10566318,
                    0.9641851,
                    -1.0,
                    -0.45644623
                  ]
                },
                {
                  "weights": [
                    -1.0,
                    -0.3878268,
                    -0.912888765,
                    -1.0,
                    -1.0,
                    0.5295954,
                    -1.0,
                    -0.248916388,
                    -1.0,
                    1.0,
                    0.603234,
                    -1.0,
                    0.7420697,
                    1.0,
                    -0.3495561,
                    1.0,
                    0.5944135,
                    0.650501,
                    1.0,
                    -0.704703569,
                    1.0,
                    -0.5230975,
                    0.0200033784,
                    0.416065872,
                    -0.528263569,
                    0.5710846,
                    -0.134599209,
                    -1.0,
                    1.0
                  ]
                },
                {
                  "weights": [
                    -1.0,
                    1.0,
                    0.8350562,
                    -0.4217637,
                    -0.469789118,
                    0.7192221,
                    0.609644055,
                    0.291713,
                    0.09442413,
                    -0.353283972,
                    1.0,
                    1.0,
                    0.7091294,
                    0.173179626,
                    0.303127527,
                    -0.22881493,
                    1.0,
                    0.060357213,
                    -0.930178165,
                    -1.0,
                    0.9476893,
                    -1.0,
                    0.158259153,
                    0.218039,
                    -0.624177,
                    -1.0,
                    -0.279197335,
                    1.0,
                    1.0
                  ]
                },
                {
                  "weights": [
                    0.06352103,
                    -0.235386968,
                    0.195332021,
                    0.16007641,
                    -0.481928021,
                    -0.00352728367,
                    0.978954732,
                    -1.0,
                    1.0,
                    1.0,
                    0.8346727,
                    0.313833952,
                    -0.760259151,
                    -1.0,
                    1.0,
                    0.318058461,
                    0.329901457,
                    0.432345361,
                    0.797512949,
                    -0.124397546,
                    0.415937871,
                    0.134731352,
                    -1.0,
                    0.143196613,
                    -0.762543857,
                    0.3196399,
                    0.623269439,
                    0.863976657,
                    -0.9631394
                  ]
                },
                {
                  "weights": [
                    0.06008649,
                    -1.0,
                    1.0,
                    -1.0,
                    -1.0,
                    0.126094282,
                    0.483143628,
                    0.7088967,
                    -0.3105538,
                    1.0,
                    0.578794539,
                    -0.012349844,
                    -1.0,
                    -1.0,
                    -1.0,
                    0.3387838,
                    -0.3385374,
                    0.182861984,
                    0.685462356,
                    -0.7043034,
                    1.0,
                    1.0,
                    0.623457551,
                    -1.0,
                    -0.216345191,
                    -0.7888892,
                    -0.425079465,
                    -0.6160499,
                    0.170618415
                  ]
                },
                {
                  "weights": [
                    0.0288792849,
                    0.699083,
                    0.6175192,
                    -1.0,
                    -0.6345071,
                    -1.0,
                    1.0,
                    -0.71041286,
                    1.0,
                    0.179713756,
                    -1.0,
                    0.389373839,
                    0.206303656,
                    0.2981949,
                    0.897756755,
                    -0.396905482,
                    -0.109515846,
                    -1.0,
                    -1.0,
                    0.9505868,
                    -1.0,
                    0.08123714,
                    1.0,
                    -0.839433432,
                    -0.263286948,
                    -0.07773268,
                    -0.6139529,
                    1.0,
                    -0.3232947
                  ]
                },
                {
                  "weights": [
                    -0.00515431166,
                    -1.0,
                    0.606911659,
                    0.6457375,
                    -0.893247545,
                    -0.656819463,
                    -0.8806385,
                    -0.163463384,
                    -0.07645583,
                    1.0,
                    -0.8924612,
                    0.7271972,
                    0.52587533,
                    -0.670634747,
                    -0.123588979,
                    -0.221330315,
                    -0.40571332,
                    0.492655456,
                    -0.783339858,
                    0.307186037,
                    0.8432359,
                    1.0,
                    -1.0,
                    0.4851596,
                    -0.771595,
                    -0.307244748,
                    -0.358568072,
                    -0.886904359,
                    1.0
                  ]
                },
                {
                  "weights": [
                    -0.438386083,
                    0.2192592,
                    0.240481526,
                    1.0,
                    -0.8710742,
                    -0.8134465,
                    -0.03379029,
                    1.0,
                    -0.699063659,
                    0.860530853,
                    0.00347459316,
                    0.7916671,
                    0.285963,
                    1.0,
                    -0.227556586,
                    0.8149686,
                    -0.9053507,
                    0.0724448,
                    0.0186878443,
                    0.9610324,
                    0.5810349,
                    -1.0,
                    -0.9221817,
                    0.4069997,
                    1.0,
                    -1.0,
                    -0.2257719,
                    -0.472271085,
                    -0.2442511
                  ]
                },
                {
                  "weights": [
                    0.879973,
                    -0.939065,
                    -0.09856367,
                    -1.0,
                    1.0,
                    -0.68788743,
                    -0.03369689,
                    -0.57006073,
                    0.3547701,
                    -0.4161319,
                    0.307270437,
                    -1.0,
                    -0.390841722,
                    0.805783,
                    0.8978081,
                    0.7659428,
                    -0.20416151,
                    1.0,
                    -0.163171172,
                    -0.188953519,
                    0.4537067,
                    -0.135663927,
                    0.0141359568,
                    0.6649265,
                    -0.7414799,
                    -0.247566611,
                    0.019996345,
                    -0.5254557,
                    0.231303573
                  ]
                },
                {
                  "weights": [
                    0.0354055166,
                    0.421953559,
                    -0.681898832,
                    -0.485106,
                    0.127877355,
                    1.0,
                    -1.0,
                    0.9377451,
                    -0.8226831,
                    1.0,
                    0.8604555,
                    0.3206401,
                    -0.03644854,
                    -0.626608133,
                    -0.870974243,
                    0.6614462,
                    0.435700625,
                    0.5116422,
                    -0.09872362,
                    0.2590078,
                    -0.8831713,
                    -0.665918,
                    0.5724058,
                    -1.0,
                    -1.0,
                    -0.399943233,
                    0.914015532,
                    0.173824787,
                    -0.7345621
                  ]
                },
                {
                  "weights": [
                    1.0,
                    1.0,
                    -0.3439592,
                    -0.07228473,
                    -0.108246729,
                    -0.4433824,
                    0.584262,
                    0.22849,
                    -0.6907862,
                    1.0,
                    0.62395227,
                    0.478140831,
                    1.0,
                    1.0,
                    1.0,
                    1.0,
                    0.7572405,
                    0.111736417,
                    -0.4414379,
                    1.0,
                    -0.1468116,
                    -0.731594443,
                    0.3239614,
                    0.3543367,
                    0.1469208,
                    -0.379161954,
                    -0.9294045,
                    0.2458626,
                    -0.006286919
                  ]
                },
                {
                  "weights": [
                    1.0,
                    -0.414385438,
                    -1.0,
                    -0.538189769,
                    0.8588507,
                    -1.0,
                    -0.152496368,
                    -1.0,
                    0.4167766,
                    -0.05273196,
                    0.643207431,
                    -0.325203478,
                    1.0,
                    0.2377103,
                    0.2208429,
                    1.0,
                    0.9671774,
                    0.213659465,
                    -0.620627642,
                    0.0328969955,
                    -0.4957584,
                    0.782807052,
                    -0.126999557,
                    -0.745063245,
                    -0.04648193,
                    -0.3071211,
                    1.0,
                    -0.3325286,
                    -0.511098
                  ]
                },
                {
                  "weights": [
                    0.746678054,
                    -1.0,
                    1.0,
                    0.6662352,
                    0.186605215,
                    0.004573703,
                    0.7345407,
                    0.282782733,
                    1.0,
                    -1.0,
                    0.241842389,
                    1.0,
                    -0.529752,
                    -0.506702662,
                    0.177632213,
                    1.0,
                    1.0,
                    -0.5091107,
                    0.9332842,
                    0.9563462,
                    -0.3639003,
                    0.378215969,
                    -0.681690931,
                    -0.5451064,
                    -0.0863966942,
                    1.0,
                    -0.8775153,
                    0.227912188,
                    0.5971923
                  ]
                },
                {
                  "weights": [
                    0.144413114,
                    1.0,
                    -0.8807168,
                    0.7171585,
                    -1.0,
                    0.3135091,
                    -0.9607847,
                    0.110835195,
                    0.6146078,
                    -1.0,
                    -0.138266921,
                    0.8822947,
                    -0.405563444,
                    0.324296653,
                    -0.5401429,
                    0.307402343,
                    1.0,
                    -0.121096134,
                    -0.464477926,
                    -0.3524149,
                    -0.07978362,
                    0.608499,
                    -1.0,
                    -0.4903365,
                    0.8186446,
                    1.0,
                    -0.827861667,
                    -0.624022245,
                    1.0
                  ]
                },
                {
                  "weights": [
                    -0.08590281,
                    1.0,
                    1.0,
                    0.5491892,
                    -0.258919835,
                    0.917687654,
                    0.03358513,
                    0.01590103,
                    0.111078322,
                    1.0,
                    -0.292416841,
                    1.0,
                    -0.06226194,
                    -0.6312742,
                    0.10763514,
                    0.311215937,
                    -0.256762356,
                    0.16055733,
                    -1.0,
                    -0.8442787,
                    0.457912147,
                    0.9059477,
                    -0.601694345,
                    -0.367201924,
                    0.430000275,
                    -1.0,
                    0.425348878,
                    0.367118239,
                    -1.0
                  ]
                },
                {
                  "weights": [
                    -0.09252756,
                    0.0539763123,
                    -0.269096226,
                    -0.9875152,
                    0.397987574,
                    0.260067821,
                    0.203078091,
                    0.9034213,
                    1.0,
                    0.5539431,
                    -0.880012453,
                    -0.165822238,
                    0.3366322,
                    -0.5007018,
                    -0.696668148,
                    1.0,
                    -0.9170354,
                    0.466652632,
                    0.184956446,
                    0.5498537,
                    1.0,
                    -0.6220706,
                    -0.407988638,
                    -0.961267948,
                    -0.124317288,
                    -0.9128465,
                    0.512092352,
                    -0.4590398,
                    -0.465087235
                  ]
                },
                {
                  "weights": [
                    -0.9439318,
                    1.0,
                    -0.3415924,
                    0.738881,
                    -0.5517144,
                    -0.717103,
                    -1.0,
                    0.215349913,
                    0.83892107,
                    -0.256374538,
                    -1.0,
                    -0.0218149424,
                    -0.96612215,
                    0.236705482,
                    0.5371561,
                    -1.0,
                    0.107552588,
                    0.5343095,
                    -0.487287343,
                    0.180766553,
                    -0.747866869,
                    -1.0,
                    1.0,
                    1.0,
                    0.114598632,
                    0.442834854,
                    0.16608268,
                    0.7145691,
                    0.8705745
                  ]
                },
                {
                  "weights": [
                    -0.7601776,
                    -0.7456352,
                    -0.641832948,
                    1.0,
                    1.0,
                    0.898370266,
                    0.104894459,
                    -0.907059133,
                    -1.0,
                    0.4489653,
                    0.282623649,
                    0.4151497,
                    -0.6146583,
                    1.0,
                    0.8372967,
                    -0.6323288,
                    -0.72546047,
                    -0.7470808,
                    0.341451466,
                    -0.477609277,
                    -0.205898136,
                    -1.0,
                    0.8737583,
                    -0.9684179,
                    -1.0,
                    -0.9573745,
                    0.353023469,
                    0.9007993,
                    0.0538882
                  ]
                },
                {
                  "weights": [
                    1.0,
                    0.9870622,
                    0.7482077,
                    0.4399018,
                    -1.0,
                    -1.0,
                    -0.34796986,
                    -1.0,
                    0.3911545,
                    1.0,
                    -0.0977805257,
                    0.950188637,
                    0.8420613,
                    1.0,
                    0.698409855,
                    -0.215746045,
                    -0.08663428,
                    -0.69696486,
                    -0.030936271,
                    -1.0,
                    0.358881682,
                    0.310916156,
                    -0.1363486,
                    0.2305556,
                    0.270201176,
                    -0.288612,
                    0.107973278,
                    -0.659226656,
                    0.03857982
                  ]
                },
                {
                  "weights": [
                    -0.09843621,
                    1.0,
                    -0.401643038,
                    0.9080956,
                    -0.6250695,
                    -1.0,
                    1.0,
                    1.0,
                    0.293821752,
                    1.0,
                    -0.387778819,
                    0.9097948,
                    -0.133355558,
                    0.130603731,
                    -0.30859822,
                    0.161079288,
                    0.463630229,
                    -0.379172921,
                    0.127422333,
                    0.385550857,
                    0.273995519,
                    -0.9406283,
                    1.0,
                    1.0,
                    -0.455820441,
                    1.0,
                    -1.0,
                    -0.10510575,
                    -0.294850022
                  ]
                },
                {
                  "weights": [
                    1.0,
                    0.9354167,
                    -0.596170068,
                    -0.366418272,
                    -0.05748421,
                    0.158114851,
                    -0.474362016,
                    0.8619995,
                    -0.6296989,
                    -1.0,
                    0.020783782,
                    -0.429850549,
                    -0.9547477,
                    0.338479877,
                    -1.0,
                    -0.171532273,
                    -0.335456,
                    -0.9787328,
                    -1.0,
                    0.735864639,
                    -1.0,
                    -1.0,
                    0.0626121759,
                    -1.0,
                    0.570513,
                    1.0,
                    0.0240432024,
                    0.190304637,
                    -0.531947136
                  ]
                }
              ]
            },
            {
              "neurons": [
                {
                  "weights": [
                    -0.9394436,
                    -0.397261441,
                    0.61908555,
                    -0.413602471,
                    -1.0,
                    0.2159616,
                    1.0,
                    0.247872233,
                    -0.156975418,
                    -0.139201552,
                    -0.6324275,
                    0.878435135,
                    -0.255133748,
                    0.143096566,
                    1.0,
                    0.1739105,
                    -0.837560654,
                    0.07478213,
                    0.8481946,
                    -0.483914346,
                    -0.5294827,
                    -1.0,
                    -0.0182796717,
                    -1.0,
                    -0.221353412,
                    -0.171385169,
                    0.9838933,
                    1.0,
                    -1.0,
                    1.0
                  ]
                },
                {
                  "weights": [
                    0.551314354,
                    0.9906953,
                    0.19970572,
                    -0.5184643,
                    0.6101071,
                    0.8202282,
                    1.0,
                    -0.7073542,
                    0.3131747,
                    -1.0,
                    0.8875909,
                    -0.4052549,
                    -1.0,
                    -1.0,
                    -0.218723059,
                    -0.237626016,
                    0.4411577,
                    1.0,
                    -0.06981993,
                    1.0,
                    -0.3053083,
                    -0.6214791,
                    0.441291928,
                    -0.716876268,
                    -0.763387859,
                    -0.7585032,
                    -0.03163016,
                    0.5170126,
                    -0.6919881,
                    0.668369532
                  ]
                },
                {
                  "weights": [
                    -0.6214857,
                    -0.04621795,
                    0.38847506,
                    -0.109371841,
                    0.2615683,
                    -0.218442082,
                    0.862365365,
                    -0.379015446,
                    0.12310946,
                    0.89365387,
                    0.4811634,
                    -0.248591483,
                    -0.9539757,
                    -0.579431057,
                    0.233162373,
                    -0.8638303,
                    -0.35476172,
                    1.0,
                    -0.8352406,
                    0.8872781,
                    1.0,
                    0.04068744,
                    1.0,
                    0.941774964,
                    -1.0,
                    -1.0,
                    -0.067679286,
                    -0.193169326,
                    1.0,
                    -0.6155844
                  ]
                },
                {
                  "weights": [
                    -0.707524836,
                    0.07123566,
                    0.4068863,
                    0.550685,
                    -1.0,
                    -0.121768348,
                    0.0543478131,
                    -0.2921235,
                    -0.309385657,
                    -0.711995363,
                    -0.7846322,
                    0.379173279,
                    -1.0,
                    0.094143644,
                    -1.0,
                    -0.6801784,
                    -0.457595,
                    -0.353425622,
                    -0.290742517,
                    0.0163654685,
                    0.20375669,
                    -0.7565758,
                    0.6449015,
                    0.1561901,
                    0.486176819,
                    0.391569346,
                    0.961087,
                    -0.213820547,
                    -1.0,
                    0.246427655
                  ]
                },
                {
                  "weights": [
                    0.350749,
                    -1.0,
                    0.054178834,
                    -0.007833183,
                    0.855944633,
                    1.0,
                    -0.248092771,
                    0.8279544,
                    0.5177615,
                    1.0,
                    -1.0,
                    -0.09890044,
                    -1.0,
                    -0.434572458,
                    0.6913486,
                    -0.3815175,
                    0.2680431,
                    1.0,
                    -0.5952598,
                    -0.6334419,
                    -0.7298878,
                    -1.0,
                    -0.383485138,
                    -0.9073269,
                    -0.2716419,
                    0.6415472,
                    -0.595944643,
                    -0.301300049,
                    -0.699696541,
                    -0.984283
                  ]
                },
                {
                  "weights": [
                    -0.184349716,
                    -0.5508745,
                    -1.0,
                    -0.7404814,
                    1.0,
                    -0.354828447,
                    -0.5290692,
                    -0.68949914,
                    -0.9866538,
                    -0.145255208,
                    1.0,
                    -0.5524628,
                    -0.8830023,
                    0.214217782,
                    -0.9394486,
                    0.995368361,
                    -0.0322322249,
                    0.9551027,
                    0.115622759,
                    -1.0,
                    -0.433888078,
                    -1.0,
                    -1.0,
                    1.0,
                    0.111800253,
                    1.0,
                    0.251644969,
                    0.2717633,
                    -0.110286117,
                    -0.169020057
                  ]
                },
                {
                  "weights": [
                    1.0,
                    0.17440629,
                    -0.161889672,
                    -0.5326805,
                    0.493078053,
                    0.4282242,
                    1.0,
                    -0.382594764,
                    0.277256668,
                    -0.18069011,
                    -1.0,
                    -0.361977935,
                    -1.0,
                    -0.829128563,
                    -1.0,
                    -1.0,
                    -0.4777292,
                    -0.06066501,
                    -1.0,
                    -1.0,
                    0.309233129,
                    0.461562,
                    -0.00736057758,
                    -0.955564,
                    -0.707330942,
                    -0.714261532,
                    -0.278865337,
                    0.120615065,
                    0.167614847,
                    -0.458354354
                  ]
                },
                {
                  "weights": [
                    -0.354674459,
                    0.525372148,
                    -1.0,
                    -0.128309846,
                    1.0,
                    0.2713084,
                    -0.154754966,
                    -0.192697912,
                    -1.0,
                    -0.137130857,
                    -0.280616373,
                    -0.4424013,
                    -0.459109068,
                    -0.5318279,
                    -1.0,
                    -0.03015089,
                    -0.5798402,
                    -0.7986829,
                    -0.9649017,
                    0.977871954,
                    -0.605070353,
                    -0.0188598633,
                    -0.623867631,
                    -1.0,
                    0.3583063,
                    -0.63714,
                    0.162769735,
                    -0.962913752,
                    -0.365026236,
                    0.8949987
                  ]
                },
                {
                  "weights": [
                    -0.2739045,
                    0.05087304,
                    -0.00269556046,
                    -0.3556003,
                    0.466362685,
                    -0.36586082,
                    -1.0,
                    1.0,
                    0.974594831,
                    0.791134834,
                    -0.0941336155,
                    0.829127252,
                    -0.391541123,
                    0.761613131,
                    1.0,
                    -1.0,
                    -0.5827109,
                    -1.0,
                    0.353926152,
                    0.0580695868,
                    0.345459431,
                    0.250317633,
                    0.300172567,
                    -0.09331751,
                    0.7870503,
                    -0.270899415,
                    1.0,
                    -1.0,
                    -0.140235066,
                    -0.493496627
                  ]
                },
                {
                  "weights": [
                    -0.367830724,
                    -0.15532586,
                    0.5382018,
                    1.0,
                    0.373873055,
                    -1.0,
                    0.2231642,
                    -0.202117,
                    -0.5354891,
                    0.6699725,
                    -0.2616127,
                    -0.8962671,
                    -0.72830236,
                    0.830334246,
                    -0.400832772,
                    0.6221004,
                    -0.68498826,
                    -0.3532046,
                    -0.723243058,
                    0.374458551,
                    -0.0636401847,
                    -1.0,
                    1.0,
                    -1.0,
                    -0.5223355,
                    0.740098238,
                    -0.6855369,
                    0.8977993,
                    0.183785081,
                    0.7825887
                  ]
                },
                {
                  "weights": [
                    0.7370466,
                    -0.296291471,
                    0.8042278,
                    0.3261225,
                    0.262278736,
                    -0.8519089,
                    -0.5489321,
                    1.0,
                    -1.0,
                    1.0,
                    -0.139701486,
                    0.7624653,
                    -0.387813449,
                    -1.0,
                    0.567846537,
                    -0.9965447,
                    -0.7094845,
                    0.410734355,
                    -0.5853407,
                    -0.0668652058,
                    0.29705292,
                    -1.0,
                    0.245480418,
                    0.8287595,
                    1.0,
                    -1.0,
                    0.201258,
                    0.507629633,
                    -0.6904969,
                    1.0
                  ]
                },
                {
                  "weights": [
                    1.0,
                    0.76368165,
                    0.185321718,
                    0.459148318,
                    0.33601886,
                    -0.758655131,
                    -0.358551383,
                    0.863029242,
                    -0.5845515,
                    0.008180499,
                    0.8166629,
                    -0.6148988,
                    1.0,
                    0.44408223,
                    0.13548854,
                    1.0,
                    0.333291471,
                    -1.0,
                    0.342117757,
                    -1.0,
                    -0.098921895,
                    -0.684630632,
                    0.300210148,
                    1.0,
                    0.885777354,
                    -1.0,
                    -1.0,
                    0.8537922,
                    0.676844358,
                    0.5342756
                  ]
                },
                {
                  "weights": [
                    -0.155703425,
                    0.3597311,
                    0.565115452,
                    0.0442513824,
                    1.0,
                    -0.5781113,
                    0.07172334,
                    0.06096685,
                    -1.0,
                    0.0455517769,
                    -0.652316332,
                    -0.687359333,
                    0.746759355,
                    0.465549558,
                    1.0,
                    -1.0,
                    0.2847913,
                    -1.0,
                    -0.0551663041,
                    0.7579182,
                    -0.8187835,
                    0.0918246955,
                    -1.0,
                    1.0,
                    -0.05646789,
                    -0.467151284,
                    -0.5715868,
                    0.004498303,
                    -1.0,
                    1.0
                  ]
                },
                {
                  "weights": [
                    -0.738355,
                    -0.3130948,
                    1.0,
                    -0.692714,
                    -1.0,
                    -0.3531946,
                    0.51906544,
                    0.221633613,
                    1.0,
                    0.152518332,
                    -0.225852609,
                    0.947406054,
                    -0.116755754,
                    -1.0,
                    -0.628662467,
                    -0.416162848,
                    -0.4891826,
                    -0.171244711,
                    -1.0,
                    0.805010557,
                    1.0,
                    0.351526827,
                    0.851429,
                    -0.3113972,
                    0.763213634,
                    -1.0,
                    -0.5883023,
                    0.1609379,
                    0.840935946,
                    -0.200130343
                  ]
                },
                {
                  "weights": [
                    0.448547244,
                    -0.2604393,
                    1.0,
                    -0.309487939,
                    -0.311045051,
                    -0.447284937,
                    0.504369,
                    -0.574776769,
                    -1.0,
                    -0.6175193,
                    0.033251375,
                    -0.8709078,
                    0.304354668,
                    -0.214632779,
                    0.04628904,
                    -0.06917876,
                    -0.96712625,
                    0.242907166,
                    0.383565575,
                    -0.0115987062,
                    -0.231173933,
                    -0.0388598442,
                    -0.343968183,
                    0.836502,
                    -1.0,
                    0.5679434,
                    -0.634744167,
                    -1.0,
                    -0.318030179,
                    1.0
                  ]
                },
                {
                  "weights": [
                    -0.378293335,
                    -0.418482661,
                    0.749483347,
                    -0.0223980546,
                    -0.0595460534,
                    -0.380346537,
                    0.8501139,
                    -0.06914997,
                    -0.9522269,
                    0.310751081,
                    -0.498314977,
                    -0.1041373,
                    -0.7083341,
                    1.0,
                    0.139432251,
                    -0.078656286,
                    -1.0,
                    -0.5734534,
                    -0.391081572,
                    -0.1379534,
                    0.120877385,
                    -0.7914988,
                    0.100856483,
                    -0.6175536,
                    -0.418783069,
                    0.463202119,
                    0.12901625,
                    0.615258753,
                    1.0,
                    0.8707566
                  ]
                },
                {
                  "weights": [
                    0.206987441,
                    -1.0,
                    1.0,
                    0.5720022,
                    1.0,
                    -0.149010181,
                    -0.6972219,
                    0.334289759,
                    -0.280063033,
                    -0.2596679,
                    -1.0,
                    0.210657716,
                    -0.323091954,
                    0.162480026,
                    0.269443244,
                    0.2127797,
                    1.0,
                    -0.06032607,
                    -1.0,
                    -0.6386166,
                    0.347078055,
                    -0.310697377,
                    1.0,
                    0.672173142,
                    -1.0,
                    -0.46467638,
                    1.0,
                    0.4632125,
                    0.498706818,
                    0.225575328
                  ]
                },
                {
                  "weights": [
                    -0.5297879,
                    -1.0,
                    0.8680978,
                    0.6452496,
                    -0.127576172,
                    1.0,
                    0.861526251,
                    -0.0645602047,
                    0.429384232,
                    -0.6199535,
                    -0.136430144,
                    -1.0,
                    -0.233146548,
                    -0.6062178,
                    -0.130969226,
                    -0.8657706,
                    -0.148478955,
                    1.0,
                    1.0,
                    0.7749187,
                    -0.5896652,
                    -1.0,
                    1.0,
                    1.0,
                    0.2701596,
                    -0.134390891,
                    0.636499166,
                    -0.8319583,
                    0.449606627,
                    1.0
                  ]
                },
                {
                  "weights": [
                    0.3666456,
                    -0.347960681,
                    0.107161611,
                    -0.7089499,
                    -0.578284,
                    -0.411945969,
                    0.04379499,
                    -0.322361976,
                    0.158591151,
                    -1.0,
                    0.09008759,
                    1.0,
                    -0.158083916,
                    1.0,
                    -1.0,
                    -0.887217164,
                    0.484541625,
                    -1.0,
                    -0.956451833,
                    -1.0,
                    -0.244262785,
                    0.538504541,
                    0.0152850151,
                    -0.7937808,
                    0.7169538,
                    0.7110002,
                    0.75755465,
                    -0.345178217,
                    0.4757037,
                    -0.575084746
                  ]
                },
                {
                  "weights": [
                    -0.731714,
                    1.0,
                    0.261775672,
                    -0.262366027,
                    0.7928375,
                    0.8798121,
                    0.1838001,
                    -0.3440671,
                    0.8240963,
                    -0.484385,
                    -0.152685046,
                    0.0290626287,
                    0.71188575,
                    -0.08685577,
                    -0.161660582,
                    -1.0,
                    0.0172115564,
                    0.491261929,
                    -0.725785732,
                    1.0,
                    -0.05833231,
                    0.267435431,
                    0.8036251,
                    -0.385824025,
                    0.193825364,
                    -0.278335482,
                    -0.9520235,
                    -0.7872958,
                    -0.5355807,
                    -0.12047708
                  ]
                },
                {
                  "weights": [
                    0.1320523,
                    -0.458348155,
                    -0.5618719,
                    1.0,
                    0.870617151,
                    -0.994257,
                    -0.161656737,
                    -0.613755047,
                    -0.9645949,
                    0.2835465,
                    0.9446976,
                    0.1833719,
                    -1.0,
                    -1.0,
                    -1.0,
                    0.296393037,
                    -0.827501059,
                    -0.08909878,
                    -1.0,
                    -0.176810175,
                    0.160274565,
                    -0.867436647,
                    0.6066663,
                    1.0,
                    0.474600047,
                    0.16475451,
                    -0.30062452,
                    0.575297356,
                    0.5042566,
                    0.874648333
                  ]
                },
                {
                  "weights": [
                    -0.3306115,
                    1.0,
                    -0.2545392,
                    -1.0,
                    0.821051359,
                    1.0,
                    1.0,
                    -0.1697056,
                    -0.04982245,
                    0.139079332,
                    -0.200810075,
                    0.4586295,
                    -1.0,
                    0.309681773,
                    0.6568198,
                    -0.00465261936,
                    0.246633887,
                    -1.0,
                    -0.237142563,
                    -0.0205536187,
                    0.6394689,
                    -0.8408109,
                    1.0,
                    -0.140081555,
                    -0.227165461,
                    -0.8079287,
                    -1.0,
                    0.158651322,
                    -1.0,
                    0.7557647
                  ]
                },
                {
                  "weights": [
                    -0.6928419,
                    1.0,
                    -0.3104564,
                    -0.68743813,
                    -0.7165044,
                    -0.2255308,
                    -1.0,
                    -0.4089939,
                    -0.1135236,
                    -0.6113397,
                    -0.179410726,
                    -0.101991951,
                    1.0,
                    -1.0,
                    0.347227782,
                    0.832257748,
                    1.0,
                    0.6416549,
                    0.0749271661,
                    -1.0,
                    -1.0,
                    -0.649811447,
                    0.0753155947,
                    -0.3281721,
                    -0.7361362,
                    0.8895047,
                    0.11258775,
                    0.5375155,
                    0.408352464,
                    -0.478391081
                  ]
                },
                {
                  "weights": [
                    0.170595348,
                    -0.5132288,
                    1.0,
                    0.458235085,
                    0.271951824,
                    -0.418890923,
                    0.356086254,
                    -0.765279055,
                    1.0,
                    -0.191478133,
                    -0.7524575,
                    -0.261741847,
                    1.0,
                    0.004906982,
                    -0.286627531,
                    -1.0,
                    0.74983263,
                    0.0023868084,
                    -0.0386410356,
                    0.7263435,
                    0.372624725,
                    -1.0,
                    -0.251086,
                    -0.09334937,
                    -1.0,
                    -1.0,
                    0.554772139,
                    -1.0,
                    -0.008640647,
                    -0.554349244
                  ]
                },
                {
                  "weights": [
                    -1.0,
                    -0.255519748,
                    -0.138304114,
                    -0.12858364,
                    0.230823338,
                    0.4410143,
                    -1.0,
                    -1.0,
                    -0.00248253345,
                    1.0,
                    0.0796901,
                    0.128705323,
                    -0.6861573,
                    1.0,
                    -0.419277072,
                    0.126690686,
                    -0.479295433,
                    -0.7632983,
                    -0.3254657,
                    -1.0,
                    -0.7190453,
                    -0.08849037,
                    0.223131537,
                    0.5176809,
                    -0.392947674,
                    -1.0,
                    0.09808469,
                    1.0,
                    0.139089584,
                    1.0
                  ]
                },
                {
                  "weights": [
                    0.6175221,
                    1.0,
                    0.8372288,
                    -0.8434813,
                    0.271904171,
                    -0.291389167,
                    -0.003849864,
                    1.0,
                    1.0,
                    -0.383882046,
                    0.367101252,
                    -0.6900925,
                    -1.0,
                    0.5926094,
                    -0.08925605,
                    0.5642121,
                    1.0,
                    1.0,
                    0.0261008739,
                    -1.0,
                    -1.0,
                    -1.0,
                    -1.0,
                    0.8412534,
                    0.815736651,
                    0.4330265,
                    0.7635617,
                    -0.0350049734,
                    -0.0132279992,
                    -1.0
                  ]
                },
                {
                  "weights": [
                    -0.62558794,
                    -0.9679487,
                    -0.572693467,
                    -0.8915262,
                    0.298910856,
                    0.713412344,
                    0.6114568,
                    0.6747538,
                    -0.0575073957,
                    1.0,
                    0.3106856,
                    -0.5685308,
                    0.629276752,
                    1.0,
                    -0.5174148,
                    -0.5087354,
                    -0.259107,
                    0.109811008,
                    1.0,
                    -0.7200875,
                    1.0,
                    0.0106271505,
                    -0.919683754,
                    -0.763240755,
                    1.0,
                    1.0,
                    -0.6758337,
                    1.0,
                    1.0,
                    -0.00225532055
                  ]
                },
                {
                  "weights": [
                    0.5252861,
                    1.0,
                    0.467341155,
                    0.463905156,
                    0.532673359,
                    -1.0,
                    0.3895575,
                    0.7029636,
                    0.337599277,
                    -0.0283128023,
                    0.181280255,
                    0.4683692,
                    -0.34908,
                    -1.0,
                    1.0,
                    1.0,
                    0.8466381,
                    -0.738884449,
                    0.9959868,
                    0.281923234,
                    0.3643069,
                    -1.0,
                    0.925124645,
                    0.5857884,
                    0.403134465,
                    -0.406256229,
                    0.5212874,
                    -0.009588897,
                    -0.244812131,
                    -0.355950952
                  ]
                },
                {
                  "weights": [
                    1.0,
                    -0.836851,
                    -0.6055686,
                    -0.7877462,
                    -0.2799528,
                    0.780405164,
                    -0.742959261,
                    0.5917213,
                    0.480456531,
                    -0.3275668,
                    0.0546318,
                    -0.8427782,
                    0.437083364,
                    -0.215862423,
                    -0.179203331,
                    1.0,
                    -0.276962847,
                    -0.19499886,
                    0.47144863,
                    -0.7369623,
                    1.0,
                    0.06854117,
                    0.55978775,
                    1.0,
                    -0.7180879,
                    -0.180682063,
                    -1.0,
                    1.0,
                    -0.143844455,
                    -0.239864945
                  ]
                },
                {
                  "weights": [
                    -1.0,
                    -1.0,
                    -0.0580106974,
                    0.5559241,
                    -0.2980522,
                    0.0722807646,
                    0.5795045,
                    0.3993361,
                    0.35367322,
                    -0.0401018262,
                    -0.05426103,
                    0.7892742,
                    0.496743321,
                    -0.6785002,
                    0.118744493,
                    1.0,
                    -0.8083525,
                    1.0,
                    -0.958502531,
                    -0.52147603,
                    0.0921150446,
                    1.0,
                    -1.0,
                    1.0,
                    -0.06552485,
                    1.0,
                    -0.267646521,
                    0.0304963589,
                    -0.9900465,
                    0.102817178
                  ]
                }
              ]
            },
            {
              "neurons": [
                {
                  "weights": [
                    0.0577000678,
                    0.581005931,
                    -0.171227753,
                    -0.9169776,
                    0.3886793,
                    -0.467547983,
                    0.208670974,
                    -1.0,
                    1.0,
                    -0.69719696,
                    -0.3616888,
                    0.6095645,
                    1.0,
                    -0.5486559,
                    -0.0410137773,
                    0.4249227,
                    0.930238366,
                    0.148407042,
                    0.4066891,
                    -0.296097159,
                    -0.333173126,
                    0.327510446,
                    -0.4500028,
                    -0.6976938,
                    -1.0,
                    1.0,
                    -0.7532647,
                    -0.302931726,
                    0.987213731,
                    -0.323735118
                  ]
                },
                {
                  "weights": [
                    0.367928952,
                    1.0,
                    0.9711918,
                    -0.454559267,
                    0.7822485,
                    -0.750677466,
                    -0.366160184,
                    -0.0611778051,
                    0.7779759,
                    -0.124914765,
                    0.414072156,
                    0.0391820669,
                    0.173552692,
                    0.167284369,
                    -0.6630328,
                    -1.0,
                    0.07054347,
                    0.5644064,
                    -0.6432985,
                    -0.305061758,
                    0.7959234,
                    -1.0,
                    0.8159674,
                    0.291201741,
                    -0.3635933,
                    0.0498922169,
                    -0.9432645,
                    0.0713104,
                    -1.0,
                    0.399938315
                  ]
                },
                {
                  "weights": [
                    -0.26853627,
                    -0.0842378139,
                    -1.0,
                    0.8136015,
                    0.541772842,
                    1.0,
                    1.0,
                    0.166803449,
                    -0.02227807,
                    -0.7690418,
                    -1.0,
                    -0.3025459,
                    -0.6099059,
                    1.0,
                    0.8587923,
                    -0.415638655,
                    0.7052819,
                    0.225476265,
                    0.7255851,
                    -0.877196431,
                    -0.339252,
                    -0.284457326,
                    -1.0,
                    -1.0,
                    -0.6104311,
                    -0.9783603,
                    -1.0,
                    0.851562,
                    0.266763777,
                    -0.373151064
                  ]
                },
                {
                  "weights": [
                    1.0,
                    0.854315042,
                    1.0,
                    0.7286373,
                    0.6951344,
                    0.0465247631,
                    -1.0,
                    0.451541632,
                    0.395092845,
                    0.1406048,
                    0.431028545,
                    -1.0,
                    0.8222786,
                    -0.08095905,
                    -0.8532164,
                    -0.9801092,
                    0.235287547,
                    0.298677146,
                    -0.09947741,
                    1.0,
                    -0.2081652,
                    0.133705676,
                    -0.491839826,
                    -0.720288754,
                    0.493187875,
                    0.2988901,
                    -0.857976437,
                    1.0,
                    -0.5370453,
                    0.5531164
                  ]
                },
                {
                  "weights": [
                    -0.45177722,
                    1.0,
                    -1.0,
                    -0.241670251,
                    -1.0,
                    1.0,
                    -1.0,
                    -0.7037531,
                    -0.5200803,
                    0.431268722,
                    0.442825675,
                    0.5559576,
                    -0.589825153,
                    -0.3379526,
                    -0.113012969,
                    0.731070936,
                    1.0,
                    0.773362041,
                    0.144812584,
                    0.2670406,
                    -1.0,
                    -0.356792629,
                    -1.0,
                    -1.0,
                    -0.698781967,
                    0.5973267,
                    0.4812098,
                    -0.686265051,
                    -0.241073668,
                    0.464871
                  ]
                },
                {
                  "weights": [
                    0.917879343,
                    0.486464,
                    -0.7136707,
                    0.342302561,
                    0.269967437,
                    0.252740026,
                    -1.0,
                    1.0,
                    0.6355644,
                    -1.0,
                    -0.837706566,
                    0.412952036,
                    1.0,
                    0.982608438,
                    1.0,
                    -1.0,
                    -1.0,
                    -1.0,
                    -1.0,
                    0.7378285,
                    -0.824916065,
                    0.8225723,
                    0.479917943,
                    1.0,
                    0.258867234,
                    -0.649139643,
                    -0.03112495,
                    0.250427723,
                    0.0666362047,
                    -1.0
                  ]
                },
                {
                  "weights": [
                    -0.272322953,
                    -0.4695068,
                    -0.6851847,
                    0.367311865,
                    0.673356056,
                    -0.111074388,
                    -0.23236382,
                    -0.859345734,
                    1.0,
                    0.462818116,
                    0.4398504,
                    -1.0,
                    -0.9635582,
                    -1.0,
                    -1.0,
                    0.196433187,
                    0.618673146,
                    -1.0,
                    -0.8666748,
                    0.126952112,
                    -1.0,
                    -1.0,
                    1.0,
                    1.0,
                    -0.232961655,
                    -0.298360884,
                    -0.2405628,
                    0.357420653,
                    0.827530265,
                    0.147063375
                  ]
                },
                {
                  "weights": [
                    0.905957937,
                    0.6736914,
                    1.0,
                    -0.648514748,
                    -0.116491973,
                    -0.626631141,
                    0.839894056,
                    -0.294090867,
                    -1.0,
                    -0.8424704,
                    -0.1920889,
                    -0.2743813,
                    -0.939749956,
                    -1.0,
                    -1.0,
                    0.5355141,
                    1.0,
                    0.6661639,
                    -0.0847382545,
                    -0.5497241,
                    0.429105252,
                    0.6305349,
                    -1.0,
                    -0.679575861,
                    0.8486836,
                    1.0,
                    -0.9284821,
                    -0.171934843,
                    0.811569035,
                    -0.663704634
                  ]
                },
                {
                  "weights": [
                    1.0,
                    0.284046739,
                    0.402579248,
                    -0.972533941,
                    1.0,
                    -0.6245938,
                    0.730459869,
                    1.0,
                    0.071462214,
                    0.2303704,
                    1.0,
                    -0.1646595,
                    -1.0,
                    0.270114154,
                    0.4781193,
                    -0.440343022,
                    -0.9763794,
                    -1.0,
                    0.9152615,
                    0.9435532,
                    -0.0470463037,
                    0.478831977,
                    1.0,
                    -0.06559032,
                    0.249717772,
                    -1.0,
                    1.0,
                    0.9807793,
                    0.760925651,
                    -0.6234138
                  ]
                },
                {
                  "weights": [
                    0.06399858,
                    -0.445855081,
                    -0.147187054,
                    0.116601348,
                    -0.109003812,
                    0.05424851,
                    1.0,
                    -0.143679827,
                    0.814587653,
                    0.473060578,
                    -0.9828092,
                    -0.148516,
                    0.19353497,
                    -0.45218575,
                    -0.7612269,
                    -1.0,
                    -1.0,
                    0.49934262,
                    0.240630031,
                    -0.621991158,
                    -1.0,
                    -1.0,
                    0.5413598,
                    -0.406162858,
                    0.215346932,
                    0.5861524,
                    0.8935204,
                    -1.0,
                    -0.7989892,
                    0.273230523
                  ]
                },
                {
                  "weights": [
                    1.0,
                    -0.8130081,
                    -0.5835663,
                    0.3323092,
                    -0.252522975,
                    1.0,
                    0.08397898,
                    -0.325951785,
                    1.0,
                    0.7761903,
                    -0.526351452,
                    0.3940822,
                    0.28298822,
                    -1.0,
                    0.326533884,
                    -0.07507026,
                    -0.98141104,
                    1.0,
                    0.798282,
                    -1.0,
                    -1.0,
                    0.4720746,
                    -0.3025216,
                    0.8576317,
                    0.6963899,
                    -0.5451282,
                    0.0978573,
                    -1.0,
                    1.0,
                    0.08234537
                  ]
                },
                {
                  "weights": [
                    -0.639699042,
                    0.270026654,
                    -0.04306996,
                    0.213691592,
                    0.8701038,
                    0.633389235,
                    1.0,
                    1.0,
                    -0.100577,
                    -0.845652,
                    0.331029147,
                    -0.396382838,
                    0.5317584,
                    -0.438182384,
                    0.5554712,
                    -0.0438065678,
                    0.560335,
                    0.8590069,
                    -0.187435,
                    0.0940310359,
                    -1.0,
                    0.511109352,
                    0.7482222,
                    0.0706192553,
                    -0.181289136,
                    0.139206469,
                    0.6756177,
                    -0.807126164,
                    -0.370322824,
                    -0.4158486
                  ]
                },
                {
                  "weights": [
                    0.6610624,
                    0.09133518,
                    -1.0,
                    -0.699092865,
                    -0.4014102,
                    0.245399684,
                    -0.883870661,
                    -0.649515152,
                    0.5227223,
                    1.0,
                    -0.56887424,
                    -0.7129828,
                    0.225461543,
                    -1.0,
                    0.440260023,
                    -0.233937383,
                    -1.0,
                    0.617620945,
                    0.112924218,
                    1.0,
                    -0.122984648,
                    -1.0,
                    0.497569531,
                    -0.509438753,
                    0.385668725,
                    0.222952425,
                    1.0,
                    1.0,
                    -1.0,
                    -0.818494558
                  ]
                },
                {
                  "weights": [
                    1.0,
                    -0.5378223,
                    0.0150606334,
                    0.5482443,
                    -0.8127017,
                    0.7871556,
                    0.203523755,
                    -1.0,
                    1.0,
                    0.623433352,
                    0.2865388,
                    -1.0,
                    0.744686365,
                    0.2694418,
                    1.0,
                    -0.66524744,
                    1.0,
                    0.8345078,
                    -0.464327931,
                    -0.808793068,
                    -0.6899277,
                    -0.5978224,
                    0.056009084,
                    -0.168003708,
                    -0.391215682,
                    0.07063466,
                    0.5725455,
                    -0.0901159048,
                    -0.382122159,
                    -0.480898529
                  ]
                },
                {
                  "weights": [
                    -1.0,
                    1.0,
                    0.784798861,
                    -0.3094775,
                    -0.1410765,
                    0.298836827,
                    0.0857650638,
                    -0.444894671,
                    0.540232062,
                    0.352527916,
                    0.145528674,
                    1.0,
                    1.0,
                    -0.339539379,
                    1.0,
                    -1.0,
                    1.0,
                    0.009612501,
                    -0.1014269,
                    -0.425687671,
                    0.7301725,
                    0.6815305,
                    0.9567442,
                    -0.644958258,
                    0.769975245,
                    -1.0,
                    -1.0,
                    -1.0,
                    0.9044025,
                    -0.587173939
                  ]
                },
                {
                  "weights": [
                    0.08312595,
                    0.316378772,
                    0.13713181,
                    -1.0,
                    -0.0605767965,
                    0.999268532,
                    0.434914231,
                    -1.0,
                    0.3258462,
                    0.996801,
                    -0.195055723,
                    -0.662756443,
                    -0.9528945,
                    0.415870368,
                    -0.315467715,
                    0.796961844,
                    -0.334550619,
                    -0.629936,
                    -0.171423078,
                    -0.150992185,
                    0.325745,
                    0.4004414,
                    -0.7423553,
                    -0.900278747,
                    0.0161447525,
                    0.7874156,
                    -0.8128073,
                    0.627485454,
                    -0.211995572,
                    -0.6568947
                  ]
                },
                {
                  "weights": [
                    0.4769136,
                    1.0,
                    -1.0,
                    0.85501194,
                    0.872719765,
                    0.278044879,
                    -0.187964335,
                    -0.05322492,
                    -1.0,
                    -0.8624344,
                    0.45354864,
                    -0.7204734,
                    -1.0,
                    0.9158416,
                    0.656705856,
                    0.488326281,
                    -1.0,
                    0.0334625542,
                    -0.9698503,
                    -0.201106936,
                    0.2369917,
                    0.7459451,
                    0.356225163,
                    -1.0,
                    -0.453023374,
                    0.251717329,
                    0.274264216,
                    0.277533472,
                    1.0,
                    0.625526547
                  ]
                },
                {
                  "weights": [
                    -1.0,
                    -0.300421119,
                    0.385939062,
                    1.0,
                    -0.5187644,
                    0.324260265,
                    1.0,
                    0.3266449,
                    -1.0,
                    -0.6871495,
                    -1.0,
                    0.5622926,
                    -0.8935988,
                    1.0,
                    -0.20137246,
                    1.0,
                    -0.244085312,
                    0.3059983,
                    0.301343173,
                    -0.828354,
                    0.6909799,
                    -0.251995385,
                    -0.246467233,
                    -0.388863176,
                    0.4928541,
                    0.626328349,
                    -1.0,
                    -0.198166519,
                    0.3332891,
                    1.0
                  ]
                },
                {
                  "weights": [
                    -0.08045027,
                    -0.218115211,
                    -0.0361006856,
                    0.6759825,
                    -0.32699573,
                    -0.215457678,
                    1.0,
                    0.151799619,
                    -0.5104346,
                    0.111751258,
                    1.0,
                    -0.64885366,
                    -0.869963169,
                    -0.330036819,
                    -0.6671974,
                    -0.309672415,
                    0.144216388,
                    0.8860054,
                    0.479617417,
                    0.6266552,
                    0.0330401361,
                    1.0,
                    1.0,
                    1.0,
                    -0.5652447,
                    -0.6668341,
                    -0.162706971,
                    -0.613909,
                    -0.935335159,
                    -0.322070956
                  ]
                },
                {
                  "weights": [
                    -0.7464874,
                    -1.0,
                    0.492548,
                    0.417042,
                    0.7208483,
                    -0.5310105,
                    -1.0,
                    -1.0,
                    1.0,
                    0.28826353,
                    -1.0,
                    -0.0908321142,
                    0.157481223,
                    0.6530013,
                    -0.99877286,
                    -1.0,
                    0.07362586,
                    -0.0402877927,
                    1.0,
                    -1.0,
                    -0.056043148,
                    0.416481555,
                    -1.0,
                    -0.5440861,
                    -0.388615429,
                    0.8963205,
                    0.9318278,
                    0.2625057,
                    -0.358399421,
                    0.483203441
                  ]
                },
                {
                  "weights": [
                    -0.746736765,
                    0.489103049,
                    -1.0,
                    0.7998754,
                    0.5931295,
                    -1.0,
                    -0.337702632,
                    0.214630961,
                    0.204435408,
                    0.5306576,
                    -0.85878253,
                    -0.0382269621,
                    0.725746632,
                    -0.9858567,
                    0.542711258,
                    -0.689565063,
                    0.39688912,
                    0.829057455,
                    -0.0362756252,
                    -0.8993764,
                    0.5760549,
                    1.0,
                    -0.990035534,
                    0.763331234,
                    -1.0,
                    1.0,
                    0.036942482,
                    0.686602652,
                    0.7532925,
                    0.108307004
                  ]
                },
                {
                  "weights": [
                    -0.549284,
                    -1.0,
                    0.595466852,
                    -0.423387647,
                    -0.615230858,
                    1.0,
                    -0.6596875,
                    1.0,
                    -0.464528978,
                    0.0680790544,
                    -1.0,
                    -0.27305305,
                    -0.8778962,
                    0.6271113,
                    -0.955940247,
                    0.661595345,
                    1.0,
                    0.396150023,
                    0.589401245,
                    0.6217383,
                    1.0,
                    -1.0,
                    -0.72919023,
                    0.1212042,
                    -1.0,
                    1.0,
                    -0.99848175,
                    1.0,
                    0.435580552,
                    -0.567019761
                  ]
                },
                {
                  "weights": [
                    0.90963006,
                    0.6287303,
                    -0.5139127,
                    -0.257651448,
                    -0.0213938355,
                    1.0,
                    0.05396259,
                    0.53153,
                    0.7707424,
                    -0.799488842,
                    0.937408864,
                    -0.318000138,
                    -0.205793768,
                    0.3807186,
                    0.1541189,
                    0.3167524,
                    -1.0,
                    -1.0,
                    -0.3864373,
                    1.0,
                    1.0,
                    -1.0,
                    1.0,
                    -0.624132,
                    -1.0,
                    -0.07117796,
                    -0.435031056,
                    1.0,
                    0.222849965,
                    -0.196128964
                  ]
                },
                {
                  "weights": [
                    -0.129208565,
                    -0.577159,
                    0.4746502,
                    0.6814673,
                    0.8519287,
                    -0.8171592,
                    1.0,
                    0.0299653411,
                    0.53485173,
                    1.0,
                    0.9053505,
                    -0.956247747,
                    0.5843532,
                    0.312620252,
                    1.0,
                    -0.896358,
                    -0.0458668768,
                    -0.840425253,
                    -0.8004863,
                    0.289165437,
                    0.92672205,
                    -1.0,
                    0.373238534,
                    1.0,
                    -1.0,
                    0.6587937,
                    -1.0,
                    0.419060737,
                    -0.6318784,
                    -0.6568692
                  ]
                },
                {
                  "weights": [
                    -1.0,
                    -0.0477260053,
                    -1.0,
                    0.8865775,
                    -0.78938055,
                    -0.484342217,
                    1.0,
                    1.0,
                    1.0,
                    0.183807313,
                    -0.58234334,
                    -0.211829782,
                    -0.1992091,
                    0.0468514562,
                    1.0,
                    -0.4202832,
                    0.385784119,
                    0.709173441,
                    0.448003978,
                    -1.0,
                    0.3507907,
                    0.5261071,
                    0.533834457,
                    0.859673262,
                    -0.07999742,
                    0.649394631,
                    0.015609324,
                    -1.0,
                    0.285043478,
                    0.7119889
                  ]
                },
                {
                  "weights": [
                    0.308244824,
                    -0.115167856,
                    1.0,
                    0.2387273,
                    -0.221023053,
                    -0.360746831,
                    0.705623865,
                    0.163270533,
                    -0.795145333,
                    0.217581868,
                    -0.233889639,
                    0.2386638,
                    -1.0,
                    -0.0343078971,
                    0.1361711,
                    0.400927752,
                    0.734884739,
                    -0.9222664,
                    -0.5827044,
                    -1.0,
                    -0.368892431,
                    0.6722553,
                    0.912144244,
                    -0.149888515,
                    -0.6487199,
                    1.0,
                    -0.171004251,
                    -0.51221776,
                    -0.618948936,
                    -0.445100754
                  ]
                },
                {
                  "weights": [
                    0.6731515,
                    -0.179302335,
                    -0.548426,
                    0.61641705,
                    -0.5830903,
                    1.0,
                    0.07520121,
                    0.8144464,
                    -1.0,
                    -0.120577812,
                    0.194708943,
                    1.0,
                    0.0473401845,
                    -0.320218056,
                    1.0,
                    -0.5250188,
                    0.0860255957,
                    -0.141852915,
                    -0.0624494553,
                    1.0,
                    0.650963664,
                    0.475280881,
                    -0.4672937,
                    1.0,
                    -0.467807174,
                    0.546036959,
                    0.244280279,
                    -1.0,
                    0.9591555,
                    -0.217606187
                  ]
                },
                {
                  "weights": [
                    0.201523185,
                    -0.734224439,
                    0.07829678,
                    0.4662712,
                    0.441239148,
                    -1.0,
                    0.538155,
                    0.7232449,
                    -0.9635006,
                    -0.0435443521,
                    -1.0,
                    -0.94422555,
                    0.124603987,
                    0.5445597,
                    0.195051134,
                    0.07601471,
                    0.160434544,
                    -0.876486361,
                    1.0,
                    -0.08446917,
                    -0.433918118,
                    -0.07346058,
                    -0.7683803,
                    -0.276962578,
                    -0.473131418,
                    -0.269527256,
                    0.2849495,
                    -0.5522539,
                    -0.8480785,
                    -0.5070524
                  ]
                },
                {
                  "weights": [
                    0.1387364,
                    1.0,
                    1.0,
                    0.160934329,
                    -0.4831003,
                    0.5370755,
                    0.0705093145,
                    0.4675449,
                    0.4898368,
                    -1.0,
                    0.8620195,
                    -1.0,
                    -0.420482755,
                    -0.6786946,
                    -0.151462674,
                    0.583969831,
                    -0.5008817,
                    -1.0,
                    1.0,
                    0.395101458,
                    0.4456864,
                    -1.0,
                    0.8841597,
                    -0.476522565,
                    0.923038,
                    0.330318153,
                    -0.45851028,
                    -0.818897963,
                    -0.112019837,
                    0.3555493
                  ]
                },
                {
                  "weights": [
                    -0.6438525,
                    -0.4566223,
                    -1.0,
                    -1.0,
                    0.409975976,
                    0.7437277,
                    -0.293132365,
                    0.184562325,
                    -0.07406157,
                    0.7535639,
                    -0.245803237,
                    -0.306975126,
                    -0.238741547,
                    0.8922818,
                    0.6628783,
                    0.9859129,
                    -0.8741208,
                    0.358033121,
                    1.0,
                    0.393005133,
                    0.9773234,
                    -0.109869123,
                    -0.355757654,
                    0.6436452,
                    -0.202633619,
                    -0.7197842,
                    0.76781106,
                    0.009840727,
                    1.0,
                    0.727567434
                  ]
                }
              ]
            },
            {
              "neurons": [
                {
                  "weights": [
                    -1.0,
                    -0.13838309,
                    -0.434254527,
                    0.0715916157,
                    0.504158854,
                    -0.120989919,
                    -0.8572147,
                    0.120822489,
                    -1.0,
                    -0.00115299225,
                    -1.0,
                    0.837010562,
                    1.0,
                    0.7338816,
                    -0.5275503,
                    0.187231541,
                    0.445626736,
                    -0.11411956,
                    0.7601203,
                    -0.627059937,
                    1.0,
                    0.6108784,
                    -0.312314272,
                    -0.5241389,
                    0.577085,
                    1.0,
                    0.603946,
                    1.0,
                    -1.0,
                    0.72626543
                  ]
                },
                {
                  "weights": [
                    -1.0,
                    -0.656178236,
                    0.489831239,
                    -0.627643347,
                    -1.0,
                    -1.0,
                    -0.396529257,
                    0.4560556,
                    0.293305784,
                    0.5067942,
                    0.3997788,
                    0.451307833,
                    0.6881485,
                    0.116553366,
                    -0.8746195,
                    0.02095151,
                    0.283542454,
                    -0.0624731779,
                    -0.705934763,
                    -0.469579577,
                    0.6694243,
                    -0.4489144,
                    -0.445967317,
                    -0.1222893,
                    -0.0623482466,
                    0.02299434,
                    1.0,
                    1.0,
                    -0.121964216,
                    0.972330749
                  ]
                },
                {
                  "weights": [
                    0.336883515,
                    0.4547525,
                    1.0,
                    0.103927493,
                    0.748708367,
                    -0.350766361,
                    -0.163912952,
                    -0.259524554,
                    -1.0,
                    0.8915726,
                    -0.281066746,
                    -1.0,
                    0.623362541,
                    0.08395797,
                    -0.7548233,
                    1.0,
                    0.171346188,
                    -0.205006242,
                    -0.502304435,
                    -1.0,
                    -1.0,
                    -0.361276865,
                    -0.5938318,
                    -0.324001849,
                    -0.18266356,
                    -0.155503154,
                    -0.321081668,
                    -0.226317525,
                    -0.476665854,
                    -0.0271970034
                  ]
                },
                {
                  "weights": [
                    -0.5407877,
                    -1.0,
                    0.4752526,
                    -0.809980154,
                    -0.3183161,
                    -0.953813851,
                    0.08221099,
                    -0.5667031,
                    -0.9058893,
                    -0.9236767,
                    0.9525117,
                    0.6865332,
                    -0.0161775649,
                    -0.8336984,
                    -0.214994758,
                    -0.8362486,
                    0.8562822,
                    -0.464517474,
                    -0.429077983,
                    -0.709406137,
                    -0.61651206,
                    -0.881574631,
                    0.5748806,
                    -1.0,
                    1.0,
                    -0.300573051,
                    0.7554169,
                    -0.9236748,
                    -0.0946553946,
                    1.0
                  ]
                },
                {
                  "weights": [
                    -0.6116556,
                    -0.538370132,
                    -0.11652863,
                    0.8395866,
                    -0.8488577,
                    -0.320210576,
                    -0.125765979,
                    -0.516885042,
                    0.315088958,
                    -0.7192657,
                    -0.467126727,
                    -0.195517421,
                    -0.6954147,
                    0.138153434,
                    -0.82051456,
                    0.2949443,
                    0.912031054,
                    0.5606762,
                    -0.301504016,
                    -0.2642128,
                    -0.543098,
                    0.265181541,
                    -1.0,
                    0.322715759,
                    -1.0,
                    -1.0,
                    1.0,
                    0.894356966,
                    1.0,
                    -0.493837476
                  ]
                },
                {
                  "weights": [
                    -0.8997326,
                    -0.81308943,
                    0.757357061,
                    -0.867270231,
                    0.993856668,
                    0.09084654,
                    1.0,
                    -0.165753722,
                    0.7595736,
                    -0.695885956,
                    0.0127561092,
                    -1.0,
                    1.0,
                    -0.458176762,
                    1.0,
                    -0.877183437,
                    -0.06458306,
                    -1.0,
                    0.04446757,
                    -0.402716,
                    -0.1803807,
                    -0.280408919,
                    0.392722338,
                    -0.9752929,
                    -0.306055248,
                    -1.0,
                    -0.988401651,
                    -0.5269438,
                    0.6734844,
                    0.6963985
                  ]
                },
                {
                  "weights": [
                    -0.180844218,
                    -0.973162651,
                    0.259449452,
                    -0.584725261,
                    0.4329016,
                    0.510055065,
                    1.0,
                    -0.6788826,
                    1.0,
                    -0.298720181,
                    -0.7024827,
                    0.474078745,
                    -0.35240978,
                    1.0,
                    -0.164635956,
                    -0.05584365,
                    -0.593708456,
                    -0.0237256289,
                    0.228060246,
                    -1.0,
                    -1.0,
                    -0.59150815,
                    0.2907709,
                    0.371765643,
                    0.0621783733,
                    -0.989448965,
