{
  "experiment_name": "POOLING",
  "evolutions": [
    [
      {
        "brain_network": {
          "layers": [
            {
              "neurons": [
                {
                  "weights": null
                },
                {
                  "weights": null
                },
                {
                  "weights": null
                },
                {
                  "weights": null
                },
                {
                  "weights": null
                },
                {
                  "weights": null
                },
                {
                  "weights": null
                },
                {
                  "weights": null
                },
                {
                  "weights": null
                },
                {
                  "weights": null
                }
              ]
            },
            {
              "neurons": [
                {
                  "weights": [
                    0.680441558,
                    1.0,
                    1.0,
                    0.22389555,
                    -0.07296237,
                    -1.0,
                    -0.446224749,
                    1.0,
                    -0.7676279,
                    1.0
                  ]
                },
                {
                  "weights": [
                    0.514659,
                    -0.358082473,
                    0.154072821,
                    0.863466442,
                    -0.18511641,
                    -0.158970624,
                    -0.313880056,
                    0.155352235,
                    1.0,
                    1.0
                  ]
                },
                {
                  "weights": [
                    -1.0,
                    0.453735948,
                    1.0,
                    -0.7498665,
                    0.193888336,
                    0.8634601,
                    -1.0,
                    -0.7901638,
                    0.9538409,
                    -0.291326761
                  ]
                },
                {
                  "weights": [
                    -0.4740448,
                    1.0,
                    -1.0,
                    0.962907255,
                    1.0,
                    -1.0,
                    -0.575169265,
                    -0.680049658,
                    -0.235317171,
                    -0.0336555243
                  ]
                },
                {
                  "weights": [
                    0.8538239,
                    1.0,
                    -0.137398839,
                    1.0,
                    -0.38645193,
                    -0.118057191,
                    0.0170804262,
                    -0.929626465,
                    -0.308793068,
                    1.0
                  ]
                },
                {
                  "weights": [
                    -0.8005724,
                    0.08461638,
                    -0.0127798319,
                    0.185953081,
                    -0.657236636,
                    0.530302167,
                    0.6528342,
                    -0.899004459,
                    -0.228259146,
                    -0.3936527
                  ]
                },
                {
                  "weights": [
                    0.836902,
                    0.38134557,
                    -1.0,
                    -0.292946577,
                    0.8613218,
                    0.241271392,
                    0.6228468,
                    -0.5691981,
                    0.8847488,
                    0.266936958
                  ]
                },
                {
                  "weights": [
                    0.263338625,
                    0.561341763,
                    1.0,
                    -0.5862302,
                    -0.2934851,
                    -1.0,
                    -0.513685644,
                    0.632181764,
                    0.950363636,
                    -0.45646736
                  ]
                },
                {
                  "weights": [
                    -0.0402123034,
                    -0.400571465,
                    1.0,
                    -0.5395522,
                    0.728791237,
                    0.7919113,
                    0.9288607,
                    0.467811763,
                    -0.8820925,
                    -1.0
                  ]
                },
                {
                  "weights": [
                    -0.200759,
                    -1.0,
                    -0.246783972,
                    -0.0417780876,
                    -0.0777457356,
                    -0.112639487,
                    1.0,
                    -0.0549054146,
                    -1.0,
                    0.6936669
                  ]
                },
                {
                  "weights": [
                    1.0,
                    -1.0,
                    -0.4015805,
                    -1.0,
                    0.562949061,
                    0.322319657,
                    1.0,
                    -1.0,
                    0.09283993,
                    -0.486447573
                  ]
                },
                {
                  "weights": [
                    0.205878586,
                    0.224314123,
                    0.521383762,
                    0.06544536,
                    -0.1321885,
                    0.108528972,
                    0.46708408,
                    1.0,
                    0.438164771,
                    -0.06366843
                  ]
                },
                {
                  "weights": [
                    -1.0,
                    0.309794426,
                    -1.0,
                    0.1261236,
                    -0.0469315946,
                    0.906783,
                    -0.974988937,
                    -0.6406245,
                    -1.0,
                    -0.8209201
                  ]
                },
                {
                  "weights": [
                    1.0,
                    -1.0,
                    -0.7105942,
                    1.0,
                    -0.7604023,
                    -0.83841753,
                    -0.6433843,
                    -1.0,
                    0.778790236,
                    -1.0
                  ]
                },
                {
                  "weights": [
                    0.0536193848,
                    0.3165917,
                    -0.3771886,
                    -0.5719007,
                    -0.5138822,
                    0.157035947,
                    -1.0,
                    -1.0,
                    -0.255369961,
                    -1.0
                  ]
                },
                {
                  "weights": [
                    0.427018642,
                    0.7934131,
                    -0.260638058,
                    1.0,
                    1.0,
                    0.08674407,
                    0.261378616,
                    -0.998498261,
                    -0.0180073678,
                    -0.24772948
                  ]
                },
                {
                  "weights": [
                    0.173955411,
                    -0.414273679,
                    -0.96221,
                    -0.416543245,
                    0.4548232,
                    -1.0,
                    0.285339236,
                    -1.0,
                    -0.375243485,
                    -0.4177154
                  ]
                },
                {
                  "weights": [
                    0.2849785,
                    0.635221839,
                    -1.0,
                    0.7560477,
                    1.0,
                    -0.5385536,
                    1.0,
                    -1.0,
                    -0.192085624,
                    -1.0
                  ]
                },
                {
                  "weights": [
                    0.917725563,
                    0.3675667,
                    0.518953264,
                    0.209289432,
                    -1.0,
                    0.05519277,
                    -1.0,
                    0.893533349,
                    -1.0,
                    -0.1828112
                  ]
                },
                {
                  "weights": [
                    -0.332131058,
                    0.840974331,
                    -0.819811761,
                    -0.6527346,
                    -0.5867446,
                    -0.273795426,
                    -0.7631076,
                    1.0,
                    1.0,
                    1.0
                  ]
                }
              ]
            },
            {
              "neurons": [
                {
                  "weights": [
                    -0.5318455,
                    0.730906963,
                    -0.413734674,
                    -0.449335158,
                    -0.7058244,
                    1.0,
                    0.252771974,
                    -0.8057319,
                    0.299537122,
                    -0.311908722,
                    1.0,
                    0.190281361,
                    0.6868619,
                    -0.167229116,
                    -0.811306536,
                    -0.5466039,
                    1.0,
                    -0.521083,
                    -1.0,
                    -1.0
                  ]
                },
                {
                  "weights": [
                    -0.6621943,
                    -0.21426405,
                    0.5326452,
                    -0.794315934,
                    -1.0,
                    -0.149602115,
                    1.0,
                    0.6524271,
                    0.5765895,
                    0.5824164,
                    0.9208747,
                    0.8451863,
                    0.0524074435,
                    0.9822898,
                    0.06758028,
                    -0.0416539,
                    0.3555662,
                    -0.113172948,
                    0.349419773,
                    0.8342699
                  ]
                },
                {
                  "weights": [
                    -0.461631835,
                    -0.4990022,
                    0.025364399,
                    0.273907721,
                    0.295493037,
                    -0.407215178,
                    -0.255703926,
                    1.0,
                    -1.0,
                    1.0,
                    -0.916917861,
                    0.770723939,
                    -0.073075,
                    -0.0360061228,
                    -1.0,
                    0.8297118,
                    -0.878325,
                    -0.6137877,
                    0.93223983,
                    0.13155818
                  ]
                },
                {
                  "weights": [
                    0.865497351,
                    -0.9172191,
                    -0.493115246,
                    1.0,
                    1.0,
                    -0.596358,
                    -0.1627428,
                    -1.0,
                    0.2957884,
                    0.121179819,
                    0.553947449,
                    -0.08442277,
                    -0.5550418,
                    1.0,
                    0.6064116,
                    -0.06567666,
                    0.165103883,
                    0.203384548,
                    -0.218899429,
                    -1.0
                  ]
                },
                {
                  "weights": [
                    -1.0,
                    -0.54210335,
                    0.141926169,
                    1.0,
                    -1.0,
                    -0.949120045,
                    -0.491907835,
                    0.0503957868,
                    0.209935069,
                    0.595321059,
                    1.0,
                    -0.663778067,
                    1.0,
                    -0.3879597,
                    -0.483384848,
                    -1.0,
                    0.126908183,
                    -0.8575519,
                    -1.0,
                    1.0
                  ]
                },
                {
                  "weights": [
                    0.7788584,
                    -0.102248669,
                    -0.407241762,
                    0.482795715,
                    -0.259610474,
                    -0.788937,
                    -0.807489157,
                    -0.5149566,
                    -0.316213131,
                    1.0,
                    0.0626207,
                    1.0,
                    -0.252112746,
                    1.0,
                    0.41722858,
                    0.318914,
                    1.0,
                    0.416238129,
                    0.230596691,
                    -0.0536882281
                  ]
                },
                {
                  "weights": [
                    -0.009946883,
                    -0.384746432,
                    -0.0710125,
                    0.164866567,
                    -1.0,
                    0.8428469,
                    -0.6253345,
                    -0.7874774,
                    0.147377521,
                    -0.248324871,
                    1.0,
                    -0.354347467,
                    -0.46241504,
                    1.0,
                    0.150459409,
                    1.0,
                    0.4604329,
                    -1.0,
                    -1.0,
                    -1.0
                  ]
                },
                {
                  "weights": [
                    -1.0,
                    -0.354301631,
                    -0.240660071,
                    1.0,
                    -0.0233768448,
                    -1.0,
                    -0.005541563,
                    -0.1612489,
                    0.6515934,
                    -1.0,
                    -0.183142871,
                    0.39491117,
                    1.0,
                    1.0,
                    -0.934991837,
                    -0.407894552,
                    -1.0,
                    -0.8440071,
                    0.3192215,
                    -1.0
                  ]
                },
                {
                  "weights": [
                    0.0411429554,
                    0.06146562,
                    -0.836942554,
                    -1.0,
                    1.0,
                    0.197485328,
                    1.0,
                    0.182907581,
                    0.0351794064,
                    -0.343981147,
                    -0.344134569,
                    -1.0,
                    0.06774479,
                    1.0,
                    0.7099871,
                    -0.0974517763,
                    -1.0,
                    -0.459534049,
                    -1.0,
                    0.139340878
                  ]
                },
                {
                  "weights": [
                    -0.986051142,
                    1.0,
                    -0.0525218248,
                    0.221456051,
                    -0.5250057,
                    -1.0,
                    -0.08032638,
                    1.0,
                    0.344669878,
                    -0.05179429,
                    0.65810883,
                    0.435057223,
                    1.0,
                    0.607300162,
                    0.0178413987,
                    0.134910047,
                    0.0853892,
                    0.18131876,
                    -0.5700108,
                    -0.1563749
                  ]
                },
                {
                  "weights": [
                    -0.544180453,
                    -0.31702137,
                    1.0,
                    0.824675858,
                    -0.718264163,
                    -0.163901746,
                    0.258997381,
                    -0.3780101,
                    1.0,
                    0.321626723,
                    0.240867585,
                    -1.0,
                    1.0,
                    -0.123423934,
                    0.7332449,
                    0.00170093775,
                    0.08285022,
                    1.0,
                    -1.0,
                    0.21617052
                  ]
                },
                {
                  "weights": [
                    -0.444560528,
                    -1.0,
                    0.0157903731,
                    0.714624166,
                    -0.634527266,
                    0.0919826,
                    -0.238968492,
                    -1.0,
                    0.212260157,
                    1.0,
                    0.6295579,
                    0.67437613,
                    -1.0,
                    -0.761136353,
                    -0.24240005,
                    -1.0,
                    -1.0,
                    0.9291246,
                    0.5094167,
                    -0.401415318
                  ]
                },
                {
                  "weights": [
                    0.420992076,
                    0.4047119,
                    -1.0,
                    -1.0,
                    0.2850165,
                    -0.06798485,
                    0.100430518,
                    -1.0,
                    -1.0,
                    -1.0,
                    -0.5153737,
                    1.0,
                    1.0,
                    0.9936241,
                    0.482967079,
                    1.0,
                    -1.0,
                    0.3614626,
                    -0.101454467,
                    -1.0
                  ]
                },
                {
                  "weights": [
                    1.0,
                    -1.0,
                    -0.9297501,
                    0.851886034,
                    -1.0,
                    0.42745626,
                    0.436761737,
                    -1.0,
                    0.883405447,
                    1.0,
                    -0.1760158,
                    -0.06935802,
                    -1.0,
                    0.9873215,
                    -1.0,
                    -1.0,
                    0.0255627632,
                    -0.731803,
                    0.125440717,
                    -0.334086418
                  ]
                },
                {
                  "weights": [
                    -0.246559441,
                    -0.5724511,
                    -0.216563433,
                    -0.4875689,
                    0.509671,
                    0.7264607,
                    -1.0,
                    -0.5248101,
                    0.174472481,
                    0.0689007044,
                    -0.445784926,
                    1.0,
                    -0.8111596,
                    -0.9429655,
                    -0.9013171,
                    -1.0,
                    -1.0,
                    0.4639031,
                    -0.0686011,
                    0.950847864
                  ]
                },
                {
                  "weights": [
                    -1.0,
                    0.650452733,
                    -0.28836748,
                    -0.121484041,
                    -0.09602809,
                    -0.483152449,
                    0.7787248,
                    -1.0,
                    -1.0,
                    -0.5135565,
                    0.785415649,
                    -0.6280357,
                    -0.0581167936,
                    -0.268788874,
                    0.597588956,
                    0.9563427,
                    -0.617615342,
                    0.5294033,
                    0.0497098565,
                    0.2790141
                  ]
                },
                {
                  "weights": [
                    -1.0,
                    0.778329,
                    -1.0,
                    0.4557626,
                    0.366805673,
                    -0.7233834,
                    0.7667548,
                    -0.6140669,
                    -0.425719857,
                    -0.939891,
                    1.0,
                    -1.0,
                    -0.8434423,
                    -0.5971906,
                    -0.401720852,
                    -0.16694802,
                    -0.772609651,
                    1.0,
                    0.8272388,
                    -0.0110515356
                  ]
                },
                {
                  "weights": [
                    0.123494804,
                    0.07121891,
                    -0.283225536,
                    0.810248,
                    -1.0,
                    0.4566937,
                    -0.177513838,
                    1.0,
                    -0.8852596,
                    -0.242292643,
                    0.269821852,
                    -0.093521,
                    0.205948174,
                    -0.7062973,
                    -1.0,
                    -0.314988345,
                    0.420562476,
                    -1.0,
                    0.44603774,
                    -0.555284
                  ]
                },
                {
                  "weights": [
                    -1.0,
                    0.374823868,
                    0.600934863,
                    0.524520159,
                    0.200989842,
                    -0.288791,
                    0.9956181,
                    -0.5124903,
                    0.150328219,
                    0.8245183,
                    0.0183137059,
                    0.993058562,
                    0.81178087,
                    -1.0,
                    1.0,
                    -1.0,
                    -0.455888957,
                    0.16351825,
                    1.0,
                    -0.366559476
                  ]
                },
                {
                  "weights": [
                    0.389024556,
                    0.5522778,
                    1.0,
                    0.485600919,
                    0.362133324,
                    -0.04794267,
                    -0.259723544,
                    0.809545338,
                    0.334148854,
                    1.0,
                    -0.9643131,
                    -0.880283237,
                    0.489349365,
                    1.0,
                    0.578156233,
                    0.549234748,
                    1.0,
                    0.387107849,
                    -1.0,
                    0.7459749
                  ]
                }
              ]
            },
            {
              "neurons": [
                {
                  "weights": [
                    -1.0,
                    -0.131526023,
                    -0.09726455,
                    -0.05943227,
                    -0.0352386832,
                    0.00176382065,
                    0.654826641,
                    -1.0,
                    0.252984554,
                    -1.0,
                    0.387872219,
                    1.0,
                    0.324605,
                    0.8915308,
                    -0.5538315,
                    0.3861074,
                    -1.0,
                    0.434379578,
                    1.0,
                    1.0
                  ]
                },
                {
                  "weights": [
                    -0.0474528074,
                    -1.0,
                    0.0515928268,
                    0.6362534,
                    -0.38610968,
                    1.0,
                    0.835054636,
                    -0.295037776,
                    -0.1603798,
                    -0.7789805,
                    -0.174407661,
                    -1.0,
                    0.449434817,
                    -0.8556268,
                    0.944082,
                    0.5297923,
                    0.0100367367,
                    -0.657356858,
                    1.0,
                    -1.0
                  ]
                },
                {
                  "weights": [
                    -0.8091968,
                    1.0,
                    0.92367357,
                    0.7223635,
                    0.05073601,
                    -0.7047558,
                    0.13132751,
                    1.0,
                    1.0,
                    1.0,
                    0.521633446,
                    0.07593882,
                    1.0,
                    0.928636849,
                    -0.5014076,
                    -0.623246133,
                    -0.6328671,
                    -1.0,
                    -1.0,
                    0.50537765
                  ]
                },
                {
                  "weights": [
                    0.00945437,
                    0.363234371,
                    0.5663769,
                    0.475046873,
                    0.6345627,
                    -0.288368374,
                    0.319915771,
                    0.478725433,
                    -0.2080957,
                    -1.0,
                    -1.0,
                    -1.0,
                    1.0,
                    -0.7849069,
                    1.0,
                    0.287651449,
                    1.0,
                    -1.0,
                    -1.0,
                    1.0
                  ]
                },
                {
                  "weights": [
                    -1.0,
                    -1.0,
                    -1.0,
                    -0.430133939,
                    1.0,
                    0.9382551,
                    0.4589782,
                    0.0243336558,
                    0.167727,
                    0.201661766,
                    -0.879219532,
                    1.0,
                    0.330810547,
                    0.8384021,
                    0.52507484,
                    -0.8549055,
                    -0.2577576,
                    -0.8144066,
                    -0.453464657,
                    0.663325846
                  ]
                },
                {
                  "weights": [
                    -1.0,
                    1.0,
                    -0.5451342,
                    1.0,
                    1.0,
                    -1.0,
                    0.0433837771,
                    -0.6390254,
                    -0.0307887048,
                    0.4143851,
                    1.0,
                    0.9698479,
                    -0.821060658,
                    1.0,
                    -0.103052557,
                    1.0,
                    0.0692622662,
                    -1.0,
                    -0.0808723,
                    -0.653802335
                  ]
                },
                {
                  "weights": [
                    1.0,
                    -0.2598837,
                    -0.5947796,
                    -0.165811837,
                    0.466345519,
                    -1.0,
                    -0.00251692533,
                    0.160106689,
                    1.0,
                    0.6359437,
                    0.1573379,
                    -0.1880467,
                    -0.384975135,
                    0.09774846,
                    0.6565704,
                    -0.89602387,
                    0.396820366,
                    1.0,
                    0.7144257,
                    0.230091155
                  ]
                },
                {
                  "weights": [
                    -0.44930014,
                    0.5495187,
                    -0.6749722,
                    -0.9065834,
                    -0.8180891,
                    0.5854509,
                    0.5018393,
                    -0.882539868,
                    0.538582265,
                    0.5756197,
                    -1.0,
                    -1.0,
                    -0.844210744,
                    0.460522026,
                    1.0,
                    -1.0,
                    0.272470772,
                    0.456188381,
                    0.365859,
                    -1.0
                  ]
                },
                {
                  "weights": [
                    -0.776337445,
                    -0.0222668648,
                    0.118746281,
                    0.893426657,
                    0.6834078,
                    -0.2582102,
                    -1.0,
                    0.0132098794,
                    -0.410444319,
                    1.0,
                    0.4176716,
                    -0.448271751,
                    1.0,
                    0.461289257,
                    -1.0,
                    -0.9936483,
                    -0.102117181,
                    -0.411685467,
                    -1.0,
                    0.06145984
                  ]
                },
                {
                  "weights": [
                    -0.5162018,
                    0.883485258,
                    1.0,
                    1.0,
                    -1.0,
                    0.142091334,
                    0.108161688,
                    0.278449476,
                    1.0,
                    1.0,
                    0.0248759687,
                    -1.0,
                    0.445777178,
                    0.124363005,
                    -1.0,
                    -0.299547076,
                    0.0605011,
                    -0.135313511,
                    0.400969267,
                    0.02067846
                  ]
                },
                {
                  "weights": [
                    0.5575001,
                    1.0,
                    0.0169160813,
                    0.9974163,
                    -0.457944751,
                    1.0,
                    1.0,
                    0.540694952,
                    0.9577006,
                    0.9656348,
                    -0.895848453,
                    0.8319465,
                    0.0111178756,
                    -0.6532647,
                    0.343768537,
                    -0.272744745,
                    0.221845627,
                    -0.330581784,
                    0.3505153,
                    -1.0
                  ]
                },
                {
                  "weights": [
                    0.23261255,
                    -1.0,
                    -0.204632163,
                    -0.565586448,
                    0.617875636,
                    0.0217151642,
                    0.0622650981,
                    1.0,
                    1.0,
                    -1.0,
                    0.02177488,
                    0.366464376,
                    -0.48145175,
                    0.636548042,
                    -0.440358043,
                    0.07174975,
                    0.686926067,
                    -0.269097924,
                    -0.0414152741,
                    -0.6055706
                  ]
                },
                {
                  "weights": [
                    -0.8876297,
                    0.9433648,
                    -0.377546847,
                    -0.953719,
                    -1.0,
                    -0.520143569,
                    -1.0,
                    -0.588100851,
                    -0.5597085,
                    0.579388559,
                    -0.747850955,
                    -0.3818549,
                    0.372287035,
                    -1.0,
                    1.0,
                    -0.060149312,
                    0.149378538,
                    -0.8621223,
                    -1.0,
                    -0.5152273
                  ]
                },
                {
                  "weights": [
                    -1.0,
                    -0.9536892,
                    1.0,
                    -0.248333961,
                    -1.0,
                    -0.5060363,
                    -0.121876776,
                    -0.4714074,
                    1.0,
                    0.348217338,
                    0.0107169747,
                    -1.0,
                    0.8625444,
                    0.660517454,
                    -1.0,
                    -1.0,
                    0.9283149,
                    0.197157264,
                    -0.376919955,
                    -1.0
                  ]
                },
                {
                  "weights": [
                    -1.0,
                    -0.24907285,
                    0.0329234,
                    1.0,
                    0.376685917,
                    -0.5197836,
                    1.0,
                    -1.0,
                    -1.0,
                    -1.0,
                    -0.655986667,
                    1.0,
                    -0.618299544,
                    0.7535939,
                    0.160531014,
                    0.674408555,
                    0.371250957,
                    0.8248465,
                    -1.0,
                    0.1698786
                  ]
                },
                {
                  "weights": [
                    -0.118727446,
                    0.4044964,
                    1.0,
                    0.938232362,
                    -1.0,
                    -0.783899367,
                    -0.346872926,
                    -0.54928863,
                    0.8978529,
                    1.0,
                    1.0,
                    0.935848,
                    -1.0,
                    1.0,
                    -0.219670415,
                    -1.0,
                    -0.205406874,
                    -0.05102378,
                    -0.425373435,
                    -0.43170464
                  ]
                },
                {
                  "weights": [
                    -0.410607934,
                    0.9915248,
                    -0.221649423,
                    0.690605164,
                    0.0590419471,
                    1.0,
                    0.49116087,
                    0.042168498,
                    0.62414217,
                    1.0,
                    0.2505986,
                    -0.8386209,
                    0.7378838,
                    0.539559841,
                    0.301737547,
                    1.0,
                    0.0947036743,
                    -0.675382137,
                    0.758751,
                    0.588809967
                  ]
                },
                {
                  "weights": [
                    -0.435046464,
                    0.10091126,
                    1.0,
                    0.01968968,
                    -1.0,
                    -1.0,
                    0.08784032,
                    -1.0,
                    0.097314015,
                    0.06298193,
                    0.906446338,
                    -1.0,
                    0.00480228662,
                    1.0,
                    0.9007398,
                    0.841257334,
                    0.7699601,
                    0.0403254032,
                    0.620523,
                    -1.0
                  ]
                },
                {
                  "weights": [
                    0.222868413,
                    0.357256144,
                    0.5149166,
                    1.0,
                    -1.0,
                    1.0,
                    -0.91425854,
                    0.5833101,
                    1.0,
                    0.462852538,
                    -0.5802934,
                    1.0,
                    -0.2400834,
                    1.0,
                    0.982172251,
                    0.0146977305,
                    -0.51752615,
                    -0.904423356,
                    -0.5496447,
                    -0.5742676
                  ]
                },
                {
                  "weights": [
                    -1.0,
                    0.234362319,
                    0.3384875,
                    0.219450653,
                    0.2289556,
                    0.118718624,
                    1.0,
                    -0.1678195,
                    -0.04036504,
                    1.0,
                    0.157188237,
                    -0.00504219532,
                    0.810124159,
                    -1.0,
                    -0.448221564,
                    1.0,
                    -1.0,
                    -0.654412866,
                    -0.945461035,
                    -0.8285053
                  ]
                }
              ]
            },
            {
              "neurons": [
                {
                  "weights": [
                    1.0,
                    -1.0,
                    0.7011759,
                    -1.0,
                    -0.828944862,
                    -1.0,
                    -1.0,
                    -1.0,
                    -0.9368886,
                    0.979410648,
                    -1.0,
                    0.229628325,
                    0.8754923,
                    1.0,
                    0.435662836,
                    -0.315005153,
                    1.0,
                    0.7985857,
                    0.249919534,
                    -0.377820373
                  ]
                },
                {
                  "weights": [
                    -0.5880745,
                    0.8242849,
                    1.0,
                    0.0260266662,
                    0.509884,
                    0.335114926,
                    0.179079413,
                    -0.352427751,
                    -1.0,
                    0.1784971,
                    -0.6669971,
                    1.0,
                    0.357974529,
                    0.440861344,
                    0.6457828,
                    0.722829044,
                    -0.9841413,
                    -0.9305108,
                    -0.6846249,
                    0.444137871
                  ]
                },
                {
                  "weights": [
                    -0.33452493,
                    1.0,
                    -0.7374085,
                    -1.0,
                    -1.0,
                    -0.181457072,
                    -0.411727816,
                    -0.25779745,
                    0.8923242,
                    -0.1699627,
                    0.4682073,
                    -0.187414825,
                    0.15038085,
                    -0.382754028,
                    1.0,
                    0.278195083,
                    -0.17962414,
                    1.0,
                    -0.179595783,
                    1.0
                  ]
                },
                {
                  "weights": [
                    1.0,
                    -0.199878246,
                    -0.433653057,
                    -0.384741962,
                    0.512416,
                    -0.04723364,
                    -1.0,
                    0.268525273,
                    0.597008765,
                    -1.0,
                    0.398478478,
                    -0.564217567,
                    0.496014178,
                    -0.531541348,
                    -1.0,
                    0.633826,
                    -0.5034732,
                    0.396827519,
                    -1.0,
                    0.0981423557
                  ]
                },
                {
                  "weights": [
                    -0.630743742,
                    -1.0,
                    0.596817732,
                    1.0,
                    0.466887772,
                    -0.8292813,
                    -0.156752557,
                    0.0433691144,
                    1.0,
                    0.273848921,
                    -0.270428449,
                    -0.7404045,
                    -0.00384394825,
                    -0.58950603,
                    -0.7118694,
                    -0.4103338,
                    -1.0,
                    0.12924999,
                    -1.0,
                    -0.5260211
                  ]
                },
                {
                  "weights": [
                    -0.502531648,
                    -0.0939121842,
                    1.0,
                    0.152207971,
                    1.0,
                    -0.07072592,
                    -0.6341586,
                    -0.8094859,
                    1.0,
                    -1.0,
                    1.0,
                    -1.0,
                    0.3967629,
                    1.0,
                    -0.621543765,
                    -0.0013602376,
                    -0.575214744,
                    -0.08293104,
                    1.0,
                    -1.0
                  ]
                },
                {
                  "weights": [
                    -1.0,
                    1.0,
                    -0.8728626,
                    -0.6992287,
                    -1.0,
                    -0.712046862,
                    -1.0,
                    -1.0,
                    -0.446607947,
                    -1.0,
                    -0.2719498,
                    1.0,
                    -0.8576307,
                    1.0,
                    1.0,
                    -0.05992186,
                    1.0,
                    0.7706138,
                    0.7740712,
                    -0.8194027
                  ]
                },
                {
                  "weights": [
                    1.0,
                    0.60301,
                    1.0,
                    0.286820471,
                    1.0,
                    0.740100265,
                    0.282299519,
                    0.9264473,
                    1.0,
                    -0.6467023,
                    0.462701976,
                    -0.6448239,
                    0.237731874,
                    -0.951019466,
                    0.187527388,
                    -0.740584731,
                    0.7120589,
                    0.186451077,
                    -1.0,
                    -0.2770205
                  ]
                },
                {
                  "weights": [
                    0.549524069,
                    -0.5937671,
                    -0.9316975,
                    0.271871746,
                    1.0,
                    -0.644440055,
                    1.0,
                    0.1226936,
                    0.4551829,
                    -0.0173997283,
                    -0.471963972,
                    0.6847963,
                    0.35513407,
                    -1.0,
                    -1.0,
                    -0.498336554,
                    -1.0,
                    -0.534016132,
                    -0.532647848,
                    0.227812767
                  ]
                },
                {
                  "weights": [
                    0.183874488,
                    -0.6170893,
                    -0.359498858,
                    0.7357532,
                    -0.391173482,
                    1.0,
                    -0.125442624,
                    -0.5198364,
                    -0.458283335,
                    -0.0300610662,
                    1.0,
                    0.06654084,
                    0.1733273,
                    -1.0,
                    -0.621083736,
                    -0.5333277,
                    0.321969777,
                    0.0244071484,
                    0.223235726,
                    -0.8537947
                  ]
                },
                {
                  "weights": [
                    1.0,
                    -0.1315035,
                    0.173143983,
                    -0.51851815,
                    0.8271674,
                    1.0,
                    0.5913326,
                    -0.32682085,
                    -1.0,
                    -0.4790412,
                    1.0,
                    1.0,
                    -1.0,
                    -0.6653283,
                    -1.0,
                    1.0,
                    -0.00763332844,
                    0.794762552,
                    -0.221864462,
                    -0.436106265
                  ]
                },
                {
                  "weights": [
                    -1.0,
                    -1.0,
                    0.0571988821,
                    0.3761803,
                    -1.0,
                    -0.460583329,
                    -0.9560496,
                    0.269471467,
                    0.39498058,
                    -0.587452,
                    -1.0,
                    0.167984486,
                    -0.285195649,
                    0.12268497,
                    -0.8822012,
                    -1.0,
                    0.5512147,
                    -0.350311816,
                    0.316838175,
                    0.366035372
                  ]
                },
                {
                  "weights": [
                    -0.07416266,
                    -0.7252387,
                    0.51366955,
                    0.447913527,
                    -0.1160993,
                    0.392531633,
                    1.0,
                    -1.0,
                    -0.9599111,
                    0.340962142,
                    1.0,
                    -0.953723,
                    0.50381434,
                    -0.7249407,
                    1.0,
                    -0.9393753,
                    -0.50984937,
                    0.613793135,
                    -0.9428928,
                    -0.8545072
                  ]
                },
                {
                  "weights": [
                    0.6564367,
                    0.540413141,
                    -0.3898269,
                    -0.9537886,
                    0.5529726,
                    1.0,
                    1.0,
                    0.6011872,
                    -1.0,
                    -0.0578252673,
                    -0.3393829,
                    0.7680473,
                    -0.388603926,
                    -0.216494709,
                    0.1298312,
                    -0.299846262,
                    -0.23598361,
                    0.880702257,
                    -0.0114038959,
                    -1.0
                  ]
                },
                {
                  "weights": [
                    -1.0,
                    -0.73504287,
                    0.679240346,
                    0.178702921,
                    -1.0,
                    0.00933346152,
                    1.0,
                    -0.7853966,
                    1.0,
                    1.0,
                    0.00738322735,
                    -0.7265482,
                    -0.09002286,
                    -0.0254508257,
                    1.0,
                    0.990775347,
                    1.0,
                    -0.8207828,
                    0.2146061,
                    -1.0
                  ]
                },
                {
                  "weights": [
                    0.611070156,
                    -0.6733146,
                    0.21449405,
                    0.09024584,
                    0.0587515533,
                    1.0,
                    -0.02020514,
                    0.6508943,
                    -0.1243453,
                    0.8798571,
                    1.0,
                    0.893339753,
                    0.1333842,
                    -0.970029533,
                    0.223464191,
                    -0.4742605,
                    -0.645940244,
                    0.589238167,
                    -0.391333729,
                    0.728474855
                  ]
                },
                {
                  "weights": [
                    1.0,
                    -0.594747841,
                    -0.102423966,
                    1.0,
                    -0.445770264,
                    -0.9735219,
                    1.0,
                    -0.265582681,
                    0.0299795866,
                    0.9690905,
                    1.0,
                    0.2297877,
                    -0.0762338042,
                    0.364498436,
                    1.0,
                    0.282470226,
                    0.9218001,
                    -0.109789193,
                    -0.653531551,
                    1.0
                  ]
                },
                {
                  "weights": [
                    0.95068264,
                    0.4508299,
                    0.9116246,
                    -0.819947064,
                    -0.292107284,
                    1.0,
                    -1.0,
                    -0.147055477,
                    0.8417812,
                    0.470014155,
                    -0.8527306,
                    -1.0,
                    -0.301640183,
                    0.867212236,
                    -0.4366946,
                    0.421719968,
                    -0.980617046,
                    0.121414244,
                    1.0,
                    0.433761567
                  ]
                },
                {
                  "weights": [
                    -0.550021,
                    0.312424719,
                    0.428538471,
                    0.472867668,
                    0.02949667,
                    -0.6176287,
                    0.812289536,
                    -1.0,
                    0.27867,
                    0.559386134,
                    -0.4389077,
                    1.0,
                    0.666101456,
                    1.0,
                    -0.5072317,
                    1.0,
                    -0.249125421,
                    -0.156422675,
                    -0.2483952,
                    -1.0
                  ]
                },
                {
                  "weights": [
                    -0.6857598,
                    0.98527,
                    0.123887479,
                    0.5659213,
                    -1.0,
                    1.0,
                    -1.0,
                    -0.141259447,
                    -0.184274673,
                    -1.0,
                    -0.594478846,
                    0.35624364,
                    0.196553156,
                    0.161428273,
                    -1.0,
                    -0.913917959,
                    -0.656594038,
                    1.0,
                    0.208493948,
                    0.205456913
                  ]
                }
              ]
            },
            {
              "neurons": [
                {
                  "weights": [
                    -1.0,
                    0.966446042,
                    -0.5879451,
                    1.0,
                    0.9258355,
                    -0.350809753,
                    0.8586331,
                    -0.782415152,
                    1.0,
                    0.227815688,
                    0.0533105135,
                    0.307344019,
                    -0.337764323,
                    -0.6381131,
                    0.4523302,
                    0.0305689275,
                    -1.0,
                    1.0,
                    0.1854975,
                    -1.0
                  ]
                },
                {
                  "weights": [
                    0.0441952944,
                    -0.343308032,
                    -0.5402629,
                    0.7240456,
                    1.0,
                    0.77419734,
                    1.0,
                    1.0,
                    0.352892756,
                    0.8972827,
                    1.0,
                    -0.5556998,
                    0.353850543,
                    -1.0,
                    1.0,
                    -1.0,
                    -1.0,
                    0.140174329,
                    -1.0,
                    -0.215064913
                  ]
                },
                {
                  "weights": [
                    0.814625144,
                    -0.9566058,
                    -0.8127856,
                    0.2456913,
                    -0.08119643,
                    -0.560248852,
                    -1.0,
                    0.273833632,
                    -0.9471309,
                    -0.409298837,
                    -0.012118876,
                    0.6629344,
                    -0.652003646,
                    -1.0,
                    -0.36296463,
                    0.564792454,
                    -0.3348549,
                    -0.487726331,
                    1.0,
                    0.757491946
                  ]
                },
                {
                  "weights": [
                    -1.0,
                    -0.16440469,
                    -0.5636849,
                    0.3013497,
                    1.0,
                    0.0320078731,
                    -1.0,
                    -0.6862212,
                    -1.0,
                    -0.129812241,
                    -1.0,
                    0.791606069,
                    0.05811593,
                    -1.0,
                    -1.0,
                    -0.6680914,
                    -0.363017976,
                    1.0,
                    -0.003895402,
                    1.0
                  ]
                },
                {
                  "weights": [
                    -0.400239944,
                    0.717999041,
                    0.720893562,
                    0.232103467,
                    0.06974417,
                    1.0,
                    -1.0,
                    -1.0,
                    0.163646936,
                    0.639925,
                    0.27741158,
                    0.8152536,
                    0.6039632,
                    -1.0,
                    0.593783,
                    0.008535147,
                    -0.124631077,
                    1.0,
                    1.0,
                    0.733791769
                  ]
                },
                {
                  "weights": [
                    -1.0,
                    -1.0,
                    1.0,
                    1.0,
                    1.0,
                    0.321988285,
                    -0.181266189,
                    -1.0,
                    0.336223781,
                    -0.5501636,
                    -1.0,
                    -0.3151393,
                    -0.638524652,
                    -0.2923656,
                    0.198692888,
                    -1.0,
                    -0.646588862,
                    0.6831462,
                    0.50232023,
                    -1.0
                  ]
                },
                {
                  "weights": [
                    -0.936748266,
                    -1.0,
                    -0.321081281,
                    -0.14899224,
                    0.6666045,
                    0.7936199,
                    -0.254686475,
                    -1.0,
                    0.264957458,
                    -1.0,
                    -1.0,
                    -1.0,
                    -1.0,
                    0.292929173,
                    -1.0,
                    -0.5355506,
                    -1.0,
                    0.7549671,
                    0.468599737,
                    0.9232103
                  ]
                },
                {
                  "weights": [
                    -1.0,
                    1.0,
                    1.0,
                    -0.6826559,
                    0.0916476548,
                    -0.156666756,
                    0.6409972,
                    -0.324575961,
                    0.5107354,
                    1.0,
                    -0.605349958,
                    0.208616734,
                    -0.0903616,
                    0.26725626,
                    1.0,
                    0.5125111,
                    -1.0,
                    1.0,
                    1.0,
                    1.0
                  ]
                },
                {
                  "weights": [
                    -1.0,
                    1.0,
                    -0.7594818,
                    -0.5754148,
                    -0.8337315,
                    0.18152152,
                    -0.386854649,
                    -0.670092344,
                    -0.360346735,
                    0.117664039,
                    1.0,
                    -0.335677981,
                    0.978547931,
                    -0.652488947,
                    -0.923604548,
                    0.3541127,
                    0.2837639,
                    -0.6976708,
                    1.0,
                    -1.0
                  ]
                },
                {
                  "weights": [
                    -0.127880454,
                    0.686249852,
                    1.0,
                    -0.044338882,
                    -1.0,
                    -0.230517328,
                    0.335441768,
                    -1.0,
                    -0.0192927346,
                    0.823359549,
                    -0.7742957,
                    1.0,
                    0.46552527,
                    -1.0,
                    0.779172361,
                    -0.6309413,
                    1.0,
                    0.724565148,
                    0.194094718,
                    1.0
                  ]
                }
              ]
            },
            {
              "neurons": [
                {
                  "weights": [
                    0.819934,
                    -1.0,
                    -1.0,
                    -0.637727141,
                    -0.184327185,
                    -1.0,
                    1.0,
                    0.277609527,
                    1.0,
                    -1.0
                  ]
                },
                {
                  "weights": [
                    0.76179564,
                    -0.200921476,
                    -0.155588627,
                    -1.0,
                    -1.0,
                    -0.204512,
                    -0.351577818,
                    -0.08053854,
                    -0.6053546,
                    0.333112538
                  ]
                },
                {
                  "weights": [
                    1.0,
                    0.866098046,
                    -0.432236761,
                    -0.384201825,
                    -0.6655169,
                    0.881872952,
                    1.0,
                    -0.457391918,
                    0.6487062,
                    0.569198251
                  ]
                },
                {
                  "weights": [
                    0.38187173,
                    -0.966380239,
                    -0.617515743,
                    -0.0900082663,
                    1.0,
                    -0.230145633,
                    -0.0589459836,
                    1.0,
                    -0.6341443,
                    1.0
                  ]
                },
                {
                  "weights": [
                    0.228019744,
                    -0.727054954,
                    -0.5233723,
                    1.0,
                    -1.0,
                    -1.0,
                    -1.0,
                    0.09843251,
                    -1.0,
                    0.8105114
                  ]
                },
                {
                  "weights": [
                    1.0,
                    0.225540161,
                    0.0509640574,
                    0.171728492,
                    0.877634764,
                    0.07081604,
                    1.0,
                    -0.8974052,
                    -0.865209162,
                    0.0304558277
                  ]
                },
                {
                  "weights": [
                    -0.2876929,
                    -0.372589231,
                    0.386383653,
                    0.37718457,
                    1.0,
                    0.0227056667,
                    -1.0,
                    -0.07394932,
                    0.274763584,
                    0.0370745063
                  ]
                },
                {
                  "weights": [
                    -0.0881320238,
                    -1.0,
                    -0.214368314,
                    -0.358994,
                    0.677399039,
                    -0.001378715,
                    1.0,
                    0.0854152441,
                    -0.25425896,
                    -0.5013819
                  ]
                },
                {
                  "weights": [
                    -1.0,
                    -0.401719838,
                    -0.7230052,
                    -0.101471215,
                    1.0,
                    -0.565321445,
                    0.540098131,
                    -0.0483378172,
                    -0.7662981,
                    1.0
                  ]
                },
                {
                  "weights": [
                    0.300996572,
                    0.584165,
                    0.196389616,
                    -1.0,
                    0.03786692,
                    -0.1388312,
                    -1.0,
                    -0.6173527,
                    1.0,
                    -1.0
                  ]
                }
              ]
            },
            {
              "neurons": [
                {
                  "weights": [
                    -0.2897691,
                    1.0,
                    -1.0,
                    1.0,
                    -1.0,
                    0.0489249527,
                    0.859130442,
                    1.0,
                    -1.0,
                    0.230476618
                  ]
                },
                {
                  "weights": [
                    -0.743528545,
                    -1.0,
                    0.8968381,
                    1.0,
                    0.5138282,
                    0.297891319,
                    1.0,
                    -0.6432914,
                    1.0,
                    0.208028376
                  ]
                },
                {
                  "weights": [
                    -1.0,
                    0.9178861,
                    -1.0,
                    -1.0,
                    -1.0,
                    -0.0249429941,
                    0.8282133,
                    -0.334436178,
                    -0.006562948,
                    0.226343408
                  ]
                },
                {
                  "weights": [
                    0.377808928,
                    1.0,
                    -0.253728837,
                    1.0,
                    0.01035881,
                    -0.08020115,
                    0.5036537,
                    1.0,
                    0.130663574,
                    -0.9477071
                  ]
                },
                {
                  "weights": [
                    1.0,
                    -1.0,
                    0.0441880226,
                    -1.0,
                    -0.7404814,
                    -0.656937063,
                    0.135782,
                    0.226600647,
                    1.0,
                    -0.141620636
                  ]
                },
                {
                  "weights": [
                    -1.0,
                    0.430772245,
                    0.177902937,
                    0.09855217,
                    -1.0,
                    1.0,
                    -1.0,
                    -1.0,
                    0.8331345,
                    0.4945474
                  ]
                }
              ]
            }
          ],
          "settings": {
            "layers": [
              10,
              20,
              20,
              20,
              20,
              10,
              10,
              6
            ],
            "error_min": 0.1,
            "error_max": 1.0
          }
        },
        "eye_network": {
          "layers": [
            {
              "filters": [
                {
                  "weights": [
                    [
                      [
                        -1.0,
                        -0.204289109,
                        -0.811267734
                      ],
                      [
                        -1.0,
                        1.0,
                        1.0
                      ],
                      [
                        -0.9076445,
                        1.0,
                        -1.0
                      ]
                    ],
                    [
                      [
                        -1.0,
                        0.183094025,
                        -0.642447948
                      ],
                      [
                        0.3779454,
                        -0.67919594,
                        0.502763033
                      ],
                      [
                        0.0495247841,
                        0.5482612,
                        -0.393044233
                      ]
                    ],
                    [
                      [
                        0.154792935,
                        -0.22455442,
                        0.5215752
                      ],
                      [
                        -0.0126615614,
                        -0.06594321,
                        -1.0
                      ],
                      [
                        0.185350239,
                        0.9893934,
                        -0.657523632
                      ]
                    ]
                  ]
                },
                {
                  "weights": [
                    [
                      [
                        -0.243627846,
                        0.245352328,
                        1.0
                      ],
                      [
                        0.6137869,
                        -0.108668089,
                        -0.304680228
                      ],
                      [
                        -1.0,
                        0.697996855,
                        0.173587888
                      ]
                    ],
                    [
                      [
                        -0.99522984,
                        0.0563432574,
                        -1.0
                      ],
                      [
                        -0.36397174,
                        0.5200229,
                        0.7948421
                      ],
                      [
                        0.22863853,
                        0.285123,
                        0.7064282
                      ]
                    ],
                    [
                      [
                        -1.0,
                        0.8711179,
                        1.0
                      ],
                      [
                        -0.244873315,
                        1.0,
                        -0.794437468
                      ],
                      [
                        -0.5243155,
                        -0.106939346,
                        -0.8125076
                      ]
                    ]
                  ]
                },
                {
                  "weights": [
                    [
                      [
                        0.38126272,
                        -1.0,
                        -0.0357552469
                      ],
                      [
                        0.0680955052,
                        1.0,
                        0.405963659
                      ],
                      [
                        -0.7977822,
                        1.0,
                        -0.6035123
                      ]
                    ],
                    [
                      [
                        0.3043048,
                        1.0,
                        1.0
                      ],
                      [
                        -0.296238542,
                        -0.3377864,
                        -0.6008726
                      ],
                      [
                        -0.754606366,
                        1.0,
                        1.0
                      ]
                    ],
                    [
                      [
                        -0.328170061,
                        1.0,
                        -0.41461882
                      ],
                      [
                        -1.0,
                        0.641271234,
                        0.07161093
                      ],
                      [
                        -1.0,
                        -0.0171225667,
                        0.4025523
                      ]
                    ]
                  ]
                }
              ]
            },
            {
              "filters": [
                {
                  "weights": [
                    [
                      [
                        -1.0,
                        -1.0,
                        -0.4696411
                      ],
                      [
                        -0.0551104248,
                        1.0,
                        -0.0269965529
                      ],
                      [
                        -1.0,
                        -1.0,
                        0.413443148
                      ]
                    ],
                    [
                      [
                        0.1691089,
                        -0.124307752,
                        -0.260862529
                      ],
                      [
                        -0.132495373,
                        0.446600854,
                        -1.0
                      ],
                      [
                        -0.207248628,
                        0.309015632,
                        0.4407933
                      ]
                    ],
                    [
                      [
                        -0.0125488639,
                        -1.0,
                        0.427241743
                      ],
                      [
                        1.0,
                        0.576944947,
                        -0.1856238
                      ],
                      [
                        0.909105659,
                        0.7162446,
                        0.988400936
                      ]
                    ]
                  ]
                },
                {
                  "weights": [
                    [
                      [
                        1.0,
                        0.191728,
                        -1.0
                      ],
                      [
                        -0.574698746,
                        0.05940956,
                        0.422887862
                      ],
                      [
                        1.0,
                        -0.5785482,
                        1.0
                      ]
                    ],
                    [
                      [
                        0.170928746,
                        -0.200037241,
                        1.0
                      ],
                      [
                        -0.286873579,
                        1.0,
                        0.581089
                      ],
                      [
                        0.6552095,
                        -0.6455076,
                        1.0
                      ]
                    ],
                    [
                      [
                        0.718635857,
                        -1.0,
                        -1.0
                      ],
                      [
                        0.175270557,
                        0.271816015,
                        1.0
                      ],
                      [
                        -0.598495364,
                        -1.0,
                        0.819039345
                      ]
                    ]
                  ]
                },
                {
                  "weights": [
                    [
                      [
                        -0.1852181,
                        -0.259352177,
                        0.358047962
                      ],
                      [
                        -0.431933522,
                        -0.989543855,
                        -0.0199807286
                      ],
                      [
                        -0.03251964,
                        1.0,
                        -0.842350543
                      ]
                    ],
                    [
                      [
                        0.405761957,
                        -0.09266639,
                        0.5311406
                      ],
                      [
                        -1.0,
                        0.962605357,
                        0.0279952288
                      ],
                      [
                        -0.593696356,
                        -0.0265414119,
                        0.357495844
                      ]
                    ],
                    [
                      [
                        1.0,
                        0.5072196,
                        1.0
                      ],
                      [
                        0.806372,
                        0.02114898,
                        -0.922808766
                      ],
                      [
                        -1.0,
                        -0.416529655,
                        -0.9243604
                      ]
                    ]
                  ]
                }
              ]
            },
            {
              "filters": [
                {
                  "weights": [
                    [
                      [
                        1.0,
                        1.0,
                        0.226960957
                      ],
                      [
                        -1.0,
                        0.2855999,
                        1.0
                      ],
                      [
                        -1.0,
                        -0.406444252,
                        1.0
                      ]
                    ],
                    [
                      [
                        1.0,
                        0.470113873,
                        0.04113105
                      ],
                      [
                        -0.07669753,
                        -0.868552864,
                        1.0
                      ],
                      [
                        -1.0,
                        -1.0,
                        -0.08475676
                      ]
                    ],
                    [
                      [
                        -0.8815019,
                        1.0,
                        -1.0
                      ],
                      [
                        -0.2854523,
                        -0.7990032,
                        -0.384431779
                      ],
                      [
                        -0.445078075,
                        -1.0,
                        0.06600058
                      ]
                    ]
                  ]
                },
                {
                  "weights": [
                    [
                      [
                        1.0,
                        -0.5160122,
                        -1.0
                      ],
                      [
                        -0.0247148573,
                        0.280163884,
                        0.078510195
                      ],
                      [
                        -0.6694181,
                        0.836864948,
                        -1.0
                      ]
                    ],
                    [
                      [
                        1.0,
                        0.2830038,
                        -0.14538461
                      ],
                      [
                        -1.0,
                        0.8559581,
                        -0.0990740657
                      ],
                      [
                        -1.0,
                        -0.433145374,
                        0.09895265
                      ]
                    ],
                    [
                      [
                        -1.0,
                        1.0,
                        0.176021636
                      ],
                      [
                        -0.319677472,
                        -1.0,
                        -0.08698681
                      ],
                      [
                        -0.7064401,
                        -0.2732665,
                        1.0
                      ]
                    ]
                  ]
                },
                {
                  "weights": [
                    [
                      [
                        -1.0,
                        0.4483073,
                        -1.0
                      ],
                      [
                        0.282229662,
                        0.667977631,
                        -1.0
                      ],
                      [
                        -0.352578938,
                        0.543722,
                        0.6569935
                      ]
                    ],
                    [
                      [
                        1.0,
                        0.380303741,
                        -1.0
                      ],
                      [
                        0.736052454,
                        -0.16036284,
                        0.2452215
                      ],
                      [
                        -0.09416774,
                        0.2871452,
                        -0.5240128
                      ]
                    ],
                    [
                      [
                        -1.0,
                        0.847772062,
                        0.2731862
                      ],
                      [
                        1.0,
                        0.08073777,
                        0.0408165455
                      ],
                      [
                        -0.413645983,
                        -1.0,
                        0.975212753
                      ]
                    ]
                  ]
                }
              ]
            }
          ],
          "settings": {
            "input_size": {
              "x": 80,
              "y": 50
            },
            "layer_count": 3,
            "filter_size": {
              "x": 3,
              "y": 3
            },
            "pooling_size": {
              "x": 3,
              "y": 3
            },
            "stride": 1,
            "padding": 0,
            "error_min": 0.1,
            "error_max": 1.0
          }
        },
        "generation": 7144,
        "color": {
          "r": 0.5500001,
          "g": 0.950000167,
          "b": 0.2,
          "a": 1.0
        }
      },
      {
        "brain_network": {
          "layers": [
            {
              "neurons": [
                {
                  "weights": null
                },
                {
                  "weights": null
                },
                {
                  "weights": null
                },
                {
                  "weights": null
                },
                {
                  "weights": null
                },
                {
                  "weights": null
                },
                {
                  "weights": null
                },
                {
                  "weights": null
                },
                {
                  "weights": null
                },
                {
                  "weights": null
                }
              ]
            },
            {
              "neurons": [
                {
                  "weights": [
                    0.680441558,
                    1.0,
                    1.0,
                    0.22389555,
                    -0.07296237,
                    -1.0,
                    -0.446224749,
                    1.0,
                    -0.7676279,
                    1.0
                  ]
                },
                {
                  "weights": [
                    0.514659,
                    -0.358082473,
                    0.154072821,
                    0.863466442,
                    -0.18511641,
                    -0.158970624,
                    -0.313880056,
                    0.155352235,
                    1.0,
                    1.0
                  ]
                },
                {
                  "weights": [
                    -1.0,
                    0.453735948,
                    1.0,
                    -0.7498665,
                    0.193888336,
                    0.8634601,
                    -1.0,
                    -0.7901638,
                    0.9538409,
                    -0.291326761
                  ]
                },
                {
                  "weights": [
                    -0.4740448,
                    1.0,
                    -1.0,
                    0.962907255,
                    1.0,
                    -1.0,
                    -0.575169265,
                    -0.680049658,
                    -0.235317171,
                    -0.0336555243
                  ]
                },
                {
                  "weights": [
                    0.8538239,
                    1.0,
                    -0.137398839,
                    1.0,
                    -0.38645193,
                    -0.118057191,
                    0.0170804262,
                    -0.929626465,
                    -0.308793068,
                    1.0
                  ]
                },
                {
                  "weights": [
                    -0.8005724,
                    0.08461638,
                    -0.0127798319,
                    0.185953081,
                    -0.657236636,
                    0.530302167,
                    0.6528342,
                    -0.899004459,
                    -0.228259146,
                    -0.3936527
                  ]
                },
                {
                  "weights": [
                    0.836902,
                    0.38134557,
                    -1.0,
                    -0.292946577,
                    0.8613218,
                    0.241271392,
                    0.6228468,
                    -0.5691981,
                    0.8847488,
                    0.266936958
                  ]
                },
                {
                  "weights": [
                    0.263338625,
                    0.561341763,
                    1.0,
                    -0.5862302,
                    -0.2934851,
                    -1.0,
                    -0.513685644,
                    0.632181764,
                    0.950363636,
                    -0.45646736
                  ]
                },
                {
                  "weights": [
                    -0.0402123034,
                    -0.400571465,
                    1.0,
                    -0.5395522,
                    0.728791237,
                    0.7919113,
                    0.9288607,
                    0.467811763,
                    -0.8820925,
                    -1.0
                  ]
                },
                {
                  "weights": [
                    -0.200759,
                    -1.0,
                    -0.246783972,
                    -0.0417780876,
                    -0.0777457356,
                    -0.112639487,
                    1.0,
                    -0.0549054146,
                    -1.0,
                    0.6936669
                  ]
                },
                {
                  "weights": [
                    1.0,
                    -1.0,
                    -0.4015805,
                    -1.0,
                    0.562949061,
                    0.322319657,
                    1.0,
                    -1.0,
                    0.09283993,
                    -0.486447573
                  ]
                },
                {
                  "weights": [
                    0.205878586,
                    0.224314123,
                    0.521383762,
                    0.06544536,
                    -0.1321885,
                    0.108528972,
                    0.46708408,
                    1.0,
                    0.438164771,
                    -0.06366843
                  ]
                },
                {
                  "weights": [
                    -1.0,
                    0.309794426,
                    -1.0,
                    0.1261236,
                    -0.0469315946,
                    0.906783,
                    -0.974988937,
                    -0.6406245,
                    -1.0,
                    -0.8209201
                  ]
                },
                {
                  "weights": [
                    1.0,
                    -1.0,
                    -0.7105942,
                    1.0,
                    -0.7604023,
                    -0.83841753,
                    -0.6433843,
                    -1.0,
                    0.778790236,
                    -1.0
                  ]
                },
                {
                  "weights": [
                    0.0536193848,
                    0.3165917,
                    -0.3771886,
                    -0.5719007,
                    -0.5138822,
                    0.157035947,
                    -1.0,
                    -1.0,
                    -0.255369961,
                    -1.0
                  ]
                },
                {
                  "weights": [
                    0.427018642,
                    0.7934131,
                    -0.260638058,
                    1.0,
                    1.0,
                    0.08674407,
                    0.261378616,
                    -0.998498261,
                    -0.0180073678,
                    -0.24772948
                  ]
                },
                {
                  "weights": [
                    0.173955411,
                    -0.414273679,
                    -0.96221,
                    -0.416543245,
                    0.4548232,
                    -1.0,
                    0.285339236,
                    -1.0,
                    -0.375243485,
                    -0.4177154
                  ]
                },
                {
                  "weights": [
                    0.2849785,
                    0.635221839,
                    -1.0,
                    0.7560477,
                    1.0,
                    -0.5385536,
                    1.0,
                    -1.0,
                    -0.192085624,
                    -1.0
                  ]
                },
                {
                  "weights": [
                    0.917725563,
                    0.3675667,
                    0.518953264,
                    0.209289432,
                    -1.0,
                    0.05519277,
                    -1.0,
                    0.893533349,
                    -1.0,
                    -0.1828112
                  ]
                },
                {
                  "weights": [
                    -0.332131058,
                    0.840974331,
                    -0.819811761,
                    -0.6527346,
                    -0.5867446,
                    -0.273795426,
                    -0.7631076,
                    1.0,
                    1.0,
                    1.0
                  ]
                }
              ]
            },
            {
              "neurons": [
                {
                  "weights": [
                    -0.5318455,
                    0.730906963,
                    -0.413734674,
                    -0.449335158,
                    -0.7058244,
                    1.0,
                    0.252771974,
                    -0.8057319,
                    0.299537122,
                    -0.311908722,
                    1.0,
                    0.190281361,
                    0.6868619,
                    -0.167229116,
                    -0.811306536,
                    -0.5466039,
                    1.0,
                    -0.521083,
                    -1.0,
                    -1.0
                  ]
                },
                {
                  "weights": [
                    -0.6621943,
                    -0.21426405,
                    0.5326452,
                    -0.794315934,
                    -1.0,
                    -0.149602115,
                    1.0,
                    0.6524271,
                    0.5765895,
                    0.5824164,
                    0.9208747,
                    0.8451863,
                    0.0524074435,
                    0.9822898,
                    0.06758028,
                    -0.0416539,
                    0.3555662,
                    -0.113172948,
                    0.349419773,
                    0.8342699
                  ]
                },
                {
                  "weights": [
                    -0.461631835,
                    -0.4990022,
                    0.025364399,
                    0.273907721,
                    0.295493037,
                    -0.407215178,
                    -0.255703926,
                    1.0,
                    -1.0,
                    1.0,
                    -0.916917861,
                    0.770723939,
                    -0.073075,
                    -0.0360061228,
                    -1.0,
                    0.8297118,
                    -0.878325,
                    -0.6137877,
                    0.93223983,
                    0.13155818
                  ]
                },
                {
                  "weights": [
                    0.865497351,
                    -0.9172191,
                    -0.493115246,
                    1.0,
                    1.0,
                    -0.596358,
                    -0.1627428,
                    -1.0,
                    0.2957884,
                    0.121179819,
                    0.553947449,
                    -0.08442277,
                    -0.5550418,
                    1.0,
                    0.6064116,
                    -0.06567666,
                    0.165103883,
                    0.203384548,
                    -0.218899429,
                    -1.0
                  ]
                },
                {
                  "weights": [
                    -1.0,
                    -0.54210335,
                    0.141926169,
                    1.0,
                    -1.0,
                    -0.949120045,
                    -0.491907835,
                    0.0503957868,
                    0.209935069,
                    0.595321059,
                    1.0,
                    -0.663778067,
                    1.0,
                    -0.3879597,
                    -0.483384848,
                    -1.0,
                    0.126908183,
                    -0.8575519,
                    -1.0,
                    1.0
                  ]
                },
                {
                  "weights": [
                    0.7788584,
                    -0.102248669,
                    -0.407241762,
                    0.482795715,
                    -0.259610474,
                    -0.788937,
                    -0.807489157,
                    -0.5149566,
                    -0.316213131,
                    1.0,
                    0.0626207,
                    1.0,
                    -0.252112746,
                    1.0,
                    0.41722858,
                    0.318914,
                    1.0,
                    0.416238129,
                    0.230596691,
                    -0.0536882281
                  ]
                },
                {
                  "weights": [
                    -0.009946883,
                    -0.384746432,
                    -0.0710125,
                    0.164866567,
                    -1.0,
                    0.8428469,
                    -0.6253345,
                    -0.7874774,
                    0.147377521,
                    -0.248324871,
                    1.0,
                    -0.354347467,
                    -0.46241504,
                    1.0,
                    0.150459409,
                    1.0,
                    0.4604329,
                    -1.0,
                    -1.0,
                    -1.0
                  ]
                },
                {
                  "weights": [
                    -1.0,
                    -0.354301631,
                    -0.240660071,
                    1.0,
                    -0.0233768448,
                    -1.0,
                    -0.005541563,
                    -0.1612489,
                    0.6515934,
                    -1.0,
                    -0.183142871,
                    0.39491117,
                    1.0,
                    1.0,
                    -0.934991837,
                    -0.407894552,
                    -1.0,
                    -0.8440071,
                    0.3192215,
                    -1.0
                  ]
                },
                {
                  "weights": [
                    0.0411429554,
                    0.06146562,
                    -0.836942554,
                    -1.0,
                    1.0,
                    0.197485328,
                    1.0,
                    0.182907581,
                    0.0351794064,
                    -0.343981147,
                    -0.344134569,
                    -1.0,
                    0.06774479,
                    1.0,
                    0.7099871,
                    -0.0974517763,
                    -1.0,
                    -0.459534049,
                    -1.0,
                    0.139340878
                  ]
                },
                {
                  "weights": [
                    -0.986051142,
                    1.0,
                    -0.0525218248,
                    0.221456051,
                    -0.5250057,
                    -1.0,
                    -0.08032638,
                    1.0,
                    0.344669878,
                    -0.05179429,
                    0.65810883,
                    0.435057223,
                    1.0,
                    0.607300162,
                    0.0178413987,
                    0.134910047,
                    0.0853892,
                    0.18131876,
                    -0.5700108,
                    -0.1563749
                  ]
                },
                {
                  "weights": [
                    -0.544180453,
                    -0.31702137,
                    1.0,
                    0.824675858,
                    -0.718264163,
                    -0.163901746,
                    0.258997381,
                    -0.3780101,
                    1.0,
                    0.321626723,
                    0.240867585,
                    -1.0,
                    1.0,
                    -0.123423934,
                    0.7332449,
                    0.00170093775,
                    0.08285022,
                    1.0,
                    -1.0,
                    0.21617052
                  ]
                },
                {
                  "weights": [
                    -0.444560528,
                    -1.0,
                    0.0157903731,
                    0.714624166,
                    -0.634527266,
                    0.0919826,
                    -0.238968492,
                    -1.0,
                    0.212260157,
                    1.0,
                    0.6295579,
                    0.67437613,
                    -1.0,
                    -0.761136353,
                    -0.24240005,
                    -1.0,
                    -1.0,
                    0.9291246,
                    0.5094167,
                    -0.401415318
                  ]
                },
                {
                  "weights": [
                    0.420992076,
                    0.4047119,
                    -1.0,
                    -1.0,
                    0.2850165,
                    -0.06798485,
                    0.100430518,
                    -1.0,
                    -1.0,
                    -1.0,
                    -0.5153737,
                    1.0,
                    1.0,
                    0.9936241,
                    0.482967079,
                    1.0,
                    -1.0,
                    0.3614626,
                    -0.101454467,
                    -1.0
                  ]
                },
                {
                  "weights": [
                    1.0,
                    -1.0,
                    -0.9297501,
                    0.851886034,
                    -1.0,
                    0.42745626,
                    0.436761737,
                    -1.0,
                    0.883405447,
                    1.0,
                    -0.1760158,
                    -0.06935802,
                    -1.0,
                    0.9873215,
                    -1.0,
                    -1.0,
                    0.0255627632,
                    -0.731803,
                    0.125440717,
                    -0.334086418
                  ]
                },
                {
                  "weights": [
                    -0.246559441,
                    -0.5724511,
                    -0.216563433,
                    -0.4875689,
                    0.509671,
                    0.7264607,
                    -1.0,
                    -0.5248101,
                    0.174472481,
                    0.0689007044,
                    -0.445784926,
                    1.0,
                    -0.8111596,
                    -0.9429655,
                    -0.9013171,
                    -1.0,
                    -1.0,
                    0.4639031,
                    -0.0686011,
                    0.950847864
                  ]
                },
                {
                  "weights": [
                    -1.0,
                    0.650452733,
                    -0.28836748,
                    -0.121484041,
                    -0.09602809,
                    -0.483152449,
                    0.7787248,
                    -1.0,
                    -1.0,
                    -0.5135565,
                    0.785415649,
                    -0.6280357,
                    -0.0581167936,
                    -0.268788874,
                    0.597588956,
                    0.9563427,
                    -0.617615342,
                    0.5294033,
                    0.0497098565,
                    0.2790141
                  ]
                },
                {
                  "weights": [
                    -1.0,
                    0.778329,
                    -1.0,
