[
  {
    "layers": [
      {
        "neurons": [
          {
            "weights": null
          },
          {
            "weights": null
          },
          {
            "weights": null
          },
          {
            "weights": null
          },
          {
            "weights": null
          },
          {
            "weights": null
          },
          {
            "weights": null
          }
        ]
      },
      {
        "neurons": [
          {
            "weights": [
              0.2781138,
              0.154953361,
              -0.08153331,
              -0.8571515,
              0.4673886,
              0.462824076,
              1.0
            ]
          },
          {
            "weights": [
              -0.03903401,
              -0.353449,
              0.256033421,
              -0.865320742,
              -1.0,
              -0.9810474,
              -1.0
            ]
          },
          {
            "weights": [
              0.5857382,
              -0.261936784,
              0.219525456,
              -0.834214,
              0.259358585,
              -1.0,
              -0.9261131
            ]
          },
          {
            "weights": [
              0.6397484,
              -0.8300834,
              -0.156705916,
              0.707772732,
              -0.008577168,
              0.458043069,
              -1.0
            ]
          },
          {
            "weights": [
              0.192550391,
              -0.709345341,
              0.890733957,
              0.739924431,
              0.0611423254,
              -0.9841533,
              -0.6216173
            ]
          },
          {
            "weights": [
              -0.2979449,
              0.293296754,
              0.04640019,
              -0.5616503,
              -0.181811452,
              0.683395863,
              0.21258685
            ]
          },
          {
            "weights": [
              -0.726422548,
              -0.4795385,
              -0.8086934,
              -0.580373049,
              1.0,
              -0.09260142,
              -1.0
            ]
          },
          {
            "weights": [
              -1.0,
              0.07300556,
              1.0,
              -0.4295863,
              -0.1505872,
              -1.0,
              0.5733752
            ]
          },
          {
            "weights": [
              -0.219838262,
              0.59953934,
              0.6109357,
              -0.6358073,
              0.8034262,
              0.720083356,
              -1.0
            ]
          },
          {
            "weights": [
              1.0,
              0.465215921,
              0.951767445,
              0.743172169,
              0.284796357,
              0.08147228,
              -0.524212062
            ]
          }
        ]
      },
      {
        "neurons": [
          {
            "weights": [
              0.1853112,
              0.919938743,
              -0.947262764,
              0.916207552,
              -0.331723332,
              -0.329200625,
              0.8711481,
              0.111552596,
              0.737653,
              -0.5651951
            ]
          },
          {
            "weights": [
              -0.8364737,
              1.0,
              0.244366825,
              -0.9191747,
              -0.456882119,
              -0.2534076,
              -0.979604,
              -0.603497,
              0.984520435,
              -0.496670783
            ]
          },
          {
            "weights": [
              0.3248716,
              -0.482570529,
              0.5971456,
              0.5331001,
              -0.468939662,
              0.5020244,
              0.5233867,
              0.07100117,
              -0.9138707,
              0.6423969
            ]
          },
          {
            "weights": [
              -0.5854173,
              1.0,
              0.551095963,
              -1.0,
              0.235294223,
              -0.636042356,
              -1.0,
              -0.8639326,
              -0.8420348,
              0.13880384
            ]
          },
          {
            "weights": [
              1.0,
              0.6286769,
              -1.0,
              0.245719552,
              -0.89218545,
              0.261942625,
              0.121183813,
              -0.6740401,
              0.1466645,
              -1.0
            ]
          },
          {
            "weights": [
              -0.361497283,
              -0.70547986,
              -0.946039438,
              -0.2284404,
              1.0,
              -0.18816793,
              0.236146092,
              -0.5055797,
              1.0,
              -0.938529253
            ]
          },
          {
            "weights": [
              0.711400867,
              0.728747845,
              -0.720406532,
              -0.9766433,
              -0.203771234,
              -1.0,
              -0.315501,
              -0.4447478,
              -0.481116861,
              -0.295211434
            ]
          },
          {
            "weights": [
              0.3437979,
              -0.0304416418,
              0.424715966,
              0.0591520071,
              0.7709739,
              -0.8359852,
              -0.442317128,
              -0.885874748,
              0.162025928,
              0.0115929842
            ]
          },
          {
            "weights": [
              -0.8327168,
              -0.9055753,
              -1.0,
              0.263865948,
              -0.814586639,
              0.248368144,
              0.92989707,
              -0.955579758,
              -0.8077478,
              0.658287764
            ]
          },
          {
            "weights": [
              0.0886851549,
              -0.0312005281,
              -0.9329426,
              -0.960341454,
              -0.0291455984,
              0.5267658,
              0.91230917,
              -0.07757175,
              0.7671747,
              0.07047546
            ]
          }
        ]
      },
      {
        "neurons": [
          {
            "weights": [
              0.0269428268,
              0.2713885,
              0.1479379,
              -0.7506716,
              0.7885264,
              0.289234728,
              0.819975853,
              -0.151374459,
              0.8045894,
              -0.442962766
            ]
          },
          {
            "weights": [
              0.6985755,
              -0.153318048,
              0.226116061,
              0.0997256339,
              -0.8456056,
              -0.9504285,
              0.124325871,
              -0.210399508,
              -0.395110726,
              0.11733079
            ]
          },
          {
            "weights": [
              0.192368865,
              0.269681662,
              -0.23585403,
              -0.426411778,
              0.906256557,
              -0.286951184,
              -0.5579603,
              -0.6457938,
              0.805003643,
              0.589121342
            ]
          },
          {
            "weights": [
              -0.9073565,
              -0.561534643,
              0.306833237,
              0.0156630278,
              -0.570317745,
              -1.0,
              1.0,
              0.05911672,
              -0.0863992,
              0.751569867
            ]
          },
          {
            "weights": [
              0.951796532,
              -0.391203731,
              0.8897393,
              0.634872437,
              -0.9812021,
              -0.5541811,
              0.110040486,
              -0.056765914,
              0.08713472,
              -1.0
            ]
          },
          {
            "weights": [
              0.471241444,
              -0.169398665,
              1.0,
              -0.178190172,
              -0.07610941,
              -1.0,
              -0.404950976,
              0.835472941,
              -0.0992656946,
              0.472229421
            ]
          },
          {
            "weights": [
              1.0,
              -0.270613,
              -0.208889991,
              0.5310155,
              -0.641067743,
              -0.7737253,
              0.0107175112,
              -0.146566331,
              0.1925323,
              0.0484827757
            ]
          },
          {
            "weights": [
              0.207950473,
              0.449123353,
              0.6662667,
              -0.256709933,
              0.39873898,
              0.5857055,
              0.328931957,
              -0.640924,
              0.5579808,
              -0.07625663
            ]
          },
          {
            "weights": [
              -0.8456886,
              -0.537248135,
              -1.0,
              -0.410043359,
              0.689623237,
              -0.613522053,
              0.47695902,
              -0.05908358,
              1.0,
              -0.5641804
            ]
          },
          {
            "weights": [
              -0.5605874,
              -1.0,
              -0.3031608,
              -0.310078979,
              0.410305858,
              -0.33649528,
              0.578738451,
              -0.486272216,
              1.0,
              0.334628224
            ]
          }
        ]
      },
      {
        "neurons": [
          {
            "weights": [
              -0.9616804,
              0.373362035,
              -0.5473504,
              0.6361582,
              -0.3295523,
              0.174831986,
              -1.0,
              0.0146608353,
              -0.164255261,
              -0.568420649
            ]
          },
          {
            "weights": [
              -1.0,
              -1.0,
              0.183190942,
              0.433590382,
              -0.977270842,
              0.132976651,
              0.265329361,
              -0.7495599,
              0.572430849,
              -0.6762328
            ]
          },
          {
            "weights": [
              -0.235210538,
              0.351085633,
              1.0,
              -0.518334448,
              0.252396554,
              0.448566884,
              0.5596733,
              0.4600663,
              0.496023625,
              1.0
            ]
          },
          {
            "weights": [
              0.119159579,
              0.6932566,
              -0.9892057,
              0.7978997,
              0.906002343,
              -0.6623093,
              -0.7326502,
              0.7698376,
              0.8390782,
              -0.830633163
            ]
          },
          {
            "weights": [
              -0.7218502,
              0.7923963,
              0.9058493,
              -0.954437256,
              0.783987045,
              -0.574587345,
              0.9768388,
              -0.402747035,
              0.191002965,
              -0.976832151
            ]
          },
          {
            "weights": [
              0.55524087,
              0.959401846,
              -0.375155568,
              0.3201501,
              0.9817436,
              0.105132043,
              0.755878,
              0.750579834,
              0.055244565,
              0.9946575
            ]
          },
          {
            "weights": [
              -0.5662894,
              -0.81967926,
              0.447124451,
              0.0496875048,
              0.0254403353,
              -0.3987261,
              0.212988973,
              0.914659739,
              -0.0715674162,
              -0.396563262
            ]
          },
          {
            "weights": [
              -0.963606834,
              -0.8644824,
              0.153105736,
              0.092015624,
              -0.449059367,
              0.414226979,
              -0.169166684,
              0.7734618,
              -0.280616164,
              0.3182325
            ]
          },
          {
            "weights": [
              0.30145213,
              -0.6856277,
              -0.08747256,
              -0.159973025,
              -0.501858234,
              0.4994702,
              0.9885514,
              -0.590608835,
              -0.7208496,
              0.213722825
            ]
          },
          {
            "weights": [
              0.472136676,
              0.8008776,
              0.2544266,
              0.591558158,
              -0.09107387,
              1.0,
              0.5167644,
              -0.9452629,
              -0.920348167,
              0.111433715
            ]
          }
        ]
      },
      {
        "neurons": [
          {
            "weights": [
              0.0150288343,
              -0.266116023,
              0.469405144,
              -0.776187658,
              -0.6233249,
              0.833478451,
              -0.11553061,
              -0.386398673,
              -0.139635921,
              0.08061823
            ]
          },
          {
            "weights": [
              -0.14957583,
              -0.3152542,
              0.4894347,
              -0.7783246,
              -0.15898788,
              -0.725011349,
              -0.3950652,
              0.2350241,
              0.05207336,
              -0.237131238
            ]
          },
          {
            "weights": [
              0.321748734,
              0.56179595,
              -0.6999879,
              -0.5888102,
              0.6524074,
              0.5811796,
              -0.0880481,
              0.4765236,
              -1.0,
              1.0
            ]
          },
          {
            "weights": [
              0.0759651661,
              0.158285022,
              0.7989249,
              0.991575956,
              -0.361922145,
              0.6657851,
              0.05042547,
              -0.647578,
              -0.403407246,
              -0.629477739
            ]
          },
          {
            "weights": [
              0.5764394,
              0.679134667,
              0.3763735,
              0.423336476,
              -0.9342537,
              -0.169205308,
              0.205682278,
              -0.9351108,
              -0.5913031,
              1.0
            ]
          },
          {
            "weights": [
              -0.536109447,
              0.9390595,
              -0.8138946,
              0.690469,
              -0.6226868,
              -0.6976323,
              -0.450957417,
              -0.346060634,
              0.508796,
              0.8353312
            ]
          },
          {
            "weights": [
              -1.0,
              -0.8996978,
              -0.652197838,
              0.09003246,
              -0.6702015,
              -0.795168161,
              -0.406818748,
              -0.6175755,
              0.5514773,
              0.865869761
            ]
          },
          {
            "weights": [
              -0.4216317,
              -0.6189949,
              0.6170393,
              0.37453267,
              0.8457732,
              0.638527155,
              -0.571126938,
              0.0163104534,
              -0.7438176,
              0.6201606
            ]
          },
          {
            "weights": [
              0.996494532,
              0.2386471,
              -0.418723,
              -0.5571685,
              0.0292760134,
              -1.0,
              0.4108,
              -0.7279287,
              0.19085753,
              -1.0
            ]
          },
          {
            "weights": [
              -0.469967961,
              -0.156988084,
              1.0,
              1.0,
              -0.482083678,
              0.115844846,
              0.3940663,
              -0.317259669,
              -0.675298452,
              -1.0
            ]
          }
        ]
      },
      {
        "neurons": [
          {
            "weights": [
              -0.976386547,
              0.247965381,
              0.376078576,
              0.41485998,
              0.0329467058,
              -0.5787823,
              0.3557409,
              0.864730835,
              -0.4899937,
              -1.0
            ]
          },
          {
            "weights": [
              1.0,
              0.441507071,
              0.7859309,
              0.583730459,
              0.1380738,
              0.8428142,
              0.805457354,
              0.531674862,
              -0.255335927,
              0.726016045
            ]
          },
          {
            "weights": [
              0.684198141,
              -0.39512074,
              -0.09132123,
              -0.428896546,
              0.2835304,
              0.615021,
              0.6062467,
              0.0272647142,
              0.0639675856,
              -0.08048591
            ]
          },
          {
            "weights": [
              -0.6644659,
              -0.943815947,
              -0.06888497,
              -0.0929726362,
              0.6412029,
              -0.06867188,
              -0.7731993,
              0.7014911,
              0.843560934,
              -0.2769275
            ]
          },
          {
            "weights": [
              -0.247289777,
              -0.255978584,
              -0.38024503,
              -0.122109056,
              -0.262657732,
              0.9922147,
              -0.87060523,
              -0.393612325,
              -0.7282398,
              1.0
            ]
          },
          {
            "weights": [
              -1.0,
              0.4045548,
              0.571421862,
              -0.6504504,
              -0.466448665,
              -0.5212704,
              0.194842935,
              -0.258687079,
              0.89819026,
              -0.7468288
            ]
          },
          {
            "weights": [
              1.0,
              -0.114350855,
              -0.508837461,
              0.60181427,
              0.560158968,
              -0.5250008,
              -0.714686155,
              -0.04736644,
              -0.6054188,
              0.7028029
            ]
          },
          {
            "weights": [
              0.91466856,
              -0.523460865,
              -0.556252,
              0.9362128,
              -0.191769481,
              0.9274958,
              -0.617649555,
              -0.7972698,
              0.6367781,
              -0.438338637
            ]
          },
          {
            "weights": [
              0.0963000059,
              -0.431653619,
              -0.08263171,
              0.3692348,
              0.6085324,
              -0.9117384,
              -0.0434075,
              -0.6983621,
              0.803766251,
              1.0
            ]
          },
          {
            "weights": [
              0.980834246,
              -0.809253454,
              0.11910218,
              0.132763982,
              0.134407878,
              -0.304122567,
              -0.582315564,
              -0.6141305,
              -0.08220512,
              -0.8932421
            ]
          }
        ]
      },
      {
        "neurons": [
          {
            "weights": [
              0.148595214,
              -0.805481553,
              0.9857745,
              -0.16295284,
              -1.0,
              -0.18093884,
              -0.909996748,
              0.169344068,
              0.0245882273,
              0.6347517
            ]
          },
          {
            "weights": [
              0.183994174,
              0.244899631,
              -0.242831379,
              -0.162087053,
              0.648074865,
              -1.0,
              0.0336688757,
              1.0,
              0.236658156,
              -0.7884996
            ]
          },
          {
            "weights": [
              -0.3567711,
              -0.142043173,
              0.975299835,
              0.920742035,
              0.7573807,
              -0.5445959,
              -0.7715453,
              0.1806637,
              -0.9007217,
              0.6580491
            ]
          },
          {
            "weights": [
              1.0,
              -1.0,
              -0.8463013,
              -1.0,
              -0.458549142,
              -0.7118881,
              0.9388213,
              -0.8066088,
              0.324107856,
              -1.0
            ]
          },
          {
            "weights": [
              0.7614631,
              -0.82776314,
              0.0338979959,
              -0.497784972,
              0.8144524,
              -0.6772906,
              -0.461660028,
              0.347671956,
              -0.321521252,
              -0.916970253
            ]
          },
          {
            "weights": [
              0.8217616,
              1.0,
              -0.175050154,
              0.010482192,
              0.7746966,
              1.0,
              -0.4767854,
              -0.761426,
              -0.913735867,
              0.08400953
            ]
          },
          {
            "weights": [
              -0.5068593,
              -0.981281042,
              -0.3232094,
              0.916403532,
              0.65044117,
              0.8297546,
              -0.9744973,
              -0.842239141,
              -0.6519783,
              -0.369088531
            ]
          },
          {
            "weights": [
              0.91926074,
              -0.663043261,
              -0.6920502,
              0.5111573,
              0.7493918,
              0.288027048,
              0.19275406,
              0.279322833,
              0.4782867,
              0.0600971
            ]
          },
          {
            "weights": [
              0.9172054,
              0.198262811,
              -0.1188041,
              0.534424543,
              -0.09037888,
              -0.4071089,
              -0.7962227,
              0.39658308,
              -0.3277558,
              0.924605131
            ]
          },
          {
            "weights": [
              0.8201277,
              -0.465369582,
              0.7389364,
              0.4396076,
              0.390131921,
              -0.6585269,
              -1.0,
              0.269358844,
              -0.34410727,
              0.178493381
            ]
          }
        ]
      },
      {
        "neurons": [
          {
            "weights": [
              -0.8768568,
              -0.8111377,
              -0.5209725,
              -0.2579298,
              -0.822921038,
              -0.196120858,
              -0.3987412,
              -1.0,
              0.955137551,
              0.74681437
            ]
          },
          {
            "weights": [
              0.658659756,
              -1.0,
              0.669151068,
              -0.1529845,
              -0.05564922,
              -0.787135363,
              0.453896,
              -1.0,
              -0.3869243,
              0.2370641
            ]
          },
          {
            "weights": [
              0.840932846,
              -0.8844795,
              -0.7864361,
              1.0,
              0.09134328,
              -0.749742031,
              0.77727437,
              0.3633239,
              0.2707427,
              -0.016373992
            ]
          },
          {
            "weights": [
              0.5029509,
              0.0412219763,
              -0.881740868,
              0.5114963,
              1.0,
              -0.00260221958,
              -0.885147333,
              0.104975492,
              -0.452733666,
              0.341257542
            ]
          },
          {
            "weights": [
              -0.091267705,
              0.7259593,
              -0.83557,
              -0.815933,
              0.4064541,
              0.148352027,
              -0.5971532,
              0.172452629,
              -0.680501461,
              -0.6592183
            ]
          },
          {
            "weights": [
              0.500426769,
              -0.07782757,
              0.7829153,
              -0.9835715,
              0.117221,
              -0.7275734,
              -0.1397613,
              -0.161718845,
              1.0,
              0.7301085
            ]
          },
          {
            "weights": [
              -0.8419113,
              -0.324147463,
              1.0,
              0.58348155,
              -0.9879472,
              1.0,
              0.1720221,
              0.4370643,
              0.165509582,
              0.124505162
            ]
          },
          {
            "weights": [
              0.5871432,
              0.8013072,
              0.6279828,
              0.5332427,
              0.100015119,
              -0.5649774,
              -0.790507555,
              -0.897501,
              -0.398401856,
              -0.0664206743
            ]
          },
          {
            "weights": [
              -0.0824846,
              -0.5770099,
              0.900061846,
              0.0504099131,
              0.172192931,
              0.5668516,
              -0.655771732,
              -0.359451175,
              -0.6156485,
              -0.9075637
            ]
          },
          {
            "weights": [
              0.3597936,
              -0.10352996,
              0.6331892,
              0.151720941,
              -0.386940479,
              -0.348899245,
              0.347623348,
              1.0,
              -0.6607834,
              -0.364970326
            ]
          }
        ]
      },
      {
        "neurons": [
          {
            "weights": [
              -0.9346888,
              -0.251986653,
              0.9352398,
              -0.695279837,
              -0.785213649,
              -0.9158802,
              0.05902201,
              0.1116392,
              -0.131759763,
              -0.466135859
            ]
          },
          {
            "weights": [
              -0.964938164,
              0.205884814,
              1.0,
              -0.463240266,
              0.3578231,
              -0.8392875,
              0.0562178642,
              -0.156708121,
              0.5262128,
              -1.0
            ]
          },
          {
            "weights": [
              0.307206839,
              -0.537971,
              0.931056261,
              0.3859944,
              0.7063339,
              -0.763848245,
              -0.86904335,
              0.6655884,
              -0.120488048,
              0.340509385
            ]
          },
          {
            "weights": [
              -0.508456469,
              -0.127345681,
              -1.0,
              0.8383588,
              0.172372252,
              -0.771852,
              0.1900872,
              -0.418360353,
              0.2344197,
              0.128351212
            ]
          },
          {
            "weights": [
              0.938125849,
              -0.93202734,
              -1.0,
              -0.439433843,
              0.849383056,
              0.6462343,
              -0.5048313,
              0.8839674,
              0.157585979,
              0.3202632
            ]
          },
          {
            "weights": [
              0.761048555,
              0.2356292,
              -0.836743355,
              -0.444380641,
              0.7010517,
              -0.0419172049,
              0.390508115,
              -0.138563991,
              1.0,
              -0.272237659
            ]
          },
          {
            "weights": [
              -0.8959484,
              0.958334446,
              -0.199737608,
              0.9090903,
              0.9132824,
              -0.829249859,
              0.894902,
              -1.0,
              -0.9524026,
              1.0
            ]
          },
          {
            "weights": [
              -0.785994947,
              0.0244694948,
              -0.4376185,
              -0.1007036,
              -0.5417712,
              0.740001738,
              -0.201044679,
              -0.123248115,
              -0.3156904,
              -0.317031026
            ]
          },
          {
            "weights": [
              0.7749479,
              0.6429274,
              -0.705661058,
              -0.675799131,
              -0.824856758,
              -0.16320622,
              -0.0475665331,
              0.8275306,
              -0.553134441,
              -0.5938246
            ]
          },
          {
            "weights": [
              -0.440932155,
              0.106969595,
              -0.028804183,
              -0.0307074785,
              -0.423767954,
              0.497392982,
              0.247959256,
              -0.396267533,
              -0.495370746,
              -0.452865332
            ]
          }
        ]
      },
      {
        "neurons": [
          {
            "weights": [
              -0.236936688,
              0.127922177,
              0.6777103,
              -0.745283365,
              -0.6993649,
              -0.465144753,
              0.7358966,
              -1.0,
              0.7907584,
              -0.7127194
            ]
          },
          {
            "weights": [
              -0.5762758,
              0.07197726,
              -0.602407753,
              -0.20041573,
              0.11307919,
              0.399235457,
              -0.9972105,
              0.443566442,
              0.2399391,
              0.264616221
            ]
          },
          {
            "weights": [
              -0.945138,
              1.0,
              -0.985692739,
              -1.0,
              -0.5685463,
              -0.363253027,
              0.7178743,
              0.452529967,
              0.759448767,
              0.175399661
            ]
          },
          {
            "weights": [
              1.0,
              -0.0578528643,
              0.564201236,
              0.123604923,
              0.250326365,
              -0.275430083,
              0.4357519,
              -0.5926616,
              -0.168091655,
              0.155983388
            ]
          },
          {
            "weights": [
              -0.779772043,
              -0.0342237353,
              0.6974969,
              0.7450268,
              1.0,
              -0.06536186,
              -0.3936466,
              0.5307485,
              0.320301652,
              -0.198028684
            ]
          },
          {
            "weights": [
              0.2054249,
              0.956176758,
              0.9540174,
              0.555783033,
              0.7059562,
              -0.162907,
              0.7807274,
              -1.0,
              -0.859310746,
              0.0294810534
            ]
          },
          {
            "weights": [
              -0.520406,
              -0.8827393,
              -0.9588692,
              -0.271876454,
              -0.384726644,
              0.9985149,
              -0.38467133,
              0.110375285,
              0.0566869378,
              -0.862066031
            ]
          },
          {
            "weights": [
              0.00324189663,
              0.827359557,
              -0.2510658,
              0.8319173,
              -0.6075382,
              0.5266607,
              -0.9015212,
              0.06952536,
              -0.776339769,
              0.489486665
            ]
          },
          {
            "weights": [
              0.182150155,
              -0.104565024,
              -0.25213182,
              0.632135153,
              -0.605035543,
              -0.5679405,
              -0.18695271,
              -0.4826268,
              -0.824794531,
              0.258540034
            ]
          },
          {
            "weights": [
              -1.0,
              -0.204531074,
              0.7874226,
              0.226473927,
              0.644855738,
              0.529816866,
              -0.169254422,
              -1.0,
              -0.2543173,
              -0.482012868
            ]
          }
        ]
      },
      {
        "neurons": [
          {
            "weights": [
              -1.0,
              -0.0201574564,
              0.025603652,
              -1.0,
              0.576154947,
              -0.235054553,
              0.664188147,
              -0.863343954,
              1.0,
              1.0
            ]
          },
          {
            "weights": [
              0.121898293,
              0.325374335,
              -1.0,
              -0.944311142,
              0.801338434,
              -0.8712108,
              0.9585774,
              0.572202563,
              -0.42268765,
              -0.09395647
            ]
          },
          {
            "weights": [
              0.0457141325,
              0.4752648,
              1.0,
              -1.0,
              -0.19154942,
              -0.924113035,
              -0.6457789,
              -0.9707296,
              -1.0,
              -0.6948633
            ]
          },
          {
            "weights": [
              -0.303198457,
              0.8935689,
              -0.839211941,
              0.356979668,
              0.0208960772,
              -1.0,
              1.0,
              0.39364478,
              -0.363531053,
              -0.8918941
            ]
          },
          {
            "weights": [
              0.6551714,
              1.0,
              -1.0,
              0.408490956,
              0.5197723,
              0.9480574,
              -0.930739641,
              -0.315210938,
              0.06595379,
              1.0
            ]
          },
          {
            "weights": [
              -0.7862638,
              -0.17757082,
              0.153284073,
              0.383504719,
              1.0,
              0.439325541,
              -0.768516064,
              0.986246347,
              0.555884838,
              1.0
            ]
          }
        ]
      }
    ],
    "settings": {
      "layers": [
        7,
        10,
        10,
        10,
        10,
        10,
        10,
        10,
        10,
        10,
        10,
        6
      ],
      "error_min": 0.01,
      "error_max": 0.5
    }
  }
]