[
  {
    "layers": [
      {
        "neurons": [
          {
            "weights": null
          },
          {
            "weights": null
          },
          {
            "weights": null
          }
        ]
      },
      {
        "neurons": [
          {
            "weights": [
              0.7564361,
              -0.887519836,
              -0.7772038
            ]
          },
          {
            "weights": [
              -0.98512125,
              -0.968119144,
              0.39789483
            ]
          },
          {
            "weights": [
              0.00574047863,
              -0.350770682,
              0.171628118
            ]
          },
          {
            "weights": [
              0.5054581,
              0.4932041,
              -0.2840749
            ]
          },
          {
            "weights": [
              -0.925474644,
              -0.686707735,
              -1.0
            ]
          },
          {
            "weights": [
              -0.613503933,
              -0.6883535,
              -0.982703865
            ]
          },
          {
            "weights": [
              0.9966748,
              0.822492838,
              0.251182258
            ]
          },
          {
            "weights": [
              0.105850816,
              0.6681342,
              0.480007857
            ]
          },
          {
            "weights": [
              0.7107065,
              0.910822153,
              0.06846569
            ]
          },
          {
            "weights": [
              -0.007543713,
              0.7879503,
              -0.412806869
            ]
          }
        ]
      },
      {
        "neurons": [
          {
            "weights": [
              -0.4410446,
              1.0,
              -0.410619617,
              -0.8009461,
              -0.740018368,
              0.7112322,
              -0.219236434,
              -0.160367578,
              -0.128128886,
              0.4483826
            ]
          },
          {
            "weights": [
              0.7053187,
              0.8183979,
              0.394863576,
              -0.402297139,
              -0.7168839,
              -0.3246237,
              -0.9685994,
              -0.235958934,
              -0.4354603,
              0.6198323
            ]
          },
          {
            "weights": [
              -0.544188,
              -0.177530169,
              0.354332328,
              -0.364740252,
              -0.6698923,
              -0.530713558,
              0.6298909,
              -0.8818836,
              0.125401139,
              0.5875776
            ]
          },
          {
            "weights": [
              0.090547204,
              -0.181621909,
              -0.280209661,
              0.5370593,
              0.00324904919,
              0.236113191,
              0.584661245,
              0.747964859,
              -0.01062119,
              0.65905714
            ]
          },
          {
            "weights": [
              0.7788532,
              -0.848407269,
              0.5938585,
              0.7315078,
              -0.284290731,
              0.7463796,
              0.750496864,
              -0.335184455,
              -0.268696427,
              0.7767348
            ]
          },
          {
            "weights": [
              0.353877753,
              0.56893605,
              0.390291125,
              -0.799182653,
              0.263346434,
              0.402279377,
              -0.8884062,
              0.312060535,
              -0.72908926,
              0.276257247
            ]
          },
          {
            "weights": [
              0.0387011468,
              -0.05064613,
              0.218331575,
              0.3636348,
              -1.0,
              0.329236239,
              1.0,
              0.115596175,
              0.242491126,
              0.459824055
            ]
          },
          {
            "weights": [
              0.6332166,
              -0.06406677,
              -0.286665082,
              -0.4748267,
              0.260554284,
              0.7911806,
              0.0350152254,
              -1.0,
              -0.91787535,
              -0.206022859
            ]
          },
          {
            "weights": [
              -0.0266815424,
              -0.5654261,
              -0.5830574,
              -0.11774981,
              -0.9447284,
              -0.231124282,
              0.9279244,
              0.482213,
              0.285312831,
              -0.146449447
            ]
          },
          {
            "weights": [
              -0.158348918,
              0.651537657,
              -0.107967585,
              0.8002155,
              0.137482285,
              0.255093783,
              -0.285071254,
              0.100714326,
              0.9065466,
              -0.966261864
            ]
          }
        ]
      },
      {
        "neurons": [
          {
            "weights": [
              -1.0,
              -0.966973543,
              1.0,
              1.0,
              0.6619264,
              -0.653884053,
              0.697871268,
              -1.0,
              1.0,
              0.0548725724
            ]
          },
          {
            "weights": [
              -0.884688854,
              -0.7746161,
              1.0,
              0.6347528,
              -0.4360298,
              -1.0,
              1.0,
              -1.0,
              1.0,
              0.443441331
            ]
          },
          {
            "weights": [
              -1.0,
              -0.3073038,
              0.8225925,
              -0.6127944,
              0.260365933,
              -1.0,
              1.0,
              -1.0,
              1.0,
              0.7409444
            ]
          },
          {
            "weights": [
              -0.84844327,
              -0.813488066,
              -0.0233088732,
              0.842443466,
              0.2295499,
              -0.8572365,
              0.9129402,
              -0.915276766,
              1.0,
              -0.836103439
            ]
          },
          {
            "weights": [
              0.512298346,
              -0.0270811319,
              -0.6886208,
              0.0507363081,
              -0.5602696,
              -0.038818717,
              0.5092795,
              0.188642383,
              0.715835333,
              0.4056961
            ]
          },
          {
            "weights": [
              -0.430888534,
              0.727748156,
              -0.8944607,
              -0.701053262,
              0.8198447,
              0.123940349,
              -0.10673295,
              -0.346419454,
              0.9942944,
              0.865881443
            ]
          }
        ]
      }
    ],
    "settings": {
      "layers": [
        3,
        10,
        10,
        6
      ],
      "error_min": 0.01,
      "error_max": 0.5
    }
  },
  {
    "layers": [
      {
        "neurons": [
          {
            "weights": null
          },
          {
            "weights": null
          },
          {
            "weights": null
          }
        ]
      },
      {
        "neurons": [
          {
            "weights": [
              0.7564361,
              -0.887519836,
              -0.7772038
            ]
          },
          {
            "weights": [
              -0.98512125,
              -0.968119144,
              0.39789483
            ]
          },
          {
            "weights": [
              0.00574047863,
              -0.350770682,
              0.171628118
            ]
          },
          {
            "weights": [
              0.5054581,
              0.4932041,
              -0.2840749
            ]
          },
          {
            "weights": [
              -0.925474644,
              -0.686707735,
              -1.0
            ]
          },
          {
            "weights": [
              -0.613503933,
              -0.6883535,
              -1.0
            ]
          },
          {
            "weights": [
              0.9966748,
              0.822492838,
              0.251182258
            ]
          },
          {
            "weights": [
              0.105850816,
              0.6681342,
              0.480007857
            ]
          },
          {
            "weights": [
              0.7107065,
              0.910822153,
              0.06846569
            ]
          },
          {
            "weights": [
              -0.007543713,
              0.7879503,
              -0.412806869
            ]
          }
        ]
      },
      {
        "neurons": [
          {
            "weights": [
              -0.4410446,
              1.0,
              -0.410619617,
              -0.8009461,
              -0.740018368,
              0.7112322,
              -0.219236434,
              -0.160367578,
              -0.128128886,
              0.4483826
            ]
          },
          {
            "weights": [
              0.7053187,
              0.8183979,
              0.394863576,
              -0.402297139,
              -0.7168839,
              -0.3246237,
              -0.9685994,
              -0.235958934,
              -0.4354603,
              0.6198323
            ]
          },
          {
            "weights": [
              -0.544188,
              -0.177530169,
              0.354332328,
              -0.364740252,
              -0.6698923,
              -0.530713558,
              0.6298909,
              -0.8818836,
              0.125401139,
              0.5875776
            ]
          },
          {
            "weights": [
              0.090547204,
              -0.181621909,
              -0.280209661,
              0.5370593,
              0.00324904919,
              0.236113191,
              0.584661245,
              0.747964859,
              -0.01062119,
              0.65905714
            ]
          },
          {
            "weights": [
              0.7788532,
              -0.848407269,
              0.5938585,
              0.7315078,
              -0.273625016,
              0.7463796,
              0.750496864,
              -0.335184455,
              -0.268696427,
              0.7767348
            ]
          },
          {
            "weights": [
              0.353877753,
              0.56893605,
              0.390291125,
              -0.799182653,
              0.263346434,
              0.402279377,
              -0.8884062,
              0.312060535,
              -0.72908926,
              0.276257247
            ]
          },
          {
            "weights": [
              0.0387011468,
              -0.05064613,
              0.218331575,
              0.3636348,
              -1.0,
              0.329236239,
              1.0,
              0.115596175,
              0.242491126,
              0.459824055
            ]
          },
          {
            "weights": [
              0.6332166,
              -0.06406677,
              -0.286665082,
              -0.4748267,
              0.260554284,
              0.7911806,
              0.0350152254,
              -0.967844963,
              -0.91787535,
              -0.206022859
            ]
          },
          {
            "weights": [
              -0.0266815424,
              -0.5654261,
              -0.5830574,
              -0.11774981,
              -0.9447284,
              -0.231124282,
              0.9279244,
              0.482213,
              0.285312831,
              -0.146449447
            ]
          },
          {
            "weights": [
              -0.158348918,
              0.651537657,
              -0.107967585,
              0.8002155,
              0.137482285,
              0.255093783,
              -0.285071254,
              0.100714326,
              0.9065466,
              -0.966261864
            ]
          }
        ]
      },
      {
        "neurons": [
          {
            "weights": [
              -1.0,
              -0.966973543,
              1.0,
              1.0,
              0.6619264,
              -0.653884053,
              0.697871268,
              -1.0,
              1.0,
              0.0548725724
            ]
          },
          {
            "weights": [
              -0.884688854,
              -0.7746161,
              1.0,
              0.6347528,
              -0.4360298,
              -1.0,
              1.0,
              -1.0,
              1.0,
              0.5852511
            ]
          },
          {
            "weights": [
              -1.0,
              -0.3073038,
              0.8225925,
              -0.6127944,
              0.260365933,
              -1.0,
              1.0,
              -1.0,
              1.0,
              0.7409444
            ]
          },
          {
            "weights": [
              -0.84844327,
              -0.813488066,
              -0.0233088732,
              0.5352273,
              0.2295499,
              -0.8572365,
              0.9129402,
              -0.915276766,
              1.0,
              -0.836103439
            ]
          },
          {
            "weights": [
              0.512298346,
              -0.0270811319,
              -0.6886208,
              0.0507363081,
              -0.5602696,
              -0.038818717,
              0.5092795,
              0.188642383,
              0.715835333,
              0.4056961
            ]
          },
          {
            "weights": [
              -0.430888534,
              0.727748156,
              -0.8944607,
              -0.701053262,
              0.8198447,
              0.123940349,
              -0.10673295,
              -0.346419454,
              0.9942944,
              0.865881443
            ]
          }
        ]
      }
    ],
    "settings": {
      "layers": [
        3,
        10,
        10,
        6
      ],
      "error_min": 0.01,
      "error_max": 0.5
    }
  },
  {
    "layers": [
      {
        "neurons": [
          {
            "weights": null
          },
          {
            "weights": null
          },
          {
            "weights": null
          }
        ]
      },
      {
        "neurons": [
          {
            "weights": [
              0.7564361,
              -0.887519836,
              -0.7772038
            ]
          },
          {
            "weights": [
              -0.98512125,
              -0.968119144,
              0.39789483
            ]
          },
          {
            "weights": [
              0.00574047863,
              -0.350770682,
              0.171628118
            ]
          },
          {
            "weights": [
              0.5054581,
              0.4932041,
              -0.2840749
            ]
          },
          {
            "weights": [
              -0.925474644,
              -0.686707735,
              -1.0
            ]
          },
          {
            "weights": [
              -0.613503933,
              -0.6883535,
              -0.982703865
            ]
          },
          {
            "weights": [
              0.9966748,
              0.822492838,
              0.251182258
            ]
          },
          {
            "weights": [
              0.105850816,
              0.6681342,
              0.480007857
            ]
          },
          {
            "weights": [
              0.7107065,
              0.910822153,
              0.06846569
            ]
          },
          {
            "weights": [
              -0.007543713,
              0.7879503,
              -0.412806869
            ]
          }
        ]
      },
      {
        "neurons": [
          {
            "weights": [
              -0.4410446,
              1.0,
              -0.410619617,
              -0.8009461,
              -0.740018368,
              0.7112322,
              -0.219236434,
              -0.160367578,
              -0.128128886,
              0.4483826
            ]
          },
          {
            "weights": [
              0.7053187,
              0.8183979,
              0.394863576,
              -0.402297139,
              -0.7168839,
              -0.3246237,
              -0.9685994,
              -0.235958934,
              -0.4354603,
              0.6198323
            ]
          },
          {
            "weights": [
              -0.544188,
              -0.177530169,
              0.354332328,
              -0.364740252,
              -0.6698923,
              -0.530713558,
              0.6298909,
              -0.8818836,
              0.125401139,
              0.5875776
            ]
          },
          {
            "weights": [
              0.090547204,
              -0.181621909,
              -0.280209661,
              0.5370593,
              0.00324904919,
              0.236113191,
              0.584661245,
              0.747964859,
              -0.01062119,
              0.65905714
            ]
          },
          {
            "weights": [
              0.7788532,
              -0.848407269,
              0.5938585,
              0.7315078,
              -0.273625016,
              0.7463796,
              0.750496864,
              -0.335184455,
              -0.268696427,
              0.7767348
            ]
          },
          {
            "weights": [
              0.353877753,
              0.56893605,
              0.390291125,
              -0.799182653,
              0.263346434,
              0.402279377,
              -0.8884062,
              0.312060535,
              -0.72908926,
              0.276257247
            ]
          },
          {
            "weights": [
              0.0387011468,
              -0.05064613,
              0.218331575,
              0.3636348,
              -1.0,
              0.329236239,
              1.0,
              0.115596175,
              0.242491126,
              0.459824055
            ]
          },
          {
            "weights": [
              0.6332166,
              -0.06406677,
              -0.286665082,
              -0.4748267,
              0.260554284,
              0.7911806,
              0.0350152254,
              -1.0,
              -0.91787535,
              -0.206022859
            ]
          },
          {
            "weights": [
              -0.0266815424,
              -0.5654261,
              -0.5830574,
              -0.11774981,
              -0.9447284,
              -0.231124282,
              0.9279244,
              0.482213,
              0.285312831,
              -0.146449447
            ]
          },
          {
            "weights": [
              -0.158348918,
              0.651537657,
              -0.107967585,
              0.8002155,
              0.137482285,
              0.255093783,
              -0.285071254,
              0.100714326,
              0.9065466,
              -0.966261864
            ]
          }
        ]
      },
      {
        "neurons": [
          {
            "weights": [
              -1.0,
              -0.966973543,
              1.0,
              1.0,
              0.6619264,
              -0.653884053,
              0.697871268,
              -1.0,
              1.0,
              0.0548725724
            ]
          },
          {
            "weights": [
              -0.884688854,
              -0.7746161,
              1.0,
              0.6347528,
              -0.4360298,
              -1.0,
              1.0,
              -1.0,
              1.0,
              0.443441331
            ]
          },
          {
            "weights": [
              -1.0,
              -0.3073038,
              0.8225925,
              -0.6127944,
              0.260365933,
              -1.0,
              1.0,
              -1.0,
              1.0,
              0.7409444
            ]
          },
          {
            "weights": [
              -0.84844327,
              -1.0,
              -0.0233088732,
              0.5352273,
              0.2295499,
              -0.8572365,
              0.9129402,
              -0.915276766,
              1.0,
              -0.836103439
            ]
          },
          {
            "weights": [
              0.512298346,
              -0.0270811319,
              -0.6886208,
              0.0507363081,
              -0.5602696,
              -0.038818717,
              0.5092795,
              0.188642383,
              0.715835333,
              0.4056961
            ]
          },
          {
            "weights": [
              -0.430888534,
              0.727748156,
              -0.8944607,
              -0.701053262,
              0.8198447,
              0.123940349,
              -0.10673295,
              -0.346419454,
              0.9942944,
              0.865881443
            ]
          }
        ]
      }
    ],
    "settings": {
      "layers": [
        3,
        10,
        10,
        6
      ],
      "error_min": 0.01,
      "error_max": 0.5
    }
  },
  {
    "layers": [
      {
        "neurons": [
          {
            "weights": null
          },
          {
            "weights": null
          },
          {
            "weights": null
          }
        ]
      },
      {
        "neurons": [
          {
            "weights": [
              0.7564361,
              -0.887519836,
              -0.7772038
            ]
          },
          {
            "weights": [
              -0.98512125,
              -0.968119144,
              0.39789483
            ]
          },
          {
            "weights": [
              0.00574047863,
              -0.350770682,
              0.171628118
            ]
          },
          {
            "weights": [
              0.5054581,
              0.4932041,
              -0.2840749
            ]
          },
          {
            "weights": [
              -0.925474644,
              -0.686707735,
              -1.0
            ]
          },
          {
            "weights": [
              -0.613503933,
              -0.6883535,
              -0.982703865
            ]
          },
          {
            "weights": [
              0.9966748,
              0.822492838,
              0.251182258
            ]
          },
          {
            "weights": [
              0.105850816,
              0.6681342,
              0.480007857
            ]
          },
          {
            "weights": [
              0.7107065,
              0.910822153,
              0.06846569
            ]
          },
          {
            "weights": [
              -0.007543713,
              0.7879503,
              -0.412806869
            ]
          }
        ]
      },
      {
        "neurons": [
          {
            "weights": [
              -0.4410446,
              1.0,
              -0.410619617,
              -0.8009461,
              -0.740018368,
              0.7112322,
              -0.219236434,
              -0.160367578,
              -0.128128886,
              0.4483826
            ]
          },
          {
            "weights": [
              0.7053187,
              0.8183979,
              0.394863576,
              -0.402297139,
              -0.7168839,
              -0.3246237,
              -0.9685994,
              -0.235958934,
              -0.4354603,
              0.6198323
            ]
          },
          {
            "weights": [
              -0.544188,
              -0.177530169,
              0.354332328,
              -0.364740252,
              -0.6698923,
              -0.530713558,
              0.6298909,
              -0.8818836,
              0.125401139,
              0.5875776
            ]
          },
          {
            "weights": [
              0.090547204,
              -0.181621909,
              -0.280209661,
              0.5370593,
              0.00324904919,
              0.236113191,
              0.584661245,
              0.747964859,
              -0.01062119,
              0.65905714
            ]
          },
          {
            "weights": [
              0.7788532,
              -0.848407269,
              0.5938585,
              0.7315078,
              -0.273625016,
              0.7463796,
              0.750496864,
              -0.335184455,
              -0.268696427,
              0.7767348
            ]
          },
          {
            "weights": [
              0.353877753,
              0.56893605,
              0.390291125,
              -0.799182653,
              0.263346434,
              0.402279377,
              -0.8884062,
              0.312060535,
              -0.72908926,
              0.276257247
            ]
          },
          {
            "weights": [
              0.0387011468,
              -0.05064613,
              0.218331575,
              0.3636348,
              -1.0,
              0.329236239,
              1.0,
              0.115596175,
              0.242491126,
              0.459824055
            ]
          },
          {
            "weights": [
              0.6332166,
              -0.06406677,
              -0.286665082,
              -0.4748267,
              0.260554284,
              0.7911806,
              0.0350152254,
              -1.0,
              -0.91787535,
              -0.206022859
            ]
          },
          {
            "weights": [
              -0.0266815424,
              -0.5654261,
              -0.5830574,
              -0.11774981,
              -0.9447284,
              -0.231124282,
              0.9279244,
              0.482213,
              0.285312831,
              -0.146449447
            ]
          },
          {
            "weights": [
              -0.158348918,
              0.651537657,
              -0.107967585,
              0.8002155,
              0.137482285,
              0.255093783,
              -0.285071254,
              0.100714326,
              0.9065466,
              -0.966261864
            ]
          }
        ]
      },
      {
        "neurons": [
          {
            "weights": [
              -1.0,
              -0.966973543,
              1.0,
              1.0,
              0.6619264,
              -0.653884053,
              0.697871268,
              -1.0,
              1.0,
              0.0548725724
            ]
          },
          {
            "weights": [
              -0.884688854,
              -0.7746161,
              1.0,
              0.6347528,
              -0.4360298,
              -1.0,
              1.0,
              -1.0,
              1.0,
              0.443441331
            ]
          },
          {
            "weights": [
              -1.0,
              -0.3073038,
              0.8225925,
              -0.6127944,
              0.260365933,
              -1.0,
              1.0,
              -1.0,
              1.0,
              0.7409444
            ]
          },
          {
            "weights": [
              -0.84844327,
              -1.0,
              -0.0233088732,
              0.5352273,
              0.2295499,
              -0.8572365,
              0.9129402,
              -0.915276766,
              1.0,
              -0.836103439
            ]
          },
          {
            "weights": [
              0.512298346,
              -0.0270811319,
              -0.6886208,
              0.0507363081,
              -0.5602696,
              -0.038818717,
              0.5092795,
              0.188642383,
              0.715835333,
              0.4056961
            ]
          },
          {
            "weights": [
              -0.430888534,
              0.727748156,
              -0.8944607,
              -0.701053262,
              0.8198447,
              0.123940349,
              -0.10673295,
              -0.346419454,
              0.9942944,
              0.865881443
            ]
          }
        ]
      }
    ],
    "settings": {
      "layers": [
        3,
        10,
        10,
        6
      ],
      "error_min": 0.01,
      "error_max": 0.5
    }
  },
  {
    "layers": [
      {
        "neurons": [
          {
            "weights": null
          },
          {
            "weights": null
          },
          {
            "weights": null
          }
        ]
      },
      {
        "neurons": [
          {
            "weights": [
              0.7564361,
              -0.887519836,
              -0.7772038
            ]
          },
          {
            "weights": [
              -0.98512125,
              -0.968119144,
              0.39789483
            ]
          },
          {
            "weights": [
              0.00574047863,
              -0.350770682,
              0.171628118
            ]
          },
          {
            "weights": [
              0.5054581,
              0.4932041,
              -0.2840749
            ]
          },
          {
            "weights": [
              -0.925474644,
              -0.686707735,
              -1.0
            ]
          },
          {
            "weights": [
              -0.613503933,
              -0.6883535,
              -0.982703865
            ]
          },
          {
            "weights": [
              0.9966748,
              0.822492838,
              0.251182258
            ]
          },
          {
            "weights": [
              0.105850816,
              0.6681342,
              0.480007857
            ]
          },
          {
            "weights": [
              0.7107065,
              0.910822153,
              0.06846569
            ]
          },
          {
            "weights": [
              -0.007543713,
              0.7879503,
              -0.412806869
            ]
          }
        ]
      },
      {
        "neurons": [
          {
            "weights": [
              -0.4410446,
              1.0,
              -0.410619617,
              -0.8009461,
              -0.740018368,
              0.7112322,
              -0.219236434,
              -0.160367578,
              -0.128128886,
              0.4483826
            ]
          },
          {
            "weights": [
              0.7053187,
              0.8183979,
              0.394863576,
              -0.402297139,
              -0.7168839,
              -0.3246237,
              -0.9685994,
              -0.235958934,
              -0.4354603,
              0.6198323
            ]
          },
          {
            "weights": [
              -0.544188,
              -0.177530169,
              0.354332328,
              -0.364740252,
              -0.6698923,
              -0.530713558,
              0.6298909,
              -0.8818836,
              0.125401139,
              0.5875776
            ]
          },
          {
            "weights": [
              0.090547204,
              -0.181621909,
              -0.280209661,
              0.5370593,
              0.00324904919,
              0.236113191,
              0.584661245,
              0.747964859,
              -0.01062119,
              0.65905714
            ]
          },
          {
            "weights": [
              0.7788532,
              -0.848407269,
              0.5938585,
              0.7315078,
              -0.273625016,
              0.7463796,
              0.750496864,
              -0.335184455,
              -0.268696427,
              0.7767348
            ]
          },
          {
            "weights": [
              0.353877753,
              0.56893605,
              0.390291125,
              -1.0,
              0.263346434,
              0.402279377,
              -0.8884062,
              0.312060535,
              -0.72908926,
              0.276257247
            ]
          },
          {
            "weights": [
              0.0387011468,
              -0.05064613,
              0.218331575,
              0.3636348,
              -1.0,
              0.329236239,
              1.0,
              0.115596175,
              0.242491126,
              0.459824055
            ]
          },
          {
            "weights": [
              0.6332166,
              -0.06406677,
              -0.286665082,
              -0.4748267,
              0.260554284,
              0.7911806,
              0.0350152254,
              -0.967844963,
              -0.91787535,
              -0.206022859
            ]
          },
          {
            "weights": [
              -0.0266815424,
              -0.5654261,
              -0.5830574,
              -0.11774981,
              -0.9447284,
              -0.231124282,
              0.9279244,
              0.482213,
              0.285312831,
              -0.146449447
            ]
          },
          {
            "weights": [
              -0.158348918,
              0.651537657,
              -0.329701841,
              0.8002155,
              0.137482285,
              0.255093783,
              -0.285071254,
              0.100714326,
              0.9065466,
              -0.966261864
            ]
          }
        ]
      },
      {
        "neurons": [
          {
            "weights": [
              -1.0,
              -0.966973543,
              1.0,
              1.0,
              0.6619264,
              -0.653884053,
              0.697871268,
              -1.0,
              1.0,
              0.0548725724
            ]
          },
          {
            "weights": [
              -0.884688854,
              -0.7746161,
              1.0,
              0.6347528,
              -0.4360298,
              -1.0,
              1.0,
              -1.0,
              1.0,
              0.5852511
            ]
          },
          {
            "weights": [
              -1.0,
              -0.3073038,
              0.8225925,
              -0.6127944,
              0.260365933,
              -1.0,
              1.0,
              -1.0,
              1.0,
              0.7409444
            ]
          },
          {
            "weights": [
              -0.84844327,
              -0.813488066,
              -0.0233088732,
              0.5352273,
              0.2295499,
              -0.8572365,
              0.9129402,
              -0.915276766,
              1.0,
              -1.0
            ]
          },
          {
            "weights": [
              0.512298346,
              -0.0270811319,
              -0.6886208,
              0.0507363081,
              -0.5602696,
              -0.038818717,
              0.5092795,
              0.188642383,
              0.715835333,
              0.4056961
            ]
          },
          {
            "weights": [
              -0.430888534,
              0.727748156,
              -0.8944607,
              -0.701053262,
              0.8198447,
              0.123940349,
              -0.10673295,
              -0.346419454,
              0.9942944,
              0.865881443
            ]
          }
        ]
      }
    ],
    "settings": {
      "layers": [
        3,
        10,
        10,
        6
      ],
      "error_min": 0.01,
      "error_max": 0.5
    }
  },
  {
    "layers": [
      {
        "neurons": [
          {
            "weights": null
          },
          {
            "weights": null
          },
          {
            "weights": null
          }
        ]
      },
      {
        "neurons": [
          {
            "weights": [
              0.7564361,
              -0.887519836,
              -0.7772038
            ]
          },
          {
            "weights": [
              -0.98512125,
              -0.968119144,
              0.39789483
            ]
          },
          {
            "weights": [
              0.00574047863,
              -0.350770682,
              0.171628118
            ]
          },
          {
            "weights": [
              0.5054581,
              0.4932041,
              -0.2840749
            ]
          },
          {
            "weights": [
              -0.925474644,
              -0.686707735,
              -1.0
            ]
          },
          {
            "weights": [
              -0.613503933,
              -0.6883535,
              -0.982703865
            ]
          },
          {
            "weights": [
              0.9966748,
              0.822492838,
              0.251182258
            ]
          },
          {
            "weights": [
              0.105850816,
              0.6681342,
              0.480007857
            ]
          },
          {
            "weights": [
              0.7107065,
              0.910822153,
              0.06846569
            ]
          },
          {
            "weights": [
              -0.007543713,
              0.7879503,
              -0.412806869
            ]
          }
        ]
      },
      {
        "neurons": [
          {
            "weights": [
              -0.4410446,
              1.0,
              -0.410619617,
              -0.8009461,
              -0.740018368,
              0.7112322,
              -0.219236434,
              -0.160367578,
              -0.128128886,
              0.4483826
            ]
          },
          {
            "weights": [
              0.7053187,
              0.8183979,
              0.394863576,
              -0.402297139,
              -0.7168839,
              -0.3246237,
              -0.9685994,
              -0.235958934,
              -0.4354603,
              0.6198323
            ]
          },
          {
            "weights": [
              -0.544188,
              -0.177530169,
              0.354332328,
              -0.364740252,
              -0.6698923,
              -0.530713558,
              0.6298909,
              -0.8818836,
              0.125401139,
              0.5875776
            ]
          },
          {
            "weights": [
              0.090547204,
              -0.181621909,
              -0.280209661,
              0.5370593,
              0.00324904919,
              0.236113191,
              0.584661245,
              0.747964859,
              -0.01062119,
              0.65905714
            ]
          },
          {
            "weights": [
              0.7788532,
              -0.848407269,
              0.5938585,
              0.7315078,
              -0.273625016,
              0.7463796,
              0.750496864,
              -0.335184455,
              -0.268696427,
              0.7767348
            ]
          },
          {
            "weights": [
              0.353877753,
              0.8207367,
              0.390291125,
              -0.799182653,
              0.263346434,
              0.402279377,
              -0.8884062,
              0.312060535,
              -0.72908926,
              0.276257247
            ]
          },
          {
            "weights": [
              0.0387011468,
              -0.05064613,
              0.218331575,
              0.3636348,
              -1.0,
              0.329236239,
              1.0,
              0.115596175,
              0.242491126,
              0.459824055
            ]
          },
          {
            "weights": [
              0.6332166,
              -0.06406677,
              -0.286665082,
              -0.4748267,
              0.260554284,
              0.7911806,
              0.0350152254,
              -1.0,
              -0.91787535,
              -0.206022859
            ]
          },
          {
            "weights": [
              -0.0266815424,
              -0.5654261,
              -0.5830574,
              -0.11774981,
              -0.9447284,
              -0.231124282,
              0.9279244,
              0.482213,
              0.285312831,
              -0.146449447
            ]
          },
          {
            "weights": [
              -0.158348918,
              0.651537657,
              -0.107967585,
              0.8002155,
              0.137482285,
              0.255093783,
              -0.285071254,
              0.100714326,
              0.9065466,
              -0.966261864
            ]
          }
        ]
      },
      {
        "neurons": [
          {
            "weights": [
              -1.0,
              -0.966973543,
              1.0,
              1.0,
              0.6619264,
              -0.653884053,
              0.697871268,
              -1.0,
              1.0,
              0.0548725724
            ]
          },
          {
            "weights": [
              -0.884688854,
              -0.7746161,
              1.0,
              0.6347528,
              -0.4360298,
              -1.0,
              1.0,
              -1.0,
              1.0,
              0.443441331
            ]
          },
          {
            "weights": [
              -1.0,
              -0.3073038,
              0.8225925,
              -0.6127944,
              0.5574585,
              -1.0,
              1.0,
              -1.0,
              1.0,
              0.7409444
            ]
          },
          {
            "weights": [
              -0.84844327,
              -0.813488066,
              -0.0233088732,
              0.5352273,
              0.2295499,
              -0.8572365,
              0.9129402,
              -0.915276766,
              1.0,
              -0.836103439
            ]
          },
          {
            "weights": [
              0.512298346,
              -0.0270811319,
              -0.6886208,
              0.0507363081,
              -0.5602696,
              -0.038818717,
              0.5092795,
              0.188642383,
              0.715835333,
              0.4056961
            ]
          },
          {
            "weights": [
              -0.430888534,
              0.727748156,
              -0.8944607,
              -0.701053262,
              0.8198447,
              0.123940349,
              -0.10673295,
              -0.346419454,
              0.9942944,
              0.865881443
            ]
          }
        ]
      }
    ],
    "settings": {
      "layers": [
        3,
        10,
        10,
        6
      ],
      "error_min": 0.01,
      "error_max": 0.5
    }
  },
  {
    "layers": [
      {
        "neurons": [
          {
            "weights": null
          },
          {
            "weights": null
          },
          {
            "weights": null
          }
        ]
      },
      {
        "neurons": [
          {
            "weights": [
              0.7564361,
              -0.887519836,
              -0.7772038
            ]
          },
          {
            "weights": [
              -0.98512125,
              -0.968119144,
              0.39789483
            ]
          },
          {
            "weights": [
              0.00574047863,
              -0.350770682,
              0.171628118
            ]
          },
          {
            "weights": [
              0.5054581,
              0.4932041,
              -0.2840749
            ]
          },
          {
            "weights": [
              -0.925474644,
              -0.686707735,
              -1.0
            ]
          },
          {
            "weights": [
              -0.613503933,
              -0.6883535,
              -0.982703865
            ]
          },
          {
            "weights": [
              0.9966748,
              0.822492838,
              0.251182258
            ]
          },
          {
            "weights": [
              0.105850816,
              0.6681342,
              0.480007857
            ]
          },
          {
            "weights": [
              0.7107065,
              0.910822153,
              0.166583478
            ]
          },
          {
            "weights": [
              -0.007543713,
              0.7879503,
              -0.412806869
            ]
          }
        ]
      },
      {
        "neurons": [
          {
            "weights": [
              -0.4410446,
              1.0,
              -0.410619617,
              -0.8009461,
              -0.740018368,
              0.7112322,
              -0.219236434,
              -0.160367578,
              -0.128128886,
              0.4483826
            ]
          },
          {
            "weights": [
              0.7053187,
              0.8183979,
              0.394863576,
              -0.402297139,
              -0.7168839,
              -0.3246237,
              -0.9685994,
              -0.235958934,
              -0.4354603,
              0.6198323
            ]
          },
          {
            "weights": [
              -0.544188,
              -0.177530169,
              0.354332328,
              -0.364740252,
              -0.6698923,
              -0.530713558,
              0.6298909,
              -0.8818836,
              0.125401139,
              0.5875776
            ]
          },
          {
            "weights": [
              0.090547204,
              -0.181621909,
              -0.280209661,
              0.5370593,
              0.00324904919,
              0.236113191,
              0.584661245,
              0.747964859,
              -0.01062119,
              0.65905714
            ]
          },
          {
            "weights": [
              0.7788532,
              -0.848407269,
              0.5938585,
              0.7315078,
              -0.273625016,
              0.7463796,
              0.750496864,
              -0.335184455,
              -0.268696427,
              0.7767348
            ]
          },
          {
            "weights": [
              0.353877753,
              0.56893605,
              0.390291125,
              -0.799182653,
              0.263346434,
              0.402279377,
              -0.8884062,
              0.312060535,
              -0.72908926,
              0.08863102
            ]
          },
          {
            "weights": [
              0.0387011468,
              -0.05064613,
              0.218331575,
              0.3636348,
              -1.0,
              0.329236239,
              1.0,
              0.115596175,
              0.242491126,
              0.459824055
            ]
          },
          {
            "weights": [
              0.6332166,
              -0.06406677,
              -0.286665082,
              -0.4748267,
              0.260554284,
              0.7911806,
              0.0350152254,
              -0.967844963,
              -0.91787535,
              -0.206022859
            ]
          },
          {
            "weights": [
              -0.0266815424,
              -0.5654261,
              -0.5830574,
              -0.11774981,
              -0.9447284,
              -0.231124282,
              0.9279244,
              0.482213,
              0.285312831,
              -0.146449447
            ]
          },
          {
            "weights": [
              -0.158348918,
              0.651537657,
              -0.107967585,
              0.8002155,
              0.137482285,
              0.255093783,
              -0.285071254,
              0.100714326,
              0.9065466,
              -0.966261864
            ]
          }
        ]
      },
      {
        "neurons": [
          {
            "weights": [
              -1.0,
              -0.966973543,
              1.0,
              1.0,
              0.6619264,
              -0.653884053,
              0.697871268,
              -1.0,
              1.0,
              0.0548725724
            ]
          },
          {
            "weights": [
              -0.884688854,
              -0.7746161,
              1.0,
              0.6347528,
              -0.4360298,
              -1.0,
              1.0,
              -1.0,
              1.0,
              0.443441331
            ]
          },
          {
            "weights": [
              -1.0,
              -0.3073038,
              0.8225925,
              -0.6127944,
              0.260365933,
              -1.0,
              1.0,
              -1.0,
              1.0,
              0.7409444
            ]
          },
          {
            "weights": [
              -0.84844327,
              -0.813488066,
              -0.0233088732,
              0.5352273,
              0.2295499,
              -0.8572365,
              0.9129402,
              -0.915276766,
              1.0,
              -0.836103439
            ]
          },
          {
            "weights": [
              0.512298346,
              -0.0270811319,
              -0.6886208,
              0.0507363081,
              -0.5602696,
              -0.038818717,
              0.5092795,
              0.188642383,
              0.715835333,
              0.4056961
            ]
          },
          {
            "weights": [
              -0.430888534,
              0.727748156,
              -0.8944607,
              -0.701053262,
              0.8198447,
              0.123940349,
              -0.10673295,
              -0.346419454,
              0.9942944,
              0.865881443
            ]
          }
        ]
      }
    ],
    "settings": {
      "layers": [
        3,
        10,
        10,
        6
      ],
      "error_min": 0.01,
      "error_max": 0.5
    }
  },
  {
    "layers": [
      {
        "neurons": [
          {
            "weights": null
          },
          {
            "weights": null
          },
          {
            "weights": null
          }
        ]
      },
      {
        "neurons": [
          {
            "weights": [
              0.7564361,
              -0.887519836,
              -0.7772038
            ]
          },
          {
            "weights": [
              -0.98512125,
              -0.968119144,
              0.39789483
            ]
          },
          {
            "weights": [
              0.00574047863,
              -0.350770682,
              0.171628118
            ]
          },
          {
            "weights": [
              0.5054581,
              0.4932041,
              -0.2840749
            ]
          },
          {
            "weights": [
              -0.925474644,
              -0.686707735,
              -1.0
            ]
          },
          {
            "weights": [
              -0.613503933,
              -0.6883535,
              -0.982703865
            ]
          },
          {
            "weights": [
              0.9966748,
              0.822492838,
              0.251182258
            ]
          },
          {
            "weights": [
              0.105850816,
              0.6681342,
              0.480007857
            ]
          },
          {
            "weights": [
              0.7107065,
              0.910822153,
              0.06846569
            ]
          },
          {
            "weights": [
              -0.007543713,
              0.7879503,
              -0.412806869
            ]
          }
        ]
      },
      {
        "neurons": [
          {
            "weights": [
              -0.4410446,
              1.0,
              -0.410619617,
              -0.8009461,
              -0.740018368,
              0.7112322,
              -0.219236434,
              -0.160367578,
              -0.128128886,
              0.4483826
            ]
          },
          {
            "weights": [
              0.7053187,
              0.8183979,
              0.394863576,
              -0.402297139,
              -0.7168839,
              -0.3246237,
              -0.9685994,
              -0.235958934,
              -0.4354603,
              0.6198323
            ]
          },
          {
            "weights": [
              -0.544188,
              -0.177530169,
              0.33088243,
              -0.364740252,
              -0.6698923,
              -0.530713558,
              0.6298909,
              -0.8818836,
              0.125401139,
              0.5875776
            ]
          },
          {
            "weights": [
              0.090547204,
              -0.181621909,
              -0.280209661,
              0.5370593,
              0.00324904919,
              0.236113191,
              0.584661245,
              0.747964859,
              -0.01062119,
              0.65905714
            ]
          },
          {
            "weights": [
              0.7788532,
              -0.848407269,
              0.5938585,
              0.7315078,
              -0.273625016,
              0.7463796,
              0.750496864,
              -0.335184455,
              -0.268696427,
              0.7767348
            ]
          },
          {
            "weights": [
              0.353877753,
              0.56893605,
              0.390291125,
              -0.799182653,
              0.263346434,
              0.402279377,
              -0.8884062,
              0.312060535,
              -0.72908926,
              0.276257247
            ]
          },
          {
            "weights": [
              0.0387011468,
              -0.05064613,
              0.218331575,
              0.3636348,
              -1.0,
              0.329236239,
              1.0,
              0.115596175,
              0.242491126,
              0.459824055
            ]
          },
          {
            "weights": [
              0.6332166,
              -0.06406677,
              -0.286665082,
              -0.4748267,
              0.260554284,
              0.8234808,
              0.0350152254,
              -0.967844963,
              -0.91787535,
              -0.206022859
            ]
          },
          {
            "weights": [
              -0.0266815424,
              -0.5654261,
              -0.5830574,
              -0.11774981,
              -0.9447284,
              -0.231124282,
              0.9279244,
              0.482213,
              0.285312831,
              -0.146449447
            ]
          },
          {
            "weights": [
              -0.158348918,
              0.651537657,
              -0.107967585,
              0.8002155,
              0.137482285,
              0.255093783,
              -0.285071254,
              0.100714326,
              0.9065466,
              -0.966261864
            ]
          }
        ]
      },
      {
        "neurons": [
          {
            "weights": [
              -1.0,
              -0.966973543,
              1.0,
              1.0,
              0.6619264,
              -0.653884053,
              0.697871268,
              -1.0,
              1.0,
              0.0548725724
            ]
          },
          {
            "weights": [
              -0.884688854,
              -0.7746161,
              1.0,
              0.6347528,
              -0.4360298,
              -1.0,
              1.0,
              -1.0,
              1.0,
              0.443441331
            ]
          },
          {
            "weights": [
              -1.0,
              -0.3073038,
              0.8225925,
              -0.6127944,
              0.260365933,
              -1.0,
              1.0,
              -1.0,
              1.0,
              0.7409444
            ]
          },
          {
            "weights": [
              -0.84844327,
              -0.813488066,
              -0.0233088732,
              0.5352273,
              0.2295499,
              -0.8572365,
              0.9129402,
              -0.915276766,
              1.0,
              -0.836103439
            ]
          },
          {
            "weights": [
              0.512298346,
              -0.0270811319,
              -0.6886208,
              0.0507363081,
              -0.5602696,
              -0.038818717,
              0.5092795,
              0.188642383,
              0.715835333,
              0.4056961
            ]
          },
          {
            "weights": [
              -0.430888534,
              0.727748156,
              -0.8944607,
              -0.701053262,
              0.8198447,
              0.123940349,
              -0.10673295,
              -0.346419454,
              0.9942944,
              0.865881443
            ]
          }
        ]
      }
    ],
    "settings": {
      "layers": [
        3,
        10,
        10,
        6
      ],
      "error_min": 0.01,
      "error_max": 0.5
    }
  },
  {
    "layers": [
      {
        "neurons": [
          {
            "weights": null
          },
          {
            "weights": null
          },
          {
            "weights": null
          }
        ]
      },
      {
        "neurons": [
          {
            "weights": [
              0.7564361,
              -0.887519836,
              -0.7772038
            ]
          },
          {
            "weights": [
              -0.98512125,
              -0.968119144,
              0.39789483
            ]
          },
          {
            "weights": [
              0.00574047863,
              -0.350770682,
              0.171628118
            ]
          },
          {
            "weights": [
              0.5054581,
              0.4932041,
              -0.2840749
            ]
          },
          {
            "weights": [
              -0.925474644,
              -0.686707735,
              -1.0
            ]
          },
          {
            "weights": [
              -0.613503933,
              -0.6883535,
              -0.982703865
            ]
          },
          {
            "weights": [
              0.9966748,
              0.822492838,
              0.251182258
            ]
          },
          {
            "weights": [
              0.105850816,
              0.6681342,
              0.480007857
            ]
          },
          {
            "weights": [
              0.7107065,
              0.910822153,
              0.06846569
            ]
          },
          {
            "weights": [
              -0.007543713,
              0.7879503,
              -0.412806869
            ]
          }
        ]
      },
      {
        "neurons": [
          {
            "weights": [
              -0.4410446,
              1.0,
              -0.410619617,
              -0.8009461,
              -0.740018368,
              0.7112322,
              -0.219236434,
              -0.160367578,
              -0.128128886,
              0.4483826
            ]
          },
          {
            "weights": [
              0.7053187,
              0.8183979,
              0.394863576,
              -0.402297139,
              -0.7168839,
              -0.3246237,
              -0.9685994,
              -0.235958934,
              -0.4354603,
              0.6198323
            ]
          },
          {
            "weights": [
              -0.544188,
              -0.177530169,
              0.354332328,
              -0.364740252,
              -0.6698923,
              -0.530713558,
              0.6298909,
              -0.8818836,
              0.125401139,
              0.5875776
            ]
          },
          {
            "weights": [
              0.090547204,
              -0.181621909,
              -0.280209661,
              0.5370593,
              0.00324904919,
              0.236113191,
              0.584661245,
              0.747964859,
              -0.01062119,
              0.65905714
            ]
          },
          {
            "weights": [
              0.7788532,
              -0.848407269,
              0.5938585,
              0.7315078,
              -0.273625016,
              0.7463796,
              0.750496864,
              -0.335184455,
              -0.268696427,
              0.7767348
            ]
          },
          {
            "weights": [
              0.353877753,
              0.56893605,
              0.390291125,
              -0.799182653,
              0.263346434,
              0.402279377,
              -0.8884062,
              0.312060535,
              -0.72908926,
              0.276257247
            ]
          },
          {
            "weights": [
              0.0387011468,
              -0.05064613,
              0.218331575,
              0.3636348,
              -1.0,
              0.329236239,
              1.0,
              0.115596175,
              0.242491126,
              0.459824055
            ]
          },
          {
            "weights": [
              0.6332166,
              -0.06406677,
              -0.286665082,
              -0.4748267,
              0.260554284,
              0.7911806,
              0.0350152254,
              -1.0,
              -0.91787535,
              -0.206022859
            ]
          },
          {
            "weights": [
              -0.0266815424,
              -0.5654261,
              -0.5830574,
              -0.11774981,
              -0.9447284,
              -0.231124282,
              0.9279244,
              0.482213,
              0.285312831,
              -0.146449447
            ]
          },
          {
            "weights": [
              -0.158348918,
              0.651537657,
              -0.107967585,
              0.8002155,
              0.137482285,
              0.255093783,
              -0.285071254,
              0.100714326,
              0.9065466,
              -0.966261864
            ]
          }
        ]
      },
      {
        "neurons": [
          {
            "weights": [
              -1.0,
              -0.966973543,
              1.0,
              1.0,
              0.6619264,
              -0.653884053,
              0.697871268,
              -1.0,
              1.0,
              0.0548725724
            ]
          },
          {
            "weights": [
              -0.884688854,
              -0.7746161,
              1.0,
              0.6347528,
              -0.4360298,
              -1.0,
              1.0,
              -1.0,
              1.0,
              0.443441331
            ]
          },
          {
            "weights": [
              -1.0,
              -0.3073038,
              0.8225925,
              -0.6127944,
              0.260365933,
              -1.0,
              1.0,
              -1.0,
              1.0,
              0.7409444
            ]
          },
          {
            "weights": [
              -0.84844327,
              -0.813488066,
              -0.0233088732,
              0.5352273,
              0.2295499,
              -0.8572365,
              1.0,
              -0.915276766,
              1.0,
              -0.836103439
            ]
          },
          {
            "weights": [
              0.512298346,
              -0.0270811319,
              -0.6886208,
              0.0507363081,
              -0.5602696,
              -0.038818717,
              0.5092795,
              0.188642383,
              0.715835333,
              0.4056961
            ]
          },
          {
            "weights": [
              -0.430888534,
              0.727748156,
              -0.8944607,
              -0.701053262,
              0.8198447,
              0.123940349,
              -0.10673295,
              -0.346419454,
              0.9942944,
              0.865881443
            ]
          }
        ]
      }
    ],
    "settings": {
      "layers": [
        3,
        10,
        10,
        6
      ],
      "error_min": 0.01,
      "error_max": 0.5
    }
  },
  {
    "layers": [
      {
        "neurons": [
          {
            "weights": null
          },
          {
            "weights": null
          },
          {
            "weights": null
          }
        ]
      },
      {
        "neurons": [
          {
            "weights": [
              0.7564361,
              -0.887519836,
              -0.7772038
            ]
          },
          {
            "weights": [
              -0.98512125,
              -0.968119144,
              0.39789483
            ]
          },
          {
            "weights": [
              0.00574047863,
              -0.350770682,
              0.171628118
            ]
          },
          {
            "weights": [
              0.5054581,
              0.4932041,
              -0.2840749
            ]
          },
          {
            "weights": [
              -0.925474644,
              -0.686707735,
              -1.0
            ]
          },
          {
            "weights": [
              -0.613503933,
              -0.6883535,
              -0.982703865
            ]
          },
          {
            "weights": [
              0.9966748,
              0.822492838,
              0.251182258
            ]
          },
          {
            "weights": [
              0.105850816,
              0.6681342,
              0.480007857
            ]
          },
          {
            "weights": [
              0.7107065,
              0.910822153,
              0.06846569
            ]
          },
          {
            "weights": [
              -0.007543713,
              0.7879503,
              -0.412806869
            ]
          }
        ]
      },
      {
        "neurons": [
          {
            "weights": [
              -0.4410446,
              1.0,
              -0.410619617,
              -0.8009461,
              -0.740018368,
              0.7112322,
              -0.219236434,
              -0.160367578,
              -0.128128886,
              0.4483826
            ]
          },
          {
            "weights": [
              0.7053187,
              0.8183979,
              0.394863576,
              -0.402297139,
              -0.7168839,
              -0.3246237,
              -0.9685994,
              -0.235958934,
              -0.4354603,
              0.6198323
            ]
          },
          {
            "weights": [
              -0.544188,
              -0.177530169,
              0.354332328,
              -0.364740252,
              -0.6698923,
              -0.530713558,
              0.6298909,
              -0.8818836,
              0.125401139,
              0.5875776
            ]
          },
          {
            "weights": [
              0.090547204,
              -0.181621909,
              -0.280209661,
              0.5370593,
              0.00324904919,
              0.236113191,
              0.584661245,
              0.747964859,
              -0.01062119,
              0.65905714
            ]
          },
          {
            "weights": [
              0.7788532,
              -0.848407269,
              0.5938585,
              0.7315078,
              -0.273625016,
              0.7463796,
              0.750496864,
              -0.335184455,
              -0.268696427,
              0.7767348
            ]
          },
          {
            "weights": [
              0.353877753,
              0.56893605,
              0.390291125,
              -0.799182653,
              0.263346434,
              0.402279377,
              -0.8884062,
              0.312060535,
              -0.72908926,
              0.276257247
            ]
          },
          {
            "weights": [
              0.0387011468,
              -0.05064613,
              0.218331575,
              0.3636348,
              -1.0,
              0.329236239,
              1.0,
              0.115596175,
              0.242491126,
              0.459824055
            ]
          },
          {
            "weights": [
              0.6332166,
              -0.06406677,
              -0.286665082,
              -0.4748267,
              0.260554284,
              0.7911806,
              0.0350152254,
              -1.0,
              -0.91787535,
              -0.206022859
            ]
          },
          {
            "weights": [
              -0.0266815424,
              -0.5654261,
              -0.5830574,
              -0.11774981,
              -0.9447284,
              -0.231124282,
              0.9279244,
              0.482213,
              0.285312831,
              -0.146449447
            ]
          },
          {
            "weights": [
              -0.158348918,
              0.651537657,
              -0.107967585,
              0.8002155,
              0.137482285,
              0.255093783,
              -0.285071254,
              0.100714326,
              0.9065466,
              -0.966261864
            ]
          }
        ]
      },
      {
        "neurons": [
          {
            "weights": [
              -1.0,
              -0.966973543,
              1.0,
              1.0,
              0.6619264,
              -0.653884053,
              0.6781826,
              -1.0,
              1.0,
              0.0548725724
            ]
          },
          {
            "weights": [
              -0.884688854,
              -0.7746161,
              1.0,
              0.6347528,
              -0.4360298,
              -1.0,
              1.0,
              -1.0,
              1.0,
              0.443441331
            ]
          },
          {
            "weights": [
              -1.0,
              -0.3073038,
              0.8225925,
              -0.6127944,
              0.260365933,
              -1.0,
              1.0,
              -1.0,
              1.0,
              0.7409444
            ]
          },
          {
            "weights": [
              -0.84844327,
              -0.813488066,
              -0.0233088732,
              0.5352273,
              0.2295499,
              -0.8572365,
              1.0,
              -0.915276766,
              1.0,
              -0.836103439
            ]
          },
          {
            "weights": [
              0.512298346,
              -0.0270811319,
              -0.6886208,
              0.0507363081,
              -0.5602696,
              -0.038818717,
              0.5092795,
              0.188642383,
              0.715835333,
              0.4056961
            ]
          },
          {
            "weights": [
              -0.430888534,
              0.727748156,
              -0.8944607,
              -0.701053262,
              0.8198447,
              0.123940349,
              -0.10673295,
              -0.346419454,
              0.9942944,
              0.865881443
            ]
          }
        ]
      }
    ],
    "settings": {
      "layers": [
        3,
        10,
        10,
        6
      ],
      "error_min": 0.01,
      "error_max": 0.5
    }
  },
  {
    "layers": [
      {
        "neurons": [
          {
            "weights": null
          },
          {
            "weights": null
          },
          {
            "weights": null
          }
        ]
      },
      {
        "neurons": [
          {
            "weights": [
              0.7564361,
              -0.887519836,
              -0.7772038
            ]
          },
          {
            "weights": [
              -0.98512125,
              -0.968119144,
              0.39789483
            ]
          },
          {
            "weights": [
              0.00574047863,
              -0.350770682,
              0.171628118
            ]
          },
          {
            "weights": [
              0.5054581,
              0.4932041,
              -0.2840749
            ]
          },
          {
            "weights": [
              -0.95407933,
              -0.686707735,
              -1.0
            ]
          },
          {
            "weights": [
              -0.613503933,
              -0.6883535,
              -0.982703865
            ]
          },
          {
            "weights": [
              0.9966748,
              0.822492838,
              0.251182258
            ]
          },
          {
            "weights": [
              0.105850816,
              0.6681342,
              0.480007857
            ]
          },
          {
            "weights": [
              0.7107065,
              0.910822153,
              0.06846569
            ]
          },
          {
            "weights": [
              -0.007543713,
              0.7879503,
              -0.412806869
            ]
          }
        ]
      },
      {
        "neurons": [
          {
            "weights": [
              -0.4410446,
              1.0,
              -0.410619617,
              -0.8009461,
              -0.740018368,
              0.7112322,
              -0.219236434,
              -0.160367578,
              -0.128128886,
              0.4483826
            ]
          },
          {
            "weights": [
              0.7053187,
              0.8183979,
              0.394863576,
              -0.402297139,
              -0.7168839,
              -0.3246237,
              -0.9685994,
              -0.235958934,
              -0.4354603,
              0.6198323
            ]
          },
          {
            "weights": [
              -0.544188,
              -0.177530169,
              0.354332328,
              -0.364740252,
              -0.6698923,
              -0.530713558,
              0.6298909,
              -0.8818836,
              0.125401139,
              0.5875776
            ]
          },
          {
            "weights": [
              0.090547204,
              -0.181621909,
              -0.280209661,
              0.5370593,
              0.00324904919,
              0.236113191,
              0.584661245,
              0.747964859,
              -0.01062119,
              0.65905714
            ]
          },
          {
            "weights": [
              0.7788532,
              -0.848407269,
              0.5938585,
              0.7315078,
              -0.273625016,
              0.7463796,
              0.750496864,
              -0.335184455,
              -0.268696427,
              0.7767348
            ]
          },
          {
            "weights": [
              0.353877753,
              0.56893605,
              0.390291125,
              -0.799182653,
              0.263346434,
              0.402279377,
              -0.8884062,
              0.312060535,
              -0.72908926,
              0.276257247
            ]
          },
          {
            "weights": [
              0.0387011468,
              -0.05064613,
              0.218331575,
              0.3636348,
              -1.0,
              0.329236239,
              1.0,
              0.115596175,
              0.242491126,
              0.459824055
            ]
          },
          {
            "weights": [
              0.6332166,
              -0.06406677,
              -0.286665082,
              -0.4748267,
              0.260554284,
              0.7911806,
              0.0350152254,
              -1.0,
              -0.91787535,
              -0.206022859
            ]
          },
          {
            "weights": [
              -0.0266815424,
              -0.5654261,
              -0.5830574,
              -0.11774981,
              -0.9447284,
              -0.231124282,
              0.9279244,
              0.482213,
              0.285312831,
              -0.146449447
            ]
          },
          {
            "weights": [
              -0.158348918,
              0.651537657,
              -0.107967585,
              0.8002155,
              0.137482285,
              0.255093783,
              -0.285071254,
              0.100714326,
              0.9065466,
              -0.966261864
            ]
          }
        ]
      },
      {
        "neurons": [
          {
            "weights": [
              -1.0,
              -0.966973543,
              1.0,
              1.0,
              0.6619264,
              -0.653884053,
              0.697871268,
              -1.0,
              1.0,
              0.0548725724
            ]
          },
          {
            "weights": [
              -0.884688854,
              -0.7746161,
              1.0,
              0.6347528,
              -0.4360298,
              -1.0,
              1.0,
              -1.0,
              1.0,
              0.443441331
            ]
          },
          {
            "weights": [
              -1.0,
              -0.3073038,
              0.8225925,
              -0.6127944,
              0.260365933,
              -1.0,
              1.0,
              -1.0,
              1.0,
              0.7409444
            ]
          },
          {
            "weights": [
              -0.84844327,
              -1.0,
              -0.0233088732,
              0.5352273,
              0.2295499,
              -0.8572365,
              0.9129402,
              -0.915276766,
              1.0,
              -0.836103439
            ]
          },
          {
            "weights": [
              0.512298346,
              -0.0270811319,
              -0.6886208,
              0.0507363081,
              -0.5602696,
              -0.038818717,
              0.5092795,
              0.188642383,
              0.715835333,
              0.4056961
            ]
          },
          {
            "weights": [
              -0.430888534,
              0.727748156,
              -0.8944607,
              -0.701053262,
              0.8198447,
              0.123940349,
              -0.10673295,
              -0.346419454,
              0.9942944,
              0.865881443
            ]
          }
        ]
      }
    ],
    "settings": {
      "layers": [
        3,
        10,
        10,
        6
      ],
      "error_min": 0.01,
      "error_max": 0.5
    }
  },
  {
    "layers": [
      {
        "neurons": [
          {
            "weights": null
          },
          {
            "weights": null
          },
          {
            "weights": null
          }
        ]
      },
      {
        "neurons": [
          {
            "weights": [
              0.7564361,
              -0.887519836,
              -0.7772038
            ]
          },
          {
            "weights": [
              -0.98512125,
              -0.968119144,
              0.39789483
            ]
          },
          {
            "weights": [
              0.00574047863,
              -0.350770682,
              0.171628118
            ]
          },
          {
            "weights": [
              0.5054581,
              0.4932041,
              -0.2840749
            ]
          },
          {
            "weights": [
              -0.925474644,
              -0.686707735,
              -1.0
            ]
          },
          {
            "weights": [
              -0.613503933,
              -0.6883535,
              -0.982703865
            ]
          },
          {
            "weights": [
              0.9966748,
              0.822492838,
              0.251182258
            ]
          },
          {
            "weights": [
              0.105850816,
              0.6681342,
              0.480007857
            ]
          },
          {
            "weights": [
              0.7107065,
              0.910822153,
              0.06846569
            ]
          },
          {
            "weights": [
              -0.007543713,
              0.7879503,
              -0.412806869
            ]
          }
        ]
      },
      {
        "neurons": [
          {
            "weights": [
              -0.4410446,
              1.0,
              -0.410619617,
              -0.8009461,
              -0.740018368,
              0.7112322,
              -0.219236434,
              -0.160367578,
              -0.128128886,
              0.4483826
            ]
          },
          {
            "weights": [
              0.7053187,
              0.8183979,
              0.394863576,
              -0.402297139,
              -0.7168839,
              -0.3246237,
              -0.9685994,
              -0.235958934,
              -0.4354603,
              0.6198323
            ]
          },
          {
            "weights": [
              -0.544188,
              -0.177530169,
              0.354332328,
              -0.364740252,
              -0.6698923,
              -0.530713558,
              0.6298909,
              -0.8818836,
              0.125401139,
              0.5875776
            ]
          },
          {
            "weights": [
              0.090547204,
              -0.181621909,
              -0.280209661,
              0.5370593,
              0.00324904919,
              0.236113191,
              0.584661245,
              0.747964859,
              -0.01062119,
              0.65905714
            ]
          },
          {
            "weights": [
              0.7788532,
              -0.848407269,
              0.5938585,
              0.7315078,
              -0.273625016,
              0.7463796,
              0.750496864,
              -0.335184455,
              -0.268696427,
              0.7767348
            ]
          },
          {
            "weights": [
              0.180433556,
              0.56893605,
              0.390291125,
              -0.799182653,
              0.263346434,
              0.402279377,
              -0.8884062,
              0.312060535,
              -0.72908926,
              0.276257247
            ]
          },
          {
            "weights": [
              0.0387011468,
              -0.05064613,
              0.218331575,
              0.3636348,
              -1.0,
              0.329236239,
              1.0,
              0.115596175,
              0.242491126,
              0.459824055
            ]
          },
          {
            "weights": [
              0.6332166,
              -0.06406677,
              -0.104379341,
              -0.4748267,
              0.260554284,
              0.7911806,
              0.0350152254,
              -0.967844963,
              -0.91787535,
              -0.206022859
            ]
          },
          {
            "weights": [
              -0.0266815424,
              -0.5654261,
              -0.5830574,
              -0.11774981,
              -0.9447284,
              -0.231124282,
              0.9279244,
              0.482213,
              0.285312831,
              -0.146449447
            ]
          },
          {
            "weights": [
              -0.158348918,
              0.651537657,
              -0.107967585,
              0.8002155,
              0.137482285,
              0.255093783,
              -0.285071254,
              0.100714326,
              0.9065466,
              -0.966261864
            ]
          }
        ]
      },
      {
        "neurons": [
          {
            "weights": [
              -1.0,
              -0.966973543,
              1.0,
              1.0,
              0.6619264,
              -0.653884053,
              0.697871268,
              -1.0,
              1.0,
              0.2070341
            ]
          },
          {
            "weights": [
              -0.884688854,
              -0.7746161,
              1.0,
              0.6347528,
              -0.4360298,
              -1.0,
              1.0,
              -1.0,
              1.0,
              0.443441331
            ]
          },
          {
            "weights": [
              -1.0,
              -0.3073038,
              0.8225925,
              -0.6127944,
              0.260365933,
              -1.0,
              1.0,
              -1.0,
              1.0,
              0.7409444
            ]
          },
          {
            "weights": [
              -0.84844327,
              -0.813488066,
              -0.0233088732,
              0.8496439,
              0.2295499,
              -0.8572365,
              0.9129402,
              -0.915276766,
              1.0,
              -0.836103439
            ]
          },
          {
            "weights": [
              0.512298346,
              -0.0270811319,
              -0.6886208,
              0.0507363081,
              -0.5602696,
              -0.038818717,
              0.5092795,
              0.188642383,
              0.715835333,
              0.4056961
            ]
          },
          {
            "weights": [
              -0.430888534,
              0.727748156,
              -0.8944607,
              -0.701053262,
              0.8198447,
              0.123940349,
              -0.10673295,
              -0.346419454,
              0.9942944,
              0.865881443
            ]
          }
        ]
      }
    ],
    "settings": {
      "layers": [
        3,
        10,
        10,
        6
      ],
      "error_min": 0.01,
      "error_max": 0.5
    }
  },
  {
    "layers": [
      {
        "neurons": [
          {
            "weights": null
          },
          {
            "weights": null
          },
          {
            "weights": null
          }
        ]
      },
      {
        "neurons": [
          {
            "weights": [
              0.7564361,
              -0.887519836,
              -0.7772038
            ]
          },
          {
            "weights": [
              -0.98512125,
              -0.968119144,
              0.39789483
            ]
          },
          {
            "weights": [
              0.00574047863,
              -0.350770682,
              0.171628118
            ]
          },
          {
            "weights": [
              0.5054581,
              0.4932041,
              -0.2840749
            ]
          },
          {
            "weights": [
              -0.925474644,
              -0.686707735,
              -1.0
            ]
          },
          {
            "weights": [
              -0.613503933,
              -0.6883535,
              -0.982703865
            ]
          },
          {
            "weights": [
              0.9966748,
              0.822492838,
              0.251182258
            ]
          },
          {
            "weights": [
              0.105850816,
              0.6681342,
              0.480007857
            ]
          },
          {
            "weights": [
              0.7107065,
              0.910822153,
              0.06846569
            ]
          },
          {
            "weights": [
              -0.007543713,
              0.7879503,
              -0.412806869
            ]
          }
        ]
      },
      {
        "neurons": [
          {
            "weights": [
              -0.4410446,
              1.0,
              -0.410619617,
              -0.8009461,
              -0.740018368,
              0.7112322,
              -0.219236434,
              -0.160367578,
              -0.128128886,
              0.4483826
            ]
          },
          {
            "weights": [
              0.7053187,
              0.8183979,
              0.394863576,
              -0.402297139,
              -0.7168839,
              -0.3246237,
              -0.9685994,
              -0.235958934,
              -0.4354603,
              0.6198323
            ]
          },
          {
            "weights": [
              -0.544188,
              -0.177530169,
              0.354332328,
              -0.364740252,
              -0.6698923,
              -0.530713558,
              0.6298909,
              -0.8818836,
              0.125401139,
              0.5875776
            ]
          },
          {
            "weights": [
              0.090547204,
              -0.181621909,
              -0.280209661,
              0.5370593,
              0.00324904919,
              0.236113191,
              0.584661245,
              0.747964859,
              -0.01062119,
              0.65905714
            ]
          },
          {
            "weights": [
              0.7788532,
              -0.848407269,
              0.5938585,
              0.7315078,
              -0.273625016,
              0.7463796,
              0.750496864,
              -0.335184455,
              -0.268696427,
              0.7767348
            ]
          },
          {
            "weights": [
              0.353877753,
              0.56893605,
              0.390291125,
              -0.799182653,
              0.263346434,
              0.402279377,
              -0.8884062,
              0.312060535,
              -0.72908926,
              0.276257247
            ]
          },
          {
            "weights": [
              0.0387011468,
              -0.05064613,
              0.218331575,
              0.3636348,
              -1.0,
              0.329236239,
              1.0,
              0.115596175,
              0.242491126,
              0.459824055
            ]
          },
          {
            "weights": [
              0.6332166,
              -0.06406677,
              -0.286665082,
              -0.4748267,
              0.260554284,
              0.7911806,
              0.0350152254,
              -0.967844963,
              -0.91787535,
              -0.206022859
            ]
          },
          {
            "weights": [
              -0.0266815424,
              -0.5654261,
              -0.5830574,
              -0.11774981,
              -0.9447284,
              -0.231124282,
              0.9279244,
              0.482213,
              0.285312831,
              -0.146449447
            ]
          },
          {
            "weights": [
              -0.158348918,
              0.651537657,
              -0.107967585,
              0.8002155,
              0.137482285,
              0.255093783,
              -0.285071254,
              0.100714326,
              0.9065466,
              -0.966261864
            ]
          }
        ]
      },
      {
        "neurons": [
          {
            "weights": [
              -1.0,
              -0.966973543,
              1.0,
              1.0,
              0.6619264,
              -0.653884053,
              0.697871268,
              -1.0,
              1.0,
              -0.444632083
            ]
          },
          {
            "weights": [
              -0.884688854,
              -0.7746161,
              1.0,
              0.6347528,
              -0.4360298,
              -1.0,
              1.0,
              -1.0,
              0.9656274,
              0.835667253
            ]
          },
          {
            "weights": [
              -1.0,
              -0.3073038,
              0.8225925,
              -0.6127944,
              0.260365933,
              -1.0,
              1.0,
              -1.0,
              1.0,
              0.7409444
            ]
          },
          {
            "weights": [
              -0.84844327,
              -0.813488066,
              -0.0233088732,
              0.5352273,
              0.2295499,
              -0.8572365,
              0.9129402,
              -0.915276766,
              1.0,
              -0.836103439
            ]
          },
          {
            "weights": [
              0.512298346,
              -0.0270811319,
              -0.6886208,
              0.0507363081,
              -0.5602696,
              -0.038818717,
              0.5092795,
              0.188642383,
              0.715835333,
              0.4056961
            ]
          },
          {
            "weights": [
              -0.430888534,
              0.727748156,
              -0.8944607,
              -0.701053262,
              0.8198447,
              0.123940349,
              -0.10673295,
              -0.346419454,
              0.9942944,
              0.865881443
            ]
          }
        ]
      }
    ],
    "settings": {
      "layers": [
        3,
        10,
        10,
        6
      ],
      "error_min": 0.01,
      "error_max": 0.5
    }
  },
  {
    "layers": [
      {
        "neurons": [
          {
            "weights": null
          },
          {
            "weights": null
          },
          {
            "weights": null
          }
        ]
      },
      {
        "neurons": [
          {
            "weights": [
              0.7564361,
              -0.887519836,
              -0.7772038
            ]
          },
          {
            "weights": [
              -0.98512125,
              -0.968119144,
              0.39789483
            ]
          },
          {
            "weights": [
              0.00574047863,
              -0.350770682,
              0.171628118
            ]
          },
          {
            "weights": [
              0.5054581,
              0.4932041,
              -0.2840749
            ]
          },
          {
            "weights": [
              -0.925474644,
              -0.686707735,
              -1.0
            ]
          },
          {
            "weights": [
              -0.613503933,
              -0.6883535,
              -0.982703865
            ]
          },
          {
            "weights": [
              0.9966748,
              0.822492838,
              0.251182258
            ]
          },
          {
            "weights": [
              0.105850816,
              0.6681342,
              0.480007857
            ]
          },
          {
            "weights": [
              0.7107065,
              0.910822153,
              0.06846569
            ]
          },
          {
            "weights": [
              -0.007543713,
              0.7879503,
              -0.412806869
            ]
          }
        ]
      },
      {
        "neurons": [
          {
            "weights": [
              -0.4410446,
              1.0,
              -0.410619617,
              -0.8009461,
              -0.740018368,
              0.7112322,
              -0.219236434,
              -0.160367578,
              -0.128128886,
              0.4483826
            ]
          },
          {
            "weights": [
              0.7053187,
              0.8183979,
              0.394863576,
              -0.402297139,
              -0.7168839,
              -0.3246237,
              -0.9685994,
              -0.235958934,
              -0.4354603,
              0.6198323
            ]
          },
          {
            "weights": [
              -0.544188,
              -0.177530169,
              0.354332328,
              -0.364740252,
              -0.6698923,
              -0.530713558,
              0.6298909,
              -0.8818836,
              0.125401139,
              0.5875776
            ]
          },
          {
            "weights": [
              0.090547204,
              -0.181621909,
              -0.280209661,
              0.5370593,
              0.00324904919,
              0.236113191,
              0.584661245,
              0.747964859,
              -0.01062119,
              0.65905714
            ]
          },
          {
            "weights": [
              0.7788532,
              -0.848407269,
              0.5938585,
              0.7315078,
              -0.273625016,
              0.7463796,
              0.750496864,
              -0.335184455,
              -0.268696427,
              0.7767348
            ]
          },
          {
            "weights": [
              0.353877753,
              0.56893605,
              0.390291125,
              -0.799182653,
              0.263346434,
              0.402279377,
              -0.8884062,
              0.312060535,
              -0.72908926,
              0.276257247
            ]
          },
          {
            "weights": [
              0.0387011468,
              -0.05064613,
              0.218331575,
              0.3636348,
              -1.0,
              0.329236239,
              1.0,
              0.115596175,
              0.242491126,
              0.459824055
            ]
          },
          {
            "weights": [
              0.6332166,
              -0.06406677,
              -0.286665082,
              -0.4748267,
              0.260554284,
              0.7911806,
              0.0350152254,
              -1.0,
              -0.91787535,
              -0.206022859
            ]
          },
          {
            "weights": [
              -0.0266815424,
              -0.5654261,
              -0.5830574,
              -0.11774981,
              -0.9447284,
              -0.231124282,
              0.9279244,
              0.482213,
              0.285312831,
              -0.146449447
            ]
          },
          {
            "weights": [
              -0.158348918,
              0.651537657,
              -0.107967585,
              0.8002155,
              0.137482285,
              0.255093783,
              -0.285071254,
              0.100714326,
              0.9065466,
              -0.966261864
            ]
          }
        ]
      },
      {
        "neurons": [
          {
            "weights": [
              -1.0,
              -0.966973543,
              1.0,
              1.0,
              0.6619264,
              -0.653884053,
              0.697871268,
              -1.0,
              1.0,
              0.0548725724
            ]
          },
          {
            "weights": [
              -0.884688854,
              -0.7746161,
              1.0,
              0.6347528,
              -0.4360298,
              -1.0,
              1.0,
              -1.0,
              1.0,
              0.443441331
            ]
          },
          {
            "weights": [
              -1.0,
              -0.3073038,
              0.8225925,
              -0.6127944,
              0.260365933,
              -1.0,
              1.0,
              -1.0,
              1.0,
              0.7409444
            ]
          },
          {
            "weights": [
              -0.84844327,
              -0.813488066,
              -0.0233088732,
              0.6630602,
              0.2295499,
              -0.8572365,
              1.0,
              -0.915276766,
              1.0,
              -0.836103439
            ]
          },
          {
            "weights": [
              0.512298346,
              -0.0270811319,
              -0.6886208,
              0.0507363081,
              -0.5602696,
              -0.038818717,
              0.5092795,
              0.188642383,
              0.715835333,
              0.4056961
            ]
          },
          {
            "weights": [
              -0.430888534,
              0.727748156,
              -0.8944607,
              -0.701053262,
              0.8198447,
              0.123940349,
              -0.10673295,
              -0.346419454,
              0.9942944,
              0.865881443
            ]
          }
        ]
      }
    ],
    "settings": {
      "layers": [
        3,
        10,
        10,
        6
      ],
      "error_min": 0.01,
      "error_max": 0.5
    }
  },
  {
    "layers": [
      {
        "neurons": [
          {
            "weights": null
          },
          {
            "weights": null
          },
          {
            "weights": null
          }
        ]
      },
      {
        "neurons": [
          {
            "weights": [
              0.7564361,
              -0.887519836,
              -0.7772038
            ]
          },
          {
            "weights": [
              -0.98512125,
              -0.968119144,
              0.39789483
            ]
          },
          {
            "weights": [
              0.00574047863,
              -0.350770682,
              0.171628118
            ]
          },
          {
            "weights": [
              0.5054581,
              0.4932041,
              -0.2840749
            ]
          },
          {
