{
  "experiment_name": "cnn_normalize",
  "evolutions": [
    [
      {
        "brain_network": {
          "layers": [
            {
              "neurons": [
                {
                  "weights": null
                },
                {
                  "weights": null
                },
                {
                  "weights": null
                },
                {
                  "weights": null
                },
                {
                  "weights": null
                },
                {
                  "weights": null
                },
                {
                  "weights": null
                },
                {
                  "weights": null
                },
                {
                  "weights": null
                },
                {
                  "weights": null
                },
                {
                  "weights": null
                },
                {
                  "weights": null
                },
                {
                  "weights": null
                },
                {
                  "weights": null
                },
                {
                  "weights": null
                },
                {
                  "weights": null
                },
                {
                  "weights": null
                },
                {
                  "weights": null
                },
                {
                  "weights": null
                },
                {
                  "weights": null
                },
                {
                  "weights": null
                },
                {
                  "weights": null
                },
                {
                  "weights": null
                },
                {
                  "weights": null
                },
                {
                  "weights": null
                },
                {
                  "weights": null
                },
                {
                  "weights": null
                },
                {
                  "weights": null
                }
              ]
            },
            {
              "neurons": [
                {
                  "weights": [
                    0.211684108,
                    -0.5215256,
                    0.196443945,
                    -0.372154,
                    -0.584980369,
                    -0.00296032429,
                    0.26152426,
                    -0.6150886,
                    0.410582274,
                    -0.8370384,
                    -0.107599437,
                    0.712316751,
                    -0.179706931,
                    0.607866168,
                    -0.0306884944,
                    0.6607381,
                    -0.1488918,
                    0.298481941,
                    0.6637032,
                    -0.175672174,
                    1.0,
                    0.0748978853,
                    0.521929264,
                    -1.0,
                    -0.233947247,
                    -0.423653632,
                    -0.0833445638,
                    -1.0
                  ]
                },
                {
                  "weights": [
                    0.785518169,
                    -0.279852629,
                    -0.0924287438,
                    -0.898162067,
                    -0.156719089,
                    -1.0,
                    0.869752347,
                    -1.0,
                    0.08482635,
                    -1.0,
                    -0.5707972,
                    -0.361565381,
                    -0.166898668,
                    -0.206517339,
                    1.0,
                    0.946602345,
                    -0.923137248,
                    -0.495672584,
                    1.0,
                    -0.782407761,
                    0.540046453,
                    0.800518036,
                    0.479821235,
                    0.210182309,
                    -1.0,
                    -0.107177377,
                    0.81460166,
                    0.229908317
                  ]
                },
                {
                  "weights": [
                    0.802889645,
                    -0.385800719,
                    -0.06494367,
                    0.461008281,
                    1.0,
                    -0.972177744,
                    -0.255930066,
                    0.924337149,
                    -0.317247719,
                    0.400015771,
                    -0.217731982,
                    0.7942376,
                    1.0,
                    -1.0,
                    0.151728749,
                    -0.239812016,
                    0.1004858,
                    0.2944002,
                    1.0,
                    0.757307649,
                    0.8477173,
                    0.724818,
                    0.24188602,
                    0.677959442,
                    -0.049910754,
                    0.498494357,
                    0.6163209,
                    0.0956610441
                  ]
                },
                {
                  "weights": [
                    0.252141476,
                    -0.92354995,
                    0.495573729,
                    0.5716314,
                    0.491966933,
                    -1.0,
                    -0.403591633,
                    -0.820136547,
                    0.71504724,
                    -0.363848031,
                    0.1305815,
                    0.50044173,
                    0.780367136,
                    0.55240345,
                    0.7422414,
                    0.243666619,
                    1.0,
                    -2.515316E-05,
                    1.0,
                    -0.311674625,
                    1.0,
                    -0.605976343,
                    0.348684,
                    -0.0449022055,
                    0.852544546,
                    -1.0,
                    -0.0574545562,
                    0.273757458
                  ]
                },
                {
                  "weights": [
                    -1.0,
                    0.506692648,
                    0.2712822,
                    -0.0274799466,
                    -0.7760725,
                    -1.0,
                    -0.06386259,
                    -0.33901608,
                    0.261295766,
                    0.8297596,
                    0.8800018,
                    -0.185811132,
                    0.485797137,
                    0.06698096,
                    -0.300634563,
                    0.308541656,
                    -1.0,
                    0.822891057,
                    -0.6647431,
                    0.9291014,
                    -0.65810883,
                    0.0111397505,
                    -1.0,
                    -0.810202,
                    0.1057035,
                    -0.626717448,
                    0.180809453,
                    -0.293936729
                  ]
                },
                {
                  "weights": [
                    0.37231037,
                    -0.491803646,
                    -1.0,
                    0.112930238,
                    -1.0,
                    0.638315439,
                    -0.915044665,
                    -0.655754566,
                    0.8923886,
                    0.6393971,
                    -0.578716338,
                    0.0483618975,
                    0.30773446,
                    0.8375441,
                    -0.255584419,
                    -0.7091594,
                    0.09684503,
                    -0.774347663,
                    1.0,
                    0.0955190063,
                    0.3083546,
                    0.178242862,
                    0.7339947,
                    -0.311559558,
                    -0.436659217,
                    0.76619935,
                    -1.0,
                    1.0
                  ]
                },
                {
                  "weights": [
                    0.453485221,
                    0.2187413,
                    0.356915444,
                    0.881704569,
                    0.189304,
                    -0.209175944,
                    -0.3760533,
                    -0.3881641,
                    -0.8296013,
                    1.0,
                    1.0,
                    -1.0,
                    -0.8588474,
                    0.4620354,
                    0.2614432,
                    -0.197487414,
                    0.6397356,
                    -0.0411164761,
                    0.7864015,
                    1.0,
                    0.220957637,
                    -0.7510456,
                    0.8708329,
                    -0.6351133,
                    0.346945137,
                    0.809083641,
                    1.0,
                    1.0
                  ]
                },
                {
                  "weights": [
                    -0.51002264,
                    -0.07561743,
                    0.620942,
                    -1.0,
                    0.610025764,
                    0.0827451944,
                    -0.5600741,
                    1.0,
                    -1.0,
                    -0.492992043,
                    -0.36471495,
                    -0.5393801,
                    0.646046042,
                    -0.7812631,
                    0.9620228,
                    1.0,
                    -0.3693912,
                    -0.116167188,
                    -1.0,
                    0.5820295,
                    -0.6767415,
                    1.0,
                    0.299629539,
                    1.0,
                    -0.656882048,
                    -0.399625659,
                    0.2507701,
                    0.319024533
                  ]
                },
                {
                  "weights": [
                    -0.129437417,
                    0.491494954,
                    0.564038932,
                    0.129838467,
                    -0.008609176,
                    0.282162,
                    1.0,
                    -0.9953355,
                    -0.5706584,
                    1.0,
                    0.489411324,
                    -0.8998883,
                    -0.683365,
                    1.0,
                    -0.764988661,
                    -0.6122687,
                    0.467910767,
                    0.8153608,
                    -0.0479706228,
                    -0.409385324,
                    -1.0,
                    0.7693832,
                    -0.680768967,
                    -0.9927495,
                    0.2737355,
                    -0.121985555,
                    -0.215733021,
                    -0.5684149
                  ]
                },
                {
                  "weights": [
                    -1.0,
                    0.9259225,
                    0.6236737,
                    0.5659714,
                    -0.9079895,
                    1.0,
                    0.518936932,
                    0.09531647,
                    -1.0,
                    -0.119826019,
                    0.298845738,
                    0.126860261,
                    0.9552109,
                    0.9460876,
                    -0.9464593,
                    1.0,
                    -0.552059948,
                    -0.5595354,
                    -0.8787658,
                    -0.25012958,
                    0.447078675,
                    -0.365757376,
                    -1.0,
                    -0.6458976,
                    -0.563090563,
                    1.0,
                    -0.9006591,
                    0.480633736
                  ]
                },
                {
                  "weights": [
                    -1.0,
                    -0.644886732,
                    -0.07990801,
                    0.653588653,
                    0.734503746,
                    -1.0,
                    -1.0,
                    0.486545861,
                    0.223784089,
                    -0.786748648,
                    -0.441102415,
                    1.0,
                    0.6223581,
                    0.9660986,
                    -0.193062916,
                    -0.279853463,
                    -0.08247997,
                    0.300399184,
                    0.00850451,
                    -1.0,
                    -0.0854336,
                    -0.862704754,
                    0.774650156,
                    0.763062358,
                    0.989339352,
                    1.0,
                    -0.3348247,
                    -0.0403855443
                  ]
                },
                {
                  "weights": [
                    -0.992972136,
                    0.7064109,
                    0.485634059,
                    -1.0,
                    -1.0,
                    -0.192550182,
                    -0.8898339,
                    0.489516,
                    -0.01742524,
                    0.107947737,
                    0.333937466,
                    0.8532939,
                    -0.5069952,
                    -0.272706866,
                    0.150147319,
                    -0.422758877,
                    -0.7434106,
                    0.744706869,
                    -1.0,
                    0.242918044,
                    -0.240494072,
                    1.0,
                    -0.657343149,
                    -0.181455791,
                    0.7151934,
                    0.03806317,
                    0.2352252,
                    0.9277475
                  ]
                },
                {
                  "weights": [
                    1.0,
                    0.186670423,
                    -1.0,
                    -0.158876389,
                    -0.235248446,
                    0.607012331,
                    -0.04998398,
                    0.21110177,
                    1.0,
                    -1.0,
                    0.159709781,
                    -0.206109762,
                    0.148445249,
                    0.186195627,
                    -1.0,
                    0.472781867,
                    -0.474631667,
                    -0.224168569,
                    0.0147874355,
                    0.211883813,
                    0.841553152,
                    0.188134968,
                    0.731604755,
                    1.0,
                    0.4215551,
                    0.6115701,
                    0.9056649,
                    -1.0
                  ]
                },
                {
                  "weights": [
                    0.426364154,
                    0.260426968,
                    0.7253115,
                    0.7399607,
                    0.548894942,
                    -0.638486743,
                    -0.977080464,
                    -1.0,
                    1.0,
                    0.6881747,
                    -0.377069622,
                    -0.246261641,
                    -0.226483464,
                    -1.0,
                    -0.337355763,
                    0.175506234,
                    0.627087951,
                    -0.03181827,
                    -0.2245661,
                    0.431331128,
                    -0.17157951,
                    -0.169072956,
                    -0.3607579,
                    0.602999449,
                    0.5127578,
                    -0.874533534,
                    0.2421037,
                    1.0
                  ]
                },
                {
                  "weights": [
                    0.706098557,
                    1.0,
                    0.286918133,
                    -0.1982733,
                    1.0,
                    0.396097422,
                    -0.173628956,
                    -0.7188692,
                    -0.158041954,
                    1.0,
                    -0.685413361,
                    -0.207912982,
                    0.181843579,
                    -0.658007145,
                    1.0,
                    -0.232062936,
                    0.9939568,
                    -0.7843816,
                    -0.2636503,
                    0.798341036,
                    -0.4992869,
                    -0.866772354,
                    -1.0,
                    -0.950604,
                    -0.495164782,
                    0.4293486,
                    0.220940173,
                    1.0
                  ]
                },
                {
                  "weights": [
                    -1.0,
                    -0.33300513,
                    -0.826036,
                    -0.293437123,
                    0.5256798,
                    -0.877074242,
                    -0.483678937,
                    -0.7619325,
                    0.904915333,
                    -0.22914505,
                    0.0340728462,
                    0.103308976,
                    0.255871266,
                    -0.0244389772,
                    -0.3178469,
                    1.0,
                    -1.0,
                    -0.943261862,
                    -0.963368654,
                    -0.4265586,
                    -0.9410313,
                    0.4997156,
                    -0.188474447,
                    0.90649724,
                    -0.9944191,
                    0.112844348,
                    1.0,
                    0.978797436
                  ]
                },
                {
                  "weights": [
                    -0.181710839,
                    -0.44215095,
                    0.467423648,
                    -0.213593483,
                    0.174305558,
                    -0.214293778,
                    0.782537341,
                    -0.350600243,
                    1.0,
                    -0.198704123,
                    -0.9368532,
                    -0.713231742,
                    -1.0,
                    -0.7369673,
                    -1.0,
                    -0.340307355,
                    0.2156564,
                    0.8973706,
                    -0.374747545,
                    0.513038158,
                    -0.195098281,
                    -0.8428578,
                    0.794185638,
                    -1.0,
                    0.1211499,
                    -0.136728644,
                    0.421158761,
                    0.363241434
                  ]
                },
                {
                  "weights": [
                    -1.0,
                    -0.435364068,
                    1.0,
                    -0.268322527,
                    0.494062632,
                    -0.643890858,
                    -0.879081964,
                    0.4261785,
                    -0.57141304,
                    0.7789445,
                    0.9903667,
                    -0.6172828,
                    -0.5815368,
                    0.616092265,
                    -0.6536119,
                    -0.123181492,
                    -0.7413864,
                    0.418927878,
                    -1.0,
                    -0.371026158,
                    0.199428678,
                    1.0,
                    0.842131853,
                    0.0761777163,
                    1.0,
                    -0.683768153,
                    1.0,
                    0.195889354
                  ]
                },
                {
                  "weights": [
                    -0.6524379,
                    0.7009783,
                    0.8663945,
                    -0.705153,
                    -0.3110438,
                    -0.180098414,
                    -0.219716817,
                    0.239419729,
                    1.0,
                    -1.0,
                    -0.609410346,
                    -0.158097982,
                    1.0,
                    -0.309046984,
                    0.9812239,
                    0.8544783,
                    -1.0,
                    -0.179967239,
                    1.0,
                    -1.0,
                    -1.0,
                    0.86373353,
                    -1.0,
                    -1.0,
                    0.6122174,
                    0.187624514,
                    0.09157896,
                    1.0
                  ]
                },
                {
                  "weights": [
                    1.0,
                    0.479187071,
                    0.153582752,
                    1.0,
                    -0.357215881,
                    0.101006866,
                    0.157274991,
                    -0.78105545,
                    -1.0,
                    -0.317536324,
                    -0.156630576,
                    -0.621731341,
                    -0.7480831,
                    0.0271369219,
                    0.736103535,
                    -1.0,
                    -0.857552052,
                    0.384085655,
                    0.0746361,
                    -0.400216073,
                    -0.200561643,
                    0.28318426,
                    0.399037242,
                    1.0,
                    0.106813252,
                    -0.142848909,
                    -0.883193254,
                    1.0
                  ]
                },
                {
                  "weights": [
                    -0.16905126,
                    -0.212628186,
                    -1.0,
                    0.414847344,
                    -0.7112188,
                    -0.722793341,
                    0.704654,
                    -1.0,
                    0.0187648535,
                    -0.153121591,
                    0.8894622,
                    -0.9103687,
                    -0.738319159,
                    -0.5015142,
                    -0.193825543,
                    -0.598099232,
                    -1.0,
                    0.00740492344,
                    -0.584120154,
                    0.983489037,
                    -0.1985749,
                    0.472165674,
                    0.6487458,
                    -1.0,
                    0.446266621,
                    0.427510679,
                    0.910173357,
                    1.0
                  ]
                },
                {
                  "weights": [
                    1.0,
                    -0.935189,
                    0.09509635,
                    0.4463968,
                    -0.142646745,
                    -0.7039862,
                    1.0,
                    0.3870641,
                    -0.7421255,
                    -0.274548054,
                    -0.478112817,
                    0.1340388,
                    0.7007946,
                    -0.407359242,
                    0.8826709,
                    -0.518482268,
                    -0.4697622,
                    -0.9427835,
                    -0.8848605,
                    -0.14514482,
                    0.0513063967,
                    0.4146394,
                    0.6235614,
                    -0.5354823,
                    0.152545393,
                    -0.707939863,
                    0.148492217,
                    0.37713024
                  ]
                },
                {
                  "weights": [
                    -1.0,
                    0.646658659,
                    0.939036846,
                    -0.843561053,
                    -0.7369755,
                    -0.329459071,
                    -1.0,
                    0.476011246,
                    -1.0,
                    -1.0,
                    -0.546644449,
                    -0.54195714,
                    0.6279483,
                    0.7175468,
                    -0.7659848,
                    -0.9174743,
                    -0.273991346,
                    -0.603613257,
                    -1.0,
                    0.787333965,
                    0.7360673,
                    -0.09753746,
                    0.119103551,
                    1.0,
                    0.454157919,
                    -0.76025176,
                    1.0,
                    -0.262262523
                  ]
                },
                {
                  "weights": [
                    -0.251597047,
                    0.625102758,
                    -1.0,
                    -0.910089552,
                    1.0,
                    -0.474864274,
                    -1.0,
                    -0.0456577539,
                    0.284434378,
                    -0.09406194,
                    -1.0,
                    -0.440813661,
                    1.0,
                    -0.869113266,
                    0.499255776,
                    0.6403599,
                    -0.125086725,
                    0.7846133,
                    -0.183280885,
                    -0.360277683,
                    0.908963561,
                    -0.262257218,
                    1.0,
                    -0.436455846,
                    -1.0,
                    -0.751940966,
                    1.0,
                    0.6710043
                  ]
                },
                {
                  "weights": [
                    -0.4958278,
                    -0.529403448,
                    -0.277968764,
                    0.447376221,
                    0.02611649,
                    -0.3281144,
                    -0.163725734,
                    -0.3045225,
                    0.0581709743,
                    -0.04732564,
                    0.5487938,
                    -1.0,
                    -0.338671327,
                    0.0274573565,
                    -0.936640143,
                    0.4014023,
                    -0.637125969,
                    -0.329342,
                    0.489403039,
                    0.407461137,
                    0.393269718,
                    1.0,
                    0.8442464,
                    -0.186155379,
                    -0.248826623,
                    1.0,
                    0.163220763,
                    -1.0
                  ]
                },
                {
                  "weights": [
                    -0.116769493,
                    -0.3290287,
                    1.0,
                    -1.0,
                    -0.408025146,
                    -0.863883,
                    0.7030206,
                    -0.8267021,
                    -1.0,
                    -1.0,
                    -0.934098,
                    -1.0,
                    0.398228377,
                    -0.0379103422,
                    0.378192335,
                    -0.825407743,
                    -0.843353152,
                    -0.2056812,
                    0.563464165,
                    0.2638974,
                    -0.192739308,
                    0.4707382,
                    -1.0,
                    0.812145948,
                    -0.4915849,
                    0.3141777,
                    1.0,
                    -0.186769366
                  ]
                },
                {
                  "weights": [
                    -0.694017649,
                    -0.301139,
                    -0.227815986,
                    0.3494014,
                    1.0,
                    -0.669975936,
                    0.158084333,
                    0.2982621,
                    -0.2807129,
                    0.482961178,
                    0.418076,
                    -0.389272273,
                    -0.09260118,
                    0.462263077,
                    0.258408517,
                    -0.07291338,
                    0.8883264,
                    0.1839334,
                    -0.436253965,
                    0.5758682,
                    -0.8087099,
                    -0.924892068,
                    -0.2231611,
                    0.0304762721,
                    -0.5196921,
                    0.445907563,
                    0.6216062,
                    1.0
                  ]
                },
                {
                  "weights": [
                    0.931921,
                    -0.8345252,
                    0.253838956,
                    0.191487789,
                    1.0,
                    1.0,
                    -0.161588788,
                    -0.5050076,
                    0.486609,
                    -0.217553258,
                    0.395858049,
                    -0.243723512,
                    0.195078969,
                    1.0,
                    -0.5253916,
                    -0.8106732,
                    0.9963219,
                    -0.377121568,
                    0.352294654,
                    -1.0,
                    -1.0,
                    0.147899985,
                    -0.3204612,
                    -0.8389751,
                    1.0,
                    0.236908078,
                    0.964579344,
                    -0.152015626
                  ]
                },
                {
                  "weights": [
                    0.015214324,
                    0.895575047,
                    -0.499160439,
                    1.0,
                    -0.243617192,
                    0.7940085,
                    1.0,
                    -0.6338761,
                    1.0,
                    -0.651237249,
                    -0.5711293,
                    -1.0,
                    -0.4774884,
                    0.5549729,
                    0.0500285029,
                    0.6675385,
                    0.726635456,
                    0.138475776,
                    -0.0530068874,
                    0.906285644,
                    0.637748659,
                    -0.8362577,
                    -0.7910015,
                    0.368818045,
                    -0.726715565,
                    0.412751257,
                    -0.143906325,
                    1.0
                  ]
                },
                {
                  "weights": [
                    1.0,
                    0.0533467531,
                    0.188610375,
                    0.4696198,
                    0.8398686,
                    -0.3711812,
                    0.5243194,
                    -0.136406422,
                    -0.930122256,
                    -0.1483196,
                    0.468884438,
                    0.9227359,
                    -0.226300538,
                    -0.247392237,
                    0.310712337,
                    0.421520829,
                    0.360173821,
                    0.7126503,
                    -0.123602748,
                    -0.836346149,
                    0.8688509,
                    1.0,
                    0.4429972,
                    0.71737206,
                    -0.852589369,
                    -0.964477062,
                    1.0,
                    0.344247073
                  ]
                }
              ]
            },
            {
              "neurons": [
                {
                  "weights": [
                    0.7411457,
                    0.8004465,
                    -0.7553593,
                    -0.8777566,
                    -0.568852365,
                    0.9418823,
                    -0.9405768,
                    -0.8915524,
                    -1.0,
                    -0.880816,
                    -1.0,
                    0.7162888,
                    -0.74244523,
                    -0.258440852,
                    0.0568082929,
                    -1.0,
                    0.002426803,
                    -0.481202483,
                    -0.7976781,
                    0.238972783,
                    -0.243660957,
                    0.6957197,
                    -0.234677315,
                    0.445696384,
                    0.485200584,
                    0.119620442,
                    0.4234111,
                    -0.276780248,
                    -0.842135668,
                    1.0
                  ]
                },
                {
                  "weights": [
                    0.141017616,
                    0.858996153,
                    0.04129523,
                    -0.749753952,
                    -0.5918832,
                    -0.147376657,
                    -0.9096346,
                    0.144155383,
                    -0.8174694,
                    0.842730165,
                    0.7146094,
                    0.5350198,
                    -0.462317884,
                    1.0,
                    0.07830155,
                    -1.0,
                    -0.41536364,
                    0.910544634,
                    -0.459956765,
                    0.8130641,
                    -1.0,
                    -0.5224782,
                    1.0,
                    -0.225760341,
                    0.114783406,
                    0.09014627,
                    -1.0,
                    0.1258086,
                    -0.355453,
                    -0.820845366
                  ]
                },
                {
                  "weights": [
                    0.435036749,
                    -0.440223038,
                    -1.0,
                    -0.450541437,
                    -0.120959342,
                    -1.0,
                    0.67908597,
                    -0.432179272,
                    -1.0,
                    0.494466662,
                    0.6597533,
                    1.0,
                    -0.7576315,
                    -1.0,
                    -0.54516685,
                    0.605211258,
                    -0.134025455,
                    -0.138376534,
                    1.0,
                    0.4585479,
                    0.35083124,
                    -0.8387253,
                    -1.0,
                    -0.7222914,
                    -0.7212651,
                    0.3932402,
                    0.261956424,
                    -0.431208968,
                    0.09053528,
                    -0.7845535
                  ]
                },
                {
                  "weights": [
                    1.0,
                    0.8142603,
                    -1.0,
                    0.9242927,
                    1.0,
                    -0.965496242,
                    -0.814895153,
                    1.0,
                    0.04986608,
                    0.465084761,
                    0.452366948,
                    0.0433618724,
                    0.325965136,
                    0.648535,
                    -0.0236731768,
                    -0.08647871,
                    -1.0,
                    0.760637045,
                    0.0791125,
                    -1.0,
                    -0.257163018,
                    -0.5212803,
                    1.0,
                    0.6745918,
                    0.3660302,
                    -0.149890065,
                    -1.0,
                    -0.386572719,
                    -0.2899573,
                    -0.979687
                  ]
                },
                {
                  "weights": [
                    0.560191631,
                    0.128797859,
                    -0.954088,
                    0.5332198,
                    -0.4265324,
                    -0.675516844,
                    1.0,
                    0.93926,
                    0.464751363,
                    -0.00544273853,
                    0.0265156031,
                    -0.35284245,
                    1.0,
                    -0.168275714,
                    -0.600720167,
                    -0.0544112921,
                    -0.479328752,
                    0.275905848,
                    -0.5501535,
                    1.0,
                    0.6637923,
                    -0.333981246,
                    0.0242267251,
                    -0.154466987,
                    -0.8219795,
                    -0.907451153,
                    -0.447941184,
                    0.0594705343,
                    -0.212151349,
                    -0.149034858
                  ]
                },
                {
                  "weights": [
                    -0.08729166,
                    -0.852854,
                    1.0,
                    -0.610085249,
                    -0.9462223,
                    0.2099253,
                    -1.0,
                    -0.370226741,
                    0.561401367,
                    0.385606617,
                    -1.0,
                    -0.7328005,
                    0.141701579,
                    0.203631818,
                    0.5413635,
                    0.890670061,
                    -0.3114811,
                    1.0,
                    0.949165344,
                    0.126096725,
                    -0.331791282,
                    -1.0,
                    -0.449417233,
                    0.005060017,
                    0.139911726,
                    -0.440876842,
                    1.0,
                    -1.0,
                    0.0463403463,
                    -0.167039871
                  ]
                },
                {
                  "weights": [
                    -0.804332733,
                    0.7413031,
                    -0.223304868,
                    0.09065962,
                    0.140790582,
                    0.34711358,
                    -1.0,
                    0.5545913,
                    -0.143958688,
                    0.496906936,
                    0.7584467,
                    1.0,
                    -0.6925534,
                    -0.188426435,
                    0.441624373,
                    -1.0,
                    1.0,
                    0.07244432,
                    0.41168496,
                    0.538396358,
                    -0.266713262,
                    -0.2896775,
                    -1.0,
                    -0.860203,
                    -0.32738024,
                    -1.0,
                    1.0,
                    -0.1182009,
                    0.126931429,
                    -0.7906583
                  ]
                },
                {
                  "weights": [
                    0.7705296,
                    -0.75332,
                    0.944624543,
                    0.9407811,
                    -0.9944875,
                    0.7303145,
                    1.0,
                    0.430167884,
                    0.20320642,
                    -1.0,
                    0.570015669,
                    0.132713437,
                    -0.149351716,
                    -0.64607203,
                    -0.124860764,
                    -0.491188645,
                    -0.219279647,
                    0.648547649,
                    -1.0,
                    0.990474,
                    0.08345893,
                    -0.115163922,
                    -0.417645961,
                    0.7123389,
                    -0.62849474,
                    -1.0,
                    -0.0171939135,
                    1.0,
                    -0.722952843,
                    -0.376711249
                  ]
                },
                {
                  "weights": [
                    -0.311805129,
                    0.2754814,
                    0.9494834,
                    0.8625568,
                    -0.784108162,
                    0.640853643,
                    -0.9515201,
                    1.0,
                    0.8637223,
                    0.4106097,
                    -1.0,
                    -0.8965764,
                    -0.831402063,
                    -0.6156094,
                    -0.97831136,
                    -0.9428059,
                    -0.93596,
                    1.0,
                    0.614631653,
                    -0.871461868,
                    -1.0,
                    -0.902510643,
                    0.685429335,
                    1.0,
                    0.24752605,
                    -0.2154445,
                    0.7182417,
                    0.7132267,
                    -0.5497668,
                    -0.2054624
                  ]
                },
                {
                  "weights": [
                    -0.8676715,
                    0.206476212,
                    0.5781634,
                    0.03950736,
                    0.0356557965,
                    0.2722108,
                    -1.0,
                    -0.776412845,
                    -0.936455131,
                    -0.0889189839,
                    -1.0,
                    0.238209963,
                    -1.0,
                    0.01595521,
                    -0.0301793218,
                    0.917574167,
                    0.6610864,
                    0.737750053,
                    0.707264662,
                    -0.985058546,
                    0.351625174,
                    -0.488372922,
                    0.314643443,
                    0.494890422,
                    0.783774436,
                    0.005681634,
                    -0.15400964,
                    0.1616453,
                    0.012512967,
                    0.3049882
                  ]
                },
                {
                  "weights": [
                    -0.208918691,
                    0.4616367,
                    0.029620707,
                    0.656471431,
                    0.918756247,
                    0.240631223,
                    -0.5067377,
                    -0.9312799,
                    1.0,
                    -0.5321405,
                    -0.7585702,
                    0.02181375,
                    -0.5660183,
                    0.87037015,
                    0.33128354,
                    -1.0,
                    0.174086511,
                    -0.9799812,
                    0.07708722,
                    1.0,
                    1.0,
                    -0.658372641,
                    -0.316868,
                    -0.354606718,
                    -0.09755859,
                    -0.4780723,
                    -0.8124788,
                    0.9974804,
                    0.335072249,
                    -0.350009084
                  ]
                },
                {
                  "weights": [
                    0.09179342,
                    -1.0,
                    -0.5980789,
                    -0.3111142,
                    0.354113072,
                    0.25287354,
                    0.9481633,
                    -1.0,
                    -0.204332,
                    -0.8311149,
                    0.9069936,
                    0.6349191,
                    -0.028095901,
                    -0.01985538,
                    0.743732452,
                    1.0,
                    0.668825567,
                    0.989825666,
                    0.622928143,
                    0.1583606,
                    1.0,
                    -0.757645547,
                    0.347589135,
                    1.0,
                    -0.869666338,
                    0.3518621,
                    -1.0,
                    0.620625138,
                    0.235941052,
                    0.283487737
                  ]
                },
                {
                  "weights": [
                    0.5073013,
                    -1.0,
                    -1.0,
                    0.1785145,
                    0.242513776,
                    0.393350065,
                    0.272927731,
                    0.874582052,
                    -0.8195388,
                    0.100139022,
                    0.4566099,
                    -0.9353385,
                    -0.543055534,
                    -0.8723304,
                    -0.5261831,
                    -0.6686456,
                    0.393802583,
                    -0.6363404,
                    1.0,
                    0.107682109,
                    0.6597855,
                    1.0,
                    -0.8434409,
                    -0.248358369,
                    1.0,
                    -0.0601037741,
                    -0.4126197,
                    -0.464257538,
                    -0.6591561,
                    1.0
                  ]
                },
                {
                  "weights": [
                    -0.4699918,
                    0.659636736,
                    0.800946236,
                    -0.6830821,
                    -0.258879781,
                    -1.0,
                    -0.537979364,
                    -1.0,
                    0.00228875875,
                    0.838827133,
                    -0.6498742,
                    -0.3177547,
                    -0.136063546,
                    0.8197031,
                    0.059656173,
                    1.0,
                    1.0,
                    -1.0,
                    0.0803810954,
                    -0.2620896,
                    -1.0,
                    -1.0,
                    0.386852473,
                    -0.446252465,
                    -0.191803932,
                    -0.09413993,
                    -0.2748531,
                    0.06422791,
                    -1.0,
                    -0.29363066
                  ]
                },
                {
                  "weights": [
                    0.234480679,
                    -0.0354658365,
                    0.17994082,
                    -0.392354846,
                    -0.848056555,
                    -0.421728015,
                    -0.3727205,
                    0.863723755,
                    -0.472658515,
                    -0.494941831,
                    0.09641516,
                    0.108685613,
                    -0.467321932,
                    1.0,
                    0.569586754,
                    -0.826494,
                    -0.0326122046,
                    0.7976419,
                    0.8588158,
                    -0.513223469,
                    -0.07407129,
                    -0.826844454,
                    -0.639603853,
                    0.442313164,
                    -0.9849818,
                    -0.414729,
                    0.72250104,
                    0.805176735,
                    0.893089652,
                    -0.6966207
                  ]
                },
                {
                  "weights": [
                    0.1236752,
                    0.997006655,
                    -0.393805921,
                    0.417182654,
                    0.218760788,
                    -1.0,
                    -0.605576754,
                    0.917485,
                    0.5157907,
                    0.155875012,
                    0.119602829,
                    0.0402938724,
                    0.5512131,
                    -0.192105651,
                    0.355932,
                    -0.4960009,
                    -1.0,
                    0.2682799,
                    0.0790109038,
                    -0.95471555,
                    0.5409095,
                    -0.7371676,
                    -0.361709923,
                    0.730522633,
                    0.938680649,
                    0.3380153,
                    -1.0,
                    -1.0,
                    -0.868736744,
                    0.730309844
                  ]
                },
                {
                  "weights": [
                    -0.0604900122,
                    -0.48365894,
                    0.143818736,
                    0.266184628,
                    0.440823,
                    -1.0,
                    -0.6016221,
                    -0.277577519,
                    1.0,
                    0.361589164,
                    0.523577332,
                    -1.0,
                    0.00357973576,
                    0.9189637,
                    1.0,
                    -0.498891,
                    0.574209452,
                    0.816130161,
                    0.2133671,
                    0.126149356,
                    -0.7217407,
                    1.0,
                    -0.887982845,
                    1.0,
                    0.297259152,
                    -0.994748652,
                    -0.249161839,
                    0.451053679,
                    1.0,
                    -0.5892401
                  ]
                },
                {
                  "weights": [
                    0.7545407,
                    0.6251278,
                    -0.5197475,
                    -1.0,
                    -0.515805,
                    -0.169184566,
                    -0.5890684,
                    -0.287646174,
                    -0.698867142,
                    -0.784211755,
                    0.7919848,
                    1.0,
                    0.3508051,
                    -0.431365252,
                    -1.0,
                    0.3459508,
                    0.297948778,
                    -0.337686419,
                    -1.0,
                    -0.661565065,
                    1.0,
                    0.2515554,
                    1.0,
                    0.307065934,
                    -1.0,
                    -0.8920467,
                    -1.0,
                    -1.0,
                    0.9346812,
                    0.457046
                  ]
                },
                {
                  "weights": [
                    -0.26905,
                    -0.0657573938,
                    0.0102988482,
                    0.2950704,
                    -0.350468516,
                    0.4402427,
                    0.7529497,
                    1.0,
                    -1.0,
                    -0.639276266,
                    -0.9170046,
                    -0.3859161,
                    0.106285214,
                    0.5038636,
                    0.233354747,
                    -0.09931153,
                    0.357746363,
                    1.0,
                    1.0,
                    0.369360656,
                    0.3271317,
                    0.729257762,
                    1.0,
                    -0.6247072,
                    0.566298,
                    0.158355027,
                    -1.0,
                    0.339882344,
                    1.0,
                    -0.9508033
                  ]
                },
                {
                  "weights": [
                    -0.05345887,
                    -0.5431655,
                    1.0,
                    0.108811021,
                    -0.03534448,
                    0.4544334,
                    -0.252074838,
                    -0.6116774,
                    -0.212477326,
                    0.335527152,
                    0.44706732,
                    -0.0099157095,
                    -0.443605959,
                    0.117549419,
                    0.880107164,
                    -0.490942448,
                    0.877680063,
                    0.109629393,
                    -1.0,
                    1.0,
                    -0.974199,
                    0.9438699,
                    1.0,
                    -0.2879392,
                    0.148216128,
                    0.6273408,
                    -0.283112168,
                    0.57887125,
                    -0.509668946,
                    -0.5099821
                  ]
                },
                {
                  "weights": [
                    -1.0,
                    -0.103395343,
                    -0.9260874,
                    -0.4167928,
                    -0.711922,
                    -0.136327356,
                    -0.5639708,
                    -0.241763234,
                    0.331322581,
                    0.0048173666,
                    0.5416353,
                    1.0,
                    -0.211810887,
                    0.625611663,
                    0.675977,
                    -0.781837,
                    1.0,
                    -0.887140751,
                    1.0,
                    -0.332900763,
                    1.0,
                    -0.277236581,
                    -0.115412831,
                    1.0,
                    0.318961322,
                    0.7600785,
                    -0.144276738,
                    -1.0,
                    -0.438768029,
                    0.8966572
                  ]
                },
                {
                  "weights": [
                    0.9523344,
                    0.87453413,
                    0.497664571,
                    0.489755839,
                    0.8717302,
                    -0.912649632,
                    0.220222592,
                    0.106024861,
                    0.5046072,
                    -0.861535,
                    -0.05319062,
                    -0.9535577,
                    -0.573732853,
                    0.438392758,
                    0.871688366,
                    0.810982,
                    0.753641,
                    -0.263648063,
                    0.7307875,
                    0.358170956,
                    1.0,
                    -0.560220838,
                    -0.9531009,
                    -0.6335213,
                    0.4077694,
                    0.5249562,
                    0.324316025,
                    1.0,
                    -0.538799047,
                    0.447861731
                  ]
                },
                {
                  "weights": [
                    0.87693727,
                    -0.599698067,
                    0.547829151,
                    0.8615067,
                    0.423952341,
                    -0.544852257,
                    -0.379160285,
                    0.6014881,
                    -1.0,
                    -1.0,
                    -0.5126413,
                    -0.2153978,
                    -1.0,
                    -0.649898767,
                    -1.0,
                    1.0,
                    -0.231301844,
                    0.6582384,
                    1.0,
                    -0.640198231,
                    -0.9738493,
                    0.728965342,
                    -0.5171082,
                    0.424610317,
                    -0.510254145,
                    0.4041178,
                    -0.4859504,
                    -0.5641613,
                    -1.0,
                    0.461198568
                  ]
                },
                {
                  "weights": [
                    0.162889361,
                    1.0,
                    -1.0,
                    0.405683,
                    1.0,
                    0.2446388,
                    -0.2972163,
                    0.5607953,
                    -0.209378362,
                    0.43628785,
                    -0.8554825,
                    0.356986016,
                    -0.375306,
                    -0.0277918577,
                    -0.177615285,
                    -0.107270837,
                    0.988374352,
                    0.4897544,
                    -1.0,
                    -0.00747215748,
                    0.5727074,
                    -1.0,
                    -0.880242348,
                    0.314148784,
                    0.9909853,
                    0.5615633,
                    -0.5972035,
                    1.0,
                    0.852627754,
                    0.17188853
                  ]
                },
                {
                  "weights": [
                    0.07011545,
                    1.0,
                    -0.692450762,
                    0.14263618,
                    0.3809392,
                    0.388024926,
                    0.401194245,
                    -0.5926993,
                    1.0,
                    0.0114984214,
                    0.208769679,
                    0.131655574,
                    -0.6994989,
                    -1.0,
                    0.6924753,
                    -0.05997908,
                    0.0006312132,
                    1.0,
                    -0.506938934,
                    -1.0,
                    -0.280911565,
                    -1.0,
                    -0.954338551,
                    -0.436640859,
                    0.261944056,
                    0.847365856,
                    -0.706415653,
                    0.180139184,
                    0.9617393,
                    0.42128107
                  ]
                },
                {
                  "weights": [
                    -0.229937434,
                    -0.264845729,
                    -0.319638848,
                    0.348703355,
                    0.307260215,
                    -0.168600768,
                    0.2091018,
                    0.5504787,
                    -0.24318558,
                    -1.0,
                    0.5375797,
                    -0.761380434,
                    0.929616,
                    0.296326369,
                    0.5091501,
                    -0.586071,
                    -0.702625036,
                    -0.3944979,
                    -1.0,
                    -0.07270086,
                    1.0,
                    0.4404341,
                    -0.5385343,
                    0.7612173,
                    0.2778324,
                    0.902164,
                    -0.0231413543,
                    -0.0235801935,
                    0.0485826731,
                    0.3062993
                  ]
                },
                {
                  "weights": [
                    -0.06338817,
                    -1.0,
                    0.7644336,
                    0.5923071,
                    -0.413554937,
                    0.922080755,
                    -0.8356689,
                    0.05687177,
                    -0.807214,
                    -0.3419634,
                    -0.387862,
                    0.94060266,
                    0.850288749,
                    0.0116692185,
                    -1.0,
                    -1.0,
                    0.5164467,
                    1.0,
                    -0.230862975,
                    1.0,
                    0.2851293,
                    -0.382233977,
                    -0.722916365,
                    -1.0,
                    0.642416239,
                    -0.419669747,
                    -0.193205774,
                    -0.8146298,
                    0.532038,
                    0.361498743
                  ]
                },
                {
                  "weights": [
                    0.162892044,
                    -0.821427345,
                    -0.580891252,
                    0.5453083,
                    -1.0,
                    0.03076458,
                    -1.0,
                    0.040237546,
                    -0.09874523,
                    0.484024018,
                    -0.6952362,
                    -0.904337943,
                    0.66184926,
                    -0.328728825,
                    0.43562752,
                    -0.6353972,
                    0.007785678,
                    -0.204860151,
                    -0.5490759,
                    0.9712744,
                    0.5277646,
                    -0.0247432,
                    -0.9938319,
                    -0.5905988,
                    -0.8386507,
                    0.6186876,
                    -0.137799621,
                    0.624795556,
                    -0.250768185,
                    0.2658273
                  ]
                },
                {
                  "weights": [
                    1.0,
                    -0.325724036,
                    -1.0,
                    0.398245156,
                    -1.0,
                    0.6190816,
                    0.9045381,
                    0.5947427,
                    1.0,
                    -0.8705434,
                    -0.140104175,
                    -0.8734505,
                    -0.78360486,
                    0.3368816,
                    -0.0173770785,
                    -1.0,
                    0.229372382,
                    -0.566514254,
                    0.367189884,
                    -0.253482461,
                    -0.9820626,
                    0.4111826,
                    0.995179653,
                    -0.3164569,
                    -1.0,
                    0.6899395,
                    -0.6191101,
                    -0.241042182,
                    -0.218062639,
                    0.8463009
                  ]
                },
                {
                  "weights": [
                    -0.166349292,
                    0.5638563,
                    1.0,
                    -1.0,
                    0.49168703,
                    -0.993294239,
                    -0.236824274,
                    -1.0,
                    0.183359981,
                    -0.367900968,
                    -0.006398082,
                    0.25862667,
                    0.2548195,
                    -1.0,
                    -0.374364346,
                    1.0,
                    -0.140217513,
                    1.0,
                    -0.954637051,
                    -0.240209669,
                    -0.9060251,
                    -1.0,
                    -0.0906041563,
                    0.357722044,
                    -0.5783665,
                    -0.231113315,
                    0.692777455,
                    0.367500544,
                    -0.416444838,
                    0.1928221
                  ]
                }
              ]
            },
            {
              "neurons": [
                {
                  "weights": [
                    -0.168351769,
                    -0.4955269,
                    0.9144521,
                    -1.0,
                    -0.263170362,
                    0.668765545,
                    -0.554601669,
                    0.796089649,
                    0.4980457,
                    -0.528111935,
                    0.232519031,
                    0.264519662,
                    0.9768672,
                    0.0381633043,
                    0.28768298,
                    -0.783220053,
                    -0.174970508,
                    -0.2454499,
                    -0.139283776,
                    0.260218829,
                    -0.5175009,
                    -0.700811446,
                    -0.139733672,
                    0.113891959,
                    0.4297895,
                    -0.07439697,
                    -0.8136656,
                    -0.6302638,
                    -1.0,
                    1.0
                  ]
                },
                {
                  "weights": [
                    -0.340687633,
                    -0.894114256,
                    -0.6985607,
                    -1.0,
                    -1.0,
                    -1.0,
                    0.351850718,
                    0.9360191,
                    -0.499261022,
                    -1.0,
                    0.7762944,
                    0.9168793,
                    0.8647773,
                    -0.971820652,
                    -0.9716177,
                    0.8876269,
                    -0.341704726,
                    0.519237638,
                    0.333501816,
                    0.6495123,
                    0.698249936,
                    -0.189346433,
                    -0.6004822,
                    0.6510062,
                    -0.9525852,
                    -1.0,
                    -0.3327433,
                    -0.776111,
                    0.3104975,
                    -1.0
                  ]
                },
                {
                  "weights": [
                    1.0,
                    0.277487,
                    0.496023864,
                    -0.6170943,
                    -0.240754247,
                    1.0,
                    1.0,
                    -0.246262372,
                    -0.238350272,
                    -1.0,
                    -0.4964851,
                    0.356672257,
                    -1.0,
                    -0.9016118,
                    -0.7781167,
                    0.376624465,
                    1.0,
                    -0.316581428,
                    -0.7416334,
                    -0.3077678,
                    1.0,
                    -0.4606985,
                    0.108670354,
                    -0.618697941,
                    0.7669288,
                    -0.538107634,
                    -0.130546987,
                    0.898976564,
                    0.180215716,
                    0.491909146
                  ]
                },
                {
                  "weights": [
                    -1.0,
                    0.457443655,
                    -0.0224279165,
                    1.0,
                    1.0,
                    -0.7728832,
                    -1.0,
                    -0.05632484,
                    -0.509942055,
                    1.0,
                    -0.281870723,
                    0.32799527,
                    0.228688121,
                    1.0,
                    -1.0,
                    0.641579,
                    0.863554835,
                    0.37679103,
                    1.0,
                    0.1976124,
                    -0.622879,
                    0.4575141,
                    -0.30905354,
                    -0.8918023,
                    0.683416843,
                    1.0,
                    0.5112471,
                    -0.4002782,
                    -0.8930385,
                    -0.5739548
                  ]
                },
                {
                  "weights": [
                    0.5459765,
                    0.0733090639,
                    1.0,
                    -0.208348811,
                    0.264036357,
                    -0.391433358,
                    0.5779605,
                    -0.148273587,
                    0.149511516,
                    1.0,
                    -0.7527065,
                    0.2662916,
                    0.8010392,
                    0.23214066,
                    0.730104566,
                    0.5832274,
                    0.9379289,
                    -1.0,
                    -0.5452342,
                    0.0331136,
                    0.628997564,
                    0.8118386,
                    0.6109967,
                    -1.0,
                    -0.150455832,
                    -0.167719245,
                    0.756924868,
                    1.0,
                    -1.0,
                    0.2638602
                  ]
                },
                {
                  "weights": [
                    -0.0410429239,
                    1.0,
                    1.0,
                    0.8536937,
                    -0.505870938,
                    -1.0,
                    0.8843088,
                    -0.7685454,
                    0.17845875,
                    -1.0,
                    -0.663806438,
                    1.0,
                    1.0,
                    0.118837357,
                    -0.607809663,
                    0.96427536,
                    -0.00123071671,
                    0.7450081,
                    -0.1858679,
                    -0.16718176,
                    0.326060981,
                    -0.05470866,
                    0.475274056,
                    -0.008646727,
                    -0.05990827,
                    -0.189529777,
                    0.5969732,
                    0.0508677959,
                    -0.334843427,
                    -0.9895241
                  ]
                },
                {
                  "weights": [
                    0.534049749,
                    -0.126207,
                    1.0,
                    1.0,
                    -0.8792125,
                    -0.752444863,
                    1.0,
                    0.624601841,
                    1.0,
                    -0.169650376,
                    0.9173978,
                    0.542868435,
                    0.145511985,
                    0.2108269,
                    1.0,
                    0.4573948,
                    -0.54103446,
                    0.973966837,
                    -0.145724773,
                    0.166105509,
                    -0.938264,
                    -0.3421441,
                    -0.890466452,
                    0.531619251,
                    -1.0,
                    0.9258244,
                    -0.162494779,
                    1.0,
                    -0.291216016,
                    0.1839832
                  ]
                },
                {
                  "weights": [
                    -1.0,
                    0.118222177,
                    0.706552,
                    -0.633131,
                    -0.6702848,
                    0.168763161,
                    0.475785077,
                    0.7368978,
                    -0.391214252,
                    0.9793645,
                    0.653817058,
                    -0.15609771,
                    -0.8543397,
                    0.360276371,
                    -0.133757323,
                    -0.114548922,
                    1.0,
                    0.0595665723,
                    0.16786015,
                    1.0,
                    -1.0,
                    -0.5468264,
                    0.778903,
                    -0.6230489,
                    -0.319712758,
                    -0.08817953,
                    -0.483011574,
                    0.1242547,
                    0.7513764,
                    1.0
                  ]
                },
                {
                  "weights": [
                    0.5921277,
                    -0.09327507,
                    -0.6767664,
                    -1.0,
                    1.0,
                    1.0,
                    -1.0,
                    0.661627531,
                    0.392799735,
                    -0.556558132,
                    1.0,
                    0.008562706,
                    -0.343454152,
                    -0.376818538,
                    0.009701252,
                    0.178171188,
                    1.0,
                    -0.24126932,
                    -1.0,
                    0.284188151,
                    -0.745656967,
                    -1.0,
                    -0.585096836,
                    -0.712191343,
                    0.791031,
                    0.462271035,
                    -0.928041935,
                    0.3985969,
                    -0.15950048,
                    0.8393638
                  ]
                },
                {
                  "weights": [
                    1.0,
                    -0.783941448,
                    -0.8852171,
                    0.999530733,
                    -0.7813875,
                    0.6279442,
                    0.101941466,
                    0.5907477,
                    0.4495792,
                    -0.271358848,
                    0.148198962,
                    -0.5627098,
                    0.619578838,
                    0.316881865,
                    0.479954928,
                    0.282578945,
                    -0.296236157,
                    0.147241712,
                    -0.0489883423,
                    0.9509913,
                    0.294572324,
                    -0.4486779,
                    -0.7547529,
                    1.0,
                    -0.9837091,
                    0.0509325266,
                    1.0,
                    -1.0,
                    -1.0,
                    0.404528618
                  ]
                },
                {
                  "weights": [
                    0.5904522,
                    -1.0,
                    -0.429172158,
                    -0.615534842,
                    0.428877234,
                    -0.5518575,
                    0.459356427,
                    0.550972462,
                    1.0,
                    -0.871546268,
                    0.468511522,
                    0.8308184,
                    -1.0,
                    0.978816032,
                    -0.0535005331,
                    0.564300239,
                    -1.0,
                    -0.813629866,
                    -0.6057323,
                    0.628618062,
                    -1.0,
                    0.509178162,
                    -0.0447196364,
                    0.14149642,
                    -0.857594252,
                    1.0,
                    -0.393886745,
                    0.6995299,
                    1.0,
                    0.06788856
                  ]
                },
                {
                  "weights": [
                    -0.6801379,
                    0.0340899229,
                    -1.0,
                    1.0,
                    0.285064876,
                    -0.866034031,
                    -0.490734458,
                    0.296813428,
                    0.7244663,
                    0.209566653,
                    0.983697653,
                    -1.0,
                    0.423498154,
                    0.4368093,
                    0.669878,
                    1.0,
                    0.8414266,
                    0.408812016,
                    0.402814358,
                    0.156323314,
                    -0.451286525,
                    0.199581027,
                    -1.0,
                    1.0,
                    0.242694914,
                    -0.184547067,
                    -0.0390315652,
                    1.0,
                    0.986523867,
                    -0.02276799
                  ]
                },
                {
                  "weights": [
                    0.3657486,
                    0.535586953,
                    0.0111405253,
                    0.75403583,
                    0.3419441,
                    0.832509458,
                    -0.656777143,
                    -1.0,
                    -0.692744,
                    -0.192226708,
                    0.655866861,
                    -0.252287984,
                    0.0474983454,
                    1.0,
                    -0.6860239,
                    1.0,
                    -0.629702568,
                    -1.0,
                    0.7373407,
                    1.0,
                    0.450829029,
                    1.0,
                    0.323018044,
                    0.610052,
                    -1.0,
                    -0.8861551,
                    -0.7675801,
                    1.0,
                    1.0,
                    -0.0571333766
                  ]
                },
                {
                  "weights": [
                    -0.611439466,
                    -0.3664656,
                    -0.301840633,
                    0.344438076,
                    -0.7462728,
                    1.0,
                    0.919879735,
                    1.0,
                    0.9883096,
                    -0.183903515,
                    0.5930034,
                    -0.5539182,
                    0.29153347,
                    -1.0,
                    0.140030265,
                    -0.0740670562,
                    -0.774049759,
                    -0.7967329,
                    1.0,
                    0.17633903,
                    0.6918299,
                    -0.21243605,
                    -0.08680609,
                    0.4720473,
                    0.964481354,
                    0.4843218,
                    0.616620064,
                    -0.367996573,
                    0.0155333281,
                    -0.5731008
                  ]
                },
                {
                  "weights": [
                    0.387306422,
                    0.267426133,
                    0.5257535,
                    0.0287300348,
                    -1.0,
                    0.426129878,
                    -0.7661686,
                    0.5463636,
                    -0.547770262,
                    -0.287819743,
                    0.6788583,
                    -0.0346506834,
                    1.0,
                    1.0,
                    0.724503756,
                    1.0,
                    0.76988256,
                    0.5769953,
                    -0.7341652,
                    -0.8173802,
                    -0.201387286,
                    -0.462823957,
                    -1.0,
                    0.939451,
                    1.0,
                    0.4996562,
                    -0.264249921,
                    -0.221727669,
                    -0.7959937,
                    1.0
                  ]
                },
                {
                  "weights": [
                    -0.6718782,
                    0.254159659,
                    -0.746491,
                    0.6360841,
                    -1.0,
                    -0.9240656,
                    -0.0671647638,
                    -0.005438924,
                    0.474880338,
                    0.005695939,
                    -0.119341731,
                    0.0294975042,
                    0.753429234,
                    -0.132820249,
                    1.0,
                    -0.5110384,
                    -0.413999677,
                    -0.00146609545,
                    -0.3445784,
                    -0.0650726557,
                    1.0,
                    -0.642612,
                    1.0,
                    -0.8594022,
                    -0.00645554066,
                    -0.9745164,
                    0.6573973,
                    -1.0,
                    -0.00652864575,
                    0.8342316
                  ]
                },
                {
                  "weights": [
                    -0.07736567,
                    0.5879252,
                    0.201686263,
                    -0.9751177,
                    0.203574121,
                    0.398574,
                    0.4963593,
                    1.0,
                    1.0,
                    -0.06897265,
                    0.483899027,
                    0.6546263,
                    -0.6677401,
                    -0.805188656,
                    0.3200471,
                    0.216929555,
                    -0.1582092,
                    0.098318696,
                    0.280098438,
                    0.720728159,
                    0.4836971,
                    -1.0,
                    1.0,
                    -1.0,
                    0.717402935,
                    0.180944145,
                    -1.0,
                    0.107742131,
                    -0.362719655,
                    -0.988939762
                  ]
                },
                {
                  "weights": [
                    -0.7391496,
                    -0.3232458,
                    -1.0,
                    -0.9012761,
                    0.480187654,
                    1.0,
                    -0.0580533147,
                    0.73658967,
                    -0.7509849,
                    -0.156089485,
                    1.0,
                    -0.5424037,
                    -0.9824114,
                    -0.30861634,
                    1.0,
                    0.7561894,
                    -0.35235846,
                    -1.0,
                    -0.165132821,
                    -0.376122117,
                    -0.258358181,
                    -0.0392166376,
                    -0.299337268,
                    1.0,
                    -1.0,
                    0.5021836,
                    -0.7231822,
                    0.204961926,
                    0.306765527,
                    0.968193352
                  ]
                },
                {
                  "weights": [
                    0.00170218945,
                    1.0,
                    -1.0,
                    -0.9291978,
                    -0.3726518,
                    0.153196692,
                    -1.0,
                    -1.0,
                    0.633250952,
                    -0.06714046,
                    1.0,
                    -0.0612844378,
                    -0.170904517,
                    0.00565636158,
                    -1.0,
                    -0.17520535,
                    -0.515027046,
                    -0.7559986,
                    -0.3440107,
                    0.0204543471,
                    -0.805352,
                    -0.689075947,
                    0.487127542,
                    -1.0,
                    0.23892051,
                    -0.399717,
                    0.6352062,
                    0.199060321,
                    0.06390053,
                    -0.268860519
                  ]
                },
                {
                  "weights": [
                    -0.274459,
                    0.7348274,
                    0.733045,
                    -0.337344527,
                    -0.361433864,
                    0.706234336,
                    1.0,
                    -0.9082308,
                    -0.438777566,
                    0.0738276243,
                    -0.8313869,
                    -0.434571534,
                    1.0,
                    0.482107848,
                    -0.974847555,
                    -0.47441566,
                    -0.5640125,
                    0.971454144,
                    -0.417236447,
                    0.3111642,
                    0.8619709,
                    -0.910876334,
                    0.345314026,
                    1.0,
                    -1.0,
                    0.805018663,
                    -0.678921,
                    -0.484642923,
                    0.5466786,
                    -0.241717219
                  ]
                },
                {
                  "weights": [
                    -0.912034333,
                    -1.0,
                    0.285487622,
                    -0.9037796,
                    0.5806966,
                    -0.9689325,
                    -0.904905558,
                    -0.148594141,
                    -0.0604288,
                    -0.2171942,
                    0.5899811,
                    0.463902682,
                    -0.725244045,
                    -1.0,
                    0.5202677,
                    0.7525068,
                    1.0,
                    -0.779588461,
                    -1.0,
                    -0.5120437,
                    0.3285031,
                    0.421270818,
                    1.0,
                    -0.9790505,
                    0.08054447,
                    1.0,
                    0.324929446,
                    -0.5121928,
                    -0.4854437,
                    -1.0
                  ]
                },
                {
                  "weights": [
                    -0.89842093,
                    0.180301309,
                    0.9492712,
                    0.200538278,
                    0.3971145,
                    0.3894214,
                    -0.0196575522,
                    0.355158538,
                    0.8048225,
                    -0.123158038,
                    0.758695841,
                    0.110936433,
                    -1.0,
                    0.820331633,
                    0.110080242,
                    -0.453767926,
                    -0.719135761,
                    -0.394795537,
                    0.4049075,
                    0.5687635,
                    -0.555847347,
                    0.268054277,
                    -0.207660556,
                    -0.5792062,
                    0.8720535,
                    0.8574164,
                    0.311276644,
                    -0.06757581,
                    -0.6725712,
                    0.00218743086
                  ]
                },
                {
                  "weights": [
                    -0.9655149,
                    -1.0,
                    0.7574518,
                    -0.656721234,
                    -0.5019698,
                    0.4512696,
                    -0.178332925,
                    0.835839748,
                    -0.394493461,
                    -0.0291465521,
                    0.549608946,
                    -0.9303813,
                    0.341948479,
                    -0.4431051,
                    -0.0424195528,
                    0.4381852,
                    -0.415442348,
                    0.03483826,
                    -0.228806615,
                    -0.3267877,
                    -0.27142942,
                    -0.9573153,
                    -1.0,
                    -0.54693985,
                    0.139851451,
                    -0.133125126,
                    0.3484599,
                    -0.478127152,
                    -0.127637267,
                    0.4069722
                  ]
                },
                {
                  "weights": [
                    0.552298665,
                    0.5794213,
                    1.0,
                    -0.268358916,
                    1.0,
                    -0.314779162,
                    1.0,
                    -0.663601339,
                    0.121074557,
                    -0.21731317,
                    -0.765341163,
                    0.591279149,
                    1.0,
                    0.194456577,
                    1.0,
                    0.0164121389,
                    0.3867078,
                    -1.0,
                    0.22641325,
                    -0.6667304,
                    -0.1806916,
                    0.37332803,
                    -0.5479245,
                    1.0,
                    1.0,
                    0.265488356,
                    -0.103435874,
                    -0.448821425,
                    -0.0660603046,
                    -0.6429603
                  ]
                },
                {
                  "weights": [
                    -0.712152839,
                    0.0100711584,
                    -0.245392084,
                    -0.0117651224,
                    -1.0,
                    -0.98403573,
                    0.05911219,
                    0.832541466,
                    0.417178452,
                    0.936144233,
                    0.03840092,
                    -0.5637206,
                    0.189708829,
                    0.40691483,
                    0.259571522,
                    -0.212025046,
                    -0.0207682848,
                    -0.273376644,
                    0.538087368,
                    -0.7160802,
                    0.08176124,
                    -1.0,
                    -0.7609081,
                    -0.598574638,
                    0.414947718,
                    -1.0,
                    0.324047059,
                    0.581395864,
                    -0.381457448,
                    1.0
                  ]
                },
                {
                  "weights": [
                    -1.0,
                    -0.136100411,
                    0.465272963,
                    -0.628000736,
                    -0.0590103865,
                    -0.0303193331,
                    -0.567484558,
                    0.7690711,
                    -0.5510502,
                    -1.0,
                    -1.0,
                    0.50769347,
                    0.7614598,
                    0.276457757,
                    0.6577413,
                    1.0,
                    0.119624972,
                    -0.791490555,
                    -0.21130836,
                    -0.307643145,
                    0.242343366,
                    -0.6227154,
                    0.313613057,
                    0.901191235,
                    -0.441898257,
                    -0.112454295,
                    -0.5262905,
                    0.0887301,
                    -1.0,
                    0.191264153
                  ]
                },
                {
                  "weights": [
                    0.06368995,
                    -0.836668,
                    0.9369452,
                    0.5984862,
                    0.347425431,
                    -0.5219039,
                    0.8328681,
                    -0.128270745,
                    -0.2785176,
                    -1.0,
                    0.676014841,
                    0.31240508,
                    -0.08716881,
                    -0.7499371,
                    -0.454696774,
                    0.269173831,
                    -1.0,
                    1.0,
                    0.19866693,
                    -0.0278726816,
                    -0.693475664,
                    0.6878648,
                    0.725450754,
                    0.835264444,
                    -0.9040222,
                    -0.420731664,
                    -1.0,
                    0.4526893,
                    -0.8612027,
                    -1.0
                  ]
                },
                {
                  "weights": [
                    0.140924573,
                    0.0294126272,
                    -1.0,
                    -0.21544987,
                    1.0,
                    1.0,
                    -0.75295496,
                    0.021927,
                    -1.0,
                    -0.7131789,
                    -0.93277216,
                    0.407265335,
                    0.6022699,
                    -0.5286393,
                    0.8003793,
                    0.5680647,
                    0.261532068,
                    -0.5234128,
                    1.0,
                    -1.0,
                    0.22455968,
                    0.631028533,
                    -0.24777174,
                    -0.67915225,
                    -0.8236573,
                    0.6833029,
                    -0.08644664,
                    -0.3497511,
                    -0.8975761,
                    -0.808429241
                  ]
                },
                {
                  "weights": [
                    -0.294487268,
                    -0.6190147,
                    0.717868268,
                    -0.7421205,
                    -0.218980849,
                    -0.799550056,
                    -1.0,
                    -0.02355659,
                    -0.591985643,
                    -0.76703763,
                    -0.266819328,
                    0.856127143,
                    0.7867751,
                    -0.269533277,
                    -0.0128458738,
                    -0.789737,
                    -0.164522886,
                    0.04021904,
                    1.0,
                    0.97813797,
                    0.793066263,
                    0.5978173,
                    1.0,
                    0.153877109,
                    0.2918975,
                    0.5763468,
                    -0.5326092,
                    0.244418263,
                    0.5644796,
                    0.441022545
                  ]
                },
                {
                  "weights": [
                    -0.1199137,
                    -0.188187242,
                    1.0,
                    -0.4736694,
                    0.318654656,
                    -1.0,
                    -0.150229812,
                    1.0,
                    0.140508,
                    0.0277103186,
                    -1.0,
                    0.0242363214,
                    0.738101244,
                    1.0,
                    0.873759747,
                    1.0,
                    0.06287548,
                    -0.5797075,
                    0.947340965,
                    0.332170218,
                    -0.9069787,
                    0.716647148,
                    -0.5827984,
                    -0.0532526374,
                    -0.9042735,
                    -0.5675404,
                    0.0530480146,
                    0.678286552,
                    -0.3343791,
                    0.137696028
                  ]
                }
              ]
            },
            {
              "neurons": [
                {
                  "weights": [
                    1.0,
                    -0.6198869,
                    0.0179862976,
                    -0.0621266067,
                    0.38845557,
                    0.285561949,
                    -0.373232484,
                    0.220133334,
                    -0.9699527,
                    0.567715049,
                    0.9685023,
                    0.850909948,
                    0.0528274775,
                    -0.487364,
                    1.0,
                    -0.6315763,
                    -0.2999764,
                    -0.121664047,
                    -0.166058153,
                    -0.5296793,
                    1.0,
                    -0.3735093,
                    -0.818088055,
                    -0.436766177,
                    -0.3252014,
                    0.831142664,
                    0.0579870939,
                    -0.75917387,
                    -1.0,
                    0.147033334
                  ]
                },
                {
                  "weights": [
                    -0.21208173,
                    0.159886,
                    0.05853066,
                    0.586680651,
                    -0.682063341,
                    -0.04686162,
                    -1.0,
                    1.0,
                    0.017218709,
                    -0.855355561,
                    0.626841068,
                    -0.006386459,
                    0.318698168,
                    -0.164332211,
                    -0.266333,
                    0.7821846,
                    0.7200105,
                    0.8276491,
                    -0.0314720869,
                    1.0,
                    0.5618314,
                    0.3128003,
                    0.284828871,
                    -0.7560854,
                    -0.404336572,
                    -0.447043538,
                    -1.0,
                    0.563795447,
                    -0.6909175,
                    0.4224052
                  ]
                },
                {
                  "weights": [
                    0.9425051,
                    -1.0,
                    -0.8981788,
                    0.467210263,
                    -0.4396907,
                    -0.672091544,
                    -0.8372154,
                    0.142802656,
                    0.016138196,
                    0.921067,
                    0.13707006,
                    0.24359,
                    -0.6667547,
                    -0.5960767,
                    0.73405695,
                    0.309474915,
                    1.0,
                    -0.315510035,
                    0.107810766,
                    -0.4955322,
                    -0.0870266557,
                    0.09978449,
                    -0.268484622,
                    -0.279716253,
                    1.0,
                    -0.908197165,
                    -0.443704218,
                    0.8255975,
                    -0.390989035,
                    -0.4132948
                  ]
                },
                {
                  "weights": [
                    -0.711806536,
                    0.0441948175,
                    1.0,
                    -0.9443927,
                    0.334999055,
                    0.2614465,
                    0.7299857,
                    0.715672255,
                    -1.0,
                    -0.792618036,
                    0.009411216,
                    0.4571869,
                    1.0,
                    1.0,
                    -0.2539481,
                    0.816787,
                    -0.77099967,
                    -0.155772567,
                    0.138960958,
                    1.0,
                    0.695263,
                    0.5631764,
                    0.7170887,
                    0.02372706,
                    0.9537909,
                    0.798202455,
                    -0.7637098,
                    1.0,
                    0.7209499,
                    -0.1578759
                  ]
                },
                {
                  "weights": [
                    0.8605223,
                    0.147028327,
                    0.947514653,
                    -1.0,
                    0.8725922,
                    0.0362467766,
                    0.527328968,
                    -0.36663115,
                    -0.495052218,
                    -1.0,
                    0.0123688877,
                    0.201531768,
                    0.03190857,
                    0.732547045,
                    -0.752537966,
                    0.3904967,
                    -0.6636131,
                    0.9904158,
                    -0.1491186,
                    0.8925955,
                    -0.447969317,
                    -0.3927214,
                    -0.8078525,
                    -0.767640352,
                    0.77031374,
                    0.5565748,
                    0.5483327,
                    -0.5787375,
                    0.07980102,
                    1.0
                  ]
                },
                {
                  "weights": [
                    -0.255791545,
                    0.5357106,
                    1.0,
                    0.5979063,
                    0.09438908,
                    0.0586382151,
                    0.1418772,
                    0.6255884,
                    0.206211209,
                    -0.0844959,
                    -0.5553185,
                    -0.501017332,
                    -0.246226668,
                    -0.1801447,
                    0.416014344,
                    0.9175861,
                    0.9745021,
                    -0.06622678,
                    -0.9805492,
                    -0.3638958,
                    0.68611753,
                    0.9310511,
                    -0.7225292,
                    -0.444516,
                    0.2607338,
                    -0.164301515,
                    0.643066347,
                    -0.237116933,
                    -0.06670725,
                    -1.0
                  ]
                },
                {
                  "weights": [
                    0.7741709,
                    1.0,
                    -0.3789677,
                    0.2055639,
                    -1.0,
                    0.160145342,
                    -0.7499469,
                    0.146633267,
                    0.310526729,
                    -0.03529823,
                    0.248571992,
                    -0.119322956,
                    -0.704156637,
                    0.8732028,
                    -0.263271928,
                    -0.24944818,
                    -0.838255644,
                    -0.18680805,
                    0.482014239,
                    -0.081406,
