[
  {
    "layers": [
      {
        "neurons": [
          {
            "weights": null
          },
          {
            "weights": null
          },
          {
            "weights": null
          },
          {
            "weights": null
          },
          {
            "weights": null
          },
          {
            "weights": null
          },
          {
            "weights": null
          }
        ]
      },
      {
        "neurons": [
          {
            "weights": [
              0.2378709,
              -0.398449957,
              -0.4560696,
              -0.959290743,
              -0.0459769964,
              -0.8363924,
              -0.3063935
            ]
          },
          {
            "weights": [
              0.326871842,
              -0.311267853,
              0.8691769,
              -0.720984936,
              -0.70973134,
              0.712849855,
              -0.867243052
            ]
          },
          {
            "weights": [
              -0.367212176,
              0.381146163,
              -0.292040467,
              0.36665532,
              0.5470309,
              -0.9594002,
              -0.8784385
            ]
          },
          {
            "weights": [
              0.50891757,
              0.3763406,
              -0.116099775,
              -0.937363863,
              0.5114033,
              -0.8690996,
              -0.8851268
            ]
          },
          {
            "weights": [
              -0.3904792,
              -0.6611562,
              0.0812701,
              0.3210716,
              -0.7313931,
              -0.4558347,
              0.8794308
            ]
          },
          {
            "weights": [
              -0.03730285,
              -0.529546,
              0.13841188,
              0.13354218,
              0.368411571,
              -0.47816503,
              0.309823
            ]
          },
          {
            "weights": [
              -0.5320394,
              -0.159515262,
              0.16990149,
              -0.09550583,
              -0.663146734,
              0.5755735,
              0.276716322
            ]
          },
          {
            "weights": [
              0.8281665,
              0.242157578,
              -0.862293,
              -0.5949857,
              -0.296977878,
              0.137826353,
              -0.759034634
            ]
          },
          {
            "weights": [
              -0.292412162,
              0.1716992,
              0.0119463205,
              -0.544409752,
              -0.9781554,
              -0.422282815,
              -0.07510483
            ]
          },
          {
            "weights": [
              0.08556163,
              0.250042647,
              1.0,
              -0.146825224,
              -1.0,
              0.9495177,
              -0.401916742
            ]
          },
          {
            "weights": [
              0.07650721,
              -0.2721411,
              -0.8772496,
              0.279468983,
              -0.7959006,
              0.5998845,
              0.2994437
            ]
          },
          {
            "weights": [
              0.5170183,
              -0.213113666,
              0.423342943,
              -0.134645343,
              0.347398,
              -0.8142898,
              -0.5466485
            ]
          },
          {
            "weights": [
              0.2402418,
              -0.734055758,
              -0.24085772,
              -1.0,
              -0.5560684,
              0.523864746,
              -0.847517
            ]
          },
          {
            "weights": [
              0.409373969,
              -0.7019551,
              0.04729259,
              0.376625746,
              0.481561065,
              0.105929255,
              0.102763534
            ]
          },
          {
            "weights": [
              0.595087767,
              -0.0142008066,
              0.1550945,
              0.8537748,
              1.0,
              -0.164089322,
              0.71437335
            ]
          },
          {
            "weights": [
              -0.5648036,
              -0.6719656,
              -0.3165375,
              0.2183479,
              0.9590378,
              -0.6740997,
              0.824355364
            ]
          },
          {
            "weights": [
              -0.3078457,
              0.115782261,
              0.4348354,
              -0.6144955,
              -0.9664335,
              0.12909019,
              -0.22234571
            ]
          },
          {
            "weights": [
              -0.500716448,
              0.106938958,
              -1.0,
              0.05836594,
              0.5155499,
              0.07814062,
              0.6186483
            ]
          },
          {
            "weights": [
              -0.9578407,
              0.3190119,
              0.07305032,
              0.4150951,
              0.957525,
              0.488244265,
              0.407886952
            ]
          },
          {
            "weights": [
              1.0,
              -0.922771454,
              0.427500933,
              -0.236628652,
              -0.1415199,
              0.7352731,
              -0.7592119
            ]
          }
        ]
      },
      {
        "neurons": [
          {
            "weights": [
              -0.8949101,
              0.177340388,
              -0.2619096,
              0.537743747,
              -0.826483,
              -0.597741842,
              -0.3755554,
              0.5799464,
              -0.853286743,
              0.6581675,
              0.870003462,
              -0.399690032,
              0.5799625,
              -0.323870778,
              -0.308015019,
              -1.0,
              -0.313329577,
              0.377511233,
              -0.0133405924,
              0.65845567
            ]
          },
          {
            "weights": [
              0.5658486,
              -0.605786562,
              -0.2900697,
              -0.07663381,
              0.9400103,
              0.4703221,
              0.613816738,
              0.270860881,
              -0.2609223,
              -0.8622174,
              -0.068627,
              -0.368636966,
              -0.115786672,
              1.0,
              0.3239312,
              -0.607049,
              0.495637566,
              -0.9566288,
              -0.603746951,
              0.730906248
            ]
          },
          {
            "weights": [
              -0.831599951,
              -0.625150442,
              -0.223554671,
              0.07043016,
              -0.484899759,
              0.244770408,
              -0.8118186,
              0.6597998,
              0.396920979,
              -0.5602312,
              0.523293734,
              0.6150758,
              0.221612424,
              -0.4716171,
              -0.0489398241,
              -0.334777862,
              0.7678261,
              -0.336764932,
              -0.840267658,
              0.7215345
            ]
          },
          {
            "weights": [
              -0.9577162,
              -0.274113774,
              -0.649490833,
              -0.9111538,
              0.650121,
              0.317156017,
              -0.501200557,
              0.246178269,
              0.401087046,
              -0.08673757,
              0.3257527,
              -0.2288934,
              -0.5673616,
              0.9084499,
              -0.312999129,
              -0.66116,
              -1.0,
              -0.725495934,
              -0.975466,
              0.936133564
            ]
          },
          {
            "weights": [
              -0.269946456,
              -0.03230989,
              0.0309873819,
              0.32849,
              1.0,
              0.178018689,
              -0.04511416,
              0.5815942,
              -0.234590709,
              -0.684735537,
              -0.0281249285,
              -0.765187,
              -0.113805175,
              -0.308695674,
              0.00278055668,
              -0.391425252,
              -0.2405783,
              -0.158930182,
              0.650403261,
              0.224660754
            ]
          },
          {
            "weights": [
              -0.547255039,
              0.1332742,
              0.7713494,
              -0.460631669,
              0.202937245,
              -0.9283054,
              -0.779789,
              -0.1298268,
              0.8251989,
              0.309642047,
              -0.532488346,
              0.5528455,
              -1.0,
              0.5524938,
              -0.441950917,
              0.269845456,
              -0.324226916,
              -0.300954938,
              0.3483853,
              -0.393332362
            ]
          }
        ]
      }
    ],
    "settings": {
      "layers": [
        7,
        20,
        6
      ],
      "error_min": 0.01,
      "error_max": 0.5
    }
  }
]