[
  {
    "layers": [
      {
        "neurons": [
          {
            "weights": null
          },
          {
            "weights": null
          },
          {
            "weights": null
          },
          {
            "weights": null
          },
          {
            "weights": null
          },
          {
            "weights": null
          },
          {
            "weights": null
          }
        ]
      },
      {
        "neurons": [
          {
            "weights": [
              -0.418604642,
              -1.0,
              1.0,
              -0.0140379667,
              0.40524596,
              1.0,
              -0.6297774
            ]
          },
          {
            "weights": [
              -0.6738731,
              -0.382400036,
              1.0,
              -0.344599336,
              -0.643357337,
              -0.0537503473,
              -1.0
            ]
          },
          {
            "weights": [
              -1.0,
              -0.436811566,
              -0.226622909,
              -0.408220232,
              -0.5575179,
              0.7075942,
              -0.118654758
            ]
          },
          {
            "weights": [
              0.3034585,
              1.0,
              0.456267029,
              -0.871541,
              -0.742499769,
              -1.0,
              1.0
            ]
          },
          {
            "weights": [
              -1.0,
              -1.0,
              0.5503686,
              -0.333523273,
              -1.0,
              0.9583247,
              -0.27340436
            ]
          },
          {
            "weights": [
              0.243032783,
              -0.1627219,
              -1.0,
              -1.0,
              0.9601557,
              -0.9245133,
              -1.0
            ]
          },
          {
            "weights": [
              -0.676028848,
              -1.0,
              -0.08602461,
              0.08773779,
              -0.04418838,
              0.07423976,
              0.118275478
            ]
          },
          {
            "weights": [
              0.0915497243,
              -0.19623366,
              -1.0,
              0.0323855281,
              0.09685996,
              1.0,
              1.0
            ]
          },
          {
            "weights": [
              -0.6010647,
              -1.0,
              1.0,
              -0.804638267,
              0.204137921,
              0.193292856,
              -0.840496
            ]
          },
          {
            "weights": [
              -0.5926047,
              0.198830709,
              0.489209473,
              -0.5288509,
              -0.178057522,
              0.7173995,
              0.986015737
            ]
          }
        ]
      },
      {
        "neurons": [
          {
            "weights": [
              -0.063107,
              0.6617482,
              0.118342385,
              -0.489770681,
              0.0344275534,
              0.8140767,
              -0.649054766,
              -1.0,
              0.7747258,
              -0.6355324
            ]
          },
          {
            "weights": [
              0.3195562,
              0.3898256,
              -0.3675296,
              0.8840881,
              0.294129819,
              -0.4874128,
              -0.349666357,
              0.897501469,
              -0.78493154,
              -0.8333417
            ]
          },
          {
            "weights": [
              1.0,
              -0.567319155,
              -1.0,
              0.207827419,
              0.0133489668,
              0.5936924,
              -0.0415747166,
              0.148411676,
              -0.024944216,
              -0.4695219
            ]
          },
          {
            "weights": [
              -1.0,
              0.354177952,
              -0.115852989,
              -0.4378454,
              -0.9027359,
              0.466025651,
              1.0,
              -0.169650689,
              -0.32867986,
              -1.0
            ]
          },
          {
            "weights": [
              -0.30851084,
              -1.0,
              0.0434047,
              -0.9057705,
              -0.7686827,
              0.6532335,
              -0.00383847952,
              -0.8470274,
              -0.6861381,
              0.06153825
            ]
          },
          {
            "weights": [
              -0.100682527,
              -0.112610489,
              0.9082761,
              0.653771162,
              -0.02568531,
              -0.7019761,
              0.0796375647,
              -0.532954454,
              1.0,
              -0.652724445
            ]
          },
          {
            "weights": [
              0.08279836,
              0.234750837,
              -0.7765853,
              0.736785054,
              -0.195124447,
              1.0,
              0.5597073,
              0.7658533,
              0.07495457,
              0.6840631
            ]
          },
          {
            "weights": [
              0.6851534,
              -0.517901659,
              0.7787905,
              1.0,
              0.301165044,
              0.7120765,
              0.586749136,
              -0.7074933,
              -0.42211616,
              0.198798716
            ]
          },
          {
            "weights": [
              -0.180552572,
              -0.231495738,
              0.8127897,
              -0.118772626,
              0.4503376,
              0.603869855,
              0.7496774,
              0.816413641,
              -0.199483618,
              0.385339469
            ]
          },
          {
            "weights": [
              0.861658931,
              -0.5356318,
              0.5884842,
              0.034517616,
              -0.06867069,
              1.0,
              0.0469257236,
              -0.071304366,
              0.772211552,
              0.4886216
            ]
          }
        ]
      },
      {
        "neurons": [
          {
            "weights": [
              -1.0,
              -0.158503,
              -1.0,
              0.196954131,
              0.5852954,
              -0.883793831,
              0.95641613,
              -0.165589035,
              0.5411575,
              -0.164895892
            ]
          },
          {
            "weights": [
              0.91590786,
              -1.0,
              0.5704808,
              -0.310210347,
              -0.7624173,
              0.09715593,
              -1.0,
              -0.509788,
              1.0,
              -0.9672075
            ]
          },
          {
            "weights": [
              -0.2538044,
              0.4462425,
              -0.534256,
              1.0,
              1.0,
              -0.7235397,
              -0.362330824,
              -0.283124357,
              0.496606469,
              0.196017712
            ]
          },
          {
            "weights": [
              -0.02081573,
              0.3742222,
              -0.410504,
              0.7457126,
              0.7435308,
              -0.937718749,
              0.071304664,
              0.942790866,
              -0.398827851,
              -0.808134854
            ]
          },
          {
            "weights": [
              0.2101154,
              -0.3843218,
              0.571770132,
              0.4512009,
              0.0241516232,
              0.304747462,
              -0.00606888533,
              -0.6673074,
              -0.331052423,
              -1.0
            ]
          },
          {
            "weights": [
              -0.356360972,
              0.7383814,
              -0.370317519,
              0.5697389,
              0.4299259,
              -0.224399209,
              -0.05133231,
              1.0,
              0.717295766,
              0.33609426
            ]
          },
          {
            "weights": [
              1.0,
              0.8117825,
              -0.7298604,
              0.05713293,
              0.5486663,
              -0.250540525,
              -0.847931862,
              -0.406112552,
              -0.477655023,
              -1.0
            ]
          },
          {
            "weights": [
              -0.90773946,
              -1.0,
              -0.307211936,
              0.715631247,
              0.439601481,
              -0.181594819,
              0.7299379,
              0.413021535,
              -0.945722461,
              0.07123914
            ]
          },
          {
            "weights": [
              -0.9416313,
              1.0,
              0.0162071586,
              -1.0,
              0.1279751,
              0.8805427,
              -0.6503368,
              -0.222401828,
              -1.0,
              -0.8856602
            ]
          },
          {
            "weights": [
              -0.156428069,
              -0.579259634,
              0.153260842,
              0.4837349,
              0.51632154,
              0.693621159,
              0.990860343,
              0.935229063,
              0.697302938,
              -0.265983671
            ]
          }
        ]
      },
      {
        "neurons": [
          {
            "weights": [
              0.147706673,
              -0.468697816,
              0.792745,
              -0.580774367,
              0.5593891,
              -0.415974528,
              -0.490208566,
              0.219299138,
              1.0,
              0.492347062
            ]
          },
          {
            "weights": [
              0.5405979,
              -0.20195049,
              0.442078561,
              -0.20338586,
              -0.11191909,
              -0.2273668,
              -0.697654366,
              -0.0550483465,
              1.0,
              -0.0161231682
            ]
          },
          {
            "weights": [
              -0.33981964,
              0.6769925,
              -0.8720061,
              0.300645322,
              -0.166354313,
              0.9608824,
              0.0101546049,
              -0.04580985,
              -0.475566834,
              -0.716850162
            ]
          },
          {
            "weights": [
              -0.40276596,
              -0.6356063,
              -1.0,
              1.0,
              0.63819766,
              0.947748363,
              -0.7854479,
              0.0259919465,
              0.687436,
              0.5500493
            ]
          },
          {
            "weights": [
              -0.70579195,
              0.7129489,
              -0.9127102,
              0.696332455,
              -0.58828783,
              0.201815575,
              0.18286404,
              -0.7608855,
              0.4866402,
              0.910817444
            ]
          },
          {
            "weights": [
              -1.0,
              0.37889865,
              -0.07104576,
              -1.0,
              0.07916026,
              -0.735146046,
              -1.0,
              0.4296609,
              -1.0,
              0.6257777
            ]
          },
          {
            "weights": [
              0.433306426,
              0.3885382,
              -0.457615256,
              1.0,
              0.35223648,
              0.0200207233,
              0.149950862,
              1.0,
              1.0,
              0.484951347
            ]
          },
          {
            "weights": [
              -0.0856140852,
              -1.0,
              0.256891221,
              0.468497962,
              0.07732509,
              -1.0,
              0.9678986,
              -0.0855208039,
              0.3606828,
              -0.5332065
            ]
          },
          {
            "weights": [
              0.8586964,
              -0.5556717,
              -0.7970387,
              0.207672521,
              0.361135662,
              0.9141159,
              0.181620657,
              0.6580787,
              -0.607898235,
              1.0
            ]
          },
          {
            "weights": [
              0.248711452,
              0.8279991,
              -1.0,
              -0.402448177,
              -0.330881774,
              0.439186871,
              -0.03652367,
              1.0,
              0.273839921,
              0.6565146
            ]
          }
        ]
      },
      {
        "neurons": [
          {
            "weights": [
              0.6353087,
              0.08529292,
              -0.103522241,
              1.0,
              -0.8352974,
              -0.3045072,
              0.3372711,
              -0.177348524,
              1.0,
              -0.657967448
            ]
          },
          {
            "weights": [
              -0.5458988,
              0.8175348,
              -0.4341304,
              0.339401,
              0.434032619,
              -0.0771873,
              -0.0024086237,
              0.139369577,
              -0.567327261,
              -0.407481134
            ]
          },
          {
            "weights": [
              -1.0,
              -0.653151751,
              0.035510838,
              1.0,
              0.43230316,
              -0.234122634,
              0.0073620677,
              -0.428841472,
              0.634976149,
              -0.2440413
            ]
          },
          {
            "weights": [
              -0.623813868,
              0.539551258,
              0.326587945,
              -0.355630755,
              0.0199556574,
              0.7556264,
              -0.8779788,
              -0.141520053,
              -0.0275860727,
              -0.6634939
            ]
          },
          {
            "weights": [
              -0.9869956,
              -0.8226402,
              0.6819192,
              -0.0210425258,
              0.0506926477,
              -0.6646515,
              0.009419739,
              -0.2471968,
              0.440239966,
              0.684404135
            ]
          },
          {
            "weights": [
              -0.8007412,
              1.0,
              -0.633270264,
              -0.678241849,
              -0.5756769,
              -0.6024978,
              0.9267669,
              1.0,
              0.189634755,
              -0.8760715
            ]
          },
          {
            "weights": [
              0.8160472,
              1.0,
              -0.288454652,
              0.08686966,
              -0.3793967,
              0.238865018,
              0.953470945,
              0.5766687,
              -0.8730873,
              0.345294476
            ]
          },
          {
            "weights": [
              -0.5817143,
              1.0,
              -0.312255919,
              -0.42077148,
              -0.218928277,
              0.07936022,
              0.7118931,
              -0.395154238,
              -0.8957039,
              0.2750106
            ]
          },
          {
            "weights": [
              0.5878086,
              1.0,
              -0.09551541,
              -1.0,
              0.945634365,
              1.0,
              -0.820080161,
              0.499423951,
              -0.7933624,
              -0.8629714
            ]
          },
          {
            "weights": [
              -0.257321984,
              -0.546004653,
              0.423270762,
              -0.25377205,
              -0.646155834,
              0.8934871,
              -0.3053282,
              -0.244031549,
              -1.0,
              1.0
            ]
          }
        ]
      },
      {
        "neurons": [
          {
            "weights": [
              -0.829394341,
              -0.0667263,
              0.8105161,
              -0.0585286319,
              0.168620318,
              0.2717253,
              -1.0,
              0.299330473,
              -0.469546944,
              0.621515453
            ]
          },
          {
            "weights": [
              -0.220155627,
              -0.7885541,
              0.7975471,
              0.525365353,
              0.843144953,
              0.695675135,
              -0.7106995,
              0.373164237,
              0.6376458,
              1.0
            ]
          },
          {
            "weights": [
              -0.024695158,
              0.3393862,
              -0.6062392,
              0.9652121,
              0.805761456,
              -1.0,
              0.7894273,
              0.8204387,
              0.6099713,
              0.6046606
            ]
          },
          {
            "weights": [
              0.3553488,
              0.431162059,
              -1.0,
              0.9280821,
              -0.332777768,
              -0.26759246,
              -0.06201017,
              0.0603945851,
              -0.482167482,
              1.0
            ]
          },
          {
            "weights": [
              -0.09651452,
              0.122481793,
              0.101331264,
              0.0726142,
              -0.6738198,
              0.6284861,
              0.753646731,
              -0.2413024,
              1.0,
              0.416893035
            ]
          },
          {
            "weights": [
              0.07944983,
              0.22146976,
              -0.753202,
              0.234569386,
              -0.0423226655,
              0.589590669,
              1.0,
              1.0,
              0.5411233,
              0.2336263
            ]
          }
        ]
      }
    ],
    "settings": {
      "layers": [
        7,
        10,
        10,
        10,
        10,
        10,
        6
      ],
      "error_min": 0.01,
      "error_max": 0.5
    }
  },
  {
    "layers": [
      {
        "neurons": [
          {
            "weights": null
          },
          {
            "weights": null
          },
          {
            "weights": null
          },
          {
            "weights": null
          },
          {
            "weights": null
          },
          {
            "weights": null
          },
          {
            "weights": null
          }
        ]
      },
      {
        "neurons": [
          {
            "weights": [
              -0.418604642,
              -1.0,
              1.0,
              -0.0140379667,
              0.40524596,
              1.0,
              -0.234699532
            ]
          },
          {
            "weights": [
              -0.6738731,
              -0.382400036,
              1.0,
              -0.344599336,
              -0.643357337,
              -0.0537503473,
              -1.0
            ]
          },
          {
            "weights": [
              -1.0,
              -0.436811566,
              -0.226622909,
              -0.408220232,
              -0.5575179,
              0.7075942,
              -0.118654758
            ]
          },
          {
            "weights": [
              0.3034585,
              1.0,
              0.456267029,
              -0.871541,
              -0.742499769,
              -1.0,
              1.0
            ]
          },
          {
            "weights": [
              -1.0,
              -1.0,
              0.5503686,
              -0.333523273,
              -1.0,
              0.9583247,
              -0.27340436
            ]
          },
          {
            "weights": [
              0.243032783,
              -0.1627219,
              -1.0,
              -0.8692726,
              0.9601557,
              -0.9245133,
              -1.0
            ]
          },
          {
            "weights": [
              -0.676028848,
              -1.0,
              -0.08602461,
              0.08773779,
              0.00608211,
              0.07423976,
              0.118275478
            ]
          },
          {
            "weights": [
              0.0915497243,
              -0.19623366,
              -1.0,
              0.0323855281,
              0.09685996,
              1.0,
              1.0
            ]
          },
          {
            "weights": [
              -0.6010647,
              -1.0,
              1.0,
              -0.804638267,
              0.204137921,
              0.193292856,
              -0.840496
            ]
          },
          {
            "weights": [
              -0.5926047,
              0.444748759,
              0.489209473,
              -0.5288509,
              -0.178057522,
              0.7173995,
              0.986015737
            ]
          }
        ]
      },
      {
        "neurons": [
          {
            "weights": [
              -0.063107,
              0.6617482,
              0.118342385,
              -0.489770681,
              0.0344275534,
              0.8140767,
              -0.649054766,
              -1.0,
              0.7747258,
              -0.6355324
            ]
          },
          {
            "weights": [
              0.3195562,
              0.3898256,
              -0.3675296,
              0.8840881,
              0.294129819,
              -0.4874128,
              -0.349666357,
              0.897501469,
              -0.78493154,
              -0.8333417
            ]
          },
          {
            "weights": [
              1.0,
              -0.567319155,
              -1.0,
              0.207827419,
              0.0133489668,
              0.228521615,
              -0.0415747166,
              0.148411676,
              -0.024944216,
              -0.4695219
            ]
          },
          {
            "weights": [
              -1.0,
              0.354177952,
              -0.115852989,
              -0.4378454,
              -0.9027359,
              0.466025651,
              1.0,
              -0.169650689,
              -0.32867986,
              -1.0
            ]
          },
          {
            "weights": [
              -0.30851084,
              -1.0,
              0.0434047,
              -0.9057705,
              -0.7686827,
              0.6532335,
              -0.00383847952,
              -0.8470274,
              -0.6861381,
              0.06153825
            ]
          },
          {
            "weights": [
              -0.100682527,
              -0.112610489,
              0.9082761,
              0.653771162,
              -0.02568531,
              -0.7019761,
              0.0796375647,
              -0.532954454,
              1.0,
              -0.652724445
            ]
          },
          {
            "weights": [
              0.08279836,
              0.234750837,
              -0.7765853,
              0.736785054,
              -0.195124447,
              1.0,
              0.5597073,
              0.7658533,
              0.07495457,
              0.6840631
            ]
          },
          {
            "weights": [
              0.6851534,
              -0.517901659,
              0.7787905,
              1.0,
              0.301165044,
              0.7120765,
              0.586749136,
              -0.7074933,
              -0.42211616,
              0.198798716
            ]
          },
          {
            "weights": [
              -0.180552572,
              -0.231495738,
              0.8127897,
              -0.118772626,
              0.4503376,
              0.603869855,
              0.7496774,
              0.816413641,
              -0.199483618,
              0.385339469
            ]
          },
          {
            "weights": [
              0.861658931,
              -0.5356318,
              0.5884842,
              0.034517616,
              -0.06867069,
              1.0,
              0.0469257236,
              -0.071304366,
              0.772211552,
              0.4886216
            ]
          }
        ]
      },
      {
        "neurons": [
          {
            "weights": [
              -1.0,
              -0.188831031,
              -1.0,
              0.196954131,
              0.5852954,
              -0.883793831,
              0.95641613,
              -0.165589035,
              0.5411575,
              -0.164895892
            ]
          },
          {
            "weights": [
              0.91590786,
              -1.0,
              0.5704808,
              -0.310210347,
              -0.7624173,
              0.09715593,
              -1.0,
              -0.509788,
              1.0,
              -0.9672075
            ]
          },
          {
            "weights": [
              -0.2538044,
              0.4462425,
              -0.534256,
              1.0,
              1.0,
              -0.7235397,
              -0.362330824,
              -0.283124357,
              0.496606469,
              0.196017712
            ]
          },
          {
            "weights": [
              -0.02081573,
              0.3742222,
              -0.410504,
              0.7457126,
              0.7435308,
              -0.937718749,
              0.071304664,
              0.942790866,
              -0.398827851,
              -0.808134854
            ]
          },
          {
            "weights": [
              0.2101154,
              -0.3843218,
              0.571770132,
              0.4512009,
              0.0241516232,
              0.304747462,
              -0.00606888533,
              -0.6673074,
              -0.331052423,
              -1.0
            ]
          },
          {
            "weights": [
              -0.356360972,
              0.7383814,
              -0.370317519,
              0.5697389,
              0.4299259,
              -0.224399209,
              -0.05133231,
              1.0,
              0.717295766,
              0.33609426
            ]
          },
          {
            "weights": [
              1.0,
              0.8117825,
              -0.7298604,
              0.05713293,
              0.5486663,
              -0.250540525,
              -0.847931862,
              -0.406112552,
              -0.477655023,
              -1.0
            ]
          },
          {
            "weights": [
              -0.90773946,
              -1.0,
              -0.307211936,
              0.715631247,
              0.439601481,
              -0.181594819,
              0.7299379,
              0.413021535,
              -0.945722461,
              0.07123914
            ]
          },
          {
            "weights": [
              -0.9416313,
              1.0,
              0.0162071586,
              -1.0,
              0.1279751,
              0.8805427,
              -0.6503368,
              -0.222401828,
              -1.0,
              -0.8856602
            ]
          },
          {
            "weights": [
              -0.156428069,
              -0.579259634,
              0.153260842,
              0.4837349,
              0.51632154,
              0.693621159,
              0.990860343,
              0.935229063,
              0.697302938,
              -0.265983671
            ]
          }
        ]
      },
      {
        "neurons": [
          {
            "weights": [
              0.147706673,
              -0.468697816,
              0.792745,
              -0.580774367,
              0.9164384,
              -0.415974528,
              -0.8991947,
              0.219299138,
              1.0,
              0.492347062
            ]
          },
          {
            "weights": [
              0.5405979,
              -0.20195049,
              0.442078561,
              -0.20338586,
              -0.11191909,
              -0.2273668,
              -0.697654366,
              -0.0550483465,
              1.0,
              -0.0161231682
            ]
          },
          {
            "weights": [
              -0.33981964,
              0.6769925,
              -0.8720061,
              0.300645322,
              -0.166354313,
              0.9608824,
              0.0101546049,
              -0.04580985,
              -0.475566834,
              -0.716850162
            ]
          },
          {
            "weights": [
              -0.40276596,
              -0.6356063,
              -1.0,
              1.0,
              0.63819766,
              0.947748363,
              -0.7854479,
              0.0259919465,
              0.687436,
              0.5500493
            ]
          },
          {
            "weights": [
              -0.70579195,
              0.7129489,
              -0.9127102,
              0.696332455,
              -0.58828783,
              0.201815575,
              0.18286404,
              -0.7608855,
              0.4866402,
              0.910817444
            ]
          },
          {
            "weights": [
              -1.0,
              0.37889865,
              -0.07104576,
              -1.0,
              0.07916026,
              -0.735146046,
              -1.0,
              0.4296609,
              -1.0,
              0.6257777
            ]
          },
          {
            "weights": [
              0.433306426,
              0.3885382,
              -0.457615256,
              1.0,
              0.35223648,
              0.0200207233,
              0.149950862,
              1.0,
              1.0,
              0.484951347
            ]
          },
          {
            "weights": [
              -0.0856140852,
              -1.0,
              0.256891221,
              0.468497962,
              0.07732509,
              -1.0,
              0.9678986,
              -0.0855208039,
              0.3606828,
              -0.5332065
            ]
          },
          {
            "weights": [
              0.8586964,
              -0.5556717,
              -0.7970387,
              0.207672521,
              0.361135662,
              0.9141159,
              0.181620657,
              0.6580787,
              -0.222809583,
              1.0
            ]
          },
          {
            "weights": [
              0.248711452,
              0.8279991,
              -1.0,
              -0.402448177,
              -0.330881774,
              0.439186871,
              -0.03652367,
              1.0,
              0.273839921,
              0.6565146
            ]
          }
        ]
      },
      {
        "neurons": [
          {
            "weights": [
              0.6353087,
              0.08529292,
              -0.103522241,
              1.0,
              -0.8352974,
              -0.3045072,
              0.3372711,
              -0.177348524,
              1.0,
              -0.657967448
            ]
          },
          {
            "weights": [
              -0.5458988,
              0.8175348,
              -0.4341304,
              0.339401,
              0.434032619,
              -0.0771873,
              -0.0024086237,
              0.139369577,
              -0.567327261,
              -0.407481134
            ]
          },
          {
            "weights": [
              -1.0,
              -0.653151751,
              0.035510838,
              1.0,
              0.43230316,
              -0.234122634,
              0.0073620677,
              -0.428841472,
              0.634976149,
              -0.2440413
            ]
          },
          {
            "weights": [
              -0.623813868,
              0.539551258,
              0.326587945,
              -0.355630755,
              0.0199556574,
              0.7556264,
              -0.8779788,
              -0.141520053,
              -0.0275860727,
              -0.6634939
            ]
          },
          {
            "weights": [
              -0.9869956,
              -0.8226402,
              0.6819192,
              -0.0210425258,
              0.0506926477,
              -0.6646515,
              0.009419739,
              -0.2471968,
              0.440239966,
              0.684404135
            ]
          },
          {
            "weights": [
              -0.8007412,
              1.0,
              -0.633270264,
              -0.678241849,
              -0.5756769,
              -0.6024978,
              0.9267669,
              1.0,
              0.189634755,
              -0.8760715
            ]
          },
          {
            "weights": [
              0.8160472,
              1.0,
              -0.288454652,
              0.08686966,
              -0.3793967,
              0.238865018,
              0.953470945,
              0.5766687,
              -0.8730873,
              0.345294476
            ]
          },
          {
            "weights": [
              -0.5817143,
              1.0,
              -0.312255919,
              -0.42077148,
              -0.218928277,
              0.07936022,
              0.7118931,
              -0.395154238,
              -0.8957039,
              0.2750106
            ]
          },
          {
            "weights": [
              0.5878086,
              1.0,
              -0.09551541,
              -1.0,
              0.945634365,
              1.0,
              -0.820080161,
              0.499423951,
              -0.7933624,
              -0.8629714
            ]
          },
          {
            "weights": [
              -0.257321984,
              -0.546004653,
              0.423270762,
              -0.25377205,
              -0.646155834,
              0.8934871,
              -0.3053282,
              -0.244031549,
              -1.0,
              1.0
            ]
          }
        ]
      },
      {
        "neurons": [
          {
            "weights": [
              -0.829394341,
              -0.0667263,
              0.8105161,
              -0.0585286319,
              0.168620318,
              0.2717253,
              -1.0,
              0.299330473,
              -0.469546944,
              0.621515453
            ]
          },
          {
            "weights": [
              -0.220155627,
              -0.7885541,
              0.7975471,
              0.525365353,
              0.843144953,
              0.695675135,
              -0.7106995,
              0.373164237,
              0.6376458,
              0.932168961
            ]
          },
          {
            "weights": [
              -0.024695158,
              0.3393862,
              -0.6062392,
              0.9652121,
              0.805761456,
              -1.0,
              0.7894273,
              0.8204387,
              0.6099713,
              0.6046606
            ]
          },
          {
            "weights": [
              0.3553488,
              0.453776419,
              -1.0,
              0.9280821,
              -0.332777768,
              -0.26759246,
              -0.06201017,
              0.0603945851,
              -0.482167482,
              1.0
            ]
          },
          {
            "weights": [
              -0.09651452,
              -0.304913461,
              0.101331264,
              0.0726142,
              -0.6738198,
              0.6284861,
              0.753646731,
              -0.2413024,
              1.0,
              0.416893035
            ]
          },
          {
            "weights": [
              0.07944983,
              0.22146976,
              -0.753202,
              0.234569386,
              -0.0423226655,
              0.589590669,
              1.0,
              1.0,
              0.5411233,
              0.2336263
            ]
          }
        ]
      }
    ],
    "settings": {
      "layers": [
        7,
        10,
        10,
        10,
        10,
        10,
        6
      ],
      "error_min": 0.01,
      "error_max": 0.5
    }
  },
  {
    "layers": [
      {
        "neurons": [
          {
            "weights": null
          },
          {
            "weights": null
          },
          {
            "weights": null
          },
          {
            "weights": null
          },
          {
            "weights": null
          },
          {
            "weights": null
          },
          {
            "weights": null
          }
        ]
      },
      {
        "neurons": [
          {
            "weights": [
              -0.418604642,
              -1.0,
              1.0,
              -0.0140379667,
              0.40524596,
              1.0,
              -0.234699532
            ]
          },
          {
            "weights": [
              -0.6738731,
              -0.382400036,
              1.0,
              -0.344599336,
              -0.643357337,
              -0.0537503473,
              -1.0
            ]
          },
          {
            "weights": [
              -1.0,
              -0.436811566,
              -0.226622909,
              -0.408220232,
              -0.5575179,
              0.7075942,
              -0.118654758
            ]
          },
          {
            "weights": [
              0.3034585,
              1.0,
              0.456267029,
              -0.871541,
              -0.742499769,
              -1.0,
              1.0
            ]
          },
          {
            "weights": [
              -1.0,
              -1.0,
              0.5503686,
              -0.333523273,
              -1.0,
              0.9583247,
              -0.27340436
            ]
          },
          {
            "weights": [
              0.243032783,
              -0.1627219,
              -1.0,
              -0.8692726,
              0.9601557,
              -0.9245133,
              -1.0
            ]
          },
          {
            "weights": [
              -0.676028848,
              -1.0,
              -0.08602461,
              0.08773779,
              0.00608211,
              0.07423976,
              0.118275478
            ]
          },
          {
            "weights": [
              0.0915497243,
              -0.19623366,
              -1.0,
              0.0323855281,
              0.09685996,
              1.0,
              1.0
            ]
          },
          {
            "weights": [
              -0.6010647,
              -1.0,
              1.0,
              -0.804638267,
              0.204137921,
              0.193292856,
              -0.840496
            ]
          },
          {
            "weights": [
              -0.5926047,
              0.444748759,
              0.489209473,
              -0.5288509,
              -0.178057522,
              0.7173995,
              0.986015737
            ]
          }
        ]
      },
      {
        "neurons": [
          {
            "weights": [
              -0.063107,
              0.6617482,
              0.118342385,
              -0.489770681,
              0.0344275534,
              0.8140767,
              -0.649054766,
              -1.0,
              0.7747258,
              -0.6355324
            ]
          },
          {
            "weights": [
              0.3195562,
              0.3898256,
              -0.3675296,
              0.8840881,
              0.294129819,
              -0.4874128,
              -0.349666357,
              0.897501469,
              -0.78493154,
              -0.8333417
            ]
          },
          {
            "weights": [
              1.0,
              -0.567319155,
              -1.0,
              0.207827419,
              0.0133489668,
              0.5936924,
              -0.0415747166,
              0.148411676,
              -0.024944216,
              -0.4695219
            ]
          },
          {
            "weights": [
              -1.0,
              0.354177952,
              -0.115852989,
              -0.4378454,
              -0.9027359,
              0.466025651,
              1.0,
              -0.169650689,
              -0.32867986,
              -1.0
            ]
          },
          {
            "weights": [
              -0.30851084,
              -1.0,
              0.0434047,
              -0.9057705,
              -0.7686827,
              0.6532335,
              -0.00383847952,
              -0.8470274,
              -0.6861381,
              0.06153825
            ]
          },
          {
            "weights": [
              -0.100682527,
              -0.112610489,
              0.9082761,
              0.653771162,
              -0.02568531,
              -0.7019761,
              0.0796375647,
              -0.532954454,
              1.0,
              -0.652724445
            ]
          },
          {
            "weights": [
              0.08279836,
              0.234750837,
              -0.7765853,
              0.736785054,
              -0.195124447,
              1.0,
              0.5597073,
              0.7658533,
              0.07495457,
              0.6840631
            ]
          },
          {
            "weights": [
              0.6851534,
              -0.517901659,
              0.7787905,
              1.0,
              0.301165044,
              0.7120765,
              0.586749136,
              -0.7074933,
              -0.42211616,
              0.198798716
            ]
          },
          {
            "weights": [
              -0.180552572,
              -0.231495738,
              0.8127897,
              -0.118772626,
              0.4503376,
              0.603869855,
              0.7496774,
              0.816413641,
              -0.199483618,
              0.385339469
            ]
          },
          {
            "weights": [
              0.861658931,
              -0.5356318,
              0.5884842,
              0.034517616,
              -0.06867069,
              1.0,
              0.0469257236,
              -0.071304366,
              0.772211552,
              0.4886216
            ]
          }
        ]
      },
      {
        "neurons": [
          {
            "weights": [
              -1.0,
              -0.188831031,
              -1.0,
              0.196954131,
              0.5852954,
              -0.883793831,
              0.95641613,
              -0.165589035,
              0.5411575,
              -0.164895892
            ]
          },
          {
            "weights": [
              0.91590786,
              -1.0,
              0.5704808,
              -0.310210347,
              -0.7624173,
              0.09715593,
              -1.0,
              -0.509788,
              1.0,
              -0.9672075
            ]
          },
          {
            "weights": [
              -0.2538044,
              0.4462425,
              -0.534256,
              1.0,
              1.0,
              -0.7235397,
              -0.362330824,
              -0.283124357,
              0.496606469,
              0.196017712
            ]
          },
          {
            "weights": [
              -0.02081573,
              0.3742222,
              -0.410504,
              0.7457126,
              0.7435308,
              -0.937718749,
              0.071304664,
              0.942790866,
              -0.398827851,
              -0.808134854
            ]
          },
          {
            "weights": [
              0.2101154,
              -0.3843218,
              0.571770132,
              0.4512009,
              0.0241516232,
              0.304747462,
              -0.00606888533,
              -0.6673074,
              -0.331052423,
              -1.0
            ]
          },
          {
            "weights": [
              -0.356360972,
              0.7383814,
              -0.370317519,
              0.5697389,
              0.4299259,
              -0.224399209,
              -0.05133231,
              1.0,
              0.717295766,
              0.33609426
            ]
          },
          {
            "weights": [
              1.0,
              0.8117825,
              -0.7298604,
              0.05713293,
              0.5486663,
              -0.250540525,
              -0.847931862,
              -0.406112552,
              -0.477655023,
              -1.0
            ]
          },
          {
            "weights": [
              -0.90773946,
              -1.0,
              -0.307211936,
              0.715631247,
              0.439601481,
              -0.181594819,
              0.7299379,
              0.413021535,
              -0.945722461,
              0.07123914
            ]
          },
          {
            "weights": [
              -0.9416313,
              1.0,
              0.0162071586,
              -1.0,
              0.1279751,
              0.8805427,
              -0.6503368,
              -0.222401828,
              -1.0,
              -0.8856602
            ]
          },
          {
            "weights": [
              -0.156428069,
              -0.579259634,
              0.153260842,
              0.4837349,
              0.51632154,
              0.693621159,
              0.990860343,
              0.935229063,
              0.697302938,
              -0.265983671
            ]
          }
        ]
      },
      {
        "neurons": [
          {
            "weights": [
              0.147706673,
              -0.468697816,
              0.792745,
              -0.580774367,
              0.9164384,
              -0.415974528,
              -0.8991947,
              0.219299138,
              1.0,
              0.492347062
            ]
          },
          {
            "weights": [
              0.5405979,
              -0.20195049,
              0.442078561,
              -0.20338586,
              -0.11191909,
              -0.2273668,
              -0.697654366,
              -0.0550483465,
              1.0,
              -0.0161231682
            ]
          },
          {
            "weights": [
              -0.33981964,
              0.6769925,
              -0.8720061,
              0.300645322,
              -0.166354313,
              0.9608824,
              0.0101546049,
              -0.04580985,
              -0.475566834,
              -0.716850162
            ]
          },
          {
            "weights": [
              -0.40276596,
              -0.6356063,
              -1.0,
              1.0,
              0.63819766,
              0.947748363,
              -0.7854479,
              0.0259919465,
              0.687436,
              0.5500493
            ]
          },
          {
            "weights": [
              -0.70579195,
              0.7129489,
              -0.9127102,
              0.696332455,
              -0.58828783,
              0.201815575,
              0.18286404,
              -0.7608855,
              0.4866402,
              0.910817444
            ]
          },
          {
            "weights": [
              -1.0,
              0.37889865,
              -0.07104576,
              -1.0,
              0.07916026,
              -0.735146046,
              -1.0,
              0.4296609,
              -1.0,
              0.6257777
            ]
          },
          {
            "weights": [
              0.433306426,
              0.3885382,
              -0.457615256,
              1.0,
              0.35223648,
              0.0200207233,
              0.149950862,
              1.0,
              1.0,
              0.484951347
            ]
          },
          {
            "weights": [
              -0.0856140852,
              -1.0,
              0.256891221,
              0.468497962,
              0.07732509,
              -1.0,
              0.9678986,
              -0.0855208039,
              0.3606828,
              -0.5332065
            ]
          },
          {
            "weights": [
              0.8586964,
              -0.5556717,
              -0.7970387,
              0.207672521,
              0.361135662,
              0.9141159,
              0.181620657,
              0.6580787,
              -0.222809583,
              1.0
            ]
          },
          {
            "weights": [
              0.248711452,
              0.8279991,
              -1.0,
              -0.402448177,
              -0.330881774,
              0.439186871,
              -0.03652367,
              1.0,
              0.273839921,
              0.6565146
            ]
          }
        ]
      },
      {
        "neurons": [
          {
            "weights": [
              0.6353087,
              0.08529292,
              -0.103522241,
              1.0,
              -0.8352974,
              -0.3045072,
              0.3372711,
              -0.177348524,
              1.0,
              -0.657967448
            ]
          },
          {
            "weights": [
              -0.5458988,
              0.8175348,
              -0.4341304,
              0.339401,
              0.434032619,
              -0.0771873,
              -0.0024086237,
              0.139369577,
              -0.567327261,
              -0.407481134
            ]
          },
          {
            "weights": [
              -1.0,
              -0.653151751,
              0.035510838,
              1.0,
              0.43230316,
              -0.234122634,
              0.0073620677,
              -0.428841472,
              0.634976149,
              -0.2440413
            ]
          },
          {
            "weights": [
              -0.623813868,
              0.539551258,
              0.326587945,
              -0.355630755,
              0.0199556574,
              0.7556264,
              -0.8779788,
              -0.141520053,
              -0.0275860727,
              -0.6634939
            ]
          },
          {
            "weights": [
              -0.9869956,
              -0.8226402,
              0.6819192,
              -0.0210425258,
              0.0506926477,
              -0.6646515,
              0.009419739,
              -0.2471968,
              0.440239966,
              0.684404135
            ]
          },
          {
            "weights": [
              -0.8007412,
              1.0,
              -0.633270264,
              -0.678241849,
              -0.5756769,
              -0.6024978,
              0.9267669,
              1.0,
              0.189634755,
              -0.8760715
            ]
          },
          {
            "weights": [
              0.8160472,
              1.0,
              -0.288454652,
              0.08686966,
              -0.3793967,
              0.238865018,
              0.953470945,
              0.5766687,
              -0.8730873,
              0.345294476
            ]
          },
          {
            "weights": [
              -0.5817143,
              1.0,
              -0.312255919,
              -0.42077148,
              -0.218928277,
              0.07936022,
              0.7118931,
              -0.395154238,
              -0.5942062,
              0.2750106
            ]
          },
          {
            "weights": [
              0.5878086,
              1.0,
              -0.09551541,
              -1.0,
              0.945634365,
              1.0,
              -0.820080161,
              0.499423951,
              -0.7933624,
              -0.8629714
            ]
          },
          {
            "weights": [
              -0.257321984,
              -0.546004653,
              0.423270762,
              -0.25377205,
              -0.646155834,
              0.8934871,
              -0.3053282,
              -0.244031549,
              -1.0,
              1.0
            ]
          }
        ]
      },
      {
        "neurons": [
          {
            "weights": [
              -0.829394341,
              -0.0667263,
              0.8105161,
              -0.0585286319,
              0.168620318,
              0.2717253,
              -1.0,
              0.299330473,
              -0.469546944,
              0.621515453
            ]
          },
          {
            "weights": [
              -0.220155627,
              -0.7885541,
              0.7975471,
              0.525365353,
              0.843144953,
              0.695675135,
              -0.7106995,
              0.373164237,
              0.6376458,
              0.932168961
            ]
          },
          {
            "weights": [
              -0.024695158,
              0.3393862,
              -0.6062392,
              0.9652121,
              0.805761456,
              -1.0,
              0.7894273,
              0.8204387,
              0.6099713,
              0.6046606
            ]
          },
          {
            "weights": [
              0.3553488,
              0.431162059,
              -1.0,
              0.9280821,
              -0.332777768,
              -0.26759246,
              -0.06201017,
              0.0603945851,
              -0.482167482,
              1.0
            ]
          },
          {
            "weights": [
              -0.09651452,
              -0.304913461,
              0.101331264,
              0.0726142,
              -0.6738198,
              0.6284861,
              0.753646731,
              -0.2413024,
              1.0,
              0.416893035
            ]
          },
          {
            "weights": [
              0.07944983,
              0.22146976,
              -0.753202,
              0.234569386,
              -0.0423226655,
              0.589590669,
              1.0,
              1.0,
              0.5411233,
              0.2336263
            ]
          }
        ]
      }
    ],
    "settings": {
      "layers": [
        7,
        10,
        10,
        10,
        10,
        10,
        6
      ],
      "error_min": 0.01,
      "error_max": 0.5
    }
  },
  {
    "layers": [
      {
        "neurons": [
          {
            "weights": null
          },
          {
            "weights": null
          },
          {
            "weights": null
          },
          {
            "weights": null
          },
          {
            "weights": null
          },
          {
            "weights": null
          },
          {
            "weights": null
          }
        ]
      },
      {
        "neurons": [
          {
            "weights": [
              -0.418604642,
              -1.0,
              1.0,
              -0.0140379667,
              0.40524596,
              1.0,
              -0.234699532
            ]
          },
          {
            "weights": [
              -0.6738731,
              -0.382400036,
              1.0,
              -0.344599336,
              -0.643357337,
              -0.0537503473,
              -1.0
            ]
          },
          {
            "weights": [
              -1.0,
              -0.436811566,
              -0.226622909,
              -0.408220232,
              -0.5575179,
              0.7075942,
              -0.118654758
            ]
          },
          {
            "weights": [
              0.3034585,
              1.0,
              0.456267029,
              -0.871541,
              -0.742499769,
              -1.0,
              1.0
            ]
          },
          {
            "weights": [
              -1.0,
              -1.0,
              0.5503686,
              -0.333523273,
              -1.0,
              0.9583247,
              -0.27340436
            ]
          },
          {
            "weights": [
              0.243032783,
              -0.1627219,
              -1.0,
              -0.8692726,
              0.9601557,
              -0.9245133,
              -1.0
            ]
          },
          {
            "weights": [
              -0.676028848,
              -1.0,
              -0.08602461,
              0.08773779,
              0.00608211,
              0.07423976,
              0.118275478
            ]
          },
          {
            "weights": [
              0.0915497243,
              -0.19623366,
              -1.0,
              0.0323855281,
              0.09685996,
              1.0,
              1.0
            ]
          },
          {
            "weights": [
              -0.6010647,
              -1.0,
              1.0,
              -0.804638267,
              0.204137921,
              0.193292856,
              -0.840496
            ]
          },
          {
            "weights": [
              -0.5926047,
              0.444748759,
              0.489209473,
              -0.5288509,
              -0.178057522,
              0.7173995,
              0.986015737
            ]
          }
        ]
      },
      {
        "neurons": [
          {
            "weights": [
              -0.063107,
              0.6617482,
              0.118342385,
              -0.489770681,
              0.0344275534,
              0.8140767,
              -0.649054766,
              -1.0,
              0.7747258,
              -0.6355324
            ]
          },
          {
            "weights": [
              0.3195562,
              0.3898256,
              -0.3675296,
              0.8840881,
              0.294129819,
              -0.4874128,
              -0.349666357,
              0.897501469,
              -0.78493154,
              -0.8333417
            ]
          },
          {
            "weights": [
              1.0,
              -0.567319155,
              -1.0,
              0.207827419,
              0.0133489668,
              0.5936924,
              -0.0415747166,
              0.148411676,
              -0.024944216,
              -0.4695219
            ]
          },
          {
            "weights": [
              -1.0,
              0.354177952,
              -0.115852989,
              -0.4378454,
              -0.9027359,
              0.466025651,
              1.0,
              -0.169650689,
              -0.32867986,
              -1.0
            ]
          },
          {
            "weights": [
              -0.30851084,
              -1.0,
              0.0434047,
              -0.9057705,
              -0.7686827,
              0.6532335,
              -0.00383847952,
              -0.8470274,
              -0.6861381,
              0.06153825
            ]
          },
          {
            "weights": [
              -0.100682527,
              -0.112610489,
              0.9082761,
              0.653771162,
              -0.02568531,
              -0.7019761,
              0.0796375647,
              -0.532954454,
              1.0,
              -0.652724445
            ]
          },
          {
            "weights": [
              0.08279836,
              0.234750837,
              -0.7765853,
              0.736785054,
              -0.195124447,
              1.0,
              0.5597073,
              0.7658533,
              0.07495457,
              0.6840631
            ]
          },
          {
            "weights": [
              0.6851534,
              -0.517901659,
              0.7787905,
              1.0,
              0.301165044,
              0.7120765,
              0.586749136,
              -0.7074933,
              -0.42211616,
              0.198798716
            ]
          },
          {
            "weights": [
              -0.180552572,
              -0.231495738,
              0.8127897,
              -0.118772626,
              0.4503376,
              0.603869855,
              0.7496774,
              0.816413641,
              -0.199483618,
              0.385339469
            ]
          },
          {
            "weights": [
              0.861658931,
              -0.5356318,
              0.5884842,
              0.034517616,
              -0.06867069,
              1.0,
              -0.06943063,
              -0.071304366,
              0.772211552,
              0.4886216
            ]
          }
        ]
      },
      {
        "neurons": [
          {
            "weights": [
              -1.0,
              -0.188831031,
              -1.0,
              0.196954131,
              0.5852954,
              -0.883793831,
              0.95641613,
              -0.165589035,
              0.5411575,
              -0.164895892
            ]
          },
          {
            "weights": [
              0.91590786,
              -1.0,
              0.5704808,
              -0.310210347,
              -0.7624173,
              0.09715593,
              -1.0,
              -0.509788,
              1.0,
              -0.9672075
            ]
          },
          {
            "weights": [
              -0.2538044,
              0.4462425,
              -0.534256,
              1.0,
              1.0,
              -0.7235397,
              -0.362330824,
              -0.283124357,
              0.496606469,
              0.196017712
            ]
          },
          {
            "weights": [
              -0.02081573,
              0.3742222,
              -0.410504,
              0.7457126,
              0.7435308,
              -0.937718749,
              0.071304664,
              0.942790866,
              -0.398827851,
              -0.808134854
            ]
          },
          {
            "weights": [
              0.2101154,
              -0.3843218,
              0.571770132,
              0.4512009,
              0.0241516232,
              0.304747462,
              -0.00606888533,
              -0.6673074,
              -0.331052423,
              -1.0
            ]
          },
          {
            "weights": [
              -0.356360972,
              0.7383814,
              -0.370317519,
              0.5697389,
              0.4299259,
              -0.224399209,
              -0.05133231,
              1.0,
              0.717295766,
              0.33609426
            ]
          },
          {
            "weights": [
              1.0,
              0.8117825,
              -0.7298604,
              0.05713293,
              0.5486663,
              -0.250540525,
              -0.847931862,
              -0.406112552,
              -0.477655023,
              -1.0
            ]
          },
          {
            "weights": [
              -0.90773946,
              -1.0,
              -0.307211936,
              0.715631247,
              0.439601481,
              -0.181594819,
              0.7299379,
              0.413021535,
              -0.945722461,
              0.07123914
            ]
          },
          {
            "weights": [
              -0.9416313,
              1.0,
              0.0162071586,
              -1.0,
              0.1279751,
              0.8805427,
              -0.6503368,
              -0.222401828,
              -1.0,
              -0.8856602
            ]
          },
          {
            "weights": [
              -0.156428069,
              -0.579259634,
              0.153260842,
              0.4837349,
              0.51632154,
              0.693621159,
              0.990860343,
              0.935229063,
              0.697302938,
              -0.265983671
            ]
          }
        ]
      },
      {
        "neurons": [
          {
            "weights": [
              0.147706673,
              -0.468697816,
              0.792745,
              -0.580774367,
              0.9164384,
              -0.415974528,
              -0.8991947,
              0.219299138,
              1.0,
              0.492347062
            ]
          },
          {
            "weights": [
              0.5405979,
              -0.20195049,
              0.442078561,
              -0.20338586,
              -0.11191909,
              -0.2273668,
              -0.697654366,
              -0.0550483465,
              1.0,
              -0.0161231682
            ]
          },
          {
            "weights": [
              -0.33981964,
              0.6769925,
              -0.8720061,
              0.300645322,
              -0.166354313,
              0.9608824,
              0.0101546049,
              -0.04580985,
              -0.475566834,
              -0.716850162
            ]
          },
          {
            "weights": [
              -0.40276596,
              -0.6356063,
              -1.0,
              1.0,
              0.63819766,
              0.947748363,
              -0.7854479,
              0.0259919465,
              0.687436,
              0.5500493
            ]
          },
          {
            "weights": [
              -0.70579195,
              0.7129489,
              -0.9127102,
              0.696332455,
              -0.58828783,
              0.201815575,
              0.18286404,
              -0.7608855,
              0.4866402,
              0.910817444
            ]
          },
          {
            "weights": [
              -1.0,
              0.37889865,
              -0.07104576,
              -1.0,
              0.07916026,
              -0.735146046,
              -1.0,
              0.4296609,
              -1.0,
              0.6257777
            ]
          },
          {
            "weights": [
              0.433306426,
              0.3885382,
              -0.457615256,
              1.0,
              0.35223648,
              0.0200207233,
              0.149950862,
              1.0,
              1.0,
              0.484951347
            ]
          },
          {
            "weights": [
              -0.0856140852,
              -1.0,
              0.256891221,
              0.468497962,
              0.07732509,
              -1.0,
              0.9678986,
              -0.0855208039,
              0.3606828,
              -0.5332065
            ]
          },
          {
            "weights": [
              0.8586964,
              -0.5556717,
              -0.7970387,
              0.207672521,
              0.361135662,
              0.9141159,
              0.181620657,
              0.6580787,
              -0.222809583,
              1.0
            ]
          },
          {
            "weights": [
              0.248711452,
              0.8279991,
              -1.0,
              -0.402448177,
              -0.330881774,
              0.439186871,
              -0.03652367,
              1.0,
              0.273839921,
              0.6565146
            ]
          }
        ]
      },
      {
        "neurons": [
          {
            "weights": [
              0.6353087,
              0.08529292,
              -0.103522241,
              1.0,
              -0.8352974,
              -0.3045072,
              0.3372711,
              -0.177348524,
              1.0,
              -0.657967448
            ]
          },
          {
            "weights": [
              -0.5458988,
              0.8175348,
              -0.4341304,
              0.339401,
              0.434032619,
              -0.0771873,
              -0.0024086237,
              0.139369577,
              -0.567327261,
              -0.407481134
            ]
          },
          {
            "weights": [
              -1.0,
              -0.653151751,
              0.035510838,
              1.0,
              0.43230316,
              -0.234122634,
              0.0073620677,
              -0.428841472,
              0.634976149,
              -0.2440413
            ]
          },
          {
            "weights": [
              -0.623813868,
              0.539551258,
              0.326587945,
              -0.355630755,
              0.0199556574,
              0.7556264,
              -0.8779788,
              -0.141520053,
              -0.0275860727,
              -0.6634939
            ]
          },
          {
            "weights": [
              -0.9869956,
              -0.8226402,
              0.6819192,
              -0.0210425258,
              0.0506926477,
              -0.6646515,
              0.009419739,
              -0.2471968,
              0.440239966,
              0.684404135
            ]
          },
          {
            "weights": [
              -0.8007412,
              1.0,
              -0.633270264,
              -0.678241849,
              -0.5756769,
              -0.6024978,
              0.9267669,
              1.0,
              0.189634755,
              -0.8760715
            ]
          },
          {
            "weights": [
              0.8160472,
              1.0,
              -0.288454652,
              0.08686966,
              -0.3793967,
              0.238865018,
              0.953470945,
              0.5766687,
              -0.8730873,
              0.345294476
            ]
          },
          {
            "weights": [
              -0.5817143,
              1.0,
              -0.312255919,
              -0.42077148,
              -0.218928277,
              0.07936022,
              0.7118931,
              -0.395154238,
              -0.5942062,
              0.2750106
            ]
          },
          {
            "weights": [
              0.5878086,
              1.0,
              -0.09551541,
              -1.0,
              0.945634365,
              1.0,
              -0.820080161,
              0.499423951,
              -0.7933624,
              -0.8629714
            ]
          },
          {
            "weights": [
              -0.257321984,
              -0.546004653,
              0.423270762,
              -0.25377205,
              -0.646155834,
              0.8934871,
              -0.3053282,
              -0.244031549,
              -1.0,
              1.0
            ]
          }
        ]
      },
      {
        "neurons": [
          {
            "weights": [
              -0.829394341,
              -0.0667263,
              0.8105161,
              -0.0585286319,
              0.168620318,
              0.2717253,
              -1.0,
              0.299330473,
              -0.469546944,
              0.621515453
            ]
          },
          {
            "weights": [
              -0.220155627,
              -0.7885541,
              0.7975471,
              0.525365353,
              0.843144953,
              0.695675135,
              -0.7106995,
              0.373164237,
              0.6376458,
              0.932168961
            ]
          },
          {
            "weights": [
              -0.024695158,
              0.3393862,
              -0.6062392,
              0.9652121,
              0.805761456,
              -1.0,
              0.7894273,
              0.8204387,
              0.6099713,
              0.6046606
            ]
          },
          {
            "weights": [
              0.3553488,
              0.431162059,
              -1.0,
              0.9280821,
              -0.332777768,
              -0.26759246,
              -0.06201017,
              0.0603945851,
              -0.482167482,
              1.0
            ]
          },
          {
            "weights": [
              -0.09651452,
              -0.304913461,
              0.101331264,
              0.0726142,
              -0.6738198,
              0.6284861,
              0.753646731,
              -0.2413024,
              1.0,
              0.416893035
            ]
          },
          {
            "weights": [
              0.07944983,
              0.22146976,
              -0.753202,
              0.234569386,
              -0.0423226655,
              0.589590669,
              1.0,
              1.0,
              0.5411233,
              0.2336263
            ]
          }
        ]
      }
    ],
    "settings": {
      "layers": [
        7,
        10,
        10,
        10,
        10,
        10,
        6
      ],
      "error_min": 0.01,
      "error_max": 0.5
    }
  },
  {
    "layers": [
      {
        "neurons": [
          {
            "weights": null
          },
          {
            "weights": null
          },
          {
            "weights": null
          },
          {
            "weights": null
          },
          {
            "weights": null
          },
          {
            "weights": null
          },
          {
            "weights": null
          }
        ]
      },
      {
        "neurons": [
          {
            "weights": [
              -0.418604642,
              -1.0,
              1.0,
              -0.0140379667,
              0.40524596,
              1.0,
              -0.6297774
            ]
          },
          {
            "weights": [
              -0.6738731,
              -0.382400036,
              1.0,
              -0.344599336,
              -0.643357337,
              -0.0537503473,
              -1.0
            ]
          },
          {
            "weights": [
              -1.0,
              -0.436811566,
              -0.226622909,
              -0.408220232,
              -0.5575179,
              0.7075942,
              -0.118654758
            ]
          },
          {
            "weights": [
              0.3034585,
              1.0,
              0.456267029,
              -0.871541,
              -0.742499769,
              -1.0,
              1.0
            ]
          },
          {
            "weights": [
              -1.0,
              -1.0,
              0.5503686,
              -0.333523273,
              -1.0,
              0.9583247,
              -0.27340436
            ]
          },
          {
            "weights": [
              0.243032783,
              -0.1627219,
              -1.0,
              -1.0,
              0.9601557,
              -0.9245133,
              -1.0
            ]
          },
          {
            "weights": [
              -0.676028848,
              -1.0,
              -0.08602461,
              0.08773779,
              -0.04418838,
              0.07423976,
              0.118275478
            ]
          },
          {
            "weights": [
              0.0915497243,
              -0.19623366,
              -1.0,
              0.0323855281,
              0.09685996,
              1.0,
              1.0
            ]
          },
          {
            "weights": [
              -0.6010647,
              -1.0,
              1.0,
              -0.804638267,
              0.204137921,
              0.193292856,
              -0.840496
            ]
          },
          {
            "weights": [
              -0.5926047,
              0.198830709,
              0.489209473,
              -0.5288509,
              -0.178057522,
              0.7173995,
              0.986015737
            ]
          }
        ]
      },
      {
        "neurons": [
          {
            "weights": [
              -0.063107,
              0.6617482,
              0.118342385,
              -0.489770681,
              0.0344275534,
              0.8140767,
              -0.649054766,
              -1.0,
              0.7747258,
              -0.6355324
            ]
          },
          {
            "weights": [
              0.3195562,
              0.3898256,
              -0.3675296,
              0.8840881,
              0.294129819,
              -0.4874128,
              -0.349666357,
              0.897501469,
              -0.78493154,
              -0.8333417
            ]
          },
          {
            "weights": [
              1.0,
              -0.567319155,
              -1.0,
              0.207827419,
              0.0133489668,
              0.5936924,
              -0.0415747166,
              0.148411676,
              -0.024944216,
              -0.4695219
            ]
          },
          {
            "weights": [
              -1.0,
              0.354177952,
              -0.115852989,
              -0.4378454,
              -0.9027359,
              0.466025651,
              1.0,
              -0.169650689,
              -0.32867986,
              -1.0
            ]
          },
          {
            "weights": [
              -0.30851084,
              -1.0,
              0.0434047,
              -0.9057705,
              -0.7686827,
              0.6532335,
              -0.00383847952,
              -0.8470274,
              -0.6861381,
              0.06153825
            ]
          },
          {
            "weights": [
              -0.100682527,
              -0.112610489,
              0.9082761,
              0.653771162,
              -0.02568531,
              -0.7019761,
              0.0796375647,
              -0.532954454,
              1.0,
              -0.652724445
            ]
          },
          {
            "weights": [
              0.08279836,
              0.234750837,
              -0.7765853,
              0.736785054,
              -0.195124447,
              1.0,
              0.5597073,
              0.7658533,
              0.07495457,
              0.6840631
            ]
          },
          {
            "weights": [
              0.6851534,
              -0.517901659,
              0.7787905,
              1.0,
              0.301165044,
              0.7120765,
              0.586749136,
              -0.7074933,
              -0.42211616,
              0.198798716
            ]
          },
          {
            "weights": [
              -0.180552572,
              -0.231495738,
              0.8127897,
              -0.118772626,
              0.4503376,
              0.603869855,
              0.7496774,
              0.816413641,
              -0.199483618,
              0.385339469
            ]
          },
          {
            "weights": [
              0.861658931,
              -0.5356318,
              0.5884842,
              0.034517616,
              -0.06867069,
              1.0,
              0.0469257236,
              -0.071304366,
              0.772211552,
              0.4886216
            ]
          }
        ]
      },
      {
        "neurons": [
          {
            "weights": [
              -1.0,
              -0.158503,
              -1.0,
              0.196954131,
              0.5852954,
              -0.883793831,
              0.95641613,
              -0.165589035,
              0.5411575,
              -0.164895892
            ]
          },
          {
            "weights": [
              0.91590786,
              -1.0,
              0.5704808,
              -0.310210347,
              -0.7624173,
              0.09715593,
              -1.0,
              -0.509788,
              1.0,
              -0.9672075
            ]
          },
          {
            "weights": [
              -0.2538044,
              0.4462425,
              -0.534256,
              1.0,
              1.0,
              -0.7235397,
              -0.362330824,
              -0.283124357,
              0.496606469,
              0.196017712
            ]
          },
          {
            "weights": [
              -0.02081573,
              0.3742222,
              -0.410504,
              0.7457126,
              0.7435308,
              -0.937718749,
              0.071304664,
              0.942790866,
              -0.398827851,
              -0.808134854
            ]
          },
          {
            "weights": [
              0.2101154,
              -0.3843218,
              0.571770132,
              0.4512009,
              0.0241516232,
              0.304747462,
              -0.00606888533,
              -0.6673074,
              -0.331052423,
              -1.0
            ]
          },
          {
            "weights": [
              -0.356360972,
              0.7383814,
              -0.370317519,
              0.5697389,
              0.4299259,
              -0.224399209,
              -0.05133231,
              1.0,
              0.717295766,
              0.33609426
            ]
          },
          {
            "weights": [
              1.0,
              0.8117825,
              -0.7298604,
              0.05713293,
              0.5486663,
              -0.250540525,
              -0.847931862,
              -0.406112552,
              -0.477655023,
              -1.0
            ]
          },
          {
            "weights": [
              -0.90773946,
              -1.0,
              -0.307211936,
              0.715631247,
              0.439601481,
              -0.181594819,
              0.7299379,
              0.413021535,
              -0.945722461,
              0.07123914
            ]
          },
          {
            "weights": [
              -0.9416313,
              1.0,
              0.0162071586,
              -1.0,
              0.1279751,
              0.8805427,
              -0.6503368,
              -0.222401828,
              -1.0,
              -0.8856602
            ]
          },
          {
            "weights": [
              -0.156428069,
              -0.579259634,
              0.153260842,
              0.4837349,
              0.51632154,
              0.693621159,
              0.990860343,
              0.935229063,
              0.697302938,
              -0.265983671
            ]
          }
        ]
      },
      {
        "neurons": [
          {
            "weights": [
              0.147706673,
              -0.468697816,
              0.792745,
              -0.580774367,
              0.5593891,
              -0.415974528,
              -0.490208566,
              0.219299138,
              1.0,
              0.492347062
            ]
          },
          {
            "weights": [
              0.5405979,
              -0.20195049,
              0.442078561,
              -0.20338586,
              -0.11191909,
              -0.2273668,
              -0.697654366,
              -0.0550483465,
              1.0,
              -0.0161231682
            ]
          },
          {
            "weights": [
              -0.33981964,
              0.6769925,
              -0.8720061,
              0.300645322,
              -0.166354313,
              0.9608824,
              0.0101546049,
              -0.04580985,
              -0.475566834,
              -0.716850162
            ]
          },
          {
            "weights": [
              -0.40276596,
              -0.6356063,
              -1.0,
              1.0,
              0.63819766,
              0.947748363,
              -0.7854479,
              0.0259919465,
              0.687436,
              0.5500493
            ]
          },
          {
            "weights": [
              -0.70579195,
              0.7129489,
              -0.9127102,
              0.696332455,
              -0.58828783,
              0.201815575,
              0.18286404,
              -0.7608855,
              0.4866402,
              0.910817444
            ]
          },
          {
            "weights": [
              -1.0,
              0.37889865,
              -0.07104576,
              -1.0,
              0.07916026,
              -0.735146046,
              -1.0,
              0.4296609,
              -1.0,
              0.6257777
            ]
          },
          {
            "weights": [
              0.433306426,
              0.3885382,
              -0.457615256,
              1.0,
              0.35223648,
              0.0200207233,
              0.149950862,
              1.0,
              1.0,
              0.484951347
            ]
          },
          {
            "weights": [
              -0.0856140852,
              -1.0,
              0.256891221,
              0.468497962,
              0.07732509,
              -1.0,
              0.9678986,
              -0.0855208039,
              0.3606828,
              -0.5332065
            ]
          },
          {
            "weights": [
              0.8586964,
              -0.5556717,
              -0.7970387,
              0.207672521,
              0.361135662,
              0.9141159,
              0.181620657,
              0.6580787,
              -0.607898235,
              1.0
            ]
          },
          {
            "weights": [
              0.248711452,
              0.8279991,
              -1.0,
              -0.402448177,
              -0.330881774,
              0.439186871,
              -0.03652367,
              1.0,
              0.273839921,
              0.6565146
            ]
          }
        ]
      },
      {
        "neurons": [
          {
            "weights": [
              0.6353087,
              0.08529292,
              -0.103522241,
              1.0,
              -0.8352974,
              -0.3045072,
              0.3372711,
              -0.177348524,
              1.0,
              -0.657967448
            ]
          },
          {
            "weights": [
              -0.5458988,
              0.8175348,
              -0.4341304,
              0.339401,
              0.434032619,
              -0.0771873,
              -0.0024086237,
              0.139369577,
              -0.567327261,
              -0.407481134
            ]
          },
          {
            "weights": [
              -1.0,
              -0.653151751,
              0.035510838,
              1.0,
              0.43230316,
              -0.234122634,
              0.0073620677,
              -0.428841472,
              0.634976149,
              -0.2440413
            ]
          },
          {
            "weights": [
              -0.623813868,
              0.539551258,
              0.326587945,
              -0.355630755,
              0.0199556574,
              0.7556264,
              -0.8779788,
              -0.141520053,
              -0.0275860727,
              -0.6634939
            ]
          },
          {
            "weights": [
              -0.9869956,
              -0.8226402,
              0.6819192,
              -0.0210425258,
              0.0506926477,
              -0.6646515,
              0.009419739,
              -0.2471968,
              0.440239966,
              0.684404135
            ]
          },
          {
            "weights": [
              -0.8007412,
              1.0,
              -0.633270264,
              -0.678241849,
              -0.5756769,
              -0.6024978,
              0.9267669,
              1.0,
              0.189634755,
              -0.8760715
            ]
          },
          {
            "weights": [
              0.8160472,
              1.0,
              -0.288454652,
              0.08686966,
              -0.3793967,
              0.238865018,
              0.953470945,
              0.5766687,
              -0.8730873,
              0.345294476
            ]
          },
          {
            "weights": [
              -0.5817143,
              1.0,
              -0.312255919,
              -0.42077148,
              -0.218928277,
              0.07936022,
              0.7118931,
              -0.395154238,
              -0.736123443,
              0.2750106
            ]
          },
          {
            "weights": [
              0.5878086,
              1.0,
              -0.09551541,
              -1.0,
              0.945634365,
              1.0,
              -0.820080161,
              0.499423951,
              -0.7933624,
              -0.8629714
            ]
          },
          {
            "weights": [
              -0.257321984,
              -0.546004653,
              0.423270762,
              -0.25377205,
              -0.646155834,
              0.8934871,
              -0.3053282,
              -0.244031549,
              -1.0,
              1.0
            ]
          }
        ]
      },
      {
        "neurons": [
          {
            "weights": [
              -0.829394341,
              -0.0667263,
              0.8105161,
              -0.0585286319,
              0.168620318,
              0.2717253,
              -1.0,
              0.299330473,
              -0.469546944,
              0.621515453
            ]
          },
          {
            "weights": [
              -0.220155627,
              -0.7885541,
              0.7975471,
              0.525365353,
              0.843144953,
              0.695675135,
              -0.7106995,
              0.373164237,
              0.6376458,
              0.932168961
            ]
          },
          {
            "weights": [
              -0.024695158,
              0.3393862,
              -0.6062392,
              0.9652121,
              0.805761456,
              -1.0,
              0.7894273,
              0.8204387,
              0.6099713,
              0.6046606
            ]
          },
          {
            "weights": [
              0.3553488,
              0.431162059,
              -1.0,
              0.9280821,
              -0.332777768,
              -0.26759246,
              -0.06201017,
              0.0603945851,
              -0.482167482,
              1.0
            ]
          },
          {
            "weights": [
              -0.09651452,
              0.122481793,
              0.101331264,
              0.0726142,
              -0.6738198,
              0.6284861,
              0.753646731,
              -0.2413024,
              1.0,
              0.416893035
            ]
          },
          {
            "weights": [
              0.07944983,
              0.22146976,
              -0.753202,
              0.234569386,
              -0.0423226655,
              0.589590669,
              1.0,
              1.0,
              0.5411233,
              0.2336263
            ]
          }
        ]
      }
    ],
    "settings": {
      "layers": [
        7,
        10,
        10,
        10,
        10,
        10,
        6
      ],
      "error_min": 0.01,
      "error_max": 0.5
    }
  },
  {
    "layers": [
      {
        "neurons": [
          {
            "weights": null
          },
          {
            "weights": null
          },
          {
            "weights": null
          },
          {
            "weights": null
          },
          {
            "weights": null
          },
          {
            "weights": null
          },
          {
            "weights": null
          }
        ]
      },
      {
        "neurons": [
          {
            "weights": [
              -0.418604642,
              -1.0,
              1.0,
              -0.0140379667,
              0.40524596,
              1.0,
              -0.6297774
            ]
          },
          {
            "weights": [
              -0.6738731,
              -0.382400036,
              1.0,
              -0.344599336,
              -0.643357337,
              -0.0537503473,
              -1.0
            ]
          },
          {
            "weights": [
              -1.0,
              -0.436811566,
              -0.226622909,
              -0.408220232,
              -0.5575179,
              0.7075942,
              -0.118654758
            ]
          },
          {
            "weights": [
              0.3034585,
              1.0,
              0.456267029,
              -0.871541,
              -0.742499769,
              -1.0,
              1.0
            ]
          },
          {
            "weights": [
              -1.0,
              -1.0,
              0.5503686,
              -0.333523273,
              -1.0,
              0.9583247,
              -0.27340436
            ]
          },
          {
            "weights": [
              0.243032783,
              -0.1627219,
              -1.0,
              -1.0,
              0.9601557,
              -0.9245133,
              -1.0
            ]
          },
          {
            "weights": [
              -0.676028848,
              -1.0,
              -0.08602461,
              0.08773779,
              -0.04418838,
              0.07423976,
              0.118275478
            ]
          },
          {
            "weights": [
              0.0915497243,
              -0.19623366,
              -1.0,
              0.0323855281,
              0.09685996,
              1.0,
              1.0
            ]
          },
          {
            "weights": [
              -0.6010647,
              -1.0,
              1.0,
              -0.804638267,
              0.204137921,
              0.193292856,
              -0.840496
            ]
          },
          {
            "weights": [
              -0.5926047,
              0.198830709,
              0.489209473,
              -0.5288509,
              -0.178057522,
              0.7173995,
              0.986015737
            ]
          }
        ]
      },
      {
        "neurons": [
          {
            "weights": [
              -0.063107,
              0.6617482,
              0.118342385,
              -0.489770681,
              0.0344275534,
              0.8140767,
              -0.649054766,
              -1.0,
              0.7747258,
              -0.6355324
            ]
          },
          {
            "weights": [
              0.3195562,
              0.3898256,
              -0.3675296,
              0.8840881,
              0.294129819,
              -0.4874128,
              -0.349666357,
              0.897501469,
              -0.78493154,
              -0.8333417
            ]
          },
          {
            "weights": [
              1.0,
              -0.567319155,
              -1.0,
              0.207827419,
              0.0133489668,
              0.5936924,
              -0.0415747166,
              0.148411676,
              -0.024944216,
              -0.4695219
            ]
          },
          {
            "weights": [
              -1.0,
              0.354177952,
              -0.115852989,
              -0.4378454,
              -0.9027359,
              0.466025651,
              1.0,
              -0.169650689,
              -0.32867986,
              -1.0
            ]
          },
          {
            "weights": [
              -0.30851084,
              -1.0,
              0.0434047,
              -0.9057705,
              -0.7686827,
              0.6532335,
              -0.00383847952,
              -0.8470274,
              -0.6861381,
              0.06153825
            ]
          },
          {
            "weights": [
              -0.100682527,
              -0.112610489,
              0.9082761,
              0.653771162,
              -0.02568531,
              -0.7019761,
              0.0796375647,
              -0.532954454,
              1.0,
              -0.652724445
            ]
          },
          {
            "weights": [
              0.08279836,
              0.234750837,
              -0.7765853,
              0.736785054,
              -0.195124447,
              1.0,
              0.5597073,
              0.7658533,
              0.07495457,
              0.6840631
            ]
          },
          {
            "weights": [
              0.6851534,
              -0.517901659,
              0.7787905,
              1.0,
              0.301165044,
              0.7120765,
              0.586749136,
              -0.7074933,
              -0.42211616,
              0.198798716
            ]
          },
          {
            "weights": [
              -0.44225654,
              -0.231495738,
              0.8127897,
              -0.118772626,
              0.4503376,
              0.603869855,
              0.7496774,
              0.816413641,
              -0.199483618,
              0.385339469
            ]
          },
          {
            "weights": [
              0.861658931,
              -0.5356318,
              0.5884842,
              0.034517616,
              -0.06867069,
              1.0,
              0.0469257236,
              -0.071304366,
              0.772211552,
              0.4886216
            ]
          }
        ]
      },
      {
        "neurons": [
          {
            "weights": [
              -1.0,
              -0.158503,
              -1.0,
              0.196954131,
              0.5852954,
              -0.883793831,
              0.95641613,
              -0.165589035,
              0.5411575,
              -0.164895892
            ]
          },
          {
            "weights": [
              0.91590786,
              -1.0,
              0.5704808,
              -0.310210347,
              -0.7624173,
              0.09715593,
              -1.0,
              -0.509788,
              1.0,
              -0.9672075
            ]
          },
          {
            "weights": [
              -0.2538044,
              0.4462425,
              -0.534256,
              1.0,
              1.0,
              -0.7235397,
              -0.362330824,
              -0.283124357,
              0.496606469,
              0.196017712
            ]
          },
          {
            "weights": [
              -0.02081573,
              0.3742222,
              -0.410504,
              0.7457126,
              0.7435308,
              -0.937718749,
              0.071304664,
              0.942790866,
              -0.398827851,
              -0.808134854
            ]
          },
          {
            "weights": [
              0.2101154,
              -0.3843218,
              0.571770132,
              0.4512009,
              0.0241516232,
              0.304747462,
              -0.00606888533,
              -0.6673074,
              -0.331052423,
              -1.0
            ]
          },
          {
            "weights": [
              -0.356360972,
              0.7383814,
              -0.370317519,
              0.5697389,
              0.4299259,
              -0.224399209,
              -0.05133231,
              1.0,
              0.717295766,
              0.33609426
            ]
          },
          {
            "weights": [
              1.0,
              0.8117825,
              -0.7298604,
              0.05713293,
              0.5486663,
              -0.250540525,
              -0.847931862,
              -0.406112552,
              -0.477655023,
              -1.0
            ]
          },
          {
            "weights": [
              -0.90773946,
              -1.0,
              -0.307211936,
              0.715631247,
              0.439601481,
              -0.181594819,
              0.7299379,
              0.413021535,
              -0.945722461,
              0.07123914
            ]
          },
          {
            "weights": [
              -0.9416313,
              1.0,
              0.0162071586,
              -1.0,
              0.1279751,
              0.8805427,
              -0.6503368,
              -0.222401828,
              -1.0,
              -0.8856602
            ]
          },
          {
            "weights": [
              -0.156428069,
              -0.579259634,
              0.153260842,
              0.4837349,
              0.51632154,
              0.693621159,
              0.990860343,
              0.935229063,
              0.697302938,
              -0.265983671
            ]
          }
        ]
      },
      {
        "neurons": [
          {
            "weights": [
              0.147706673,
              -0.468697816,
              0.792745,
              -0.580774367,
              0.5593891,
              -0.415974528,
              -0.490208566,
              0.219299138,
              1.0,
              0.492347062
            ]
          },
          {
            "weights": [
              0.5405979,
              -0.20195049,
              0.442078561,
              -0.20338586,
              -0.11191909,
              -0.2273668,
              -0.697654366,
              -0.0550483465,
              1.0,
              -0.0161231682
            ]
          },
          {
            "weights": [
              -0.33981964,
              0.6769925,
              -0.8720061,
