[
  {
    "layers": [
      {
        "neurons": [
          {
            "weights": []
          },
          {
            "weights": []
          },
          {
            "weights": []
          },
          {
            "weights": []
          },
          {
            "weights": []
          },
          {
            "weights": []
          },
          {
            "weights": []
          }
        ]
      },
      {
        "neurons": [
          {
            "weights": [
              -0.4342667,
              -0.742085159,
              0.0148049295,
              -0.164961725,
              0.485475719,
              0.0213797688,
              -0.446995825
            ]
          },
          {
            "weights": [
              0.670076,
              -1.0,
              -0.888377,
              -0.9797565,
              -0.6924469,
              -0.167498276,
              -0.400472283
            ]
          },
          {
            "weights": [
              -1.0,
              0.209291548,
              0.663313866,
              0.4292143,
              -0.630183,
              0.511505842,
              0.360795647
            ]
          },
          {
            "weights": [
              1.0,
              0.0,
              0.208006322,
              -0.3640852,
              0.571935654,
              0.116284519,
              1.0
            ]
          },
          {
            "weights": [
              -0.132103831,
              0.0491311923,
              0.9158846,
              -0.265149474,
              -0.795299351,
              -0.862669945,
              -1.0
            ]
          },
          {
            "weights": [
              0.3851075,
              -0.6838081,
              -0.3537826,
              -0.7648008,
              1.0,
              0.514136434,
              -0.5499084
            ]
          },
          {
            "weights": [
              0.8294789,
              0.02115897,
              -0.5868964,
              1.0,
              0.2562585,
              0.5657321,
              -0.06509194
            ]
          },
          {
            "weights": [
              -0.697621167,
              0.304691434,
              0.7501261,
              0.7764209,
              0.9900794,
              0.5162368,
              -0.696752667
            ]
          },
          {
            "weights": [
              -0.9392904,
              -0.232150853,
              -0.856658459,
              -1.0,
              0.117165312,
              0.0556938574,
              -0.187356263
            ]
          },
          {
            "weights": [
              0.587660253,
              -0.488201976,
              -0.580987751,
              1.0,
              0.8525225,
              -0.575827956,
              0.5858289
            ]
          },
          {
            "weights": [
              1.0,
              0.08690584,
              1.0,
              0.757822633,
              0.267522156,
              -0.65405643,
              0.6629145
            ]
          },
          {
            "weights": [
              -1.0,
              0.0842844844,
              -0.4874411,
              1.0,
              -0.4524727,
              0.9193596,
              -0.4990197
            ]
          },
          {
            "weights": [
              0.5233338,
              -0.277207434,
              -0.170794636,
              0.321659118,
              0.203859091,
              -0.258688867,
              -0.765279055
            ]
          },
          {
            "weights": [
              0.148042142,
              -0.4786166,
              -1.0,
              0.0509825945,
              0.210228592,
              -0.742499352,
              -0.00166970491
            ]
          },
          {
            "weights": [
              -0.025184989,
              0.0,
              -1.0,
              1.0,
              0.873676062,
              -0.702402949,
              0.791572452
            ]
          },
          {
            "weights": [
              0.992621064,
              0.828186035,
              0.423507184,
              0.0493179262,
              0.962388337,
              0.09812653,
              0.404202431
            ]
          },
          {
            "weights": [
              1.0,
              0.477604628,
              0.726341,
              0.495892525,
              -0.173638254,
              1.0,
              -0.1451957
            ]
          },
          {
            "weights": [
              -0.0330194235,
              0.0,
              0.454096764,
              0.422626942,
              -1.0,
              1.0,
              -1.0
            ]
          },
          {
            "weights": [
              1.0,
              0.357175827,
              -0.100141793,
              -0.07441293,
              -0.9172459,
              -0.8695129,
              1.0
            ]
          },
          {
            "weights": [
              -0.8481104,
              0.0,
              -0.447896749,
              -0.611753,
              0.0176952481,
              1.0,
              0.424040318
            ]
          }
        ]
      },
      {
        "neurons": [
          {
            "weights": [
              0.1273403,
              0.5766847,
              -0.7653611,
              -0.8367002,
              -0.228338838,
              -0.647893,
              -0.491247326,
              -0.821114063,
              -0.7698045,
              -0.179297209,
              0.1937291,
              0.360123128,
              -0.512886763,
              0.5375627,
              1.0,
              -0.49551785,
              -0.9217217,
              -0.458037257,
              -0.0963844061,
              -0.452674747
            ]
          },
          {
            "weights": [
              -0.1390247,
              -0.483309865,
              1.0,
              0.246430755,
              -0.359208763,
              0.06488526,
              -0.5429094,
              0.737812042,
              0.6651595,
              -1.0,
              -0.6913142,
              -0.1696532,
              -0.380792618,
              -0.742113531,
              -0.06628308,
              -1.0,
              -1.0,
              -0.278651774,
              -0.7260758,
              -0.00385731459
            ]
          },
          {
            "weights": [
              0.06250629,
              -0.375755072,
              0.490835428,
              -1.0,
              0.602079451,
              0.489334881,
              0.213801026,
              -0.734314442,
              0.09848416,
              0.414072931,
              0.358578444,
              -0.699812,
              -0.334438324,
              -0.8842249,
              0.5396495,
              -0.017140463,
              0.4112217,
              -0.441962719,
              0.793064833,
              -0.04503724
            ]
          },
          {
            "weights": [
              0.1920259,
              -0.811930537,
              -0.332177222,
              -0.00103186071,
              0.202638566,
              1.0,
              -1.0,
              -0.4744345,
              -0.176730275,
              -0.06863883,
              1.0,
              0.365496844,
              -0.998185456,
              0.813102543,
              -0.577187359,
              1.0,
              -0.698024333,
              0.09261701,
              -1.0,
              0.475600451
            ]
          },
          {
            "weights": [
              0.6959708,
              -1.0,
              0.513751268,
              0.03689322,
              -0.428277135,
              0.226641059,
              -0.4733302,
              0.116175771,
              0.473300725,
              -0.4500972,
              -1.0,
              1.0,
              0.7177739,
              -0.2619327,
              0.154463,
              0.4350491,
              -0.0503430367,
              -0.8985003,
              -0.48170048,
              -0.08947337
            ]
          },
          {
            "weights": [
              -0.45524165,
              -1.0,
              0.259138763,
              -0.840918362,
              -0.0873774,
              0.5613413,
              -0.02532819,
              -0.495878667,
              -0.344218463,
              -0.6002779,
              0.422368377,
              0.7290089,
              0.06254643,
              -0.508893967,
              -1.0,
              -0.192585111,
              0.0893076956,
              0.383995265,
              -0.11844027,
              0.898015
            ]
          },
          {
            "weights": [
              -0.0294237137,
              -0.0431408,
              -0.551112831,
              0.125607342,
              -0.5906047,
              -0.230291724,
              1.0,
              -0.09863067,
              -0.215410441,
              -0.3434948,
              -0.10878852,
              -0.113335013,
              0.463983983,
              0.0151435435,
              -0.12658155,
              0.475770682,
              -0.463410735,
              -0.6877682,
              -0.09816396,
              0.0245957375
            ]
          },
          {
            "weights": [
              -0.23061204,
              0.285682172,
              -0.5451486,
              -0.812087059,
              -0.6202843,
              0.5384839,
              0.336561173,
              0.227586865,
              0.388184547,
              0.0143050849,
              0.932075262,
              -0.9582373,
              -0.3266815,
              0.736279547,
              0.716253757,
              0.7468438,
              -0.07126558,
              -0.407950282,
              -0.89855516,
              0.185021758
            ]
          },
          {
            "weights": [
              0.249814391,
              0.8850825,
              0.5183284,
              0.9818466,
              -0.3641101,
              -0.09230459,
              -0.138302237,
              0.806008339,
              0.770529747,
              -0.583013952,
              -0.5129576,
              -0.7828822,
              -0.28006947,
              -0.542566657,
              -0.6371429,
              0.779884338,
              0.431626946,
              1.0,
              0.0417546034,
              0.154910833
            ]
          },
          {
            "weights": [
              0.053521812,
              -1.0,
              0.387679219,
              0.685484052,
              -0.7860229,
              -1.0,
              -0.362905622,
              -0.06798723,
              0.818660736,
              -0.713631153,
              0.8184976,
              -0.6643268,
              -0.8169756,
              0.4455268,
              -0.319905221,
              0.114767343,
              0.277603179,
              1.0,
              -0.9060616,
              0.7523728
            ]
          },
          {
            "weights": [
              -0.428361624,
              0.882746458,
              0.597230434,
              -0.07749069,
              0.09501207,
              -0.5518441,
              -0.4520973,
              -1.0,
              0.465217561,
              -0.20508334,
              0.4057307,
              0.706521034,
              0.303054243,
              0.5074296,
              0.292199939,
              -0.2275447,
              -0.37051475,
              0.4272096,
              0.286222756,
              0.7339544
            ]
          },
          {
            "weights": [
              -0.7258755,
              -0.771478653,
              -0.7769383,
              0.3468798,
              0.8497839,
              0.9271579,
              0.192793518,
              0.248317182,
              -0.629948,
              0.6147258,
              -0.0341102481,
              0.03081441,
              0.307028741,
              -0.259190679,
              -0.308426559,
              -0.14583075,
              -0.527816534,
              0.9546342,
              0.0520452261,
              0.106247246
            ]
          },
          {
            "weights": [
              0.4916244,
              -0.4173737,
              0.546509,
              -1.0,
              -0.9961567,
              -0.7144387,
              0.8066399,
              -0.9186534,
              0.507143438,
              -0.5535617,
              -1.0,
              -0.00306835771,
              -0.163378984,
              0.0496332645,
              -0.6422013,
              0.92252326,
              -0.137018085,
              -0.203608632,
              0.7302583,
              0.221130088
            ]
          },
          {
            "weights": [
              -0.5174894,
              0.284147948,
              0.0900324,
              0.9142618,
              -0.630143762,
              -0.08538091,
              -0.9564574,
              -1.0,
              -0.3879759,
              0.01916501,
              0.5389004,
              0.5207522,
              -0.5811162,
              0.6553166,
              0.4508557,
              0.7139008,
              0.249467731,
              1.0,
              -0.2587422,
              -0.8073325
            ]
          },
          {
            "weights": [
              -0.40690887,
              -1.0,
              -0.8163089,
              0.368445367,
              -0.885902941,
              -0.17690286,
              0.739251435,
              0.267334282,
              -0.740174055,
              -0.5676904,
              -0.4449333,
              0.230875134,
              -1.0,
              -0.794818163,
              0.573317766,
              -0.124269605,
              -0.710571647,
              0.5078834,
              0.3361761,
              -0.150668263
            ]
          },
          {
            "weights": [
              0.974765062,
              0.998420238,
              -0.284130156,
              -0.270162225,
              0.378425032,
              0.320237726,
              -0.520386338,
              1.0,
              0.731007338,
              0.653770447,
              -0.192440137,
              -0.195878863,
              0.882717252,
              -0.464216352,
              0.7356544,
              -0.143109441,
              0.289211541,
              0.5494387,
              -0.203549981,
              -1.0
            ]
          },
          {
            "weights": [
              0.111019678,
              0.8528285,
              -0.5988626,
              -0.560246468,
              0.150518015,
              -0.08616984,
              -0.735889852,
              -0.6690163,
              -0.0129164457,
              -0.256927729,
              0.465252638,
              0.788746357,
              0.2110709,
              0.730758667,
              -0.220180109,
              -0.8441844,
              0.6801157,
              0.9183173,
              0.84303,
              0.270855159
            ]
          },
          {
            "weights": [
              -0.144953042,
              0.518003,
              0.8395753,
              -0.662516356,
              0.357214659,
              0.66985774,
              0.48155275,
              -1.0,
              -0.7226491,
              -0.7409041,
              -0.6507831,
              -0.6697092,
              0.985395432,
              -0.3422495,
              -0.200888038,
              0.531474769,
              -0.119980067,
              -0.642875135,
              -1.0,
              -0.3809439
            ]
          },
          {
            "weights": [
              -0.0681604147,
              -0.107712388,
              -0.114114448,
              -0.6913159,
              0.6762886,
              0.0644542,
              0.46075362,
              0.312150061,
              0.309726655,
              -0.434189439,
              1.0,
              -0.514409363,
              0.6700163,
              0.789375246,
              -0.6789058,
              0.11527288,
              0.151812673,
              0.5051093,
              -0.634820461,
              0.6394403
            ]
          },
          {
            "weights": [
              -0.120672345,
              -0.385455549,
              -0.5673821,
              1.0,
              -0.0303155184,
              -0.616206169,
              0.6603664,
              -0.60896486,
              -0.4597646,
              0.303305745,
              0.216232419,
              -0.221437335,
              0.2390455,
              -0.6188197,
              -0.0426329374,
              -0.3916942,
              -0.8563707,
              0.09864789,
              0.456020564,
              0.911308765
            ]
          }
        ]
      },
      {
        "neurons": [
          {
            "weights": [
              0.913944364,
              -1.0,
              1.0,
              -0.42386198,
              1.0,
              -1.0,
              0.2205078,
              0.1947633,
              0.458748847,
              -0.955765247,
              1.0,
              1.0,
              -0.796996951,
              0.134240717,
              -0.57045424,
              -0.809365034,
              -0.309082478,
              -1.0,
              1.0,
              0.7826308
            ]
          },
          {
            "weights": [
              -1.0,
              0.6925433,
              0.29072234,
              -0.166508347,
              -0.7396344,
              -0.562814355,
              -0.7208017,
              -0.07590288,
              0.786730766,
              -0.834721744,
              -0.0134099126,
              0.845132053,
              0.27265206,
              0.6600474,
              -0.110304534,
              0.490656823,
              1.0,
              0.161341488,
              0.5798124,
              0.0302793235
            ]
          },
          {
            "weights": [
              0.310649753,
              -0.506337464,
              0.6054481,
              0.006709501,
              -0.402856231,
              -0.3851112,
              0.0278459489,
              -0.206314743,
              -1.0,
              0.6783243,
              0.6000186,
              -0.194236636,
              -0.421932817,
              0.00306524336,
              1.0,
              1.0,
              -0.740486264,
              0.09307239,
              0.513665557,
              1.0
            ]
          },
          {
            "weights": [
              0.6365577,
              0.2612187,
              0.5499975,
              -0.325371623,
              0.111801967,
              0.137734339,
              -0.285887122,
              1.0,
              -1.0,
              0.138851523,
              0.12035799,
              0.5685064,
              0.162926257,
              -0.2699579,
              -0.6175413,
              -0.0146741867,
              -0.3197619,
              0.7228225,
              -1.0,
              -0.665236652
            ]
          },
          {
            "weights": [
              0.05836819,
              -1.0,
              -0.303609341,
              -0.45551765,
              -0.0307110026,
              -0.8648913,
              -1.0,
              0.2703945,
              0.289738953,
              -0.219161078,
              -0.4262036,
              -0.136151284,
              -0.7891037,
              0.156442732,
              -0.5802469,
              -0.63631475,
              0.781736851,
              0.16875276,
              -1.0,
              -0.9067198
            ]
          },
          {
            "weights": [
              -0.121229559,
              -0.4184447,
              0.5070808,
              0.332059145,
              -0.8526993,
              1.0,
              -0.202176437,
              0.491640776,
              0.4681352,
              -0.5646615,
              0.796860456,
              0.8558998,
              0.06409562,
              -0.4906765,
              0.625170946,
              0.004484415,
              -1.0,
              -0.760879755,
              0.316692,
              -1.0
            ]
          }
        ]
      }
    ],
    "settings": {
      "layers": [
        7,
        20,
        20,
        6
      ],
      "error_min": 0.01,
      "error_max": 0.5
    }
  },
  {
    "layers": [
      {
        "neurons": [
          {
            "weights": []
          },
          {
            "weights": []
          },
          {
            "weights": []
          },
          {
            "weights": []
          },
          {
            "weights": []
          },
          {
            "weights": []
          },
          {
            "weights": []
          }
        ]
      },
      {
        "neurons": [
          {
            "weights": [
              -0.4342667,
              -0.742085159,
              0.0148049295,
              -0.164961725,
              0.485475719,
              0.0213797688,
              -0.446995825
            ]
          },
          {
            "weights": [
              0.670076,
              -1.0,
              -0.888377,
              -0.9797565,
              -0.6924469,
              -0.167498276,
              -0.400472283
            ]
          },
          {
            "weights": [
              -1.0,
              0.209291548,
              0.663313866,
              0.4292143,
              -0.630183,
              0.511505842,
              0.360795647
            ]
          },
          {
            "weights": [
              1.0,
              0.0,
              0.208006322,
              -0.3640852,
              0.571935654,
              0.116284519,
              1.0
            ]
          },
          {
            "weights": [
              -0.132103831,
              0.0491311923,
              0.9158846,
              -0.265149474,
              -0.795299351,
              -0.862669945,
              -1.0
            ]
          },
          {
            "weights": [
              0.3851075,
              -0.6838081,
              -0.3537826,
              -0.7648008,
              1.0,
              0.514136434,
              -0.5499084
            ]
          },
          {
            "weights": [
              0.8294789,
              0.02115897,
              -0.5868964,
              1.0,
              0.2562585,
              0.5657321,
              -0.06509194
            ]
          },
          {
            "weights": [
              -0.697621167,
              0.304691434,
              0.7501261,
              0.7764209,
              0.9900794,
              0.5162368,
              -0.696752667
            ]
          },
          {
            "weights": [
              -0.9392904,
              -0.232150853,
              -0.856658459,
              -1.0,
              0.117165312,
              0.0556938574,
              -0.187356263
            ]
          },
          {
            "weights": [
              0.587660253,
              -0.488201976,
              -0.580987751,
              1.0,
              0.8525225,
              -0.575827956,
              0.5858289
            ]
          },
          {
            "weights": [
              1.0,
              0.08690584,
              1.0,
              0.757822633,
              0.267522156,
              -0.65405643,
              0.6629145
            ]
          },
          {
            "weights": [
              -1.0,
              0.0842844844,
              -0.4874411,
              1.0,
              -0.4524727,
              0.9193596,
              -0.4990197
            ]
          },
          {
            "weights": [
              0.5233338,
              -0.277207434,
              -0.170794636,
              0.321659118,
              0.203859091,
              -0.258688867,
              -0.765279055
            ]
          },
          {
            "weights": [
              0.148042142,
              -0.4786166,
              -1.0,
              0.0509825945,
              0.210228592,
              -0.742499352,
              -0.00166970491
            ]
          },
          {
            "weights": [
              -0.025184989,
              0.0,
              -1.0,
              1.0,
              0.873676062,
              -0.702402949,
              0.791572452
            ]
          },
          {
            "weights": [
              0.992621064,
              0.828186035,
              0.423507184,
              0.0493179262,
              0.962388337,
              0.09812653,
              0.404202431
            ]
          },
          {
            "weights": [
              1.0,
              0.477604628,
              0.726341,
              0.495892525,
              -0.173638254,
              1.0,
              -0.1451957
            ]
          },
          {
            "weights": [
              -0.0330194235,
              0.0,
              0.454096764,
              0.422626942,
              -1.0,
              1.0,
              -1.0
            ]
          },
          {
            "weights": [
              1.0,
              0.357175827,
              -0.100141793,
              -0.07441293,
              -0.9172459,
              -0.8695129,
              1.0
            ]
          },
          {
            "weights": [
              -0.8481104,
              0.0,
              -0.447896749,
              -0.611753,
              0.0176952481,
              1.0,
              0.424040318
            ]
          }
        ]
      },
      {
        "neurons": [
          {
            "weights": [
              0.1273403,
              0.5766847,
              -0.7653611,
              -0.8367002,
              -0.228338838,
              -0.647893,
              -0.491247326,
              -0.821114063,
              -0.7698045,
              -0.179297209,
              0.1937291,
              0.360123128,
              -0.512886763,
              0.5375627,
              1.0,
              -0.49551785,
              -0.9217217,
              -0.458037257,
              -0.0963844061,
              -0.452674747
            ]
          },
          {
            "weights": [
              -0.1390247,
              -0.483309865,
              1.0,
              0.246430755,
              -0.359208763,
              0.06488526,
              -0.5429094,
              0.737812042,
              0.6651595,
              -1.0,
              -0.6913142,
              -0.1696532,
              -0.380792618,
              -0.742113531,
              -0.06628308,
              -1.0,
              -1.0,
              -0.278651774,
              -0.7260758,
              -0.00385731459
            ]
          },
          {
            "weights": [
              0.06250629,
              -0.375755072,
              0.490835428,
              -1.0,
              0.602079451,
              0.489334881,
              0.213801026,
              -0.734314442,
              0.09848416,
              0.414072931,
              0.358578444,
              -0.699812,
              -0.334438324,
              -0.8842249,
              0.5396495,
              -0.017140463,
              0.4112217,
              -0.441962719,
              0.793064833,
              -0.04503724
            ]
          },
          {
            "weights": [
              0.1920259,
              -0.811930537,
              -0.332177222,
              -0.00103186071,
              0.202638566,
              1.0,
              -1.0,
              -0.4744345,
              -0.176730275,
              -0.06863883,
              1.0,
              0.365496844,
              -0.998185456,
              0.813102543,
              -0.577187359,
              1.0,
              -0.698024333,
              0.09261701,
              -1.0,
              0.475600451
            ]
          },
          {
            "weights": [
              0.6959708,
              -1.0,
              0.513751268,
              0.03689322,
              -0.428277135,
              0.226641059,
              -0.4733302,
              0.116175771,
              0.473300725,
              -0.4500972,
              -1.0,
              1.0,
              0.7177739,
              -0.2619327,
              0.154463,
              0.4350491,
              -0.0503430367,
              -0.8985003,
              -0.48170048,
              -0.08947337
            ]
          },
          {
            "weights": [
              -0.45524165,
              -1.0,
              0.259138763,
              -0.840918362,
              -0.0873774,
              0.5613413,
              -0.02532819,
              -0.495878667,
              -0.344218463,
              -0.6002779,
              0.422368377,
              0.7290089,
              0.06254643,
              -0.508893967,
              -1.0,
              -0.192585111,
              0.0893076956,
              0.383995265,
              -0.11844027,
              0.898015
            ]
          },
          {
            "weights": [
              -0.0294237137,
              -0.0431408,
              -0.551112831,
              0.125607342,
              -0.5906047,
              -0.230291724,
              1.0,
              -0.09863067,
              -0.215410441,
              -0.3434948,
              -0.10878852,
              -0.113335013,
              0.463983983,
              0.0151435435,
              -0.12658155,
              0.475770682,
              -0.463410735,
              -0.6877682,
              -0.09816396,
              0.0245957375
            ]
          },
          {
            "weights": [
              -0.23061204,
              0.285682172,
              -0.5451486,
              -0.812087059,
              -0.6202843,
              0.5384839,
              0.336561173,
              0.227586865,
              0.388184547,
              0.0143050849,
              0.932075262,
              -0.9582373,
              -0.3266815,
              0.736279547,
              0.716253757,
              0.7468438,
              -0.07126558,
              -0.407950282,
              -0.89855516,
              0.185021758
            ]
          },
          {
            "weights": [
              0.249814391,
              0.8850825,
              0.5183284,
              0.9818466,
              -0.3641101,
              -0.09230459,
              -0.138302237,
              0.806008339,
              0.770529747,
              -0.583013952,
              -0.5129576,
              -0.7828822,
              -0.28006947,
              -0.542566657,
              -0.6371429,
              0.779884338,
              0.431626946,
              1.0,
              0.0417546034,
              0.154910833
            ]
          },
          {
            "weights": [
              0.053521812,
              -1.0,
              0.387679219,
              0.685484052,
              -0.7860229,
              -1.0,
              -0.362905622,
              -0.06798723,
              0.818660736,
              -0.713631153,
              0.8184976,
              -0.6643268,
              -0.8169756,
              0.4455268,
              -0.319905221,
              0.114767343,
              0.277603179,
              1.0,
              -1.0,
              0.7523728
            ]
          },
          {
            "weights": [
              -0.428361624,
              0.882746458,
              0.597230434,
              -0.07749069,
              0.09501207,
              -0.5518441,
              -0.4520973,
              -1.0,
              0.465217561,
              -0.20508334,
              0.4057307,
              0.706521034,
              0.303054243,
              0.5074296,
              0.292199939,
              -0.2275447,
              -0.37051475,
              0.4272096,
              0.286222756,
              0.7339544
            ]
          },
          {
            "weights": [
              -0.7258755,
              -0.771478653,
              -0.7769383,
              0.385561436,
              0.8497839,
              0.9271579,
              0.192793518,
              0.248317182,
              -0.629948,
              0.6147258,
              -0.0341102481,
              0.03081441,
              0.307028741,
              -0.259190679,
              -0.308426559,
              -0.14583075,
              -0.527816534,
              0.9546342,
              0.0520452261,
              0.106247246
            ]
          },
          {
            "weights": [
              0.4916244,
              -0.4173737,
              0.546509,
              -1.0,
              -0.9961567,
              -0.9605436,
              0.8066399,
              -0.9186534,
              0.507143438,
              -0.5535617,
              -1.0,
              -0.00306835771,
              -0.163378984,
              0.0496332645,
              -0.6422013,
              0.92252326,
              -0.137018085,
              -0.203608632,
              0.7302583,
              0.221130088
            ]
          },
          {
            "weights": [
              -0.5174894,
              0.284147948,
              0.0900324,
              0.9142618,
              -0.630143762,
              -0.08538091,
              -0.9564574,
              -1.0,
              -0.3879759,
              0.01916501,
              0.5389004,
              0.5207522,
              -0.5811162,
              0.6553166,
              0.4508557,
              0.7139008,
              0.249467731,
              1.0,
              -0.2587422,
              -0.8073325
            ]
          },
          {
            "weights": [
              -0.40690887,
              -1.0,
              -0.8163089,
              0.368445367,
              -0.885902941,
              -0.17690286,
              0.739251435,
              0.267334282,
              -0.740174055,
              -0.5676904,
              -0.4449333,
              0.230875134,
              -1.0,
              -0.794818163,
              0.573317766,
              -0.124269605,
              -0.710571647,
              0.5078834,
              0.3361761,
              -0.150668263
            ]
          },
          {
            "weights": [
              0.974765062,
              0.998420238,
              -0.284130156,
              -0.270162225,
              0.378425032,
              0.320237726,
              -0.520386338,
              1.0,
              0.731007338,
              0.653770447,
              -0.192440137,
              -0.195878863,
              0.882717252,
              -0.464216352,
              0.7356544,
              -0.143109441,
              0.289211541,
              0.5494387,
              -0.203549981,
              -1.0
            ]
          },
          {
            "weights": [
              0.111019678,
              0.8528285,
              -0.5988626,
              -0.560246468,
              0.150518015,
              -0.08616984,
              -0.735889852,
              -0.6690163,
              -0.0129164457,
              -0.256927729,
              0.465252638,
              0.788746357,
              0.2110709,
              0.730758667,
              -0.220180109,
              -0.8441844,
              0.6801157,
              1.0,
              0.84303,
              0.270855159
            ]
          },
          {
            "weights": [
              -0.144953042,
              0.518003,
              0.8395753,
              -0.662516356,
              0.357214659,
              0.66985774,
              0.48155275,
              -1.0,
              -0.7226491,
              -0.7409041,
              -0.6507831,
              -0.6697092,
              0.985395432,
              -0.3422495,
              -0.200888038,
              0.531474769,
              -0.119980067,
              -0.642875135,
              -1.0,
              -0.3809439
            ]
          },
          {
            "weights": [
              -0.0681604147,
              -0.107712388,
              -0.114114448,
              -0.6913159,
              0.6762886,
              0.0644542,
              0.46075362,
              0.312150061,
              0.309726655,
              -0.434189439,
              1.0,
              -0.514409363,
              0.6700163,
              0.789375246,
              -0.6789058,
              0.11527288,
              0.151812673,
              0.5051093,
              -0.634820461,
              0.6394403
            ]
          },
          {
            "weights": [
              -0.120672345,
              -0.385455549,
              -0.5673821,
              1.0,
              -0.0303155184,
              -0.616206169,
              0.6603664,
              -0.60896486,
              -0.4597646,
              0.303305745,
              0.216232419,
              -0.221437335,
              0.2390455,
              -0.6188197,
              -0.0426329374,
              -0.3916942,
              -0.8563707,
              0.09864789,
              0.456020564,
              0.911308765
            ]
          }
        ]
      },
      {
        "neurons": [
          {
            "weights": [
              0.913944364,
              -1.0,
              1.0,
              -0.42386198,
              1.0,
              -1.0,
              0.2205078,
              0.1947633,
              0.458748847,
              -0.955765247,
              1.0,
              1.0,
              -0.796996951,
              0.134240717,
              -0.57045424,
              -0.809365034,
              -0.309082478,
              -1.0,
              1.0,
              0.7826308
            ]
          },
          {
            "weights": [
              -1.0,
              0.6925433,
              0.29072234,
              -0.166508347,
              -0.7396344,
              -0.562814355,
              -0.7208017,
              -0.07590288,
              0.786730766,
              -0.834721744,
              -0.0134099126,
              0.845132053,
              0.27265206,
              0.6600474,
              -0.110304534,
              0.490656823,
              1.0,
              0.161341488,
              0.5798124,
              0.0302793235
            ]
          },
          {
            "weights": [
              0.310649753,
              -0.506337464,
              0.6054481,
              0.006709501,
              -0.402856231,
              -0.3851112,
              0.0278459489,
              -0.206314743,
              -1.0,
              0.6783243,
              0.6000186,
              -0.194236636,
              -0.421932817,
              0.00306524336,
              1.0,
              1.0,
              -0.740486264,
              0.09307239,
              0.513665557,
              1.0
            ]
          },
          {
            "weights": [
              0.6365577,
              0.2612187,
              0.5499975,
              -0.325371623,
              0.111801967,
              0.137734339,
              -0.285887122,
              1.0,
              -1.0,
              0.138851523,
              0.12035799,
              0.5685064,
              0.162926257,
              -0.2699579,
              -0.6175413,
              -0.0146741867,
              -0.3197619,
              0.7228225,
              -1.0,
              -0.665236652
            ]
          },
          {
            "weights": [
              0.05836819,
              -1.0,
              -0.303609341,
              -0.45551765,
              -0.0307110026,
              -0.8648913,
              -1.0,
              0.2703945,
              0.289738953,
              -0.219161078,
              -0.4262036,
              -0.136151284,
              -0.7891037,
              0.156442732,
              -0.5802469,
              -0.63631475,
              0.781736851,
              0.16875276,
              -1.0,
              -0.9067198
            ]
          },
          {
            "weights": [
              -0.121229559,
              -0.4184447,
              0.5070808,
              0.332059145,
              -0.8526993,
              1.0,
              -0.202176437,
              0.491640776,
              0.4681352,
              -0.5646615,
              0.796860456,
              0.8558998,
              0.06409562,
              -0.4906765,
              0.625170946,
              0.004484415,
              -1.0,
              -0.760879755,
              0.0238856673,
              -1.0
            ]
          }
        ]
      }
    ],
    "settings": {
      "layers": [
        7,
        20,
        20,
        6
      ],
      "error_min": 0.01,
      "error_max": 0.5
    }
  },
  {
    "layers": [
      {
        "neurons": [
          {
            "weights": []
          },
          {
            "weights": []
          },
          {
            "weights": []
          },
          {
            "weights": []
          },
          {
            "weights": []
          },
          {
            "weights": []
          },
          {
            "weights": []
          }
        ]
      },
      {
        "neurons": [
          {
            "weights": [
              -0.4342667,
              -0.742085159,
              0.0148049295,
              -0.164961725,
              0.485475719,
              0.0213797688,
              -0.446995825
            ]
          },
          {
            "weights": [
              0.670076,
              -1.0,
              -0.888377,
              -0.9797565,
              -0.6924469,
              -0.167498276,
              -0.400472283
            ]
          },
          {
            "weights": [
              -1.0,
              0.209291548,
              0.663313866,
              0.4292143,
              -0.630183,
              0.511505842,
              0.360795647
            ]
          },
          {
            "weights": [
              1.0,
              0.0,
              0.208006322,
              -0.3640852,
              0.571935654,
              0.116284519,
              1.0
            ]
          },
          {
            "weights": [
              -0.132103831,
              0.0491311923,
              0.9158846,
              -0.265149474,
              -0.795299351,
              -0.862669945,
              -1.0
            ]
          },
          {
            "weights": [
              0.3851075,
              -0.6838081,
              -0.3537826,
              -0.7648008,
              1.0,
              0.514136434,
              -0.5499084
            ]
          },
          {
            "weights": [
              0.8294789,
              0.02115897,
              -0.5868964,
              1.0,
              0.2562585,
              0.5657321,
              -0.06509194
            ]
          },
          {
            "weights": [
              -0.697621167,
              0.304691434,
              0.7501261,
              0.7764209,
              0.9900794,
              0.5162368,
              -0.696752667
            ]
          },
          {
            "weights": [
              -0.9392904,
              -0.232150853,
              -0.856658459,
              -1.0,
              0.117165312,
              0.0556938574,
              -0.187356263
            ]
          },
          {
            "weights": [
              0.587660253,
              -0.488201976,
              -0.580987751,
              1.0,
              0.8525225,
              -0.575827956,
              0.5858289
            ]
          },
          {
            "weights": [
              1.0,
              0.08690584,
              1.0,
              0.757822633,
              0.267522156,
              -0.65405643,
              0.6629145
            ]
          },
          {
            "weights": [
              -1.0,
              0.0842844844,
              -0.4874411,
              1.0,
              -0.4524727,
              0.9193596,
              -0.4990197
            ]
          },
          {
            "weights": [
              0.5233338,
              -0.277207434,
              -0.170794636,
              0.321659118,
              0.203859091,
              -0.258688867,
              -0.765279055
            ]
          },
          {
            "weights": [
              0.148042142,
              -0.4786166,
              -1.0,
              0.0509825945,
              0.210228592,
              -0.742499352,
              -0.00166970491
            ]
          },
          {
            "weights": [
              -0.025184989,
              0.0,
              -1.0,
              1.0,
              0.873676062,
              -0.702402949,
              0.791572452
            ]
          },
          {
            "weights": [
              0.992621064,
              0.828186035,
              0.423507184,
              0.0493179262,
              0.962388337,
              0.09812653,
              0.404202431
            ]
          },
          {
            "weights": [
              1.0,
              0.477604628,
              0.726341,
              0.495892525,
              -0.173638254,
              1.0,
              -0.1451957
            ]
          },
          {
            "weights": [
              -0.0330194235,
              0.0,
              0.454096764,
              0.422626942,
              -1.0,
              1.0,
              -1.0
            ]
          },
          {
            "weights": [
              1.0,
              0.357175827,
              -0.100141793,
              -0.07441293,
              -0.9172459,
              -0.8695129,
              1.0
            ]
          },
          {
            "weights": [
              -0.8481104,
              0.0,
              -0.447896749,
              -0.611753,
              0.0176952481,
              1.0,
              0.424040318
            ]
          }
        ]
      },
      {
        "neurons": [
          {
            "weights": [
              0.1273403,
              0.5766847,
              -0.7653611,
              -0.8367002,
              -0.228338838,
              -0.647893,
              -0.491247326,
              -0.821114063,
              -0.7698045,
              -0.179297209,
              0.1937291,
              0.360123128,
              -0.512886763,
              0.5375627,
              1.0,
              -0.49551785,
              -0.9217217,
              -0.458037257,
              -0.0963844061,
              -0.452674747
            ]
          },
          {
            "weights": [
              -0.1390247,
              -0.483309865,
              1.0,
              0.246430755,
              -0.359208763,
              0.06488526,
              -0.5429094,
              0.737812042,
              0.6651595,
              -1.0,
              -0.6913142,
              -0.1696532,
              -0.380792618,
              -0.742113531,
              -0.06628308,
              -1.0,
              -1.0,
              -0.278651774,
              -0.7260758,
              -0.00385731459
            ]
          },
          {
            "weights": [
              0.06250629,
              -0.375755072,
              0.490835428,
              -1.0,
              0.602079451,
              0.489334881,
              0.213801026,
              -0.734314442,
              0.09848416,
              0.414072931,
              0.358578444,
              -0.699812,
              -0.334438324,
              -0.8842249,
              0.5396495,
              -0.017140463,
              0.4112217,
              -0.441962719,
              0.793064833,
              -0.04503724
            ]
          },
          {
            "weights": [
              0.1920259,
              -0.811930537,
              -0.332177222,
              -0.00103186071,
              0.202638566,
              1.0,
              -1.0,
              -0.4744345,
              -0.176730275,
              -0.06863883,
              1.0,
              0.365496844,
              -0.998185456,
              0.813102543,
              -0.577187359,
              1.0,
              -0.698024333,
              0.09261701,
              -1.0,
              0.475600451
            ]
          },
          {
            "weights": [
              0.6959708,
              -1.0,
              0.513751268,
              0.03689322,
              -0.428277135,
              0.226641059,
              -0.4733302,
              0.116175771,
              0.473300725,
              -0.4500972,
              -1.0,
              1.0,
              0.7177739,
              -0.2619327,
              0.154463,
              0.4350491,
              -0.0503430367,
              -0.8985003,
              -0.48170048,
              -0.08947337
            ]
          },
          {
            "weights": [
              -0.45524165,
              -1.0,
              0.259138763,
              -0.840918362,
              -0.0873774,
              0.5613413,
              -0.02532819,
              -0.495878667,
              -0.344218463,
              -0.6002779,
              0.422368377,
              0.7290089,
              0.06254643,
              -0.508893967,
              -1.0,
              -0.192585111,
              0.0893076956,
              0.383995265,
              -0.11844027,
              0.898015
            ]
          },
          {
            "weights": [
              -0.0294237137,
              -0.0431408,
              -0.551112831,
              0.125607342,
              -0.5906047,
              -0.230291724,
              1.0,
              -0.09863067,
              -0.215410441,
              -0.3434948,
              -0.10878852,
              -0.113335013,
              0.463983983,
              0.0151435435,
              -0.12658155,
              0.475770682,
              -0.463410735,
              -0.6877682,
              -0.09816396,
              0.0245957375
            ]
          },
          {
            "weights": [
              -0.23061204,
              0.285682172,
              -0.5451486,
              -0.812087059,
              -0.6202843,
              0.5384839,
              0.336561173,
              0.227586865,
              0.388184547,
              0.0143050849,
              0.932075262,
              -0.9582373,
              -0.3266815,
              0.736279547,
              0.716253757,
              0.7468438,
              -0.07126558,
              -0.407950282,
              -0.89855516,
              0.185021758
            ]
          },
          {
            "weights": [
              0.249814391,
              0.8850825,
              0.5183284,
              0.9818466,
              -0.3641101,
              -0.09230459,
              -0.138302237,
              0.806008339,
              0.770529747,
              -0.583013952,
              -0.5129576,
              -0.7828822,
              -0.28006947,
              -0.542566657,
              -0.6371429,
              0.779884338,
              0.431626946,
              1.0,
              0.0417546034,
              0.154910833
            ]
          },
          {
            "weights": [
              0.053521812,
              -1.0,
              0.387679219,
              0.685484052,
              -0.7860229,
              -1.0,
              -0.362905622,
              -0.06798723,
              0.818660736,
              -0.713631153,
              0.8184976,
              -0.6643268,
              -0.8169756,
              0.4455268,
              -0.319905221,
              0.114767343,
              0.277603179,
              1.0,
              -1.0,
              0.7523728
            ]
          },
          {
            "weights": [
              -0.428361624,
              0.882746458,
              0.597230434,
              -0.07749069,
              0.09501207,
              -0.5518441,
              -0.4520973,
              -1.0,
              0.465217561,
              -0.20508334,
              0.4057307,
              0.706521034,
              0.303054243,
              0.5074296,
              0.292199939,
              -0.2275447,
              -0.37051475,
              0.4272096,
              0.286222756,
              0.7339544
            ]
          },
          {
            "weights": [
              -0.7258755,
              -0.771478653,
              -0.7769383,
              0.3468798,
              0.8497839,
              0.9271579,
              0.192793518,
              0.248317182,
              -0.629948,
              0.6147258,
              -0.0341102481,
              0.03081441,
              0.307028741,
              -0.259190679,
              -0.308426559,
              -0.14583075,
              -0.527816534,
              0.9546342,
              0.0520452261,
              0.106247246
            ]
          },
          {
            "weights": [
              0.4916244,
              -0.4173737,
              0.546509,
              -1.0,
              -0.9961567,
              -0.7144387,
              0.8066399,
              -0.9186534,
              0.507143438,
              -0.5535617,
              -1.0,
              -0.00306835771,
              -0.163378984,
              0.0496332645,
              -0.6422013,
              0.92252326,
              -0.137018085,
              -0.203608632,
              0.7302583,
              0.221130088
            ]
          },
          {
            "weights": [
              -0.5174894,
              0.284147948,
              0.0900324,
              0.9142618,
              -0.630143762,
              -0.08538091,
              -0.9564574,
              -1.0,
              -0.3879759,
              0.01916501,
              0.5389004,
              0.5207522,
              -0.5811162,
              0.6553166,
              0.4508557,
              0.7139008,
              0.249467731,
              1.0,
              -0.2587422,
              -0.8073325
            ]
          },
          {
            "weights": [
              -0.40690887,
              -1.0,
              -0.8163089,
              0.368445367,
              -0.885902941,
              -0.17690286,
              0.739251435,
              0.267334282,
              -0.740174055,
              -0.5676904,
              -0.4449333,
              0.230875134,
              -1.0,
              -0.794818163,
              0.573317766,
              -0.124269605,
              -0.710571647,
              0.5078834,
              0.3361761,
              -0.150668263
            ]
          },
          {
            "weights": [
              0.974765062,
              0.998420238,
              -0.284130156,
              -0.270162225,
              0.378425032,
              0.320237726,
              -0.520386338,
              1.0,
              0.731007338,
              0.653770447,
              -0.192440137,
              -0.195878863,
              0.882717252,
              -0.464216352,
              0.7356544,
              -0.143109441,
              0.289211541,
              0.5494387,
              -0.203549981,
              -1.0
            ]
          },
          {
            "weights": [
              0.111019678,
              0.8528285,
              -0.5988626,
              -0.560246468,
              0.150518015,
              -0.08616984,
              -0.735889852,
              -0.6690163,
              -0.0129164457,
              -0.256927729,
              0.465252638,
              0.788746357,
              0.2110709,
              0.730758667,
              -0.220180109,
              -0.8441844,
              0.6801157,
              1.0,
              0.84303,
              0.270855159
            ]
          },
          {
            "weights": [
              -0.144953042,
              0.518003,
              0.8395753,
              -0.662516356,
              0.357214659,
              0.66985774,
              0.48155275,
              -1.0,
              -0.7226491,
              -0.7409041,
              -0.6507831,
              -0.6697092,
              0.985395432,
              -0.3422495,
              -0.200888038,
              0.531474769,
              -0.119980067,
              -0.642875135,
              -1.0,
              -0.3809439
            ]
          },
          {
            "weights": [
              -0.0681604147,
              -0.107712388,
              -0.114114448,
              -0.6913159,
              0.6762886,
              0.0644542,
              0.46075362,
              0.312150061,
              0.309726655,
              -0.434189439,
              1.0,
              -0.514409363,
              0.6700163,
              0.789375246,
              -0.6789058,
              0.11527288,
              0.151812673,
              0.5051093,
              -0.634820461,
              0.6394403
            ]
          },
          {
            "weights": [
              -0.120672345,
              -0.385455549,
              -0.5673821,
              1.0,
              -0.0303155184,
              -0.616206169,
              0.6603664,
              -0.60896486,
              -0.4597646,
              0.303305745,
              0.216232419,
              -0.221437335,
              0.2390455,
              -0.6188197,
              -0.0426329374,
              -0.3916942,
              -0.8563707,
              0.09864789,
              0.456020564,
              0.911308765
            ]
          }
        ]
      },
      {
        "neurons": [
          {
            "weights": [
              0.913944364,
              -1.0,
              1.0,
              -0.42386198,
              1.0,
              -1.0,
              0.2205078,
              0.1947633,
              0.458748847,
              -0.955765247,
              1.0,
              1.0,
              -0.796996951,
              0.134240717,
              -0.57045424,
              -0.809365034,
              -0.309082478,
              -1.0,
              1.0,
              0.7826308
            ]
          },
          {
            "weights": [
              -1.0,
              0.6925433,
              0.29072234,
              -0.166508347,
              -0.7396344,
              -0.562814355,
              -0.7208017,
              -0.07590288,
              0.786730766,
              -0.834721744,
              -0.0134099126,
              0.845132053,
              0.27265206,
              0.6600474,
              -0.110304534,
              0.490656823,
              1.0,
              0.161341488,
              0.5798124,
              0.0302793235
            ]
          },
          {
            "weights": [
              0.310649753,
              -0.506337464,
              0.6054481,
              0.006709501,
              -0.402856231,
              -0.3851112,
              0.0278459489,
              -0.206314743,
              -1.0,
              0.6783243,
              0.6000186,
              -0.194236636,
              -0.421932817,
              0.00306524336,
              1.0,
              1.0,
              -0.740486264,
              0.09307239,
              0.513665557,
              1.0
            ]
          },
          {
            "weights": [
              0.6365577,
              0.2612187,
              0.5499975,
              -0.325371623,
              0.111801967,
              0.137734339,
              -0.285887122,
              1.0,
              -1.0,
              0.138851523,
              0.12035799,
              0.657751441,
              0.162926257,
              -0.2699579,
              -0.6175413,
              -0.0146741867,
              -0.3197619,
              0.7228225,
              -1.0,
              -0.665236652
            ]
          },
          {
            "weights": [
              0.05836819,
              -1.0,
              -0.303609341,
              -0.45551765,
              -0.0307110026,
              -0.8648913,
              -1.0,
              0.2703945,
              0.289738953,
              -0.219161078,
              -0.4262036,
              -0.136151284,
              -0.7891037,
              0.156442732,
              -0.5802469,
              -0.63631475,
              0.781736851,
              0.16875276,
              -1.0,
              -0.9067198
            ]
          },
          {
            "weights": [
              -0.121229559,
              -0.4184447,
              0.5070808,
              0.332059145,
              -0.8526993,
              1.0,
              -0.202176437,
              0.491640776,
              0.4681352,
              -0.5646615,
              0.796860456,
              0.8558998,
              0.06409562,
              -0.4906765,
              0.625170946,
              0.004484415,
              -1.0,
              -0.760879755,
              0.316692,
              -1.0
            ]
          }
        ]
      }
    ],
    "settings": {
      "layers": [
        7,
        20,
        20,
        6
      ],
      "error_min": 0.01,
      "error_max": 0.5
    }
  },
  {
    "layers": [
      {
        "neurons": [
          {
            "weights": []
          },
          {
            "weights": []
          },
          {
            "weights": []
          },
          {
            "weights": []
          },
          {
            "weights": []
          },
          {
            "weights": []
          },
          {
            "weights": []
          }
        ]
      },
      {
        "neurons": [
          {
            "weights": [
              -0.4342667,
              -0.742085159,
              0.0148049295,
              -0.164961725,
              0.485475719,
              0.0213797688,
              -0.446995825
            ]
          },
          {
            "weights": [
              0.670076,
              -1.0,
              -0.888377,
              -0.9797565,
              -0.6924469,
              -0.167498276,
              -0.400472283
            ]
          },
          {
            "weights": [
              -1.0,
              0.209291548,
              0.663313866,
              0.4292143,
              -0.630183,
              0.511505842,
              0.360795647
            ]
          },
          {
            "weights": [
              1.0,
              0.0,
              0.208006322,
              -0.3640852,
              0.571935654,
              0.116284519,
              1.0
            ]
          },
          {
            "weights": [
              -0.132103831,
              0.0491311923,
              0.9158846,
              -0.265149474,
              -0.795299351,
              -0.862669945,
              -1.0
            ]
          },
          {
            "weights": [
              0.3851075,
              -0.6838081,
              -0.3537826,
              -0.7648008,
              1.0,
              0.514136434,
              -0.5499084
            ]
          },
          {
            "weights": [
              0.8294789,
              0.02115897,
              -0.5868964,
              1.0,
              0.2562585,
              0.5657321,
              -0.06509194
            ]
          },
          {
            "weights": [
              -0.697621167,
              0.304691434,
              0.7501261,
              0.7764209,
              0.9900794,
              0.5162368,
              -0.696752667
            ]
          },
          {
            "weights": [
              -0.9392904,
              -0.232150853,
              -0.856658459,
              -1.0,
              0.117165312,
              0.0556938574,
              -0.187356263
            ]
          },
          {
            "weights": [
              0.587660253,
              -0.488201976,
              -0.580987751,
              1.0,
              0.8525225,
              -0.4813217,
              0.5858289
            ]
          },
          {
            "weights": [
              1.0,
              0.08690584,
              1.0,
              0.757822633,
              0.267522156,
              -0.65405643,
              0.6629145
            ]
          },
          {
            "weights": [
              -1.0,
              0.0842844844,
              -0.4874411,
              1.0,
              -0.4524727,
              0.9193596,
              -0.4990197
            ]
          },
          {
            "weights": [
              0.5233338,
              -0.277207434,
              -0.170794636,
              0.321659118,
              0.203859091,
              -0.258688867,
              -0.765279055
            ]
          },
          {
            "weights": [
              0.148042142,
              -0.4786166,
              -1.0,
              0.0509825945,
              0.210228592,
              -0.742499352,
              -0.00166970491
            ]
          },
          {
            "weights": [
              -0.025184989,
              0.0,
              -1.0,
              1.0,
              0.873676062,
              -0.702402949,
              0.791572452
            ]
          },
          {
            "weights": [
              0.992621064,
              0.828186035,
              0.423507184,
              0.0493179262,
              0.962388337,
              0.09812653,
              0.404202431
            ]
          },
          {
            "weights": [
              1.0,
              0.477604628,
              0.726341,
              0.495892525,
              -0.173638254,
              1.0,
              -0.1451957
            ]
          },
          {
            "weights": [
              -0.0330194235,
              0.0,
              0.454096764,
              0.422626942,
              -1.0,
              1.0,
              -1.0
            ]
          },
          {
            "weights": [
              1.0,
              0.357175827,
              -0.100141793,
              -0.07441293,
              -0.9172459,
              -0.8695129,
              1.0
            ]
          },
          {
            "weights": [
              -0.8481104,
              0.0,
              -0.447896749,
              -0.611753,
              0.0176952481,
              1.0,
              0.424040318
            ]
          }
        ]
      },
      {
        "neurons": [
          {
            "weights": [
              0.1273403,
              0.5766847,
              -0.7653611,
              -0.8367002,
              -0.228338838,
              -0.647893,
              -0.491247326,
              -0.821114063,
              -0.7698045,
              -0.179297209,
              0.1937291,
              0.360123128,
              -0.512886763,
              0.5375627,
              1.0,
              -0.49551785,
              -0.9217217,
              -0.458037257,
              -0.0963844061,
              -0.452674747
            ]
          },
          {
            "weights": [
              -0.1390247,
              -0.483309865,
              1.0,
              0.246430755,
              -0.359208763,
              0.06488526,
              -0.5429094,
              0.737812042,
              0.6651595,
              -1.0,
              -0.6913142,
              -0.1696532,
              -0.380792618,
              -0.742113531,
              -0.06628308,
              -1.0,
              -1.0,
              -0.278651774,
              -0.7260758,
              -0.00385731459
            ]
          },
          {
            "weights": [
              0.06250629,
              -0.375755072,
              0.490835428,
              -1.0,
              0.602079451,
              0.489334881,
              0.213801026,
              -0.734314442,
              0.09848416,
              0.414072931,
              0.358578444,
              -0.699812,
              -0.334438324,
              -0.8842249,
              0.5396495,
              -0.017140463,
              0.4112217,
              -0.441962719,
              0.793064833,
              -0.04503724
            ]
          },
          {
            "weights": [
              0.1920259,
              -0.811930537,
              -0.332177222,
              -0.00103186071,
              0.202638566,
              1.0,
              -1.0,
              -0.4744345,
              -0.176730275,
              -0.06863883,
              1.0,
              0.365496844,
              -0.998185456,
              0.813102543,
              -0.577187359,
              1.0,
              -0.698024333,
              0.09261701,
              -1.0,
              0.475600451
            ]
          },
          {
            "weights": [
              0.6959708,
              -1.0,
              0.513751268,
              0.03689322,
              -0.428277135,
              0.226641059,
              -0.4733302,
              0.116175771,
              0.473300725,
              -0.4500972,
              -1.0,
              1.0,
              0.7177739,
              -0.2619327,
              0.154463,
              0.4350491,
              -0.0503430367,
              -0.8985003,
              -0.48170048,
              -0.08947337
            ]
          },
          {
            "weights": [
              -0.45524165,
              -1.0,
              0.259138763,
              -0.840918362,
              -0.0873774,
              0.5613413,
              -0.02532819,
              -0.495878667,
              -0.344218463,
              -0.6002779,
              0.422368377,
              0.7290089,
              0.06254643,
              -0.508893967,
              -1.0,
              -0.192585111,
              0.0893076956,
              0.383995265,
              -0.11844027,
              0.898015
            ]
          },
          {
            "weights": [
              -0.0294237137,
              -0.0431408,
              -0.551112831,
              0.125607342,
              -0.5906047,
              -0.230291724,
              1.0,
              -0.09863067,
              -0.215410441,
              -0.3434948,
              -0.10878852,
              -0.113335013,
              0.463983983,
              0.0151435435,
              -0.12658155,
              0.475770682,
              -0.463410735,
              -0.6877682,
              -0.09816396,
              0.0245957375
            ]
          },
          {
            "weights": [
              -0.23061204,
              0.285682172,
              -0.5451486,
              -0.812087059,
              -0.6202843,
              0.5384839,
              0.336561173,
              0.227586865,
              0.388184547,
              0.0143050849,
              0.7103529,
              -0.9582373,
              -0.3266815,
              0.736279547,
              0.716253757,
              0.7468438,
              -0.07126558,
              -0.407950282,
              -0.89855516,
              0.185021758
            ]
          },
          {
            "weights": [
              0.249814391,
              0.8850825,
              0.5183284,
              0.9818466,
              -0.3641101,
              -0.09230459,
              -0.138302237,
              0.806008339,
              0.770529747,
              -0.583013952,
              -0.5129576,
              -0.7828822,
              -0.28006947,
              -0.542566657,
              -0.6371429,
              0.779884338,
              0.431626946,
              1.0,
              0.0417546034,
              0.154910833
            ]
          },
          {
            "weights": [
              0.053521812,
              -1.0,
              0.387679219,
              0.685484052,
              -0.7860229,
              -1.0,
              -0.362905622,
              -0.06798723,
              0.818660736,
              -0.713631153,
              0.8184976,
              -0.6643268,
              -0.8169756,
              0.4455268,
              -0.319905221,
              0.114767343,
              0.277603179,
              1.0,
              -1.0,
              0.7523728
            ]
          },
          {
            "weights": [
              -0.428361624,
              0.882746458,
              0.597230434,
              -0.07749069,
              0.09501207,
              -0.5518441,
              -0.4520973,
              -1.0,
              0.465217561,
              -0.20508334,
              0.4057307,
              0.706521034,
              0.303054243,
              0.5074296,
              0.292199939,
              -0.2275447,
              -0.37051475,
              0.4272096,
              0.286222756,
              0.7339544
            ]
          },
          {
            "weights": [
              -0.7258755,
              -0.771478653,
              -0.7769383,
              0.385561436,
              0.8497839,
              0.9271579,
              0.192793518,
              0.248317182,
              -0.629948,
              0.6147258,
              -0.0341102481,
              0.03081441,
              0.307028741,
              -0.259190679,
              -0.308426559,
              -0.14583075,
              -0.527816534,
              0.9546342,
              0.0520452261,
              0.106247246
            ]
          },
          {
            "weights": [
              0.4916244,
              -0.4173737,
              0.546509,
              -1.0,
              -0.9961567,
              -0.7144387,
              0.8066399,
              -0.9186534,
              0.507143438,
              -0.5535617,
              -1.0,
              -0.00306835771,
              -0.163378984,
              0.0496332645,
              -0.6422013,
              0.92252326,
              -0.137018085,
              -0.203608632,
              0.7302583,
              0.221130088
            ]
          },
          {
            "weights": [
              -0.5174894,
              0.284147948,
              0.0900324,
              0.9142618,
              -0.630143762,
              -0.08538091,
              -0.9564574,
              -1.0,
              -0.3879759,
              0.01916501,
              0.5389004,
              0.5207522,
              -0.5811162,
              0.6553166,
              0.4508557,
              0.7139008,
              0.249467731,
              1.0,
              -0.2587422,
              -0.8073325
            ]
          },
          {
            "weights": [
              -0.40690887,
              -1.0,
              -0.8163089,
              0.368445367,
              -0.885902941,
              -0.17690286,
              0.739251435,
              0.267334282,
              -0.740174055,
              -0.5676904,
              -0.4449333,
              0.230875134,
              -1.0,
              -0.794818163,
              0.573317766,
              -0.124269605,
              -0.710571647,
              0.5078834,
              0.3361761,
              -0.150668263
            ]
          },
          {
            "weights": [
              0.974765062,
              0.998420238,
              -0.284130156,
              -0.270162225,
              0.378425032,
              0.320237726,
              -0.520386338,
              1.0,
              0.731007338,
              0.653770447,
              -0.192440137,
              -0.195878863,
              0.882717252,
              -0.464216352,
              0.7356544,
              -0.143109441,
              0.289211541,
              0.5494387,
              -0.203549981,
              -1.0
            ]
          },
          {
            "weights": [
              0.111019678,
              0.8528285,
              -0.7118792,
              -0.560246468,
              0.150518015,
              -0.08616984,
              -0.735889852,
              -0.6690163,
              -0.0129164457,
              -0.256927729,
              0.09921464,
              0.788746357,
              0.2110709,
              0.730758667,
              -0.220180109,
              -0.8441844,
              0.6801157,
              1.0,
              0.84303,
              0.270855159
            ]
          },
          {
            "weights": [
              -0.144953042,
              0.518003,
              0.8395753,
              -0.662516356,
              0.357214659,
              0.66985774,
              0.48155275,
              -1.0,
              -0.7226491,
              -0.7409041,
              -0.6507831,
              -0.6697092,
              0.985395432,
              -0.3422495,
              -0.200888038,
              0.531474769,
              -0.119980067,
              -0.642875135,
              -1.0,
              -0.3809439
            ]
          },
          {
            "weights": [
              -0.0681604147,
              -0.107712388,
              -0.114114448,
              -0.6913159,
              0.6762886,
              0.0644542,
              0.46075362,
              0.312150061,
              0.309726655,
              -0.434189439,
              1.0,
              -0.514409363,
              0.6700163,
              0.789375246,
              -0.6789058,
              0.11527288,
              0.151812673,
              0.5051093,
              -0.634820461,
              0.6394403
            ]
          },
          {
            "weights": [
              -0.120672345,
              -0.385455549,
              -0.5673821,
              1.0,
              -0.0303155184,
              -0.616206169,
              0.6603664,
              -0.60896486,
              -0.4597646,
              0.303305745,
              0.216232419,
              -0.221437335,
              0.2390455,
              -0.6188197,
              -0.0426329374,
              -0.3916942,
              -0.8563707,
              0.09864789,
              0.456020564,
              0.911308765
            ]
          }
        ]
      },
      {
        "neurons": [
          {
            "weights": [
              0.913944364,
              -1.0,
              1.0,
              -0.42386198,
              1.0,
              -1.0,
              0.2205078,
              0.1947633,
              0.458748847,
              -0.955765247,
              1.0,
              1.0,
              -0.796996951,
              0.134240717,
              -0.57045424,
              -0.809365034,
              -0.309082478,
              -1.0,
              1.0,
              0.7826308
            ]
          },
          {
            "weights": [
              -1.0,
              0.6925433,
              0.29072234,
              -0.166508347,
              -0.7396344,
              -0.562814355,
              -0.7208017,
              -0.07590288,
              0.786730766,
              -0.834721744,
              -0.0134099126,
              0.845132053,
              0.27265206,
              0.6600474,
              -0.05332735,
              0.490656823,
              1.0,
              0.161341488,
              0.5798124,
              0.0302793235
            ]
          },
          {
            "weights": [
              0.310649753,
              -0.506337464,
              0.6054481,
              0.006709501,
              -0.402856231,
              -0.3851112,
              0.0278459489,
              -0.206314743,
              -1.0,
              0.6783243,
              0.333518922,
              -0.194236636,
              -0.421932817,
              0.00306524336,
              1.0,
              1.0,
              -0.740486264,
              0.09307239,
              0.513665557,
              1.0
            ]
          },
          {
            "weights": [
              0.6365577,
              0.2612187,
              0.5499975,
              -0.325371623,
              0.111801967,
              0.137734339,
              -0.285887122,
              1.0,
              -1.0,
              0.138851523,
              0.12035799,
              0.5685064,
              0.162926257,
              -0.2699579,
              -0.6175413,
              -0.0146741867,
              -0.3197619,
              0.7228225,
              -1.0,
              -0.665236652
            ]
          },
          {
            "weights": [
              0.05836819,
              -1.0,
              -0.303609341,
              -0.45551765,
              -0.0307110026,
              -0.8648913,
              -1.0,
              0.2703945,
              0.289738953,
              -0.219161078,
              -0.4262036,
              -0.136151284,
              -0.7891037,
              0.156442732,
              -0.5802469,
              -0.63631475,
              0.781736851,
              0.16875276,
              -1.0,
              -0.9067198
            ]
          },
          {
            "weights": [
              -0.121229559,
              -0.4184447,
              0.5070808,
              0.332059145,
              -0.8526993,
              1.0,
              -0.202176437,
              0.491640776,
              0.4681352,
              -0.5646615,
              0.796860456,
              0.8558998,
              0.06409562,
              -0.4906765,
              0.625170946,
              0.004484415,
              -1.0,
              -0.760879755,
              0.316692,
              -1.0
            ]
          }
        ]
      }
    ],
    "settings": {
      "layers": [
        7,
        20,
        20,
        6
      ],
      "error_min": 0.01,
      "error_max": 0.5
    }
  },
  {
    "layers": [
      {
        "neurons": [
          {
            "weights": []
          },
          {
            "weights": []
          },
          {
            "weights": []
          },
          {
            "weights": []
          },
          {
            "weights": []
          },
          {
            "weights": []
          },
          {
            "weights": []
          }
        ]
      },
      {
        "neurons": [
          {
            "weights": [
              -0.4342667,
              -0.742085159,
              0.0148049295,
              -0.164961725,
              0.485475719,
              0.0213797688,
              -0.446995825
            ]
          },
          {
            "weights": [
              0.670076,
              -1.0,
              -0.888377,
              -0.9797565,
              -0.6924469,
              -0.167498276,
              -0.400472283
            ]
          },
          {
            "weights": [
              -1.0,
              0.209291548,
              0.663313866,
              0.4292143,
              -0.630183,
              0.511505842,
              0.360795647
            ]
          },
          {
            "weights": [
              1.0,
              0.0,
              0.208006322,
              -0.3640852,
              0.571935654,
              0.116284519,
              1.0
            ]
          },
          {
            "weights": [
              -0.132103831,
              0.0491311923,
              0.9158846,
              -0.265149474,
              -0.795299351,
              -0.862669945,
              -1.0
            ]
          },
          {
            "weights": [
              0.3851075,
              -0.6838081,
              -0.3537826,
              -0.7648008,
              1.0,
              0.514136434,
              -0.5499084
            ]
          },
          {
            "weights": [
              0.8294789,
              0.02115897,
              -0.5868964,
              1.0,
              0.2562585,
              0.5657321,
              -0.06509194
            ]
          },
          {
            "weights": [
              -0.697621167,
              0.304691434,
              0.7501261,
              0.7764209,
              0.9900794,
              0.5162368,
              -0.696752667
            ]
          },
          {
            "weights": [
              -0.9392904,
              -0.232150853,
              -0.856658459,
              -1.0,
              0.117165312,
              0.0556938574,
              -0.187356263
            ]
          },
          {
            "weights": [
              0.587660253,
              -0.488201976,
              -0.580987751,
              1.0,
              0.8525225,
              -0.575827956,
              0.5858289
            ]
          },
          {
            "weights": [
              1.0,
              0.08690584,
              1.0,
              0.757822633,
              0.267522156,
              -0.65405643,
              0.6629145
            ]
          },
          {
            "weights": [
              -1.0,
              0.0842844844,
              -0.4874411,
              1.0,
              -0.4524727,
              0.9193596,
              -0.4990197
            ]
          },
          {
            "weights": [
              0.5233338,
              -0.277207434,
              -0.170794636,
              0.321659118,
              0.203859091,
              -0.258688867,
              -0.765279055
            ]
          },
          {
            "weights": [
              0.148042142,
              -0.4786166,
              -1.0,
              0.0509825945,
              0.210228592,
              -0.742499352,
              -0.00166970491
            ]
          },
          {
            "weights": [
              -0.025184989,
              0.0,
              -1.0,
              1.0,
              0.873676062,
              -0.702402949,
              0.791572452
            ]
          },
          {
            "weights": [
              0.992621064,
              0.828186035,
              0.423507184,
              0.0493179262,
              0.962388337,
              0.09812653,
              0.404202431
            ]
          },
          {
            "weights": [
              1.0,
              0.477604628,
              0.726341,
              0.495892525,
              -0.173638254,
              1.0,
              -0.1451957
            ]
          },
          {
            "weights": [
              -0.0330194235,
              0.0,
              0.454096764,
              0.422626942,
              -1.0,
              1.0,
              -1.0
            ]
          },
          {
            "weights": [
              1.0,
              0.357175827,
              -0.100141793,
              -0.07441293,
              -0.9172459,
              -0.8695129,
              1.0
            ]
          },
          {
            "weights": [
              -0.8481104,
              0.0,
              -0.447896749,
              -0.611753,
              0.0176952481,
              1.0,
              0.424040318
            ]
          }
        ]
      },
      {
        "neurons": [
          {
            "weights": [
              0.1273403,
              0.5766847,
              -0.7653611,
              -0.8367002,
              -0.228338838,
              -0.647893,
              -0.491247326,
              -0.821114063,
              -0.7698045,
              -0.179297209,
              0.1937291,
              0.360123128,
              -0.512886763,
              0.5375627,
              1.0,
              -0.49551785,
              -0.9217217,
              -0.458037257,
              -0.0963844061,
              -0.452674747
            ]
          },
          {
            "weights": [
              -0.1390247,
              -0.483309865,
              1.0,
              0.246430755,
              -0.359208763,
              0.06488526,
              -0.5429094,
              0.737812042,
              0.6651595,
              -1.0,
              -0.6913142,
              -0.1696532,
              -0.380792618,
              -0.742113531,
              -0.06628308,
              -1.0,
              -1.0,
              -0.278651774,
              -0.7260758,
              -0.00385731459
            ]
          },
          {
            "weights": [
              0.06250629,
              -0.375755072,
              0.490835428,
              -1.0,
              0.602079451,
              0.489334881,
              0.213801026,
              -0.734314442,
              0.09848416,
              0.414072931,
              0.358578444,
              -0.699812,
              -0.334438324,
              -0.8842249,
              0.5396495,
              -0.017140463,
              0.4112217,
              -0.441962719,
              0.793064833,
              -0.04503724
            ]
          },
          {
            "weights": [
              0.1920259,
              -0.811930537,
              -0.332177222,
              -0.00103186071,
              0.202638566,
              1.0,
              -1.0,
              -0.4744345,
              -0.176730275,
              -0.06863883,
              1.0,
              0.365496844,
              -0.998185456,
              0.813102543,
              -0.577187359,
              1.0,
              -0.698024333,
              0.09261701,
              -1.0,
              0.475600451
            ]
          },
          {
            "weights": [
              0.6959708,
              -1.0,
              0.513751268,
              0.03689322,
              -0.428277135,
              0.226641059,
              -0.4733302,
              0.116175771,
              0.473300725,
              -0.4500972,
              -1.0,
              1.0,
              0.7177739,
              -0.2619327,
              0.154463,
              0.4350491,
              -0.0503430367,
              -0.8985003,
              -0.48170048,
              -0.08947337
            ]
          },
          {
            "weights": [
              -0.45524165,
              -1.0,
              0.259138763,
              -0.840918362,
              -0.0873774,
              0.5613413,
              -0.02532819,
              -0.495878667,
              -0.344218463,
              -0.6002779,
              0.422368377,
              0.7290089,
              0.06254643,
              -0.508893967,
              -1.0,
              -0.192585111,
              0.0893076956,
              0.383995265,
              -0.11844027,
              0.898015
            ]
          },
          {
            "weights": [
              -0.0294237137,
              -0.0431408,
              -0.551112831,
              0.125607342,
              -0.5906047,
              -0.230291724,
              1.0,
              -0.09863067,
              -0.215410441,
              -0.3434948,
              -0.10878852,
              -0.113335013,
              0.463983983,
              0.0151435435,
              -0.12658155,
              0.475770682,
              -0.463410735,
              -0.6877682,
              -0.09816396,
              0.0245957375
            ]
          },
          {
            "weights": [
              -0.23061204,
              0.285682172,
              -0.5451486,
              -0.812087059,
              -0.6202843,
              0.5384839,
              0.336561173,
              0.227586865,
              0.388184547,
              0.0143050849,
              0.932075262,
              -0.9582373,
              -0.3266815,
              0.736279547,
              0.716253757,
              0.7468438,
              -0.07126558,
              -0.407950282,
              -0.89855516,
              0.185021758
            ]
          },
          {
            "weights": [
              0.249814391,
              0.8850825,
              0.5183284,
              0.9818466,
              -0.3641101,
              -0.09230459,
              -0.138302237,
              0.806008339,
              0.770529747,
              -0.583013952,
              -0.5129576,
              -0.7828822,
              -0.28006947,
              -0.542566657,
              -0.6371429,
              0.779884338,
              0.431626946,
              1.0,
              0.0417546034,
              0.154910833
            ]
          },
          {
            "weights": [
              0.053521812,
              -1.0,
              0.387679219,
              0.685484052,
              -0.7860229,
              -1.0,
              -0.362905622,
              -0.06798723,
              0.818660736,
              -0.713631153,
              0.8184976,
              -0.6643268,
              -0.8169756,
              0.4455268,
              -0.319905221,
              0.114767343,
              0.277603179,
              1.0,
              -1.0,
              0.7523728
            ]
          },
          {
            "weights": [
              -0.428361624,
              0.882746458,
              0.597230434,
              -0.07749069,
              0.09501207,
              -0.5518441,
              -0.4520973,
              -1.0,
              0.465217561,
              -0.20508334,
              0.4057307,
              0.706521034,
              0.303054243,
              0.5074296,
              0.292199939,
              0.171105951,
              -0.37051475,
              0.4272096,
              0.286222756,
              0.7339544
            ]
          },
          {
            "weights": [
              -0.7258755,
              -0.771478653,
              -0.7769383,
              0.385561436,
              0.8497839,
              0.9271579,
              0.192793518,
              0.248317182,
              -0.629948,
              0.6147258,
              -0.0341102481,
              0.03081441,
              0.307028741,
              -0.259190679,
              -0.308426559,
              -0.14583075,
              -0.527816534,
              0.9546342,
              0.0520452261,
              0.106247246
            ]
          },
          {
            "weights": [
              0.4916244,
              -0.4173737,
              0.546509,
              -1.0,
              -0.9961567,
              -0.9605436,
              0.8066399,
              -0.9186534,
              0.507143438,
              -0.5535617,
              -1.0,
              -0.00306835771,
              -0.163378984,
              0.0496332645,
              -0.6422013,
              0.92252326,
              -0.137018085,
              -0.203608632,
              0.7302583,
              0.221130088
            ]
          },
          {
            "weights": [
              -0.5174894,
              0.284147948,
              0.0900324,
              0.9142618,
              -0.630143762,
              -0.08538091,
              -0.9564574,
              -1.0,
              -0.3879759,
              0.01916501,
              0.5389004,
              0.5207522,
              -0.5811162,
              0.6553166,
              0.4508557,
              0.7139008,
              0.249467731,
              1.0,
              -0.2587422,
              -0.8073325
            ]
          },
          {
            "weights": [
              -0.40690887,
              -1.0,
              -0.8163089,
              0.368445367,
              -0.885902941,
              -0.17690286,
              0.739251435,
              0.267334282,
              -0.740174055,
              -0.5676904,
              -0.4449333,
              0.230875134,
              -1.0,
              -0.794818163,
              0.573317766,
              -0.124269605,
              -0.710571647,
              0.5078834,
              0.3361761,
              -0.150668263
            ]
          },
          {
            "weights": [
              0.974765062,
              0.998420238,
              -0.284130156,
              -0.270162225,
              0.378425032,
              0.320237726,
              -0.520386338,
              1.0,
              0.731007338,
              0.653770447,
              -0.192440137,
              -0.195878863,
              0.882717252,
              -0.464216352,
              0.7356544,
              -0.143109441,
              0.289211541,
              0.5494387,
              -0.203549981,
              -1.0
            ]
          },
          {
            "weights": [
              0.111019678,
              0.8528285,
              -0.5988626,
              -0.560246468,
              0.150518015,
              -0.08616984,
              -0.735889852,
              -0.6690163,
              -0.0129164457,
              -0.256927729,
              0.465252638,
              0.788746357,
              0.2110709,
              0.730758667,
              -0.220180109,
              -0.8441844,
              0.6801157,
              1.0,
              0.84303,
              0.270855159
            ]
          },
          {
            "weights": [
              -0.144953042,
              0.518003,
              0.8395753,
              -0.662516356,
              0.357214659,
              0.66985774,
              0.48155275,
              -1.0,
              -0.7226491,
              -0.7409041,
              -0.6507831,
              -0.6697092,
              0.985395432,
              -0.3422495,
              -0.200888038,
              0.531474769,
              -0.119980067,
              -0.642875135,
              -1.0,
              -0.3809439
            ]
          },
          {
            "weights": [
              -0.0681604147,
              -0.107712388,
              -0.114114448,
              -0.6913159,
              0.6762886,
              0.0644542,
              0.46075362,
              0.312150061,
              0.309726655,
              -0.434189439,
              1.0,
              -0.514409363,
              0.6700163,
              0.789375246,
              -0.6789058,
              0.11527288,
              0.151812673,
              0.5051093,
              -0.634820461,
              0.6394403
            ]
          },
          {
            "weights": [
              -0.120672345,
              -0.385455549,
              -0.5673821,
              1.0,
              -0.0303155184,
              -0.616206169,
              0.6603664,
              -0.60896486,
              -0.4597646,
              0.303305745,
              0.216232419,
              -0.221437335,
              0.2390455,
              -0.6188197,
              -0.0426329374,
              -0.3916942,
              -0.8563707,
              0.09864789,
              0.456020564,
              0.911308765
            ]
          }
        ]
      },
      {
        "neurons": [
          {
            "weights": [
              0.913944364,
              -1.0,
              1.0,
              -0.42386198,
              1.0,
              -1.0,
              0.2205078,
              0.1947633,
              0.458748847,
              -0.955765247,
              1.0,
              1.0,
              -0.796996951,
              0.134240717,
              -0.57045424,
