{
  "experiment_name": "new_cnn",
  "evolutions": [
    [
      {
        "brain_network": {
          "layers": [
            {
              "neurons": [
                {
                  "weights": null
                },
                {
                  "weights": null
                },
                {
                  "weights": null
                },
                {
                  "weights": null
                },
                {
                  "weights": null
                },
                {
                  "weights": null
                },
                {
                  "weights": null
                },
                {
                  "weights": null
                },
                {
                  "weights": null
                },
                {
                  "weights": null
                },
                {
                  "weights": null
                },
                {
                  "weights": null
                },
                {
                  "weights": null
                },
                {
                  "weights": null
                },
                {
                  "weights": null
                },
                {
                  "weights": null
                },
                {
                  "weights": null
                },
                {
                  "weights": null
                },
                {
                  "weights": null
                },
                {
                  "weights": null
                },
                {
                  "weights": null
                },
                {
                  "weights": null
                },
                {
                  "weights": null
                },
                {
                  "weights": null
                },
                {
                  "weights": null
                },
                {
                  "weights": null
                },
                {
                  "weights": null
                },
                {
                  "weights": null
                }
              ]
            },
            {
              "neurons": [
                {
                  "weights": [
                    0.4343607,
                    -0.616867065,
                    -0.21008122,
                    -0.72842,
                    0.3932162,
                    -0.488464236,
                    0.6344328,
                    -1.0,
                    -0.8539126,
                    0.5885365,
                    -0.499723315,
                    -0.6402445,
                    -0.0513080359,
                    0.852211237,
                    -0.863074064,
                    -0.6170995,
                    -0.7583359,
                    -0.6262474,
                    -0.2412616,
                    0.696285963,
                    1.0,
                    -0.9062754,
                    0.9819529,
                    -0.6738812,
                    -0.656129837,
                    0.874101639,
                    -0.139791846,
                    -0.4167577
                  ]
                },
                {
                  "weights": [
                    -0.6412418,
                    0.619915247,
                    0.9734652,
                    1.0,
                    -0.788347244,
                    -0.487625,
                    -0.838735938,
                    0.131238431,
                    -0.9688027,
                    0.670855045,
                    0.8214457,
                    0.273827046,
                    0.4627249,
                    -0.02885823,
                    -0.12996316,
                    -0.143784165,
                    0.9725404,
                    -0.133946538,
                    -0.136250138,
                    0.308511227,
                    0.3492565,
                    -0.152441859,
                    -0.6483481,
                    -0.7784116,
                    -0.6990199,
                    1.0,
                    1.0,
                    0.749681234
                  ]
                },
                {
                  "weights": [
                    0.6045146,
                    -0.356243,
                    -0.25167197,
                    -1.0,
                    -0.864873648,
                    -0.730793953,
                    1.0,
                    -0.6774907,
                    0.1781081,
                    -0.7270491,
                    0.5143149,
                    1.0,
                    -0.826930642,
                    -0.140240729,
                    -0.09597921,
                    -0.4057225,
                    -0.68192935,
                    -0.7343905,
                    0.346073359,
                    0.850159168,
                    0.6606977,
                    -0.282840252,
                    0.205530226,
                    -0.704939246,
                    -0.261960626,
                    -0.7120278,
                    0.6599685,
                    0.712186456
                  ]
                },
                {
                  "weights": [
                    0.003301978,
                    -1.0,
                    0.137119889,
                    0.06607258,
                    -0.300577581,
                    0.151782244,
                    -0.0806371,
                    -1.0,
                    -1.0,
                    0.8644345,
                    -0.9032304,
                    -0.6286711,
                    -0.374108016,
                    -0.442307383,
                    -0.496813178,
                    0.424868226,
                    0.5372586,
                    0.6485138,
                    -0.498628736,
                    0.215785146,
                    0.293264836,
                    -0.355445266,
                    -1.0,
                    -0.05617678,
                    0.7739136,
                    -0.836802065,
                    -0.413710237,
                    0.910825
                  ]
                },
                {
                  "weights": [
                    -0.9219496,
                    0.4859576,
                    0.0624777079,
                    -0.9938609,
                    -0.569762945,
                    -0.06911063,
                    -1.0,
                    -0.135748744,
                    -0.3480755,
                    0.279666156,
                    0.7392194,
                    -0.8057939,
                    0.526216745,
                    -0.0349746943,
                    0.81099534,
                    0.7983501,
                    0.4177465,
                    0.07571679,
                    -1.0,
                    -0.9742646,
                    -0.75046587,
                    0.5538489,
                    0.8960984,
                    -0.6416533,
                    0.441266268,
                    -0.7199609,
                    0.296225041,
                    0.8178494
                  ]
                },
                {
                  "weights": [
                    0.460492343,
                    0.08862817,
                    -0.086651206,
                    -0.870648146,
                    -0.5089244,
                    -0.568151951,
                    0.9800017,
                    1.0,
                    0.5408299,
                    0.07134116,
                    -1.0,
                    1.0,
                    0.3812823,
                    -0.391762853,
                    0.624052763,
                    -0.7007985,
                    0.0525542051,
                    0.886220932,
                    -0.439352632,
                    -0.125487924,
                    -0.11006137,
                    0.8021759,
                    0.8454732,
                    0.4939606,
                    -0.276024461,
                    0.0235588551,
                    -0.575303555,
                    0.3201408
                  ]
                },
                {
                  "weights": [
                    0.198258877,
                    0.736857653,
                    0.30828163,
                    -0.0918833,
                    -0.205420613,
                    -0.288771838,
                    -0.2807933,
                    0.101442933,
                    1.0,
                    0.8783541,
                    0.36713025,
                    -0.0242179632,
                    0.335371941,
                    -0.273700833,
                    -0.217738062,
                    -0.9661569,
                    -0.8597996,
                    -0.42730093,
                    0.7272382,
                    0.189188838,
                    -0.688961267,
                    0.583910465,
                    -0.9070854,
                    0.306284666,
                    -0.384448171,
                    -0.7041209,
                    0.750067,
                    -0.9929187
                  ]
                },
                {
                  "weights": [
                    -0.7571039,
                    0.6865089,
                    0.9186406,
                    1.0,
                    0.636778951,
                    -0.140047014,
                    -1.0,
                    0.468424052,
                    0.571619153,
                    1.0,
                    1.0,
                    0.9980655,
                    0.07542181,
                    -0.184418321,
                    0.5824554,
                    -0.6194551,
                    0.6439705,
                    0.418003768,
                    0.6878436,
                    0.727501869,
                    0.654428,
                    0.871424437,
                    -0.203911185,
                    -0.8609035,
                    1.0,
                    -0.5326202,
                    -0.7216482,
                    1.0
                  ]
                },
                {
                  "weights": [
                    -0.269874454,
                    0.984749436,
                    -1.0,
                    0.9806583,
                    1.0,
                    -0.6791492,
                    -0.5445106,
                    -0.354159236,
                    -0.477237463,
                    0.109266877,
                    0.289628983,
                    0.656062841,
                    -0.609829664,
                    0.7545694,
                    -0.1349107,
                    -0.341291219,
                    -0.179117918,
                    -0.104275107,
                    -0.05999267,
                    0.387368172,
                    0.93296957,
                    0.7690089,
                    0.4967663,
                    0.405674279,
                    0.817746639,
                    0.8787222,
                    -1.0,
                    0.0293861628
                  ]
                },
                {
                  "weights": [
                    0.481564015,
                    -0.497748733,
                    0.813287735,
                    -0.798166752,
                    -0.57116127,
                    0.200773835,
                    0.789327,
                    -0.251002669,
                    0.9117992,
                    0.230686545,
                    -1.0,
                    -0.461274028,
                    0.5496591,
                    0.4514196,
                    -0.480569154,
                    -0.2891277,
                    -1.0,
                    -0.1109215,
                    -0.9851856,
                    -0.16064465,
                    0.957772732,
                    0.7959163,
                    -0.2924248,
                    -0.838070869,
                    0.585264444,
                    0.327259123,
                    0.138378263,
                    -1.0
                  ]
                },
                {
                  "weights": [
                    -0.06372653,
                    0.7033603,
                    -0.798582554,
                    -0.05334556,
                    -1.0,
                    0.817721844,
                    -0.8897226,
                    -0.713684738,
                    -0.39118278,
                    1.0,
                    -0.5208137,
                    1.0,
                    -0.64899826,
                    -0.5592025,
                    -0.568673134,
                    -0.1720984,
                    -0.7430043,
                    1.0,
                    0.08854663,
                    0.641327739,
                    0.0520397425,
                    0.5589299,
                    0.149709582,
                    -0.062060535,
                    -0.634659767,
                    -0.5283148,
                    0.215679064,
                    0.403999537
                  ]
                },
                {
                  "weights": [
                    -0.8705425,
                    -0.394103646,
                    0.487211674,
                    -0.898636341,
                    -0.9887867,
                    -1.0,
                    0.00370657444,
                    0.004339099,
                    0.883576035,
                    0.5001471,
                    -0.487349153,
                    -0.469690174,
                    1.0,
                    0.719225645,
                    -0.184390426,
                    -0.8786514,
                    0.926597834,
                    0.4978957,
                    0.395822972,
                    0.572312534,
                    -1.0,
                    0.426612824,
                    0.183412433,
                    0.92760694,
                    -0.9698577,
                    0.0221956968,
                    0.7865932,
                    -0.546595335
                  ]
                },
                {
                  "weights": [
                    -0.502234,
                    -0.5388093,
                    0.06829059,
                    -0.0413566828,
                    0.0456820726,
                    -0.345556438,
                    0.2668814,
                    -0.5380974,
                    -0.7774223,
                    0.160969615,
                    -0.282606721,
                    -0.335340381,
                    -0.394409776,
                    -0.464794368,
                    -1.0,
                    0.6833441,
                    0.8935449,
                    -0.975804567,
                    -0.547414839,
                    -0.555476665,
                    -0.4992741,
                    -1.0,
                    -0.188468337,
                    -0.564957,
                    -0.4203377,
                    0.304278582,
                    -0.06833947,
                    -0.455359578
                  ]
                },
                {
                  "weights": [
                    -0.431850076,
                    -0.119848371,
                    -0.619320869,
                    0.765417337,
                    -0.07555848,
                    0.219435334,
                    0.582253933,
                    0.800536335,
                    0.8702946,
                    0.14964205,
                    -0.5938432,
                    -1.0,
                    0.873548746,
                    0.196401,
                    0.01957047,
                    0.06438494,
                    1.0,
                    1.0,
                    0.9395983,
                    -0.991971254,
                    -1.0,
                    0.495291919,
                    0.04315734,
                    -0.520816565,
                    0.11856544,
                    0.531964064,
                    0.522056341,
                    0.969259
                  ]
                },
                {
                  "weights": [
                    0.07652366,
                    0.793504238,
                    0.8760926,
                    0.77396,
                    -1.0,
                    -0.277616143,
                    0.0126672983,
                    -0.806819439,
                    0.419455022,
                    -0.242193907,
                    0.397839755,
                    -0.517885447,
                    0.832266569,
                    0.2854725,
                    0.9551017,
                    -0.8512881,
                    0.756107569,
                    -0.211330116,
                    0.5007061,
                    -0.837131262,
                    0.168248057,
                    0.807513952,
                    0.568207,
                    0.9746053,
                    0.8503823,
                    0.2762682,
                    0.0763016939,
                    0.9261968
                  ]
                },
                {
                  "weights": [
                    0.7810507,
                    -0.374035984,
                    -0.229029775,
                    -0.5792317,
                    -0.187834054,
                    -0.7809695,
                    -0.406422257,
                    -0.138286471,
                    0.62557435,
                    0.7163608,
                    1.0,
                    -1.0,
                    0.480755776,
                    0.9937115,
                    0.8724692,
                    -0.7326207,
                    -1.0,
                    0.300750643,
                    0.933447838,
                    0.372953147,
                    -0.808408141,
                    0.163090825,
                    0.0459681749,
                    -0.441966176,
                    -0.0602113,
                    -0.00729423761,
                    0.261942416,
                    -0.7593176
                  ]
                },
                {
                  "weights": [
                    0.301816344,
                    -0.876204252,
                    0.3291094,
                    -0.4903444,
                    0.5425625,
                    -0.647309065,
                    0.343699545,
                    0.278428137,
                    -0.810478,
                    -0.09763706,
                    0.0474792719,
                    0.702118,
                    -0.6324663,
                    0.5230012,
                    0.05876863,
                    -0.355058938,
                    0.9077749,
                    0.634306669,
                    -0.4497373,
                    0.49511826,
                    -0.294315219,
                    -1.0,
                    0.343788117,
                    0.832064867,
                    0.4230835,
                    -0.844732761,
                    -0.5658438,
                    0.001724124
                  ]
                },
                {
                  "weights": [
                    -0.730747461,
                    -0.7968018,
                    0.372763038,
                    0.2526731,
                    -1.0,
                    0.241090417,
                    0.5447502,
                    0.8787346,
                    -0.9814007,
                    -0.332701564,
                    -0.870888,
                    0.769625664,
                    -0.167787671,
                    -0.43242085,
                    -0.8483765,
                    0.9023533,
                    -0.9447627,
                    0.9573922,
                    -0.196093,
                    -0.449211717,
                    1.0,
                    -0.753121853,
                    -0.177150249,
                    -0.645336866,
                    -0.953360558,
                    0.94607687,
                    -0.6101815,
                    -0.411743045
                  ]
                },
                {
                  "weights": [
                    -0.3055815,
                    -0.470934272,
                    0.555253744,
                    -0.02945292,
                    0.6086286,
                    1.0,
                    0.29499504,
                    -0.127272785,
                    -0.115978062,
                    0.0748668,
                    -0.5535054,
                    -0.5478307,
                    0.4153604,
                    -0.660877943,
                    -0.4121395,
                    1.0,
                    -0.501326442,
                    -0.3185357,
                    0.267513961,
                    -0.0531744361,
                    -0.5147412,
                    -0.744311452,
                    0.274860829,
                    -0.240585208,
                    -0.232060313,
                    -0.9907396,
                    0.397670954,
                    0.360192984
                  ]
                },
                {
                  "weights": [
                    0.9136498,
                    -0.12270081,
                    -0.341914177,
                    0.399584979,
                    0.139114261,
                    0.165635943,
                    0.6432934,
                    -0.4516517,
                    0.5688479,
                    0.294291943,
                    -0.5861769,
                    0.2587404,
                    0.278764457,
                    -0.8121388,
                    0.752357244,
                    0.248657823,
                    -0.9984224,
                    -0.423520923,
                    0.5339246,
                    -0.293073773,
                    -0.2468878,
                    1.0,
                    -0.4437071,
                    -0.3842442,
                    1.0,
                    -0.025152564,
                    0.0171502829,
                    -0.5470028
                  ]
                },
                {
                  "weights": [
                    -0.959193,
                    1.0,
                    -0.6608381,
                    0.9439328,
                    0.776335239,
                    -0.276162446,
                    -0.30558598,
                    -0.8223793,
                    0.5609529,
                    -0.6799576,
                    -0.850507736,
                    0.0869966745,
                    -0.398329377,
                    -0.450380683,
                    -0.09463203,
                    0.326311,
                    0.8117409,
                    -0.731289864,
                    0.204781651,
                    0.7006357,
                    -0.629426956,
                    -0.141211629,
                    -0.7766578,
                    1.0,
                    -0.121892571,
                    -0.335625738,
                    -0.9423013,
                    -0.301375031
                  ]
                },
                {
                  "weights": [
                    0.803735,
                    -1.0,
                    -0.5116163,
                    1.0,
                    -0.314932466,
                    -0.07848203,
                    0.933234,
                    0.956259251,
                    0.247908473,
                    0.7028532,
                    0.466739178,
                    -0.375665843,
                    0.740491867,
                    0.5461478,
                    0.247298837,
                    0.04091704,
                    -0.263910651,
                    -0.5152137,
                    0.9060986,
                    -0.6202202,
                    -0.6205647,
                    -0.7503464,
                    0.8150933,
                    -0.295205235,
                    0.12566191,
                    -1.0,
                    0.470252961,
                    -0.5129254
                  ]
                },
                {
                  "weights": [
                    0.386187017,
                    -0.9478543,
                    -0.3649665,
                    0.146600634,
                    -0.6423638,
                    -0.00370323658,
                    0.0386077166,
                    1.0,
                    1.0,
                    -1.0,
                    1.0,
                    -0.216388583,
                    -0.5943396,
                    0.401568621,
                    -0.7394555,
                    0.365086943,
                    -0.2007767,
                    -0.2541257,
                    0.85366106,
                    -0.3315493,
                    -0.9854737,
                    -0.218448073,
                    0.0346697569,
                    0.0826803446,
                    0.454194278,
                    -1.0,
                    -1.0,
                    -1.0
                  ]
                },
                {
                  "weights": [
                    0.820324659,
                    0.3537471,
                    0.580719233,
                    0.4428496,
                    0.44760415,
                    -0.834526539,
                    0.454658717,
                    0.2506352,
                    -1.0,
                    0.00648599863,
                    0.8677337,
                    0.145452082,
                    -0.20026283,
                    0.9900811,
                    0.413528174,
                    0.07620728,
                    -0.754115343,
                    -0.178786159,
                    0.06958687,
                    1.0,
                    0.415173531,
                    -0.33061707,
                    -0.077077806,
                    -0.9254894,
                    -0.285600752,
                    -0.0127781034,
                    -0.2153995,
                    0.9122579
                  ]
                },
                {
                  "weights": [
                    0.174933076,
                    -0.294369042,
                    -0.192321658,
                    1.0,
                    0.5757737,
                    -0.23158586,
                    1.0,
                    -1.0,
                    0.426125735,
                    -0.426973462,
                    1.0,
                    0.5644508,
                    0.993326664,
                    -0.119204879,
                    0.328926474,
                    -0.32252565,
                    0.0570943356,
                    0.4458563,
                    0.4049997,
                    0.186138213,
                    0.446875066,
                    0.193032622,
                    0.972514153,
                    0.33150813,
                    0.5220778,
                    0.266228884,
                    0.04397279,
                    -0.236344457
                  ]
                },
                {
                  "weights": [
                    -0.822778,
                    -0.367214084,
                    -0.305802226,
                    -0.09572217,
                    -0.545228958,
                    -0.8569062,
                    0.8816209,
                    -0.8795445,
                    -0.332767844,
                    0.6056862,
                    0.626145959,
                    -0.454851836,
                    -0.392142653,
                    0.308909178,
                    -0.535006642,
                    -0.9476826,
                    -1.0,
                    0.08835423,
                    0.240550637,
                    0.3859584,
                    -0.337873816,
                    0.6076231,
                    -0.334143728,
                    -0.37902844,
                    -0.641328335,
                    -0.4679252,
                    0.4666426,
                    -0.5074029
                  ]
                },
                {
                  "weights": [
                    -0.3164302,
                    0.459735841,
                    0.441922873,
                    -0.454132646,
                    -0.788620949,
                    0.5496106,
                    -0.69129467,
                    0.0256124735,
                    0.44347927,
                    0.324504822,
                    -0.3097211,
                    -0.159445643,
                    0.566899061,
                    0.484671324,
                    0.87169385,
                    0.96576,
                    -0.9954713,
                    -0.24198544,
                    1.0,
                    -0.2053439,
                    -0.6747227,
                    -0.0007317662,
                    -0.361734033,
                    -0.06493211,
                    0.0502560437,
                    0.370208234,
                    -0.549848557,
                    0.5904518
                  ]
                },
                {
                  "weights": [
                    0.3708112,
                    -0.53579545,
                    0.480744362,
                    1.0,
                    0.6681382,
                    1.0,
                    -1.0,
                    0.301397264,
                    0.445784777,
                    1.0,
                    0.684176266,
                    -0.535814047,
                    1.0,
                    0.206510186,
                    0.6390631,
                    0.838422537,
                    0.358365625,
                    -0.730885744,
                    0.7710421,
                    0.08007884,
                    0.4795272,
                    -0.27970016,
                    -0.84452486,
                    0.7285883,
                    -0.332053781,
                    0.798328757,
                    0.810580969,
                    -0.150975108
                  ]
                },
                {
                  "weights": [
                    0.599258661,
                    -0.0525742769,
                    0.2148214,
                    0.5633898,
                    -0.90130496,
                    -0.356961846,
                    1.0,
                    0.236711681,
                    0.948292,
                    0.108449578,
                    -0.23025763,
                    -0.0574713945,
                    -0.123602986,
                    0.472640246,
                    0.0459285975,
                    -0.0616549253,
                    -0.0215746164,
                    0.475702018,
                    -1.0,
                    0.6824932,
                    -0.783295155,
                    0.3845408,
                    -0.835258245,
                    0.719743252,
                    0.7396622,
                    -0.541497946,
                    -1.0,
                    -0.494218379
                  ]
                },
                {
                  "weights": [
                    0.8449266,
                    -0.5828788,
                    -1.0,
                    0.54409647,
                    0.192059338,
                    -0.8918133,
                    -0.246643364,
                    0.015011996,
                    -0.605886459,
                    0.6898582,
                    0.856349945,
                    0.4453449,
                    0.487715453,
                    0.993314,
                    -1.0,
                    -0.6861427,
                    0.742589235,
                    -0.337116122,
                    -0.179144591,
                    0.826737165,
                    0.586523533,
                    -0.2158817,
                    -0.9721613,
                    -0.2014693,
                    0.0750559,
                    0.913174868,
                    -0.60572803,
                    0.7877873
                  ]
                },
                {
                  "weights": [
                    -0.223112226,
                    -0.359175,
                    0.740009069,
                    -0.8482976,
                    -0.05819714,
                    -1.0,
                    -1.0,
                    -0.5372646,
                    0.010814786,
                    -0.470980883,
                    -0.581514239,
                    0.280017972,
                    -0.735854,
                    0.6147113,
                    0.901187658,
                    0.248794049,
                    0.259577543,
                    0.9924571,
                    -0.586168766,
                    1.0,
                    -0.0862926841,
                    -0.107542872,
                    0.64347434,
                    -0.0355674624,
                    1.0,
                    -0.987247944,
                    -1.0,
                    0.5150204
                  ]
                },
                {
                  "weights": [
                    0.145435333,
                    0.223993659,
                    -0.4574312,
                    -0.2234807,
                    0.737501144,
                    -1.0,
                    0.235039115,
                    0.707625151,
                    -0.03562428,
                    -0.204017282,
                    -0.181532979,
                    -1.0,
                    -1.0,
                    -0.150026441,
                    -0.449646831,
                    -0.212793469,
                    -0.956448555,
                    -0.538356543,
                    0.9160924,
                    -0.266750038,
                    0.0187754035,
                    -0.7727732,
                    -0.369975984,
                    0.681608438,
                    1.0,
                    1.0,
                    0.0179619789,
                    -0.0754014254
                  ]
                },
                {
                  "weights": [
                    -1.0,
                    0.658777237,
                    -0.4947189,
                    -0.246002555,
                    -0.406104445,
                    0.693537533,
                    0.6686506,
                    -0.104378104,
                    -0.4755249,
                    -0.5183308,
                    -0.5902822,
                    0.7328856,
                    -0.18531239,
                    0.1745888,
                    1.0,
                    -0.203458667,
                    -0.317453384,
                    -0.453361422,
                    -0.36667,
                    -0.581758,
                    -0.146173358,
                    0.1062845,
                    -0.114284933,
                    0.286357135,
                    0.131540388,
                    -1.0,
                    0.08617455,
                    -0.923099041
                  ]
                },
                {
                  "weights": [
                    -0.4712972,
                    1.0,
                    -1.0,
                    -0.132908463,
                    0.530333042,
                    -0.5592444,
                    0.883650064,
                    -0.54904294,
                    -0.4591999,
                    -0.013423562,
                    -0.18815887,
                    0.36747238,
                    0.81652,
                    -0.5561085,
                    -0.7702644,
                    -0.461816549,
                    -0.9642968,
                    0.40211913,
                    -0.256639034,
                    -0.428441167,
                    -0.520006657,
                    -0.8870909,
                    -0.5104866,
                    1.0,
                    0.9982122,
                    -0.757253647,
                    -0.8611045,
                    -0.618528366
                  ]
                },
                {
                  "weights": [
                    1.0,
                    -0.9947462,
                    -0.9698999,
                    -0.2718346,
                    1.0,
                    -0.167609334,
                    -0.4385339,
                    -0.284377217,
                    0.216329217,
                    1.0,
                    -0.113036036,
                    0.747941,
                    -0.279732734,
                    0.4461939,
                    1.0,
                    0.9636545,
                    -0.486839,
                    -0.5049324,
                    0.1298014,
                    1.0,
                    0.97073257,
                    1.0,
                    -0.268755317,
                    1.0,
                    -0.194575578,
                    1.0,
                    0.83213836,
                    0.1480478
                  ]
                },
                {
                  "weights": [
                    0.210099578,
                    -0.831286967,
                    -0.352212071,
                    -0.09486261,
                    0.647318,
                    0.2849119,
                    -0.793946862,
                    0.0241836309,
                    0.107803941,
                    0.70594424,
                    0.9287214,
                    0.8143735,
                    -1.0,
                    0.490310639,
                    0.218912244,
                    0.209037185,
                    -0.456582457,
                    0.348977059,
                    0.9492841,
                    -0.04679954,
                    0.513345957,
                    -1.0,
                    0.1705828,
                    -0.2825042,
                    0.561886966,
                    -0.3637265,
                    0.994880438,
                    -1.0
                  ]
                },
                {
                  "weights": [
                    -0.05600393,
                    1.0,
                    0.9273665,
                    -0.400002122,
                    -0.662671566,
                    -0.275173783,
                    0.168491,
                    -0.963000536,
                    -0.02070415,
                    -0.703904867,
                    0.862514257,
                    0.223104417,
                    -0.4258355,
                    0.05902666,
                    0.14423582,
                    0.4133062,
                    0.226006627,
                    0.436433762,
                    0.799271345,
                    -0.6288502,
                    -0.4315461,
                    -0.20902288,
                    0.461776376,
                    0.7251513,
                    -0.6044028,
                    -0.992332,
                    -0.98099947,
                    -0.56296134
                  ]
                },
                {
                  "weights": [
                    -0.7133672,
                    0.66556865,
                    0.9373956,
                    0.5100386,
                    0.125702024,
                    -0.954841852,
                    0.855649948,
                    0.8303082,
                    0.7055719,
                    0.261354655,
                    1.0,
                    0.699642658,
                    0.108659148,
                    -0.8041096,
                    -1.0,
                    1.0,
                    1.0,
                    0.719128132,
                    0.435388058,
                    -0.5777941,
                    0.6428181,
                    -0.08185899,
                    -0.850692749,
                    0.5885583,
                    -0.427981973,
                    0.949536562,
                    -0.4271425,
                    -0.391823083
                  ]
                },
                {
                  "weights": [
                    -1.0,
                    -0.4753486,
                    0.06756103,
                    -0.8520851,
                    -0.858162165,
                    0.862583637,
                    0.101030707,
                    0.144030273,
                    -0.9100907,
                    0.971960545,
                    0.03859508,
                    0.563589454,
                    -0.8180697,
                    -0.5463724,
                    0.8093147,
                    0.599019766,
                    -0.6884211,
                    0.7115016,
                    0.1469779,
                    0.932652,
                    0.116647124,
                    -0.7163794,
                    0.0272266865,
                    -0.43532598,
                    -0.312036633,
                    -0.601474762,
                    -0.353954673,
                    0.6318804
                  ]
                },
                {
                  "weights": [
                    -0.1480776,
                    0.477696866,
                    -0.307727933,
                    -0.50607127,
                    0.8366504,
                    0.279414147,
                    0.649280548,
                    0.07996026,
                    -0.267611682,
                    -0.679765463,
                    0.0477844477,
                    -0.4622718,
                    0.775747061,
                    0.5145304,
                    -0.194728464,
                    0.201598287,
                    -1.0,
                    0.894973755,
                    -0.182206511,
                    -0.661258459,
                    0.5429189,
                    -0.253466249,
                    1.0,
                    -0.5578401,
                    0.809406757,
                    0.6663635,
                    0.233630538,
                    0.171606421
                  ]
                },
                {
                  "weights": [
                    -0.9961083,
                    0.2548456,
                    0.391901225,
                    -1.0,
                    -0.181511283,
                    0.4300184,
                    0.7917547,
                    -0.466749549,
                    -0.00606691837,
                    0.205860019,
                    -0.424662441,
                    1.0,
                    0.632626057,
                    -0.8891754,
                    0.372546881,
                    0.3771316,
                    0.193064243,
                    0.5130098,
                    -0.0456646681,
                    -0.893922567,
                    0.414749354,
                    -1.0,
                    0.6586757,
                    0.35105893,
                    0.7565741,
                    -0.227129892,
                    0.335897416,
                    -0.704607964
                  ]
                },
                {
                  "weights": [
                    0.12578547,
                    -0.821256459,
                    0.646608353,
                    0.5048739,
                    0.1817489,
                    -0.419669271,
                    -0.127995074,
                    1.0,
                    -0.444213271,
                    0.0544185638,
                    -0.156939864,
                    -0.955538034,
                    0.5609324,
                    -0.408646,
                    0.4313195,
                    -0.999598,
                    0.04882604,
                    -0.141162276,
                    0.8299446,
                    -0.1014145,
                    1.0,
                    0.675724745,
                    -0.478877425,
                    0.7038627,
                    0.8512287,
                    -1.0,
                    -0.6412678,
                    0.06607902
                  ]
                },
                {
                  "weights": [
                    0.6220803,
                    0.897030354,
                    0.06184876,
                    0.5207393,
                    -0.340942264,
                    -0.234934926,
                    -0.268035054,
                    -0.9887104,
                    0.965473652,
                    -0.2704724,
                    -0.63952136,
                    0.754597247,
                    -0.197349429,
                    0.670838833,
                    -0.9878006,
                    1.0,
                    -0.1847421,
                    -0.247256219,
                    -0.41360867,
                    -0.128617167,
                    0.60562706,
                    -0.236920565,
                    -0.0772587061,
                    -1.0,
                    0.4952297,
                    0.192648232,
                    0.6161139,
                    0.6087942
                  ]
                },
                {
                  "weights": [
                    -1.0,
                    -0.4862796,
                    0.527511358,
                    -0.988563538,
                    -0.628052,
                    -0.127690911,
                    -0.6002302,
                    -0.3760425,
                    -0.45871675,
                    0.767575264,
                    -0.662438631,
                    -0.994071245,
                    -0.882635832,
                    1.0,
                    -0.32290256,
                    0.182386518,
                    -0.18899405,
                    0.5966227,
                    -0.172050834,
                    -0.6539552,
                    -0.258193254,
                    0.5192858,
                    -0.179526448,
                    -1.0,
                    0.373648375,
                    -0.16170913,
                    0.5178654,
                    0.629423857
                  ]
                },
                {
                  "weights": [
                    -0.447234273,
                    -0.312747359,
                    0.401424617,
                    -0.24127233,
                    -0.5182712,
                    0.6928525,
                    0.260569543,
                    0.445250452,
                    0.3060529,
                    -1.0,
                    -0.181254834,
                    0.578968167,
                    0.6340916,
                    0.6511452,
                    0.2202717,
                    -0.0696289539,
                    0.00705105066,
                    0.9727917,
                    -0.4542452,
                    0.6094084,
                    -0.911734343,
                    -0.3414346,
                    0.0186494589,
                    -0.3974148,
                    1.0,
                    -0.320711732,
                    0.9277468,
                    0.9974563
                  ]
                },
                {
                  "weights": [
                    -0.876439333,
                    -0.0332886577,
                    -0.9957299,
                    0.168240368,
                    0.9399028,
                    -0.6388798,
                    -0.893723,
                    0.165391326,
                    -0.428949,
                    0.54095757,
                    -0.859992,
                    0.0192873478,
                    0.08098769,
                    0.628059149,
                    0.2853522,
                    0.236827254,
                    0.131712556,
                    -0.9588691,
                    -0.165724635,
                    -0.521482468,
                    -0.473366857,
                    -0.395140529,
                    -0.8126776,
                    0.009149969,
                    0.4164026,
                    0.7795203,
                    0.371129,
                    -0.6010649
                  ]
                },
                {
                  "weights": [
                    -0.9185152,
                    -1.0,
                    0.234332442,
                    0.510262132,
                    -0.8762977,
                    -0.980934858,
                    -0.8421707,
                    -0.5916128,
                    -0.401425034,
                    -0.836225748,
                    -0.154613376,
                    0.0889374,
                    0.450886548,
                    -0.3113662,
                    -0.8810668,
                    -0.8389373,
                    -0.5522746,
                    0.873541355,
                    -0.635653,
                    0.119504809,
                    -1.0,
                    0.83811903,
                    -1.0,
                    -0.8094913,
                    -0.496152639,
                    -0.125568271,
                    0.0195585489,
                    1.0
                  ]
                },
                {
                  "weights": [
                    -0.413594127,
                    -1.0,
                    -0.483759046,
                    -0.0581861734,
                    0.6591512,
                    -0.8538413,
                    1.0,
                    -0.909145355,
                    -0.105297923,
                    0.6733811,
                    1.0,
                    -1.0,
                    0.1231364,
                    -0.5990381,
                    -0.00715601444,
                    -0.118591189,
                    0.9514196,
                    -1.0,
                    0.21118629,
                    0.9925053,
                    0.215680718,
                    -0.0530973077,
                    0.910820961,
                    -0.7384696,
                    0.7560818,
                    1.0,
                    0.131246448,
                    -0.10637331
                  ]
                },
                {
                  "weights": [
                    0.0175741315,
                    -0.115923047,
                    0.14853102,
                    -0.898400545,
                    -0.164405584,
                    -0.9042702,
                    -0.925475836,
                    0.306100339,
                    -0.00240266323,
                    0.510288239,
                    -0.460080028,
                    -0.5595404,
                    0.2021581,
                    -0.392675281,
                    -0.5792215,
                    1.0,
                    0.281733721,
                    -0.666872263,
                    0.5324092,
                    0.6595502,
                    -0.12268436,
                    -0.166473746,
                    0.76337266,
                    0.760120153,
                    -0.710528851,
                    0.7153287,
                    0.264303416,
                    0.0379253626
                  ]
                },
                {
                  "weights": [
                    0.215421081,
                    0.07545602,
                    -0.4280808,
                    0.82166636,
                    -0.5833194,
                    0.08825505,
                    -0.354547381,
                    -0.9018462,
                    0.806489944,
                    -0.290099323,
                    -0.549576044,
                    0.9992516,
                    0.286760062,
                    -0.510338068,
                    -0.962650537,
                    -0.212980926,
                    0.8677193,
                    0.2723975,
                    1.0,
                    0.1079458,
                    -0.547767162,
                    -1.0,
                    -0.440111041,
                    -1.0,
                    0.52294755,
                    0.336511582,
                    -0.6004698,
                    0.491482347
                  ]
                }
              ]
            },
            {
              "neurons": [
                {
                  "weights": [
                    0.369485259,
                    0.6049917,
                    -0.512902,
                    -0.7341194,
                    0.5520859,
                    -0.194074273,
                    0.9956575,
                    -0.303974271,
                    1.0,
                    -0.310530782,
                    -0.106265664,
                    -0.372707963,
                    0.9450989,
                    0.740252733,
                    0.523067,
                    0.152924746,
                    0.0568121672,
                    0.9190247,
                    0.256525248,
                    -0.6081252,
                    0.6188345,
                    -0.447266221,
                    -0.8488574,
                    0.992198467,
                    -0.6720705,
                    -0.810563564,
                    0.9901068,
                    0.239289641,
                    0.799601555,
                    0.24473083,
                    -0.121406436,
                    0.406939954,
                    0.13958323,
                    -0.9593291,
                    0.231423378,
                    -0.659752,
                    0.289450854,
                    -0.4763981,
                    -0.905991554,
                    -0.9530611,
                    0.00800359249,
                    0.6981139,
                    -0.0323888063,
                    0.22037375,
                    0.5656847,
                    0.715249062,
                    0.8882551,
                    0.1179589,
                    0.306883067,
                    0.143976331
                  ]
                },
                {
                  "weights": [
                    0.259608477,
                    -1.0,
                    -0.7571883,
                    -0.4837259,
                    -0.583804965,
                    1.0,
                    0.131613612,
                    0.5705981,
                    -0.421293139,
                    -1.0,
                    -0.8984165,
                    0.143447518,
                    -0.0383259058,
                    0.95892,
                    -0.6867864,
                    -0.204974055,
                    0.143039823,
                    0.560568333,
                    -0.294582248,
                    -0.0495320559,
                    -0.5138817,
                    0.480832547,
                    -1.0,
                    0.5239835,
                    -0.461923957,
                    0.09207094,
                    -0.447980046,
                    0.131807685,
                    0.975101233,
                    0.3757114,
                    1.0,
                    0.5632454,
                    -0.08358991,
                    -0.233638167,
                    0.236688733,
                    -0.037224412,
                    0.09544313,
                    -0.143387675,
                    -0.822381735,
                    -0.5554254,
                    0.297600716,
                    -0.9521103,
                    0.794208765,
                    0.256159753,
                    0.287557334,
                    0.5254625,
                    0.7027774,
                    -0.08392322,
                    0.70472,
                    -0.0396031141
                  ]
                },
                {
                  "weights": [
                    -0.487553716,
                    -0.464097619,
                    -0.3056351,
                    -0.9497547,
                    -0.603880167,
                    -0.577129841,
                    -0.148297429,
                    0.4967055,
                    0.812411547,
                    0.43877694,
                    -0.48438108,
                    0.719517469,
                    -0.3113302,
                    0.425449342,
                    -0.130540252,
                    -0.23438555,
                    0.466181964,
                    -0.132111192,
                    -1.0,
                    -0.0218085051,
                    0.8806863,
                    -0.628635645,
                    -0.433533072,
                    0.963724136,
                    -0.498547,
                    -0.225027055,
                    -0.974529,
                    0.6426747,
                    0.692712545,
                    -0.397611737,
                    0.236815572,
                    1.0,
                    -0.899769545,
                    0.8835547,
                    -0.6999066,
                    0.0018440485,
                    -0.283899665,
                    0.204689145,
                    0.06762922,
                    0.146216989,
                    -0.372928023,
                    -0.0134979486,
                    -0.439649969,
                    -0.587362051,
                    0.205421537,
                    -0.07474339,
                    -0.12116015,
                    -0.115318239,
                    -0.3316704,
                    -0.5506161
                  ]
                },
                {
                  "weights": [
                    0.28852722,
                    0.566849947,
                    -0.4095012,
                    0.07828605,
                    -1.0,
                    -0.6643181,
                    0.514944434,
                    0.051332593,
                    -0.5165367,
                    0.533349037,
                    0.444386065,
                    0.7962394,
                    1.0,
                    0.138627887,
                    -0.0370442271,
                    -0.0536342859,
                    -0.3147093,
                    -0.136760354,
                    0.320113868,
                    0.8172331,
                    -0.8901453,
                    -0.3684575,
                    1.0,
                    -0.330289334,
                    0.9232719,
                    -0.883118153,
                    0.07781041,
                    0.77809,
                    -0.339759946,
                    -0.5102856,
                    0.04737538,
                    0.0610440969,
                    -0.748880148,
                    0.7527449,
                    0.159848332,
                    -0.126896024,
                    0.487273663,
                    -0.213347018,
                    -0.3081702,
                    0.429440945,
                    -0.678355455,
                    -0.9771755,
                    -0.700663567,
                    0.5155544,
                    0.6777429,
                    0.37831375,
                    0.468096465,
                    0.8470173,
                    0.670893431,
                    0.483249068
                  ]
                },
                {
                  "weights": [
                    -0.794197559,
                    -0.6021724,
                    -0.197280049,
                    -0.00323691964,
                    0.908203363,
                    0.205481559,
                    0.7562885,
                    -0.1994108,
                    -0.9932606,
                    0.180462956,
                    0.844715834,
                    0.8153067,
                    -0.938472748,
                    -0.944784641,
                    -0.0486775637,
                    -0.5395436,
                    0.376386821,
                    -0.0609701872,
                    -0.3376242,
                    -0.0196205378,
                    -0.756831169,
                    -0.611192,
                    -0.06584674,
                    -0.6518539,
                    0.928145647,
                    0.683820248,
                    0.11835587,
                    0.259688824,
                    -0.167001128,
                    0.818246365,
                    -0.942784548,
                    -0.36002934,
                    0.6288569,
                    0.395704716,
                    -0.189243436,
                    0.847498536,
                    -0.288290858,
                    0.0371573269,
                    -0.204322219,
                    -0.5437455,
                    -1.0,
                    0.8500585,
                    0.3111727,
                    -0.8688755,
                    0.5817561,
                    0.0408998728,
                    0.233039737,
                    0.648131847,
                    -0.8422258,
                    -0.7196858
                  ]
                },
                {
                  "weights": [
                    0.131688,
                    -0.359225273,
                    0.957160234,
                    -0.250059247,
                    0.097145915,
                    0.95594573,
                    -0.211997867,
                    -0.680354834,
                    -1.0,
                    0.0193721056,
                    -0.7721126,
                    0.934837341,
                    -0.1717006,
                    0.4718103,
                    0.1515559,
                    0.122030854,
                    -0.246733546,
                    -0.1976403,
                    -0.405089974,
                    0.9331722,
                    -1.0,
                    0.218109488,
                    0.0291837454,
                    0.591874957,
                    -0.8219433,
                    -0.234881759,
                    -0.8493233,
                    -0.159202933,
                    0.933953047,
                    -0.5040972,
                    -0.597984552,
                    0.223124146,
                    -0.565501451,
                    -0.3450173,
                    -0.156863332,
                    -0.14779675,
                    -0.903023958,
                    0.27573967,
                    0.06532109,
                    0.588328838,
                    0.0141643286,
                    -0.889142036,
                    1.0,
                    0.357592762,
                    -0.9199083,
                    -1.0,
                    -0.05092132,
                    0.8937194,
                    0.341189116,
                    0.8994858
                  ]
                },
                {
                  "weights": [
                    0.3878893,
                    -1.0,
                    -0.07601488,
                    1.0,
                    -0.152318835,
                    -0.985087633,
                    0.9521611,
                    -0.396337628,
                    0.8318337,
                    0.00660765171,
                    -0.9411638,
                    0.636330366,
                    0.1059635,
                    0.4695613,
                    -0.1874417,
                    -0.163547873,
                    -0.8536048,
                    0.4867353,
                    -0.371546865,
                    -0.506346464,
                    0.191898942,
                    0.8176751,
                    -0.14680779,
                    -0.8489156,
                    0.6158645,
                    -0.629269063,
                    0.03780943,
                    -0.517716169,
                    -0.5541456,
                    0.513955355,
                    -0.773853,
                    -0.8785069,
                    -0.436601818,
                    -0.326898217,
                    0.2866411,
                    -0.7830403,
                    -0.499779433,
                    -0.848788738,
                    1.0,
                    -0.73813653,
                    0.702858,
                    -0.08278787,
                    -0.323101163,
                    0.117036939,
                    0.66823864,
                    0.359884471,
                    0.03672654,
                    0.164641261,
                    0.42723152,
                    0.556278
                  ]
                },
                {
                  "weights": [
                    0.380582064,
                    -0.6405406,
                    0.6591804,
                    -0.3373345,
                    -0.0529381037,
                    -0.9751868,
                    0.9661064,
                    0.8851249,
                    0.151751637,
                    0.762042761,
                    0.2519848,
                    -0.190670371,
                    0.124623656,
                    0.330048054,
                    -0.142839313,
                    0.215758741,
                    -0.613794148,
                    -0.893425465,
                    -0.5426451,
                    1.0,
                    -0.675536633,
                    0.0280050039,
                    0.825300932,
                    -0.14825213,
                    -0.033172965,
                    0.329713553,
                    -0.369121432,
                    0.7426722,
                    -0.164980441,
                    -0.404845119,
                    -0.5500052,
                    -0.8344526,
                    -0.21195972,
                    0.3247039,
                    -0.149072051,
                    -0.722807646,
                    -0.896805048,
                    0.9871783,
                    0.0184329152,
                    0.653652668,
                    -0.720297337,
                    0.8381643,
                    0.2194866,
                    -0.7109177,
                    -0.395633548,
                    -0.151935935,
                    -0.189065337,
                    0.794986963,
                    -0.95407176,
                    -0.627424836
                  ]
                },
                {
                  "weights": [
                    -0.8911941,
                    -1.0,
                    0.437223881,
                    -0.199534535,
                    1.0,
                    -0.06485593,
                    -0.821709633,
                    0.753623,
                    0.933358431,
                    -0.810366869,
                    0.959949732,
                    -0.481964,
                    -0.5508969,
                    -0.5700326,
                    -0.056584,
                    0.130940259,
                    0.0208056569,
                    0.6215954,
                    0.238010049,
                    -0.0358066261,
                    0.198537469,
                    0.624801636,
                    0.6715472,
                    -0.421069264,
                    -0.564067364,
                    -0.5869262,
                    0.869492531,
                    0.9829972,
                    0.5550167,
                    -0.05704987,
                    -0.634357154,
                    0.486046284,
                    0.8644769,
                    0.01865518,
                    -0.874136448,
                    0.07005635,
                    0.547579765,
                    -1.0,
                    0.7127311,
                    -0.3900603,
                    0.459551781,
                    -0.3573593,
                    -0.419179082,
                    0.726219237,
                    0.156118035,
                    0.371616334,
                    0.100245833,
                    -0.06953323,
                    -0.10224545,
                    0.0206147432
                  ]
                },
                {
                  "weights": [
                    0.6229212,
                    -0.757508039,
                    -0.6299856,
                    0.135480285,
                    0.373498648,
                    0.4518399,
                    0.294214547,
                    0.07299626,
                    -0.827127934,
                    -0.8702208,
                    -0.941417,
                    0.9587536,
                    0.249639869,
                    -0.0836254358,
                    -0.9698932,
                    -1.0,
                    -0.301623225,
                    -0.298969656,
                    0.229742646,
                    1.0,
                    -0.6613662,
                    0.1792239,
                    0.8513851,
                    0.522930861,
                    0.145561337,
                    -1.0,
                    0.5683272,
                    1.0,
                    0.6789763,
                    -0.114893079,
                    -0.51322937,
                    -0.228985429,
                    -0.43530643,
                    -0.4272629,
                    -1.0,
                    -0.587603331,
                    -0.265708327,
                    -0.373304725,
                    0.2204808,
                    1.0,
                    -0.5668042,
                    0.8285494,
                    0.140588164,
                    -0.88480854,
                    -0.0953082442,
                    0.235915571,
                    -0.5748837,
                    0.5458672,
                    0.5989068,
                    0.6718807
                  ]
                },
                {
                  "weights": [
                    -0.9721234,
                    0.007897675,
                    -1.0,
                    0.501152039,
                    -0.9794276,
                    0.842730761,
                    -0.6630676,
                    -0.6244743,
                    0.08808887,
                    0.4015474,
                    -0.2098127,
                    -0.9155121,
                    0.240967572,
                    0.8511513,
                    -0.702596,
                    -1.0,
                    -0.782315254,
                    0.202794909,
                    0.904176056,
                    -0.218066335,
                    -0.867279053,
                    0.695198834,
                    -0.9892659,
                    -0.268853784,
                    -0.8849361,
                    0.317712754,
                    -0.8052418,
                    0.664381,
                    -0.795277357,
                    -0.6114836,
                    -1.0,
                    -0.465289861,
                    -0.932271957,
                    0.807700157,
                    -0.123662353,
                    -0.8857162,
                    -0.219244123,
                    1.0,
                    0.908345,
                    0.4542503,
                    1.0,
                    -0.3370223,
                    0.9659405,
                    0.4279811,
                    -0.9846387,
                    0.12176168,
                    -0.6744232,
                    -0.694676638,
                    -0.159131169,
                    0.5401368
                  ]
                },
                {
                  "weights": [
                    0.62621,
                    0.0456804037,
                    -0.987983465,
                    0.5468004,
                    -0.042822957,
                    0.342608184,
                    0.4222133,
                    0.9341657,
                    -0.348800778,
                    0.5966861,
                    -0.00762212276,
                    -0.122467637,
                    -0.475733161,
                    0.379919946,
                    -0.9403758,
                    -0.899697542,
                    -0.2830159,
                    0.326018542,
                    -0.4683143,
                    0.210508466,
                    0.390772551,
                    1.0,
                    -0.100180984,
                    -0.34165895,
                    -0.606451035,
                    -0.4062239,
                    -0.7026725,
                    -0.6480067,
                    -0.304493546,
                    -0.7377906,
                    -0.247916579,
                    -0.8764756,
                    -0.387805343,
                    -0.60332036,
                    1.0,
                    -0.403642774,
                    -1.0,
                    0.689656258,
                    0.482841223,
                    -0.108530164,
                    -0.206393838,
                    -0.5612545,
                    -0.712752342,
                    -0.874755144,
                    -0.48860395,
                    1.0,
                    -1.0,
                    0.221526742,
                    0.435141772,
                    0.164242864
                  ]
                },
                {
                  "weights": [
                    -0.573503,
                    0.3003306,
                    -0.105258942,
                    0.343473643,
                    0.8942381,
                    0.060685128,
                    -1.0,
                    -0.160244823,
                    0.955650568,
                    0.49295947,
                    -0.6469214,
                    -1.0,
                    0.7748518,
                    0.868954659,
                    0.710834,
                    -1.0,
                    -0.3078755,
                    0.292988271,
                    -0.0266324282,
                    -0.2520734,
                    -0.925382137,
                    -0.627650261,
                    -0.4879061,
                    0.139112353,
                    0.223584533,
                    -0.7412045,
                    -0.9847019,
                    -0.9022498,
                    0.08758533,
                    -0.08157265,
                    -0.9555578,
                    -0.377511859,
                    0.64751035,
                    -1.0,
                    -0.619240761,
                    0.163315952,
                    -0.170498013,
                    0.194340348,
                    0.128566384,
                    0.369068831,
                    -0.3596233,
                    -0.19811666,
                    -0.194527745,
                    -0.11428678,
                    0.505501747,
                    0.598096132,
                    -0.822380066,
                    -1.0,
                    -0.640672445,
                    0.997406
                  ]
                },
                {
                  "weights": [
                    0.5608697,
                    0.5204201,
                    0.703394651,
                    -0.4070047,
                    0.860005856,
                    -0.0122324228,
                    -0.2856151,
                    -0.7120724,
                    -0.05638635,
                    -0.360843539,
                    -0.595411062,
                    0.237479568,
                    -0.8966501,
                    0.9983201,
                    0.04613489,
                    0.5284909,
                    0.815940261,
                    0.9011464,
                    -1.0,
                    -0.5449188,
                    0.9449413,
                    -0.7792884,
                    0.8128202,
                    0.527374864,
                    0.3479501,
                    -0.2503425,
                    0.590575,
                    0.2254237,
                    -0.8688009,
                    -0.969442844,
                    -0.869854,
                    0.378091067,
                    -0.962756157,
                    0.5237088,
                    0.7873647,
                    0.77553606,
                    -0.9929395,
                    0.341620326,
                    -0.1329521,
                    -0.6056032,
                    -0.427595735,
                    -0.7917626,
                    0.65393424,
                    -0.5247867,
                    0.5671575,
                    -0.373768449,
                    0.321078271,
                    0.9628608,
                    -0.51994133,
                    -0.2555425
                  ]
                },
                {
                  "weights": [
                    -1.0,
                    0.6093935,
                    0.3911249,
                    1.0,
                    -0.331930518,
                    0.8486738,
                    0.7875049,
                    -0.166421771,
                    0.735877752,
                    0.444032639,
                    -1.0,
                    -0.2425226,
                    0.439797759,
                    0.402525842,
                    -0.19953382,
                    -0.4332257,
                    0.0988270044,
                    0.518023252,
                    0.441909283,
                    0.311085433,
                    -0.742007732,
                    -0.941686153,
                    0.104718685,
                    -0.524162054,
                    1.0,
                    -0.7373359,
                    0.280640334,
                    -0.285178542,
                    0.8977134,
                    0.83799386,
                    -1.0,
                    0.5914514,
                    0.736152649,
                    0.9277647,
                    0.0611714125,
                    -1.0,
                    -0.5495355,
                    -0.7953625,
                    -0.486376971,
                    1.0,
                    0.6925082,
                    0.294298142,
                    -0.9673867,
                    -0.5175468,
                    0.288798541,
                    -0.258275151,
                    -0.1137788,
                    0.8964009,
                    -0.206131339,
                    0.798756838
                  ]
                },
                {
                  "weights": [
                    -0.7600632,
                    -1.0,
                    0.452980965,
                    0.8492234,
                    0.902900934,
                    0.260237664,
                    -0.8984833,
                    0.8455127,
                    0.551311851,
                    -0.963956833,
                    -0.760643,
                    0.437690943,
                    0.666980565,
                    -0.8233676,
                    -0.459620118,
                    0.371903867,
                    -0.7778678,
                    -0.311717153,
                    -0.9821069,
                    -0.9157872,
                    -0.668417931,
                    -0.0409312546,
                    -0.03625858,
                    -0.8953712,
                    0.288697928,
                    -0.729124546,
                    0.144492745,
                    -0.2506162,
                    0.9709687,
                    -0.47066462,
                    -0.878935635,
                    0.340327,
                    -0.422610641,
                    -0.285238147,
                    -0.1481663,
                    -0.634148359,
                    0.04937589,
                    -0.702568054,
                    0.285152555,
                    -0.9096496,
                    0.5655718,
                    -0.208262831,
                    0.0375028849,
                    -0.5698776,
                    -0.603596449,
                    0.9904108,
                    0.631584167,
                    0.95874095,
                    0.0714153051,
                    0.532144547
                  ]
                },
                {
                  "weights": [
                    0.06518948,
                    -0.4480993,
                    -1.0,
                    0.726899147,
                    -0.936136961,
                    0.140023112,
                    -0.758342743,
                    -0.457422137,
                    0.5183871,
                    0.3237321,
                    -0.5955962,
                    -1.0,
                    0.379313439,
                    0.770185947,
                    0.5295629,
                    -0.535563231,
                    0.847733736,
                    -0.7429518,
                    0.7038474,
                    0.1680249,
                    -0.502037048,
                    -0.09730947,
                    0.154264569,
                    -0.8578632,
                    0.745105267,
                    -0.4982766,
                    -1.0,
                    0.356307,
                    -0.164436579,
                    -0.497850776,
                    0.5671161,
                    -0.38079226,
                    -0.6616466,
                    -0.803240538,
                    0.7623687,
                    0.2896629,
                    -0.4419042,
                    0.03399241,
                    -0.366245121,
                    -0.603990436,
                    0.267695874,
                    0.387158126,
                    0.6543038,
                    0.7084451,
                    -0.9800894,
                    -0.0452978,
                    0.126184583,
                    -0.9491844,
                    0.97689414,
                    0.366915673
                  ]
                },
                {
                  "weights": [
                    0.0455697775,
                    0.104748368,
                    -0.193529487,
                    0.159675479,
                    0.07417643,
                    -0.5793135,
                    1.0,
                    0.8334577,
                    -0.364817023,
                    0.9688053,
                    -0.456654668,
                    -0.8799856,
                    0.626116037,
                    0.968479633,
                    -0.0561341047,
                    0.417910546,
                    0.15768683,
                    -0.128569,
                    0.174355388,
                    0.233791709,
                    -0.26120317,
                    0.182467818,
                    0.485116452,
                    0.6805818,
                    0.314614981,
                    -0.5334523,
                    -0.627743244,
                    -0.726887,
                    0.596407652,
                    -0.540323,
                    0.239341855,
                    0.423873067,
                    0.423044175,
                    -0.9461477,
                    -0.680601358,
                    -0.226648211,
                    0.0143784285,
                    -0.314010262,
                    -0.473163724,
                    -0.2213949,
                    -1.0,
                    -0.561625,
                    -0.8078761,
                    0.0359216928,
                    0.4429168,
                    0.613108635,
                    -0.579287052,
                    -0.7611227,
                    1.0,
                    0.497351855
                  ]
                },
                {
                  "weights": [
                    0.1391207,
                    0.9570794,
                    0.305982232,
                    0.134280324,
                    0.06816852,
                    -0.621986151,
                    -0.8528123,
                    -0.865988731,
                    -0.07737887,
                    0.956886768,
                    0.58899045,
                    -0.0695322752,
                    -0.390406251,
                    -0.668979168,
                    0.183948874,
                    -0.8849766,
                    -1.0,
                    0.5163026,
                    0.385719031,
                    -0.712918043,
                    0.7686913,
                    0.5039711,
                    1.0,
                    0.319601029,
                    -0.2135266,
                    0.7911821,
                    0.0118790865,
                    0.201233983,
                    -0.514886141,
                    0.388245553,
                    -0.06609589,
                    0.981449962,
                    0.8164542,
                    -0.9740894,
                    -0.351126075,
                    -0.61459136,
                    -0.465418458,
                    -0.0736782849,
                    -0.69099164,
                    -0.657561064,
                    -0.8848396,
                    -0.314308077,
                    0.964504,
                    -1.0,
                    0.5140681,
                    -0.9022324,
                    -0.5436363,
                    0.715353,
                    0.3373296,
                    -0.3080269
                  ]
                },
                {
                  "weights": [
                    -0.893963337,
                    -0.616867542,
                    0.5550201,
                    -0.454818368,
                    -0.960741758,
                    -0.5492914,
                    -0.07617319,
                    0.889909744,
                    0.608080864,
                    0.898839355,
                    -0.9207859,
                    -1.0,
                    -0.121674687,
                    -0.466906458,
                    1.0,
                    0.969644547,
                    0.4185104,
                    0.439330071,
                    0.282268733,
                    0.4473717,
                    0.789154053,
                    0.67951417,
                    -0.8649173,
                    -0.0270854235,
                    0.9696624,
                    -0.9441211,
                    0.657842159,
                    -0.240935683,
                    0.6635852,
                    0.356718957,
                    0.1847347,
                    -0.565900564,
                    0.756901,
                    -0.820122242,
                    -0.5539429,
                    0.129336953,
                    -0.4942814,
                    0.769321442,
                    -0.00313532352,
                    0.359678477,
                    1.0,
                    0.098894,
                    0.403285474,
                    -0.203690171,
                    -0.2712207,
                    -1.0,
                    0.619366646,
                    0.05836761,
                    0.993239641,
                    -0.855796337
                  ]
                },
                {
                  "weights": [
                    -0.0469635725,
                    0.268029183,
                    -0.927371264,
                    0.9415772,
                    0.7667177,
                    0.9507532,
                    -0.827259958,
                    0.4771795,
                    -1.0,
                    -0.5514133,
                    -1.0,
                    0.4501452,
                    -0.182057977,
                    0.031051755,
                    0.511988163,
                    -0.8785305,
                    0.354650468,
                    -0.172567725,
                    -0.137759566,
                    -0.875696242,
                    0.5674746,
                    -1.0,
                    0.677976131,
                    -0.6202131,
                    0.06328571,
                    -0.335610271,
                    0.276554316,
                    -0.2510791,
                    -0.2817732,
                    0.7821901,
                    0.510715663,
                    -0.410716653,
                    0.8305476,
                    -0.8345883,
                    0.3847799,
                    0.539846659,
                    0.0297786,
                    -0.392083526,
                    0.793825865,
                    -0.945287943,
                    0.8770151,
                    0.311022252,
                    -0.234737277,
                    -0.2763828,
                    -0.624498844,
                    -0.486559749,
                    0.700843334,
                    0.8857324,
                    -0.199476838,
                    0.8108783
                  ]
                },
                {
                  "weights": [
                    -0.3830539,
                    -0.351833,
                    -0.370667338,
                    -0.225475669,
                    0.9985354,
                    0.9290569,
                    0.7554381,
                    0.31252262,
                    -0.83180356,
                    0.6284187,
                    -0.358934045,
                    -0.0048776865,
                    0.9876189,
                    -0.5842312,
                    -0.482237458,
                    0.9041784,
                    -0.9956539,
                    -0.3193661,
                    -0.321390748,
                    -0.1429044,
                    -0.5612798,
                    0.395549029,
                    -0.843593359,
                    0.370827317,
                    -0.44333446,
                    0.9661617,
                    0.2330805,
                    0.08237159,
                    0.8051884,
                    0.08173549,
                    0.1335957,
                    -0.8323524,
                    -0.5671103,
                    0.8474064,
                    -0.47082603,
                    0.215950131,
                    0.7169204,
                    0.0214642286,
                    0.25265643,
                    -0.9886832,
                    0.62519145,
                    -0.473166347,
                    -0.8099592,
                    1.0,
                    0.6013336,
                    -0.07075703,
                    0.845685959,
                    0.3787243,
                    0.27625367,
                    -0.57206744
                  ]
                },
                {
                  "weights": [
                    0.0503386259,
                    1.0,
                    -0.235640734,
                    -0.8408369,
                    -0.8343775,
                    -0.4300803,
                    0.169612288,
                    -0.815568,
                    0.6779721,
                    0.164029956,
                    -0.8698182,
                    -0.100570321,
                    -0.106310248,
                    -0.0420020819,
                    0.6421902,
                    0.7612896,
                    -0.827844143,
                    -1.0,
                    -0.160305381,
                    0.7752631,
                    -0.438518643,
                    -0.886225462,
                    -0.753227,
                    -1.0,
                    -0.394119382,
                    -0.485238671,
                    -0.461145282,
                    -0.3776902,
                    0.101314187,
                    0.6703992,
                    0.7201233,
                    -0.9365859,
                    -0.248685718,
                    -0.262567639,
                    0.4456074,
                    -0.9427843,
                    -0.02406919,
                    -0.7069676,
                    0.125777841,
                    1.0,
                    0.442707032,
                    -0.831516,
                    -0.537230253,
                    -0.546198368,
                    0.7258488,
                    0.410377949,
                    -0.6247792,
                    0.279497117,
                    -0.504692554,
                    0.0719458461
                  ]
                },
                {
                  "weights": [
                    0.528398752,
                    -0.589649439,
                    -0.835722446,
                    0.390383452,
                    0.657405853,
                    0.447628468,
                    0.719328165,
                    0.7578709,
                    0.5799887,
                    1.0,
                    -0.9666772,
                    0.982720852,
                    -0.384873,
                    -0.9556973,
                    0.12968719,
                    -0.538493037,
                    0.5036937,
                    -0.594532251,
                    0.395291537,
                    -0.531681061,
                    0.0706223249,
                    0.6176512,
                    0.235936522,
                    -0.00502842665,
                    0.8634505,
                    0.790222168,
                    0.218031287,
                    0.109888911,
                    -0.227959275,
                    -0.511374533,
                    -0.8256154,
                    -0.134547353,
                    -0.6693532,
                    -0.4937557,
                    -0.7595382,
                    -0.7167082,
                    0.437583417,
                    0.8214364,
                    0.127157569,
                    -0.4424852,
                    0.719380856,
                    0.699168444,
                    -0.7410345,
                    0.0222276449,
                    -0.814245939,
                    -0.520444,
                    0.34545967,
                    0.204737216,
                    0.0690521,
                    -0.626907349
                  ]
                },
                {
                  "weights": [
                    0.583468437,
                    -0.6390705,
                    0.9477329,
                    0.879585266,
                    0.5860987,
                    0.383829564,
                    0.2630038,
                    -0.816155434,
                    -0.340579152,
                    -0.255771518,
                    -0.931144238,
                    0.49814555,
                    0.06978452,
                    -0.08597767,
                    -0.369869828,
                    -0.9920399,
                    0.8632839,
                    -0.975647,
                    0.8969593,
                    -0.0101074576,
                    -1.0,
                    0.0506919622,
                    0.440433234,
                    -1.0,
                    0.667816043,
                    -0.970222235,
                    -0.679777145,
                    -0.3191265,
                    1.0,
                    -0.4787048,
                    0.0324448347,
                    0.9346738,
                    0.5185456,
                    0.555258036,
                    0.513236046,
                    -0.797357559,
                    -0.370813876,
                    0.443228662,
                    0.786468744,
                    0.9169984,
                    0.881679058,
                    0.10992533,
                    -0.6280534,
                    -0.221455216,
                    -0.5149126,
                    0.5590606,
                    -0.9341502,
                    0.433510751,
                    -0.915281057,
                    0.5050976
                  ]
                },
                {
                  "weights": [
                    0.130854487,
                    0.7859576,
                    -0.84250927,
                    0.899430752,
                    -0.5911443,
                    -0.71897316,
                    0.8754286,
                    0.26920554,
                    -1.0,
                    -0.451510072,
                    -0.270349979,
                    0.397280037,
                    -1.0,
                    0.9781134,
                    -0.875810862,
                    0.9833157,
                    -1.0,
                    -0.165777564,
                    -0.808743954,
                    -0.5012803,
                    -0.191594243,
                    0.09826648,
                    -0.6130812,
                    0.615180731,
                    -0.8207679,
                    0.5509882,
                    0.166042447,
                    -0.701595545,
                    -0.338846177,
                    1.0,
                    0.109693646,
                    0.199041724,
                    0.2760757,
                    1.0,
                    0.5494077,
                    -1.0,
                    -0.0347136259,
                    -0.300597548,
                    -0.5117209,
                    0.4254882,
                    0.452329844,
                    -1.0,
                    -0.8059182,
                    -0.987508535,
                    -0.5130415,
                    -0.07897794,
                    -0.05628693,
                    -0.198403537,
                    -0.0114279985,
                    0.815259933
                  ]
                },
                {
                  "weights": [
                    0.6191313,
                    1.0,
                    0.0559655428,
                    -0.7126405,
                    0.426511735,
                    -0.191312909,
                    -0.429486245,
                    0.950976849,
                    0.1510166,
                    -0.7893331,
                    0.762981653,
                    0.01561749,
                    0.676177263,
                    0.3653805,
                    1.0,
                    -0.6534176,
                    0.614141464,
                    -0.608926,
                    -0.134563327,
                    0.350873917,
                    -0.138382137,
                    0.859964848,
                    0.106369853,
                    -0.41528523,
                    -0.217018485,
                    -0.0160657167,
                    -1.0,
                    0.9015782,
                    -0.9672971,
                    -0.7914033,
                    0.6361344,
                    0.475000441,
                    0.000306963921,
                    -0.916892052,
                    -0.8974564,
                    0.0233829021,
                    0.207933784,
                    0.5187576,
                    -0.9821861,
                    -0.0444303751,
                    -1.0,
                    -0.0881258249,
                    -0.6316407,
                    -0.552435637,
                    0.07135475,
                    0.3301539,
                    0.213026166,
                    1.0,
                    -0.394148469,
                    -0.5676467
                  ]
                },
                {
                  "weights": [
                    0.818785667,
                    0.8736069,
                    0.2514455,
                    0.5266521,
                    0.347829074,
                    -0.142525554,
                    -0.852267265,
                    -0.172176868,
                    0.0998894,
                    1.0,
                    0.0503135324,
                    -0.745401144,
                    0.6788938,
                    0.71324563,
                    0.4583542,
                    -0.334649444,
                    -0.321921229,
                    -0.5067055,
                    -0.775867939,
                    1.0,
                    -0.0203406215,
                    -0.142971635,
                    0.3464038,
                    -1.0,
                    -0.8935211,
                    0.541791439,
                    -0.303210765,
                    0.3667898,
                    -0.917578936,
                    0.371601462,
                    0.197194755,
                    1.0,
                    0.177104831,
                    -0.810994148,
                    0.303106755,
                    0.566289663,
                    0.440521717,
                    -0.01841104,
                    0.189059615,
                    0.9926367,
                    -0.9641931,
                    -0.31439817,
                    -0.358049273,
                    0.337608069,
                    0.7547133,
                    0.6042805,
                    0.218212485,
                    -0.248280883,
                    -0.05167389,
                    -0.397744536
                  ]
                },
                {
                  "weights": [
                    -0.93744874,
                    0.385041,
                    -0.755507231,
                    -0.9749446,
                    -0.20074594,
                    0.5465711,
                    1.0,
                    0.6379353,
                    -0.7230637,
                    -0.8128972,
                    -0.8007047,
                    -0.0523298979,
                    0.426907271,
                    0.0557998419,
                    -0.619164,
                    0.0308295488,
                    1.0,
                    0.0928756,
                    0.7448013,
                    -0.169720292,
                    -0.209718823,
                    -1.0,
                    0.7941871,
                    -1.0,
                    -0.0600224733,
                    0.7221315,
                    0.3173123,
                    0.767734766,
                    -0.643528461,
                    -0.553033352,
                    -0.804541349,
                    0.8719754,
                    0.4435632,
                    -0.314255834,
                    0.146466851,
