[
  {
    "brain_network": {
      "layers": [
        {
          "neurons": [
            {
              "weights": null
            },
            {
              "weights": null
            },
            {
              "weights": null
            },
            {
              "weights": null
            },
            {
              "weights": null
            },
            {
              "weights": null
            },
            {
              "weights": null
            },
            {
              "weights": null
            },
            {
              "weights": null
            },
            {
              "weights": null
            },
            {
              "weights": null
            },
            {
              "weights": null
            },
            {
              "weights": null
            },
            {
              "weights": null
            },
            {
              "weights": null
            },
            {
              "weights": null
            },
            {
              "weights": null
            },
            {
              "weights": null
            },
            {
              "weights": null
            },
            {
              "weights": null
            },
            {
              "weights": null
            },
            {
              "weights": null
            },
            {
              "weights": null
            },
            {
              "weights": null
            },
            {
              "weights": null
            },
            {
              "weights": null
            },
            {
              "weights": null
            },
            {
              "weights": null
            },
            {
              "weights": null
            },
            {
              "weights": null
            },
            {
              "weights": null
            },
            {
              "weights": null
            },
            {
              "weights": null
            },
            {
              "weights": null
            },
            {
              "weights": null
            },
            {
              "weights": null
            },
            {
              "weights": null
            },
            {
              "weights": null
            },
            {
              "weights": null
            },
            {
              "weights": null
            },
            {
              "weights": null
            },
            {
              "weights": null
            },
            {
              "weights": null
            }
          ]
        },
        {
          "neurons": [
            {
              "weights": [
                -0.6812172,
                0.998239756,
                0.7297406,
                -0.0216881037,
                -0.1825372,
                1.0,
                -0.8988259,
                -0.265790582,
                -0.5556724,
                -0.452794671,
                1.0,
                -0.5656941,
                0.901525,
                0.8632184,
                -0.7198839,
                -0.341437936,
                -0.346653819,
                0.161091924,
                -1.0,
                -1.0,
                0.197104335,
                0.255817145,
                -0.0564795136,
                -0.274669528,
                0.02471459,
                0.6330917,
                -0.0218147635,
                -0.5141151,
                -0.5385587,
                0.9745264,
                0.255124569,
                -0.8960986,
                -0.898753166,
                0.5507562,
                -0.3101269,
                0.5197003,
                -0.7312355,
                0.9394562,
                -0.9291432,
                0.0164145231,
                -0.06893754,
                -0.2966777,
                -0.990687847
              ]
            },
            {
              "weights": [
                -0.244182944,
                0.430701,
                -0.9379678,
                -0.356541753,
                -0.541231155,
                0.6217668,
                -0.307738423,
                -0.456374,
                0.336343735,
                0.978238463,
                0.513415337,
                0.5218897,
                0.416222066,
                0.07214892,
                0.455692738,
                -1.0,
                -0.7129408,
                0.942636847,
                -0.5267968,
                -0.161934018,
                0.916609049,
                -0.403784066,
                -0.913352251,
                -0.6581609,
                -0.277678132,
                -0.146223426,
                -0.641927958,
                0.228072047,
                -0.266364455,
                0.529518843,
                -1.0,
                -0.457214236,
                0.450912654,
                0.201549649,
                -0.450474858,
                0.6302848,
                0.00323688984,
                0.705116749,
                -0.8161564,
                0.2942598,
                0.0892424,
                -0.32302773,
                0.289597958
              ]
            },
            {
              "weights": [
                -0.480648875,
                0.438869923,
                -0.180090547,
                -0.3073002,
                0.2778823,
                -0.9967003,
                0.453175515,
                -0.12765038,
                -0.632185,
                -0.482705235,
                -0.127967,
                -0.6560565,
                0.320412368,
                0.7774501,
                -0.6222575,
                1.0,
                -0.9505856,
                0.07796538,
                -0.955088139,
                0.790550947,
                -0.718072653,
                -1.0,
                0.153308749,
                -0.643224955,
                -0.299280047,
                -0.7582102,
                -0.524867535,
                0.659445047,
                1.0,
                -0.616281033,
                0.251445442,
                0.397253484,
                -0.220120788,
                0.5983925,
                1.0,
                0.286776274,
                0.575595737,
                -0.286105752,
                0.23172915,
                -1.0,
                0.488950461,
                0.0590904951,
                -0.8160558
              ]
            },
            {
              "weights": [
                1.0,
                0.475275248,
                -0.684591532,
                -0.7268521,
                -0.6439793,
                -0.7281809,
                0.695662,
                -0.14171207,
                0.8782105,
                0.5253396,
                0.5549104,
                0.5577936,
                0.429888934,
                -0.8085599,
                0.7192569,
                0.8950195,
                0.953120947,
                0.879267,
                0.345397443,
                -0.0862125158,
                -0.814346552,
                0.111554265,
                -0.291796565,
                0.659619331,
                0.8155937,
                -0.472555637,
                -0.46576488,
                -0.22154057,
                0.8896227,
                -0.659614563,
                -0.7416847,
                0.192433715,
                -0.117052048,
                0.0114046335,
                0.494043559,
                0.0332320929,
                0.8703736,
                -0.5283034,
                0.747693539,
                0.146533608,
                -0.5791271,
                0.772163153,
                0.8610916
              ]
            },
            {
              "weights": [
                0.776797831,
                -0.4085933,
                -0.148598313,
                0.357667416,
                -0.7264252,
                -0.43081677,
                -0.9506521,
                1.0,
                -0.9249434,
                0.817633867,
                0.75887537,
                -1.0,
                0.32829845,
                -0.300424218,
                -0.875005,
                -0.168789268,
                1.0,
                -0.5877154,
                -0.84772706,
                0.5285182,
                0.511981964,
                0.583519459,
                0.604186058,
                0.6326425,
                -0.00721371174,
                -0.757994056,
                0.174466491,
                -0.6033745,
                -0.726754665,
                0.952703238,
                0.4373612,
                -0.994632,
                -0.5263245,
                1.0,
                -0.5748987,
                0.116067916,
                -0.9608238,
                0.371471643,
                -0.343978524,
                0.8959646,
                -0.193234086,
                0.3013663,
                0.374568433
              ]
            },
            {
              "weights": [
                0.376829535,
                -0.256520152,
                -0.5560088,
                0.163002849,
                -0.56725955,
                -0.7199993,
                0.5021808,
                -0.743250251,
                0.639029,
                0.8283045,
                0.245092154,
                -0.46286425,
                -1.0,
                -0.237261415,
                0.151752114,
                -0.4775008,
                -0.731470346,
                0.3350639,
                -1.0,
                -0.185558438,
                -0.7578244,
                0.2840993,
                0.611795664,
                -0.432927758,
                0.271655768,
                -0.427779317,
                -0.355667233,
                0.8835988,
                0.363992184,
                -1.0,
                0.7652261,
                0.750674963,
                0.9448285,
                0.277493179,
                -1.0,
                -0.453362674,
                0.8716297,
                -0.5113387,
                -0.4374467,
                0.486839175,
                1.0,
                -0.372359633,
                -0.125661969
              ]
            },
            {
              "weights": [
                0.0456761122,
                0.70905757,
                -0.829098761,
                -0.634951532,
                -1.0,
                1.0,
                -0.8580179,
                0.077113986,
                0.456986248,
                0.6471536,
                -0.758782148,
                -0.252638459,
                0.846062064,
                0.393549174,
                -0.2161709,
                -0.7137544,
                -0.742276669,
                -0.2777232,
                1.0,
                0.890282631,
                -0.133201331,
                -0.6533327,
                -0.651497364,
                0.9781902,
                0.705546856,
                0.130241454,
                -0.384843,
                -0.808774948,
                -0.107411265,
                -0.289012551,
                -0.816994,
                0.01269877,
                -0.4663332,
                0.8372164,
                0.8746984,
                1.0,
                0.0494135022,
                -1.0,
                -0.6192014,
                0.605924368,
                0.990524769,
                0.7649498,
                0.66721344
              ]
            },
            {
              "weights": [
                -0.999976158,
                0.01042521,
                -0.979588747,
                -1.0,
                -0.6506505,
                -0.428493619,
                0.498489827,
                -0.242260545,
                -1.0,
                0.485820025,
                -0.6197533,
                0.6434386,
                -0.635053158,
                0.6458111,
                -0.1275369,
                -0.699914932,
                -0.514906645,
                0.0103632212,
                -0.4927591,
                0.646159649,
                -0.7396734,
                1.0,
                -0.929172337,
                0.9911225,
                0.2505009,
                -0.360237479,
                -0.0971912146,
                0.95072484,
                -0.267434955,
                0.132705271,
                -0.437891841,
                -0.376570821,
                0.8184383,
                0.807908952,
                -0.0590769053,
                -0.390714645,
                -0.428083539,
                -0.0517390966,
                1.0,
                0.8399229,
                -0.521757364,
                0.179232955,
                -0.05096513
              ]
            },
            {
              "weights": [
                -0.698292255,
                -0.85727334,
                -0.5379685,
                0.9365301,
                -0.36390245,
                -0.986201048,
                0.3430134,
                -0.52514863,
                -0.01621002,
                0.247344017,
                -0.4518329,
                -0.127558589,
                0.955873,
                -0.009630084,
                -0.4181217,
                -0.971298456,
                -0.275854,
                0.918819666,
                -0.800286531,
                -0.8405875,
                -0.6383679,
                -0.391245961,
                0.1038121,
                -0.801651239,
                -0.3226925,
                -0.529375553,
                0.243276,
                0.496879071,
                -0.975543,
                0.0744427443,
                -0.6449871,
                -0.25556457,
                0.3604705,
                0.8572998,
                0.451577872,
                0.5930965,
                -0.185298324,
                0.290148228,
                0.714375734,
                -0.7989156,
                -0.22803843,
                -0.7735596,
                0.7154491
              ]
            },
            {
              "weights": [
                0.945192337,
                1.0,
                -0.6555207,
                0.307122678,
                0.452524632,
                -0.918320239,
                0.290553,
                -1.0,
                -0.7418184,
                -1.0,
                0.9165659,
                -0.10076344,
                -0.8475311,
                -0.30166018,
                -0.9652231,
                -0.161914825,
                0.381240577,
                -0.957648754,
                0.447093457,
                0.4312784,
                -0.5329659,
                0.2254678,
                0.6038034,
                0.356752127,
                0.353802651,
                -1.0,
                0.7617123,
                -0.918324769,
                0.9442105,
                -1.0,
                0.6235542,
                0.564582348,
                0.1450659,
                0.793521643,
                0.193914533,
                -0.00284159184,
                0.5391073,
                -0.498106122,
                0.7290484,
                -1.0,
                -0.8096154,
                0.3913016,
                -0.107397676
              ]
            },
            {
              "weights": [
                0.148171544,
                -0.08524859,
                0.455718964,
                0.493613929,
                0.519588,
                -0.8438425,
                0.316331834,
                0.115830749,
                -1.0,
                -0.5309763,
                0.7207475,
                -0.920665264,
                -1.0,
                -0.623196363,
                -0.7498722,
                0.0241080523,
                -0.5899284,
                -0.8651426,
                0.216887832,
                0.383264035,
                0.26109764,
                -0.186751679,
                0.95734334,
                -0.6035164,
                -0.385450244,
                -0.683133841,
                -0.160849214,
                0.212301373,
                0.06344601,
                0.753774941,
                -0.86241436,
                -0.641507149,
                0.477549285,
                1.0,
                0.118980795,
                -0.8401382,
                0.448914349,
                -1.0,
                0.700949669,
                -0.361213773,
                -0.640249968,
                -0.101079941,
                -0.434421957
              ]
            },
            {
              "weights": [
                0.7531917,
                0.458266467,
                1.0,
                1.0,
                -0.08722228,
                -0.3830682,
                0.939271,
                -0.5237045,
                -0.379224777,
                -0.382167935,
                -0.998605251,
                -0.582689762,
                0.556291342,
                -0.8973541,
                -0.586796641,
                -0.7604499,
                -0.158779025,
                -0.8706665,
                -0.847606063,
                0.549279,
                0.171527743,
                -0.8201318,
                0.708000839,
                0.288295865,
                0.201222479,
                0.55294776,
                -0.5509715,
                0.313617945,
                0.4808173,
                -0.542435348,
                -0.109604716,
                -0.7827139,
                0.209948182,
                -0.499615073,
                -0.5186317,
                -0.175150514,
                0.3639798,
                0.683141,
                -0.0005441904,
                0.272877425,
                -0.605618238,
                0.8467282,
                -0.6526232
              ]
            },
            {
              "weights": [
                -0.3859192,
                -0.110381484,
                0.105886817,
                -0.3457445,
                -0.779324532,
                -0.160909772,
                0.6809255,
                0.11226666,
                -0.000133097172,
                0.163207173,
                -0.08389354,
                -0.112162948,
                1.0,
                0.554754257,
                0.253758878,
                -0.5104389,
                -0.245101571,
                1.0,
                -0.6681853,
                -0.5702487,
                -0.4694003,
                0.0824450254,
                0.7514386,
                -0.470895171,
                -0.250349879,
                0.0146292448,
                1.0,
                -0.133190036,
                -0.128288388,
                -0.687754154,
                0.811934233,
                0.3043277,
                -0.6606116,
                0.0193792582,
                -0.6398842,
                0.397694081,
                0.902446747,
                -0.613023758,
                0.271295756,
                -0.4656161,
                -0.646013737,
                -0.100103855,
                0.984696746
              ]
            },
            {
              "weights": [
                -0.210066915,
                0.145339668,
                -0.01860702,
                -0.0158393979,
                1.0,
                -0.804932833,
                0.364278525,
                -0.273951173,
                -0.108804107,
                0.2876365,
                0.911848545,
                0.391600579,
                -0.255228877,
                0.482062548,
                -0.4376577,
                1.0,
                0.139965653,
                0.6688907,
                -0.04386723,
                -0.0896076,
                -0.300424218,
                0.336443752,
                -0.343763,
                -0.7822213,
                0.193810582,
                0.35186407,
                0.178585887,
                -1.0,
                0.970572233,
                -0.23620832,
                -0.7696035,
                1.0,
                -0.903627157,
                -0.760793447,
                -0.350801349,
                0.901069164,
                -0.960312366,
                -0.445531964,
                0.7715304,
                0.871462,
                -0.456565648,
                -0.496127248,
                0.6280651
              ]
            },
            {
              "weights": [
                -0.262254357,
                0.205449164,
                1.0,
                -0.604211569,
                0.284602135,
                0.103335053,
                -0.09574735,
                -0.396978527,
                0.617136955,
                0.53694737,
                -0.9007523,
                -0.347569853,
                1.0,
                0.0210076571,
                -0.190777183,
                -0.8046446,
                0.8653343,
                -0.8722069,
                -0.390788674,
                1.0,
                0.0902668238,
                0.8997555,
                0.347132653,
                -0.6012902,
                -0.380845845,
                -0.903944254,
                -0.38837707,
                1.0,
                -1.0,
                0.259854764,
                0.948610544,
                0.8754916,
                -1.0,
                -0.8147242,
                0.484182328,
                1.0,
                0.0152565241,
                0.8054527,
                -1.0,
                0.5210891,
                -0.859061956,
                -0.679160357,
                0.4673836
              ]
            },
            {
              "weights": [
                0.6670239,
                0.837586164,
                0.0124150515,
                0.27918312,
                -0.5050099,
                0.313642234,
                1.0,
                0.62461853,
                0.5767009,
                0.711049557,
                0.1264764,
                -0.0351599455,
                -0.686383367,
                0.9527924,
                -0.649605751,
                0.350225955,
                0.734465361,
                1.0,
                -0.9953475,
                -0.235725045,
                -0.369748235,
                -0.453847051,
                -0.5988207,
                0.800611734,
                0.119523168,
                -0.8382323,
                -0.88327,
                -0.2576934,
                0.514328957,
                -0.292088151,
                0.5059011,
                -0.06605542,
                -0.13952291,
                -0.718726039,
                0.6733115,
                0.986580133,
                -0.8920164,
                -0.14695853,
                -1.0,
                -0.999316454,
                -0.412789941,
                -0.4170872,
                0.7349553
              ]
            },
            {
              "weights": [
                -0.08872712,
                0.80647254,
                -0.006244898,
                -0.919371367,
                -0.123870015,
                -0.188560367,
                -0.713393,
                0.8759892,
                -0.762106657,
                0.5481418,
                0.9580679,
                0.9461689,
                -0.425427556,
                0.0353719,
                -0.349120021,
                0.04061687,
                0.860904455,
                -0.175515056,
                -1.0,
                1.0,
                -1.0,
                -0.9390123,
                -0.953249454,
                -0.007087946,
                -0.476185441,
                0.009368718,
                -1.0,
                -0.5852833,
                1.0,
                0.940578461,
                0.6091397,
                0.5143275,
                0.5998647,
                -1.0,
                0.9458766,
                0.439955443,
                -0.25786674,
                0.2654247,
                0.8153436,
                0.33951062,
                -0.749762535,
                0.426843137,
                -0.9073388
              ]
            },
            {
              "weights": [
                -0.441232562,
                0.506675,
                0.4205457,
                0.7593727,
                -0.9736376,
                -0.5282531,
                -0.616821051,
                0.5698434,
                -0.626746655,
                0.6960976,
                0.7185973,
                -0.353327572,
                -0.720728636,
                0.1616129,
                -0.9088962,
                0.0346442461,
                -0.210634589,
                -0.951952,
                -0.275873542,
                -0.2968229,
                -0.9800231,
                0.306584567,
                -0.255204141,
                0.131168842,
                0.9374788,
                -0.140852571,
                0.133656859,
                -0.267832637,
                -0.849769831,
                0.781618357,
                -0.193446845,
                -0.9450917,
                0.09152064,
                0.266341418,
                -0.3122471,
                0.593193,
                -0.2063235,
                0.299945563,
                -0.272838026,
                -0.329297423,
                0.6024389,
                0.264194578,
                0.2324673
              ]
            },
            {
              "weights": [
                -0.29655683,
                0.3715348,
                -0.111135125,
                -0.381114453,
                -0.604850531,
                0.6203623,
                -0.488003373,
                -0.380865932,
                -0.5453901,
                0.240260959,
                0.450767726,
                -0.5105725,
                0.965549231,
                -0.943794,
                -1.0,
                0.109243065,
                0.00167036057,
                -1.0,
                -0.853760958,
                -1.0,
                -0.769510746,
                -0.5914098,
                0.7038915,
                -0.76190114,
                -0.9322922,
                0.371973962,
                0.8474095,
                -0.8205159,
                0.548401833,
                -0.0827013254,
                0.141981721,
                -0.792561769,
                -1.0,
                -0.9234121,
                -1.0,
                0.194678426,
                -1.0,
                -1.0,
                0.955667853,
                0.0934428,
                -0.1965625,
                0.759567261,
                -0.25930202
              ]
            },
            {
              "weights": [
                0.7840576,
                0.96391356,
                -0.154956579,
                -0.25259316,
                0.9068327,
                -0.5890393,
                -0.8483746,
                -0.656996965,
                -0.301607043,
                0.8401613,
                -0.538113356,
                -0.312907815,
                -0.7746801,
                1.0,
                -1.0,
                0.8630855,
                -0.80628705,
                -0.03595531,
                -0.9276259,
                0.4038122,
                0.382995576,
                0.200849891,
                0.412016362,
                0.246122837,
                0.372974843,
                -0.162041515,
                0.9680259,
                -0.541396558,
                0.2738957,
                -0.4646007,
                0.858191,
                1.0,
                0.161861449,
                -0.401643,
                -0.916833162,
                -0.957151532,
                0.998408556,
                -0.628687859,
                0.347931117,
                0.5213256,
                -0.835111856,
                -0.500517368,
                0.181990683
              ]
            }
          ]
        },
        {
          "neurons": [
            {
              "weights": [
                0.04919541,
                -0.7992875,
                -1.0,
                0.492829442,
                0.7142422,
                -0.714859247,
                0.6448653,
                0.131789267,
                0.501988649,
                -0.592710733,
                0.3563039,
                -1.0,
                0.439928472,
                0.242936879,
                -1.0,
                0.11383535,
                -0.61993,
                -0.11188513,
                0.777989745,
                0.06821132
              ]
            },
            {
              "weights": [
                -0.115607858,
                -0.217511773,
                0.502622962,
                -0.355067432,
                -0.124392807,
                -0.999187946,
                -1.0,
                -0.6472121,
                -0.467924237,
                0.03159511,
                0.9005883,
                -0.255504966,
                1.0,
                -1.0,
                -0.7199607,
                0.211623967,
                -0.0856843,
                1.0,
                0.8976042,
                0.871566951
              ]
            },
            {
              "weights": [
                -0.977607,
                0.896419764,
                0.6488358,
                -0.1877321,
                0.170964837,
                1.0,
                0.4896197,
                -0.008251309,
                -1.0,
                0.1920675,
                1.0,
                0.312635064,
                0.3970722,
                0.03580606,
                -0.08278501,
                -0.653071463,
                -1.0,
                -0.313392282,
                -0.320967078,
                0.5911999
              ]
            },
            {
              "weights": [
                -1.0,
                0.383532524,
                1.0,
                0.1442681,
                -0.17565,
                -0.5914891,
                -0.007634133,
                0.28435728,
                0.210361838,
                -0.5263097,
                0.6432085,
                -0.105499327,
                -0.6716826,
                -0.720895052,
                -0.659649134,
                -0.6878791,
                -1.0,
                0.299731225,
                -0.0271545649,
                0.721319258
              ]
            },
            {
              "weights": [
                -0.037417233,
                -0.10522081,
                0.4258687,
                -0.8298974,
                0.1896745,
                0.00357542187,
                -0.640274048,
                -0.877181768,
                -1.0,
                0.0939329863,
                -0.154272676,
                -0.8300688,
                0.492450118,
                -0.4759102,
                -0.27174747,
                1.0,
                0.911910057,
                1.0,
                0.487838,
                0.8903656
              ]
            },
            {
              "weights": [
                0.710867167,
                -0.489896655,
                -0.3603288,
                0.8878827,
                -0.243332028,
                0.0638092756,
                -0.0414275825,
                1.0,
                0.6448662,
                -0.6299763,
                -0.987360954,
                -1.0,
                -0.64113307,
                0.272094458,
                -0.766058445,
                -0.234378964,
                -1.0,
                0.9096184,
                -0.09819567,
                -0.7060356
              ]
            },
            {
              "weights": [
                0.6417329,
                -0.7635319,
                -1.0,
                -0.353816628,
                0.646389,
                1.0,
                -0.0487175,
                -0.2940176,
                0.8591037,
                -0.539662361,
                0.511144161,
                -0.0318743,
                0.762640953,
                -1.0,
                -0.7544081,
                -0.795155,
                -0.36536023,
                0.25166747,
                -0.178733528,
                0.494068354
              ]
            },
            {
              "weights": [
                -0.409106374,
                -0.580153942,
                -0.9026506,
                0.4476804,
                0.298540443,
                0.13069737,
                -0.750592,
                -1.0,
                -0.524204,
                0.982353449,
                -0.336472631,
                0.109723449,
                -0.208448529,
                -0.8012569,
                0.6583597,
                -0.174919486,
                -0.432955146,
                0.4619832,
                -1.0,
                -0.5180757
              ]
            },
            {
              "weights": [
                -1.0,
                0.313217372,
                0.177905917,
                0.284095675,
                -0.9862766,
                -0.719611168,
                0.07015985,
                -0.0162417889,
                1.0,
                -0.7413335,
                -0.5613557,
                -0.5911995,
                1.0,
                -1.0,
                0.03844583,
                -0.592318356,
                0.9861834,
                0.6585245,
                -1.0,
                -0.385642648
              ]
            },
            {
              "weights": [
                -0.0382672548,
                -0.297608972,
                0.129254878,
                1.0,
                -1.0,
                1.0,
                -0.5047005,
                -0.0465592146,
                -0.11337626,
                1.0,
                0.592950344,
                0.313966721,
                -0.9544494,
                -0.36201036,
                0.6404381,
                0.5672958,
                -0.8969064,
                -0.458957732,
                0.5834617,
                0.6876888
              ]
            },
            {
              "weights": [
                -0.5719696,
                0.626664162,
                -0.5330663,
                -0.245168626,
                0.309687585,
                0.0460220575,
                -0.458295256,
                -1.0,
                0.453180939,
                -0.00355041027,
                0.07783663,
                -0.7889184,
                0.3978553,
                -0.8107562,
                -0.627897,
                -0.192233026,
                -0.0103765726,
                -0.06770241,
                -1.0,
                -0.7478497
              ]
            },
            {
              "weights": [
                0.5667436,
                -0.644356847,
                -0.286538124,
                -0.7391031,
                1.0,
                0.1639198,
                1.0,
                -0.0920382738,
                -0.534019,
                -0.4948095,
                -0.4348489,
                -0.08018106,
                0.0620759726,
                0.146901608,
                -1.0,
                0.6673424,
                -0.593594849,
                0.246085048,
                0.504633665,
                -0.048856616
              ]
            },
            {
              "weights": [
                0.967833757,
                0.103704572,
                -1.0,
                0.09803188,
                -0.106009364,
                -0.209892392,
                1.0,
                -1.0,
                0.209851146,
                -0.4857856,
                -0.0403594375,
                -0.371296048,
                0.94952774,
                -0.548831,
                -0.213132262,
                -0.903719544,
                0.4714274,
                0.799422,
                -0.03912407,
                0.237163782
              ]
            },
            {
              "weights": [
                -0.108097196,
                0.622702837,
                -0.1805166,
                -0.534530342,
                0.163275,
                0.871189833,
                -0.17089504,
                1.0,
                0.0885571241,
                0.6334171,
                -0.8061583,
                -0.5683286,
                -0.338391185,
                -0.7303028,
                -0.452618957,
                0.6354285,
                1.0,
                -0.411075473,
                0.6609968,
                -0.300663352
              ]
            },
            {
              "weights": [
                0.3244856,
                -1.0,
                0.94974184,
                -0.399164438,
                0.897754848,
                -1.0,
                -0.5488054,
                -0.05150622,
                -0.925116539,
                -1.0,
                -0.4630648,
                0.729031563,
                -0.4768725,
                0.370191783,
                0.8828071,
                0.44597885,
                1.0,
                0.6707808,
                0.153294683,
                0.447108
              ]
            },
            {
              "weights": [
                0.0517681837,
                0.6271744,
                1.0,
                1.0,
                0.5369017,
                -1.0,
                -0.1637168,
                0.969087839,
                0.7344372,
                0.5633457,
                1.0,
                0.2856981,
                0.6195998,
                -0.4001099,
                -1.0,
                0.08454311,
                0.04972899,
                0.997198,
                0.290368617,
                -0.485462517
              ]
            },
            {
              "weights": [
                0.9560842,
                -0.1184181,
                -0.7866502,
                -1.0,
                1.0,
                0.5109416,
                0.322452575,
                -0.344683349,
                -0.8664129,
                -0.3123108,
                -0.23638165,
                -0.28232038,
                0.8058591,
                0.070219636,
                -0.0153967142,
                0.06932685,
                -0.453251362,
                -0.868717432,
                -0.153461576,
                0.68274945
              ]
            },
            {
              "weights": [
                0.668607235,
                0.09970057,
                0.625157535,
                0.5831201,
                0.223059654,
                0.6219487,
                0.0260044336,
                -0.2550758,
                -0.8552606,
                1.0,
                0.04428208,
                0.3216519,
                0.279705346,
                -0.261491179,
                -0.08043444,
                0.370194882,
                0.343182772,
                -0.15845117,
                0.4255118,
                -0.8345664
              ]
            },
            {
              "weights": [
                -0.194331676,
                -0.910785437,
                0.0392370224,
                -0.298392475,
                -0.08811262,
                -0.4803046,
                -0.57529974,
                0.02998054,
                -0.3627745,
                0.9667359,
                1.0,
                0.7466805,
                -0.197357953,
                0.316242784,
                0.1208635,
                0.6570575,
                0.5254635,
                -1.0,
                0.769468069,
                0.318422526
              ]
            },
            {
              "weights": [
                -0.121724784,
                0.369451016,
                -0.7471924,
                -0.5770145,
                -0.529161453,
                -0.8848486,
                0.710124969,
                1.0,
                -1.0,
                -1.0,
                1.0,
                0.778978348,
                -1.0,
                -1.0,
                -0.5611689,
                -0.8389516,
                -0.181155443,
                0.354816884,
                -0.7351169,
                -0.6064036
              ]
            }
          ]
        },
        {
          "neurons": [
            {
              "weights": [
                0.391577333,
                -0.70570606,
                0.603540659,
                -1.0,
                0.280469179,
                1.0,
                0.314848155,
                1.0,
                0.0279036164,
                -1.0,
                1.0,
                0.394944876,
                -1.0,
                -0.496233344,
                -0.175901711,
                0.3384864,
                -0.0953097641,
                -0.542912,
                -1.0,
                -0.8245005
              ]
            },
            {
              "weights": [
                -1.0,
                -0.429172873,
                -0.847774744,
                0.0797714,
                0.955524,
                0.02283454,
                -0.2995597,
                0.712096,
                1.0,
                0.222638726,
                0.2954044,
                1.0,
                0.944070041,
                -0.488224864,
                1.0,
                -0.294123679,
                1.0,
                0.204208732,
                -0.4135543,
                -1.0
              ]
            },
            {
              "weights": [
                0.23241514,
                -1.0,
                0.365131825,
                -0.39503774,
                0.367679477,
                -0.9567268,
                0.09859979,
                -0.466880441,
                -1.0,
                0.104980469,
                0.450300425,
                0.8986292,
                -0.851921558,
                0.406879872,
                -0.2970268,
                1.0,
                0.8585532,
                -1.0,
                -0.2329849,
                -0.303115636
              ]
            },
            {
              "weights": [
                -0.368240654,
                -0.6916179,
                0.218209118,
                0.232706189,
                -0.2751149,
                0.334918469,
                -1.0,
                -0.330594361,
                1.0,
                -1.0,
                1.0,
                -0.2343148,
                -0.413536727,
                -0.7972307,
                -1.0,
                0.571875334,
                -0.369885325,
                -0.334269643,
                -0.991024256,
                0.250231266
              ]
            },
            {
              "weights": [
                0.2641122,
                1.0,
                0.7769296,
                0.13853085,
                0.427753419,
                0.2511221,
                0.886400461,
                -0.397343636,
                -0.320814252,
                -0.1675471,
                -0.1870662,
                -0.9020443,
                1.0,
                1.0,
                0.0393498242,
                0.09976971,
                0.1595158,
                -1.0,
                0.38467744,
                -0.438657641
              ]
            },
            {
              "weights": [
                -0.3727633,
                -0.788569,
                0.40805456,
                -1.0,
                0.569036,
                -0.319595218,
                -0.7872897,
                -0.821020842,
                0.8705801,
                0.423731267,
                0.65608716,
                -0.638860941,
                0.1329954,
                1.0,
                -0.343367815,
                0.5039642,
                -1.0,
                0.008359075,
                -1.0,
                0.7031975
              ]
            },
            {
              "weights": [
                -0.401978135,
                -0.06916976,
                0.475359917,
                -0.700920343,
                1.0,
                -1.0,
                -0.455084682,
                -0.6902097,
                0.709141,
                -0.887933969,
                0.313757867,
                -0.7892473,
                0.2703811,
                -0.123727918,
                0.00363355875,
                -1.0,
                -0.00512975454,
                -0.5407827,
                0.547581553,
                -0.043587327
              ]
            },
            {
              "weights": [
                -0.107646585,
                0.343104333,
                0.5457104,
                -0.303444982,
                -0.362425178,
                -0.976058245,
                -0.370278031,
                0.405711144,
                -1.0,
                -0.108790517,
                0.0452654958,
                -0.4052773,
                -1.0,
                0.13310802,
                0.356251925,
                -0.5051017,
                1.0,
                -0.419257522,
                -0.8572415,
                -0.384628415
              ]
            },
            {
              "weights": [
                -0.377179563,
                0.224020958,
                0.3272192,
                0.8390004,
                -0.467755437,
                -0.5485892,
                -0.07730317,
                0.0173107386,
                -1.0,
                -0.56932795,
                0.3637622,
                -1.0,
                0.127563953,
                -0.7871325,
                0.5808914,
                0.122616172,
                -0.423641562,
                -0.9929228,
                -0.678663,
                -0.7663171
              ]
            },
            {
              "weights": [
                0.3101804,
                -0.735648334,
                0.346804142,
                -0.3469137,
                0.904240668,
                -0.105940714,
                0.5176126,
                -0.7309419,
                -0.808330536,
                0.8797518,
                0.7904248,
                -0.420144439,
                0.06884706,
                0.815595865,
                0.535038,
                -0.5105611,
                -0.259434253,
                -0.7161956,
                0.256427467,
                -0.0700888038
              ]
            },
            {
              "weights": [
                -0.43383193,
                0.22432816,
                0.8417218,
                -0.337581515,
                0.7413577,
                -0.505203962,
                0.6742821,
                0.340169638,
                -0.8790755,
                -0.223822713,
                1.0,
                0.492032021,
                1.0,
                -1.0,
                1.0,
                0.7911509,
                -0.4276483,
                0.3508093,
                -1.0,
                -0.49164784
              ]
            },
            {
              "weights": [
                -0.7045865,
                -1.0,
                1.0,
                -0.490626067,
                -0.6529082,
                -0.309960246,
                -0.248428464,
                -0.2511698,
                0.160721838,
                0.1912033,
                0.3332846,
                0.493804127,
                -0.5014243,
                -1.0,
                -1.0,
                -0.0175830126,
                0.170283258,
                -0.962249339,
                0.6210987,
                -0.1032013
              ]
            },
            {
              "weights": [
                -1.0,
                0.06986344,
                -0.377551138,
                -0.307605863,
                0.0285795629,
                0.712280035,
                0.575948238,
                0.349650621,
                -0.349500775,
                0.9450197,
                -1.0,
                -1.0,
                0.763294458,
                0.7675841,
                0.315636873,
                0.5375689,
                0.334063739,
                -0.9373474,
                -0.195761085,
                -1.0
              ]
            },
            {
              "weights": [
                -0.306971133,
                -1.0,
                -0.408122569,
                0.264050454,
                -0.08235729,
                1.0,
                -0.77874136,
                -0.6950569,
                -0.0173604488,
                0.757241,
                -0.230124384,
                0.8495817,
                0.6746799,
                -0.548723,
                0.600905538,
                -1.0,
                0.621358633,
                0.6103089,
                0.698436737,
                0.114596069
              ]
            },
            {
              "weights": [
                -0.875233054,
                0.4509301,
                0.5601955,
                1.0,
                -0.237026334,
                1.0,
                -0.283052921,
                -1.0,
                0.135759234,
                0.882792,
                0.573707461,
                -0.363993526,
                -0.3338338,
                0.235426784,
                -0.9341834,
                -1.0,
                -0.201630473,
                -1.0,
                -0.808378,
                -0.0321387649
              ]
            }
          ]
        },
        {
          "neurons": [
            {
              "weights": [
                -0.5315094,
                -0.5410115,
                -0.498118579,
                1.0,
                0.191014767,
                0.006174743,
                0.405649424,
                0.6784897,
                0.0267871022,
                -0.991720438,
                -1.0,
                1.0,
                1.0,
                -0.284620255,
                0.461766422
              ]
            },
            {
              "weights": [
                -0.442201167,
                0.154622138,
                -0.197800174,
                0.15231967,
                -0.465791941,
                1.0,
                1.0,
                1.0,
                -0.70279026,
                -1.0,
                0.64772284,
                0.0846358538,
                -1.0,
                -1.0,
                -0.5693118
              ]
            },
            {
              "weights": [
                -1.0,
                -0.5860553,
                0.635149956,
                1.0,
                -1.0,
                -0.266274482,
                -1.0,
                0.6181669,
                0.0465866327,
                -0.8391602,
                0.327734232,
                0.00582554936,
                -0.6698849,
                0.0729336739,
                -0.5274832
              ]
            },
            {
              "weights": [
                0.153215826,
                0.6213174,
                -0.205138683,
                0.7210759,
                -0.6704598,
                0.245043591,
                0.572066665,
                0.701535,
                -0.0478073359,
                -1.0,
                -0.522783,
                -0.547026455,
                0.678685546,
                -1.0,
                0.1345051
              ]
            },
            {
              "weights": [
                0.838240266,
                -0.4457266,
                -1.0,
                0.22029075,
                0.6091609,
                -0.4885996,
                0.615348041,
                1.0,
                -0.7547481,
                0.3210805,
                -1.0,
                1.0,
                -0.454797655,
                -0.211428881,
                0.4431989
              ]
            },
            {
              "weights": [
                -0.667393148,
                0.35104835,
                -0.467485,
                -0.007014096,
                -0.454327941,
                -1.0,
                -0.0633918047,
                1.0,
                0.1692735,
                0.7785375,
                -0.7038463,
                0.8377439,
                -0.8305579,
                0.1903646,
                -0.5108614
              ]
            },
            {
              "weights": [
                1.0,
                -0.807418168,
                0.9281511,
                -0.559335351,
                -0.3314846,
                1.0,
                0.471362,
                1.0,
                -0.15172416,
                0.8582952,
                1.0,
                -1.0,
                0.8351872,
                0.417131454,
                0.8139599
              ]
            },
            {
              "weights": [
                0.105873823,
                -0.151280046,
                -1.0,
                1.0,
                0.493421853,
                0.432384342,
                -0.45275867,
                -0.08499792,
                -0.100464821,
                0.2723957,
                -0.803980947,
                -0.675892,
                -0.7925465,
                -1.0,
                1.0
              ]
            },
            {
              "weights": [
                -0.3798194,
                -0.47875917,
                -1.0,
                0.729064,
                -0.19146511,
                1.0,
                -0.0766474,
                -0.5379665,
                -0.542593062,
                0.3762809,
                1.0,
                0.015766263,
                0.08448535,
                0.74550426,
                -0.1879181
              ]
            },
            {
              "weights": [
                0.7540937,
                0.5651837,
                -0.7475472,
                1.0,
                -0.489277482,
                0.7386577,
                0.975461364,
                1.0,
                0.0106492043,
                0.8845888,
                -0.692294359,
                -1.0,
                0.601280451,
                0.691269159,
                -1.0
              ]
            }
          ]
        },
        {
          "neurons": [
            {
              "weights": [
                1.0,
                -0.921772957,
                -1.0,
                0.45945698,
                0.853588641,
                -0.0456164479,
                0.7756437,
                -0.02061513,
                0.7012998,
                -0.891768754
              ]
            },
            {
              "weights": [
                -0.145997733,
                -0.728694439,
                -0.716814637,
                0.787429333,
                -0.7500074,
                -0.7577326,
                -0.333595276,
                -1.0,
                -1.0,
                1.0
              ]
            },
            {
              "weights": [
                -1.0,
                -0.2849949,
                0.01592499,
                -0.1316506,
                0.9829979,
                -1.0,
                1.0,
                -0.7260928,
                1.0,
                -0.9527951
              ]
            },
            {
              "weights": [
                -0.0811868,
                1.0,
                0.769837558,
                0.502655268,
                -0.772339642,
                1.0,
                0.288311839,
                1.0,
                -1.0,
                0.0486213565
              ]
            },
            {
              "weights": [
                0.562100053,
                0.549966335,
                0.9881631,
                0.08813423,
                0.9675796,
                0.831145942,
                1.0,
                -0.879492044,
                1.0,
                0.504950047
              ]
            },
            {
              "weights": [
                1.0,
                -0.5314245,
                0.7685687,
                1.0,
                -0.0420838,
                1.0,
                1.0,
                -0.2948494,
                1.0,
                0.05726427
              ]
            },
            {
              "weights": [
                1.0,
                0.5888684,
                -1.0,
                0.6859375,
                0.02571702,
                1.0,
                0.116436124,
                1.0,
                -1.0,
                0.32604447
              ]
            },
            {
              "weights": [
                -1.0,
                0.602550864,
                0.6837919,
                -1.0,
                1.0,
                0.5488554,
                1.0,
                -1.0,
                0.3528633,
                -0.201503992
              ]
            }
          ]
        },
        {
          "neurons": [
            {
              "weights": [
                -0.819086134,
                -1.0,
                -0.7970685,
                0.906606,
                0.5811832,
                -1.0,
                -0.572761536,
                -0.5631361
              ]
            },
            {
              "weights": [
                -0.6920768,
                -0.02787882,
                1.0,
                -0.112120628,
                1.0,
                0.3284809,
                1.0,
                0.6806706
              ]
            },
            {
              "weights": [
                0.5453999,
                0.07602334,
                -1.0,
                -0.391808033,
                0.443126768,
                1.0,
                0.08765817,
                0.529798865
              ]
            },
            {
              "weights": [
                -0.2532652,
                -1.0,
                0.473367363,
                -0.5107276,
                0.442446828,
                1.0,
                -1.0,
                1.0
              ]
            },
            {
              "weights": [
                -1.0,
                -0.4563561,
                1.0,
                0.05283183,
                -0.0879128,
                -0.190825939,
                -1.0,
                -1.0
              ]
            },
            {
              "weights": [
                1.0,
                0.354236066,
                -0.595737934,
                1.0,
                0.899401,
                0.6403134,
                -0.443940282,
                0.588733554
              ]
            },
            {
              "weights": [
                1.0,
                0.107669115,
                -1.0,
                -1.0,
                1.0,
                -0.7100777,
                -1.0,
                0.6860517
              ]
            }
          ]
        },
        {
          "neurons": [
            {
              "weights": [
                -1.0,
                0.0211385489,
                -0.459863544,
                0.8226643,
                1.0,
                0.6648681,
                1.0
              ]
            },
            {
              "weights": [
                0.2238636,
                -0.135192811,
                0.179750979,
                0.900101066,
                -0.427156866,
                -0.5220146,
                -0.22517103
              ]
            },
            {
              "weights": [
                -0.352646619,
                0.9037737,
                -0.240938425,
                -0.40678528,
                -0.5417418,
                -0.418790966,
                0.691262364
              ]
            },
            {
              "weights": [
                1.0,
                0.309361041,
                -0.6052362,
                -0.740072548,
                0.02883166,
                -0.193677485,
                1.0
              ]
            },
            {
              "weights": [
                0.3248067,
                1.0,
                0.77258265,
                -0.6438195,
                -0.192692339,
                1.0,
                0.08805472
              ]
            },
            {
              "weights": [
                0.044485867,
                0.9294687,
                0.05606085,
                1.0,
                -0.24899435,
                -0.000196635723,
                -1.0
              ]
            }
          ]
        }
      ],
      "settings": {
        "layers": [
          43,
          20,
          20,
          15,
          10,
          8,
          7,
          6
        ],
        "error_min": 0.1,
        "error_max": 1.0
      }
    }
  },
  {
    "brain_network": {
      "layers": [
        {
          "neurons": [
            {
              "weights": null
            },
            {
              "weights": null
            },
            {
              "weights": null
            },
            {
              "weights": null
            },
            {
              "weights": null
            },
            {
              "weights": null
            },
            {
              "weights": null
            },
            {
              "weights": null
            },
            {
              "weights": null
            },
            {
              "weights": null
            },
            {
              "weights": null
            },
            {
              "weights": null
            },
            {
              "weights": null
            },
            {
              "weights": null
            },
            {
              "weights": null
            },
            {
              "weights": null
            },
            {
              "weights": null
            },
            {
              "weights": null
            },
            {
              "weights": null
            },
            {
              "weights": null
            },
            {
              "weights": null
            },
            {
              "weights": null
            },
            {
              "weights": null
            },
            {
              "weights": null
            },
            {
              "weights": null
            },
            {
              "weights": null
            },
            {
              "weights": null
            },
            {
              "weights": null
            },
            {
              "weights": null
            },
            {
              "weights": null
            },
            {
              "weights": null
            },
            {
              "weights": null
            },
            {
              "weights": null
            },
            {
              "weights": null
            },
            {
              "weights": null
            },
            {
              "weights": null
            },
            {
              "weights": null
            },
            {
              "weights": null
            },
            {
              "weights": null
            },
            {
              "weights": null
            },
            {
              "weights": null
            },
            {
              "weights": null
            },
            {
              "weights": null
            }
          ]
        },
        {
          "neurons": [
            {
              "weights": [
                -0.6812172,
                0.998239756,
                0.7297406,
                -0.0216881037,
                -0.1825372,
                1.0,
                -0.280886352,
                -0.265790582,
                -0.5556724,
                -0.452794671,
                1.0,
                -0.5656941,
                0.901525,
                0.8632184,
                -0.7198839,
                -0.341437936,
                -0.346653819,
                0.161091924,
                -1.0,
                -1.0,
                0.197104335,
                0.255817145,
                -0.0564795136,
                -0.274669528,
                0.02471459,
                0.6330917,
                -0.0218147635,
                -0.5141151,
                -0.5385587,
                0.9745264,
                0.255124569,
                -0.8960986,
                -0.898753166,
                0.5507562,
                -0.3101269,
                0.5197003,
                -0.7312355,
                0.9394562,
                -0.9291432,
                0.0164145231,
                -0.06893754,
                -0.2966777,
                -0.990687847
              ]
            },
            {
              "weights": [
                -0.244182944,
                0.430701,
                -0.9379678,
                -0.356541753,
                -0.541231155,
                0.6217668,
                -0.307738423,
                -0.456374,
                0.336343735,
                0.978238463,
                0.513415337,
                0.5218897,
                0.416222066,
                0.07214892,
                0.455692738,
                -1.0,
                -0.7129408,
                0.942636847,
                -0.5267968,
                -0.161934018,
                0.916609049,
                -0.403784066,
                -0.913352251,
                -0.6581609,
                -0.277678132,
                -0.146223426,
                -0.641927958,
                0.228072047,
                -0.266364455,
                0.529518843,
                -1.0,
                -0.457214236,
                0.450912654,
                0.201549649,
                -0.450474858,
                0.6302848,
                0.00323688984,
                0.705116749,
                -0.8161564,
                0.2942598,
                0.0892424,
                -0.32302773,
                0.289597958
              ]
            },
            {
              "weights": [
                -0.480648875,
                0.438869923,
                -0.180090547,
                -0.3073002,
                0.2778823,
                -0.9967003,
                0.453175515,
                -0.12765038,
                -0.632185,
                -0.482705235,
                -0.127967,
                -0.6560565,
                0.320412368,
                0.7774501,
                -0.6222575,
                1.0,
                -0.9505856,
                0.07796538,
                -0.955088139,
                0.790550947,
                -0.718072653,
                -1.0,
                0.153308749,
                -0.643224955,
                -0.299280047,
                -0.7582102,
                -0.524867535,
                0.659445047,
                1.0,
                -0.616281033,
                0.251445442,
                0.397253484,
                -0.220120788,
                0.5983925,
                1.0,
                0.286776274,
                0.575595737,
                -0.286105752,
                0.23172915,
                -1.0,
                0.488950461,
                0.0590904951,
                -0.8160558
              ]
            },
            {
              "weights": [
                1.0,
                0.475275248,
                -0.684591532,
                -0.7268521,
                -0.6439793,
                -0.7281809,
                0.695662,
                -0.14171207,
                0.8782105,
                0.5253396,
                0.5549104,
                0.5577936,
                0.429888934,
                -0.8085599,
                0.7192569,
                0.8950195,
                0.953120947,
                0.879267,
                0.345397443,
                -0.0862125158,
                -0.814346552,
                0.111554265,
                -0.291796565,
                0.659619331,
                0.8155937,
                -0.472555637,
                -0.46576488,
                -0.22154057,
                0.8896227,
                -0.659614563,
                -0.7416847,
                0.192433715,
                -0.117052048,
                0.0114046335,
                0.494043559,
                0.0332320929,
                0.8703736,
                -0.5283034,
                0.747693539,
                0.146533608,
                -0.5791271,
                0.772163153,
                0.8610916
              ]
            },
            {
              "weights": [
                0.776797831,
                -0.4085933,
                -0.148598313,
                0.357667416,
                -0.7264252,
                -0.43081677,
                -0.9506521,
                1.0,
                -0.9249434,
                0.817633867,
                0.75887537,
                -1.0,
                0.32829845,
                -0.300424218,
                -0.875005,
                -0.168789268,
                1.0,
                -0.5877154,
                -0.84772706,
                0.5285182,
                0.511981964,
                0.583519459,
                0.604186058,
                0.6326425,
                -0.00721371174,
                -0.757994056,
                0.174466491,
                -0.6033745,
                -0.726754665,
                0.952703238,
                0.4373612,
                -0.994632,
                -0.5263245,
                1.0,
                -0.5748987,
                0.116067916,
                -0.9608238,
                0.371471643,
                -0.343978524,
                0.8959646,
                -0.193234086,
                0.3013663,
                0.374568433
              ]
            },
            {
              "weights": [
                0.376829535,
                -0.256520152,
                -0.5560088,
                0.163002849,
                -0.56725955,
                -0.7199993,
                0.5021808,
                -0.743250251,
                0.639029,
                0.8283045,
                0.245092154,
                -0.46286425,
                -1.0,
                -0.237261415,
                0.151752114,
                -0.4775008,
                -0.731470346,
                0.3350639,
                -1.0,
                -0.185558438,
                -0.7578244,
                0.2840993,
                0.611795664,
                -0.432927758,
                0.271655768,
                -0.427779317,
                -0.355667233,
                0.8835988,
                0.363992184,
                -1.0,
                0.7652261,
                0.750674963,
                0.9448285,
                0.277493179,
                -1.0,
                -0.453362674,
                0.8716297,
                -0.5113387,
                -0.4374467,
                0.486839175,
                1.0,
                -0.372359633,
                -0.125661969
              ]
            },
            {
              "weights": [
                0.0456761122,
                0.70905757,
                -0.829098761,
                -0.634951532,
                -1.0,
                1.0,
                -0.8580179,
                0.077113986,
                0.456986248,
                0.6471536,
                -0.758782148,
                -0.252638459,
                0.846062064,
                0.393549174,
                -0.2161709,
                -0.7137544,
                -0.742276669,
                -0.2777232,
                1.0,
                0.890282631,
                -0.133201331,
                -0.6533327,
                -0.651497364,
                0.9781902,
                0.705546856,
                0.130241454,
                -0.384843,
                -0.808774948,
                -0.107411265,
                -0.289012551,
                -0.816994,
                0.01269877,
                -0.4663332,
                0.8372164,
                0.8746984,
                1.0,
                0.0494135022,
                -1.0,
                -0.6192014,
                0.605924368,
                0.990524769,
                0.7649498,
                0.66721344
              ]
            },
            {
              "weights": [
                -0.999976158,
                0.01042521,
                -0.979588747,
                -1.0,
                -0.6506505,
                -0.428493619,
                0.498489827,
                -0.242260545,
                -1.0,
                0.485820025,
                -0.6197533,
                0.6434386,
                -0.635053158,
                0.6458111,
                -0.1275369,
                -0.699914932,
                -0.514906645,
                0.0103632212,
                -0.4927591,
                0.646159649,
                -0.7396734,
                1.0,
                -0.929172337,
                0.9911225,
                0.2505009,
                -0.360237479,
                -0.0971912146,
                0.95072484,
                -0.267434955,
                0.132705271,
                -0.437891841,
                -0.376570821,
                0.8184383,
                0.807908952,
                -0.0590769053,
                -0.390714645,
                -0.428083539,
                -0.0517390966,
                1.0,
                0.8399229,
                -0.521757364,
                0.179232955,
                -0.05096513
              ]
            },
            {
              "weights": [
                -0.698292255,
                -0.85727334,
                -0.5379685,
                0.9365301,
                -0.36390245,
                -0.986201048,
                0.3430134,
                -0.52514863,
                -0.01621002,
                0.247344017,
                -0.4518329,
                -0.127558589,
                0.955873,
                -0.009630084,
                -0.4181217,
                -0.971298456,
                -0.275854,
                0.918819666,
                -0.800286531,
                -0.8405875,
                -0.6383679,
                -0.391245961,
                0.1038121,
                -0.801651239,
                -0.3226925,
                -0.529375553,
                0.243276,
                0.496879071,
                -0.975543,
                0.0744427443,
                -0.6449871,
                -0.25556457,
                0.3604705,
                0.8572998,
                0.451577872,
                0.5930965,
                -0.185298324,
                0.290148228,
                0.714375734,
                -0.7989156,
                -0.22803843,
                -0.7735596,
                0.7154491
              ]
            },
            {
              "weights": [
                0.945192337,
                1.0,
                -0.6555207,
                0.307122678,
                0.452524632,
                -0.918320239,
                0.290553,
                -1.0,
                -0.7418184,
                -1.0,
                0.9165659,
                -0.10076344,
                -0.8475311,
                -0.30166018,
                -0.9652231,
                -0.161914825,
                0.381240577,
                -0.957648754,
                0.447093457,
                0.4312784,
                -0.5329659,
                0.2254678,
                0.6038034,
                0.356752127,
                0.353802651,
                -1.0,
                0.7617123,
                -0.918324769,
                0.9442105,
                -1.0,
                0.6235542,
                0.564582348,
                0.1450659,
                0.793521643,
                0.193914533,
                -0.00284159184,
                0.5391073,
                -0.498106122,
                0.7290484,
                -1.0,
                -0.8096154,
                0.3913016,
                -0.107397676
              ]
            },
            {
              "weights": [
                0.148171544,
                -0.08524859,
                0.455718964,
                0.493613929,
                0.519588,
                -0.8438425,
                0.316331834,
                0.115830749,
                -1.0,
                -0.5309763,
                0.7207475,
                -0.920665264,
                -1.0,
                -0.623196363,
                -0.7498722,
                0.0241080523,
                -0.5899284,
                -0.8651426,
                0.216887832,
                0.383264035,
                0.26109764,
                -0.186751679,
                0.95734334,
                -0.6035164,
                -0.385450244,
                -0.683133841,
                -0.160849214,
                0.212301373,
                0.06344601,
                0.753774941,
                -0.86241436,
                -0.641507149,
                0.477549285,
                1.0,
                0.118980795,
                -0.8401382,
                0.448914349,
                -1.0,
                0.700949669,
                -0.361213773,
                -0.640249968,
                -0.101079941,
                -0.434421957
              ]
            },
            {
              "weights": [
                0.7531917,
                0.458266467,
                1.0,
                1.0,
                -0.08722228,
                -0.3830682,
                0.939271,
                -0.5237045,
                -0.379224777,
                -0.382167935,
                -0.998605251,
                -0.582689762,
                0.556291342,
                -0.8973541,
                -0.586796641,
                -0.7604499,
                -0.158779025,
                -0.8706665,
                -0.847606063,
                0.549279,
                0.171527743,
                -0.0133621693,
                0.708000839,
                0.288295865,
                0.201222479,
                0.55294776,
                -0.5509715,
                0.313617945,
                0.4808173,
                -0.542435348,
                -0.109604716,
                -0.7827139,
                0.209948182,
                -0.499615073,
                -0.5186317,
                -0.175150514,
                0.3639798,
                0.683141,
                -0.0005441904,
                0.272877425,
                -0.605618238,
                0.8467282,
                -0.6526232
              ]
            },
            {
              "weights": [
                -0.3859192,
                -0.110381484,
                0.105886817,
                -0.3457445,
                -0.779324532,
                -0.160909772,
                0.6809255,
                0.11226666,
                -0.000133097172,
                0.163207173,
                -0.08389354,
                -0.112162948,
                1.0,
                0.554754257,
                0.253758878,
                -0.5104389,
                -0.245101571,
                1.0,
                -0.6681853,
                -0.5702487,
                -0.4694003,
                0.0824450254,
                0.7514386,
                -0.470895171,
                -0.250349879,
                0.0146292448,
                1.0,
                -0.133190036,
                -0.128288388,
                -0.687754154,
                0.811934233,
                0.3043277,
                -0.6606116,
                0.0193792582,
                -0.6398842,
                0.397694081,
                0.902446747,
                -0.613023758,
                0.271295756,
                -0.4656161,
                -0.646013737,
                -0.100103855,
                0.984696746
              ]
            },
            {
              "weights": [
                -0.210066915,
                0.145339668,
                -0.01860702,
                -0.0158393979,
                1.0,
                -0.804932833,
                0.364278525,
                -0.273951173,
                -0.108804107,
                0.2876365,
                0.911848545,
                0.391600579,
                -0.255228877,
                0.482062548,
                -0.4376577,
                1.0,
                0.139965653,
                0.6688907,
                -0.04386723,
                -0.0896076,
                -0.300424218,
                0.336443752,
                -0.343763,
                -0.7822213,
                0.193810582,
                0.35186407,
                0.178585887,
                -1.0,
                0.970572233,
                -0.23620832,
                -0.7696035,
                1.0,
                -0.903627157,
                -0.760793447,
                -1.0,
                0.901069164,
                -0.960312366,
                -0.445531964,
                0.7715304,
                0.871462,
                -0.456565648,
                -0.496127248,
                0.6280651
              ]
            },
            {
              "weights": [
                -0.262254357,
                0.205449164,
                1.0,
                -0.604211569,
                0.284602135,
                0.103335053,
                -0.09574735,
                -0.396978527,
                0.617136955,
                0.53694737,
                -0.9007523,
                -0.347569853,
                1.0,
                0.0210076571,
                -0.190777183,
                -0.8046446,
                0.8653343,
                -0.8722069,
                -0.390788674,
                1.0,
                0.0902668238,
                0.8997555,
                0.347132653,
                -0.6012902,
                -0.380845845,
                -0.903944254,
                -0.38837707,
                1.0,
                -1.0,
                0.259854764,
                0.948610544,
                0.8754916,
                -1.0,
                -0.8147242,
                0.484182328,
                1.0,
                0.0152565241,
                0.8054527,
                -1.0,
                0.5210891,
                -0.859061956,
                -0.679160357,
                0.4673836
              ]
            },
            {
              "weights": [
                0.6670239,
                0.837586164,
                0.0124150515,
                0.27918312,
                -0.5050099,
                0.313642234,
                1.0,
                0.62461853,
                0.5767009,
                0.711049557,
                0.1264764,
                -0.0351599455,
                -0.686383367,
                0.9527924,
                -0.649605751,
                0.350225955,
                0.734465361,
                1.0,
                -0.9953475,
                -0.235725045,
                -0.369748235,
                -0.453847051,
                -0.5988207,
                0.800611734,
                0.119523168,
                -0.8382323,
                -0.88327,
                -0.2576934,
                0.514328957,
                -0.292088151,
                0.5059011,
                -0.06605542,
                -0.13952291,
                -0.718726039,
                0.6733115,
                0.986580133,
                -0.8920164,
                -0.14695853,
                -1.0,
                -0.999316454,
                -0.412789941,
                -0.4170872,
                0.7349553
              ]
            },
            {
              "weights": [
                -0.08872712,
                0.80647254,
                -0.006244898,
                -0.919371367,
                -0.123870015,
                -0.188560367,
                -0.713393,
                0.8759892,
                -0.762106657,
                0.5481418,
                0.9580679,
                0.9461689,
                -0.425427556,
                0.0353719,
                -0.349120021,
                0.04061687,
                0.860904455,
                -0.175515056,
                -1.0,
                1.0,
                -1.0,
                -0.9390123,
                -0.953249454,
                -0.007087946,
                -0.476185441,
                0.009368718,
                -1.0,
                -0.5852833,
                1.0,
                0.940578461,
                0.6091397,
                0.5143275,
                0.5998647,
                -1.0,
                0.9458766,
                0.439955443,
                -0.25786674,
                0.2654247,
                0.8153436,
                0.33951062,
                -0.749762535,
                0.146633118,
                -0.9073388
              ]
            },
            {
              "weights": [
                -0.441232562,
                0.506675,
                0.4205457,
                0.7593727,
                -0.9736376,
                -0.5282531,
                -0.616821051,
                0.5698434,
                -0.626746655,
                0.6960976,
                0.7185973,
                -0.353327572,
                -0.720728636,
                0.1616129,
                -0.9088962,
                0.0346442461,
                -0.210634589,
                -0.951952,
                -0.275873542,
                -0.2968229,
                -0.9800231,
                0.306584567,
                -0.255204141,
                0.131168842,
                0.9374788,
                -0.140852571,
                0.133656859,
                -0.267832637,
                -0.849769831,
                0.781618357,
                -0.193446845,
                -0.9450917,
                0.09152064,
                0.266341418,
                -0.3122471,
                0.593193,
                -0.2063235,
                0.299945563,
                -0.272838026,
                -0.329297423,
                0.6024389,
                0.264194578,
                0.2324673
              ]
            },
            {
              "weights": [
                -0.29655683,
                0.3715348,
                -0.111135125,
                -0.381114453,
                -0.604850531,
                0.6203623,
                -0.488003373,
                -0.380865932,
                -0.5453901,
                0.240260959,
                0.450767726,
                -0.5105725,
                0.965549231,
                -0.943794,
                -1.0,
                0.109243065,
                0.00167036057,
                -1.0,
                -0.853760958,
                -1.0,
                -0.769510746,
                -0.5914098,
                0.7038915,
                -0.76190114,
                -0.9322922,
                0.371973962,
                0.8474095,
                -0.8205159,
                0.548401833,
                -0.0827013254,
                0.141981721,
                -0.792561769,
                -1.0,
                -0.9234121,
                -1.0,
                0.194678426,
                -1.0,
                -1.0,
                0.955667853,
                0.0934428,
                -0.1965625,
                0.759567261,
                -0.25930202
              ]
            },
            {
              "weights": [
                0.7840576,
                0.96391356,
                -0.154956579,
                -0.25259316,
                0.9068327,
                -0.5890393,
                -0.8483746,
                -0.656996965,
                -0.301607043,
                0.8401613,
                -0.538113356,
                -0.312907815,
                -0.7746801,
                1.0,
                -1.0,
                0.8630855,
                -0.80628705,
                -0.03595531,
                -0.9276259,
                0.4038122,
                0.382995576,
                0.200849891,
                0.412016362,
                0.246122837,
                0.372974843,
                -0.162041515,
                0.9680259,
                -0.541396558,
                0.2738957,
                -0.4646007,
                0.858191,
                1.0,
                0.161861449,
                -0.401643,
                -0.916833162,
                -0.957151532,
                0.998408556,
                -0.628687859,
                0.347931117,
                0.5213256,
                -0.835111856,
                -0.500517368,
                0.181990683
              ]
            }
          ]
        },
        {
          "neurons": [
            {
              "weights": [
                0.04919541,
                -0.7992875,
                -1.0,
                0.492829442,
                0.7142422,
                -0.714859247,
                0.6448653,
                0.131789267,
                0.501988649,
                -0.592710733,
                0.3563039,
                -1.0,
                0.439928472,
                0.242936879,
                -1.0,
                0.11383535,
                -0.61993,
                -0.11188513,
                0.777989745,
                0.06821132
              ]
            },
            {
              "weights": [
                -0.115607858,
                -0.217511773,
                0.502622962,
                -0.355067432,
                -0.124392807,
                -0.999187946,
                -1.0,
                -0.6472121,
                -0.467924237,
                0.03159511,
                0.9005883,
                -0.255504966,
                1.0,
                -1.0,
                -0.7199607,
                0.211623967,
                -0.0856843,
                1.0,
                0.8976042,
                0.871566951
              ]
            },
            {
              "weights": [
                -0.977607,
                0.896419764,
                0.6488358,
                -0.1877321,
                0.170964837,
                1.0,
                0.4896197,
                -0.008251309,
                -1.0,
                0.1920675,
                1.0,
                0.312635064,
                0.3970722,
                0.03580606,
                -0.08278501,
                -0.653071463,
                -1.0,
                -0.313392282,
                -0.320967078,
                0.5911999
              ]
            },
            {
              "weights": [
                -1.0,
                0.383532524,
                1.0,
                0.1442681,
                -0.17565,
                -0.5914891,
                -0.007634133,
                0.28435728,
                0.210361838,
                -0.5263097,
                0.6432085,
                -0.105499327,
                -0.6716826,
                -0.720895052,
                -0.659649134,
                -0.6878791,
                -1.0,
                0.299731225,
                -0.0271545649,
                0.721319258
              ]
            },
            {
              "weights": [
                -0.037417233,
                -0.10522081,
                0.4258687,
                -0.8298974,
                0.1896745,
                0.00357542187,
                -0.640274048,
                -0.877181768,
                -1.0,
                0.0939329863,
                -0.154272676,
                -0.8300688,
                0.492450118,
                -0.4759102,
                -0.27174747,
                1.0,
                0.911910057,
                1.0,
                0.487838,
                0.8903656
              ]
            },
            {
              "weights": [
                0.710867167,
                -0.489896655,
                -0.3603288,
                0.8878827,
                -0.243332028,
                0.0638092756,
                -0.0414275825,
                1.0,
                0.6448662,
                -0.6299763,
                -0.987360954,
                -1.0,
                -0.64113307,
                0.272094458,
                -0.766058445,
                -0.234378964,
                -1.0,
                0.9096184,
                -0.09819567,
                -0.7060356
              ]
            },
            {
              "weights": [
                0.6417329,
                -0.7635319,
                -1.0,
                -0.353816628,
                0.646389,
                1.0,
                -0.0487175,
                -0.2940176,
                0.8591037,
                -0.539662361,
                0.511144161,
                -0.0318743,
                0.762640953,
                -1.0,
                -0.7544081,
                -0.795155,
                -0.36536023,
                0.25166747,
                -0.178733528,
                0.494068354
              ]
            },
            {
              "weights": [
                -0.409106374,
                -0.580153942,
                -0.9026506,
                0.4476804,
                0.298540443,
                0.13069737,
                -0.750592,
                -1.0,
                -0.524204,
                0.982353449,
                -0.336472631,
                0.109723449,
                -0.208448529,
                -0.8012569,
                0.6583597,
                -0.174919486,
                -0.432955146,
                0.4619832,
                -1.0,
                -0.5180757
              ]
            },
            {
              "weights": [
                -1.0,
                0.313217372,
                0.177905917,
                0.284095675,
                -0.9862766,
                -0.719611168,
                0.07015985,
                -0.0162417889,
                1.0,
                -0.7413335,
                -0.5613557,
                -0.5911995,
                1.0,
                -1.0,
                0.03844583,
                -0.592318356,
                0.9861834,
                0.6585245,
                -1.0,
                -0.385642648
              ]
            },
            {
              "weights": [
                -0.0382672548,
                -0.297608972,
                0.129254878,
                1.0,
                -1.0,
                1.0,
                -0.5047005,
                -0.0465592146,
                -0.11337626,
                1.0,
                0.592950344,
                0.313966721,
                -0.9544494,
                -0.36201036,
                0.6404381,
                0.5672958,
                -0.8969064,
                -0.458957732,
                0.5834617,
                0.6876888
              ]
            },
            {
              "weights": [
                -0.5719696,
                0.626664162,
                -0.5330663,
                -0.245168626,
                0.309687585,
                0.0460220575,
                -0.458295256,
                -1.0,
                0.453180939,
                -0.00355041027,
                0.07783663,
                -0.7889184,
                0.3978553,
                -0.8107562,
                -0.627897,
                -0.192233026,
                -0.0103765726,
                -0.06770241,
                -1.0,
                -0.7478497
              ]
            },
            {
              "weights": [
                0.5667436,
                -0.644356847,
                -0.286538124,
                -0.7391031,
                1.0,
                0.1639198,
                1.0,
                -0.0920382738,
                -0.534019,
                -0.4948095,
                -0.4348489,
                -0.08018106,
                0.0620759726,
                0.146901608,
                -1.0,
                0.6673424,
                -0.593594849,
                0.246085048,
                0.504633665,
                -0.048856616
              ]
            },
            {
              "weights": [
                0.967833757,
                0.103704572,
                -1.0,
                0.09803188,
                -0.106009364,
                -0.209892392,
                1.0,
                -1.0,
                0.209851146,
                -0.4857856,
                -0.0403594375,
                -0.371296048,
                0.94952774,
                -0.548831,
                -0.213132262,
                -0.903719544,
                0.4714274,
                0.799422,
                -0.03912407,
                0.237163782
              ]
            },
            {
              "weights": [
                -0.108097196,
                0.622702837,
                -0.1805166,
                -0.534530342,
                0.163275,
                0.871189833,
                -0.17089504,
                1.0,
                0.0885571241,
                0.6334171,
                -0.8061583,
                -0.5683286,
                -0.338391185,
                -0.7303028,
                -0.452618957,
                0.6354285,
                1.0,
                -0.411075473,
                0.6609968,
                -0.300663352
              ]
            },
            {
              "weights": [
                0.3244856,
                -1.0,
                0.94974184,
                -0.399164438,
                0.897754848,
                -1.0,
                -0.5488054,
                -0.05150622,
                -0.925116539,
                -1.0,
                -0.4630648,
                0.729031563,
                -0.4768725,
                0.370191783,
                0.8828071,
                0.44597885,
                1.0,
                0.6707808,
                0.153294683,
                0.447108
              ]
            },
            {
              "weights": [
                0.0517681837,
                0.6271744,
                1.0,
                1.0,
                0.5369017,
                -1.0,
                -0.1637168,
                0.969087839,
                0.7344372,
                0.5633457,
                1.0,
                0.2856981,
                0.6195998,
                -0.4001099,
                -1.0,
                0.08454311,
                0.04972899,
                0.997198,
                0.290368617,
                -0.485462517
              ]
            },
            {
              "weights": [
                0.9560842,
                -0.1184181,
                -0.7866502,
                -1.0,
                1.0,
                0.5109416,
                0.322452575,
                -0.344683349,
                -0.8664129,
                -0.3123108,
                -0.23638165,
                -0.28232038,
                0.8058591,
                0.070219636,
                -0.0153967142,
