[
  {
    "brain_network": {
      "layers": [
        {
          "neurons": [
            {
              "weights": null
            },
            {
              "weights": null
            },
            {
              "weights": null
            },
            {
              "weights": null
            },
            {
              "weights": null
            },
            {
              "weights": null
            },
            {
              "weights": null
            },
            {
              "weights": null
            },
            {
              "weights": null
            },
            {
              "weights": null
            },
            {
              "weights": null
            },
            {
              "weights": null
            },
            {
              "weights": null
            },
            {
              "weights": null
            },
            {
              "weights": null
            },
            {
              "weights": null
            },
            {
              "weights": null
            },
            {
              "weights": null
            },
            {
              "weights": null
            },
            {
              "weights": null
            },
            {
              "weights": null
            },
            {
              "weights": null
            },
            {
              "weights": null
            },
            {
              "weights": null
            },
            {
              "weights": null
            },
            {
              "weights": null
            },
            {
              "weights": null
            },
            {
              "weights": null
            },
            {
              "weights": null
            },
            {
              "weights": null
            },
            {
              "weights": null
            },
            {
              "weights": null
            },
            {
              "weights": null
            },
            {
              "weights": null
            },
            {
              "weights": null
            },
            {
              "weights": null
            },
            {
              "weights": null
            },
            {
              "weights": null
            },
            {
              "weights": null
            },
            {
              "weights": null
            },
            {
              "weights": null
            },
            {
              "weights": null
            },
            {
              "weights": null
            }
          ]
        },
        {
          "neurons": [
            {
              "weights": [
                -0.08113611,
                0.009022117,
                -1.0,
                -0.703237534,
                0.158350348,
                0.0463975668,
                0.672912359,
                -0.175094008,
                -0.78515327,
                0.9828098,
                -0.06287086,
                -0.0266748667,
                -0.0270048678,
                0.105037183,
                0.741533756,
                0.686612368,
                -0.780585051,
                -0.6571157,
                -0.376423955,
                0.297914,
                -0.60184145,
                -0.2860812,
                -0.534986734,
                0.351855,
                -0.9828728,
                -0.07213175,
                0.353584021,
                0.38292262,
                -0.0621539354,
                0.8490031,
                0.926156759,
                0.780035734,
                0.4325194,
                -0.685097,
                0.696520567,
                0.103540063,
                -0.0532583,
                -0.165692687,
                -0.6355586,
                -0.191972733,
                0.355535239,
                -1.0,
                -0.8800657
              ]
            },
            {
              "weights": [
                0.6034024,
                -0.37995708,
                0.628659844,
                -1.0,
                -0.630394,
                -0.0978063345,
                -1.0,
                0.6369455,
                -0.0265361071,
                -0.0490359068,
                0.548300564,
                0.170749784,
                0.237083554,
                0.224730134,
                0.4819245,
                0.8293402,
                -0.366345048,
                -0.335479379,
                0.5482209,
                -0.707844734,
                0.0264039338,
                0.132401824,
                0.335557342,
                -0.8350036,
                -0.9580848,
                0.4219398,
                0.6160503,
                -0.7321768,
                0.165461183,
                -0.361333728,
                -1.0,
                0.840590239,
                -0.3686868,
                0.7848766,
                -0.7814944,
                -0.059471488,
                -0.4623816,
                0.4060044,
                -0.0476681,
                0.3677785,
                -0.3387872,
                -0.8988669,
                0.417860717
              ]
            },
            {
              "weights": [
                -0.120402932,
                0.6461811,
                -0.7062278,
                -0.5375874,
                -0.175934434,
                -0.1258105,
                -0.6162152,
                -0.772220552,
                -0.6078818,
                -0.5687387,
                0.797175646,
                -0.5659299,
                0.00289857388,
                -0.4896711,
                -1.0,
                -0.4606861,
                0.170057178,
                -0.8610579,
                0.7784079,
                0.662632465,
                -0.469942451,
                0.4148173,
                0.01946342,
                -0.0381635129,
                0.530840635,
                0.495832652,
                -0.5836561,
                -0.144266248,
                -0.4248911,
                0.683122158,
                -0.191126466,
                0.7401407,
                -0.469112515,
                -0.495935082,
                0.995194435,
                0.216294169,
                0.9017031,
                -0.288880467,
                0.08370292,
                -1.0,
                -0.4202025,
                -0.6917679,
                0.9090669
              ]
            },
            {
              "weights": [
                -1.0,
                -0.448971868,
                -0.93158555,
                -0.657896042,
                -0.22050488,
                -0.0167137384,
                -0.4118419,
                -0.646391153,
                0.524652243,
                -0.915965557,
                -0.6708019,
                0.7579534,
                -0.636710644,
                -0.5523225,
                0.851661444,
                -1.0,
                -0.4179126,
                0.5650623,
                0.7755468,
                0.5682657,
                -0.735584736,
                0.4802458,
                -0.537729263,
                -0.282816768,
                -0.865901,
                0.8711755,
                -0.114516616,
                0.8525214,
                0.8894601,
                -0.5714898,
                0.254495233,
                0.729904652,
                -0.6631532,
                -0.7947099,
                -0.926346242,
                0.6428666,
                -0.6172688,
                -0.0308195353,
                -0.785080433,
                0.9125743,
                -0.1681155,
                -0.706956148,
                -0.758434057
              ]
            },
            {
              "weights": [
                1.0,
                0.133506179,
                -0.834922552,
                -0.89267087,
                0.451766938,
                -0.9374778,
                -0.866767168,
                -0.228242755,
                -0.8120121,
                -1.0,
                -0.503974438,
                -0.9140296,
                0.194907784,
                -1.0,
                -0.691225052,
                -0.195161939,
                -0.14695704,
                0.137672782,
                -0.5580394,
                0.238837361,
                0.5494356,
                0.294234961,
                1.0,
                0.6612501,
                0.607323647,
                -0.08525789,
                0.091778636,
                -0.434620261,
                1.0,
                -0.29216373,
                -0.274042,
                0.833987236,
                0.736719847,
                -0.0311974585,
                -0.688925266,
                -0.640737534,
                -0.0273128748,
                0.868026,
                0.737025,
                0.420221061,
                -0.943702,
                -0.6954639,
                -0.2712437
              ]
            },
            {
              "weights": [
                0.560889661,
                -0.315032125,
                -0.93109107,
                -0.953335762,
                0.8606665,
                0.4500229,
                -0.8525696,
                0.8287027,
                -0.6007304,
                0.8142605,
                0.7034154,
                0.1023227,
                0.7798207,
                0.0338120461,
                0.03190452,
                0.05501464,
                0.569337368,
                -1.0,
                -0.788627863,
                -0.8743329,
                0.9796958,
                -0.325228333,
                0.350652665,
                -0.51688534,
                0.167858958,
                -1.0,
                0.6089599,
                -0.09816396,
                0.377055138,
                -0.5635747,
                0.5434854,
                -0.201311946,
                0.5887089,
                -0.068128705,
                0.4196963,
                -0.5064907,
                -0.514420033,
                -0.6932473,
                0.258254737,
                -0.5433396,
                0.657925367,
                0.5393677,
                0.492877454
              ]
            },
            {
              "weights": [
                0.7520709,
                0.172973037,
                0.338119715,
                -0.1285621,
                0.483346671,
                0.489063,
                0.9943204,
                1.0,
                -0.53817606,
                -0.311790347,
                -0.487748742,
                0.463181674,
                -0.10373795,
                -0.402610719,
                -0.649430156,
                -0.5293734,
                0.418359,
                0.314631671,
                0.608552456,
                -0.9067786,
                0.467850417,
                -0.711956,
                0.302317351,
                0.802696645,
                0.350850761,
                -0.9993775,
                -0.9602568,
                -1.0,
                -0.311284184,
                -0.306730151,
                0.186574161,
                0.6978564,
                -0.8552878,
                0.161483824,
                -0.8918481,
                -0.538090467,
                0.952212453,
                0.288599461,
                0.499273747,
                -0.422408849,
                0.863488138,
                -0.382218957,
                0.09176242
              ]
            },
            {
              "weights": [
                0.803128,
                0.9090004,
                0.05620563,
                -0.475263476,
                -0.551994562,
                0.733101368,
                -0.6629095,
                -0.3066529,
                0.08460927,
                -0.6694608,
                1.0,
                -0.103266358,
                -0.392636657,
                -0.07552326,
                0.599051,
                1.0,
                -0.400893331,
                -0.030927062,
                -0.3151976,
                -0.492913842,
                0.916860342,
                -0.610667944,
                -0.532930136,
                -0.979753733,
                -0.236378789,
                0.8817468,
                0.825969458,
                -0.860278368,
                0.136312842,
                0.154914558,
                1.0,
                0.06614506,
                0.2450369,
                -0.8224385,
                -0.8936763,
                -0.231611609,
                -0.6567838,
                0.9540317,
                1.0,
                0.0234099627,
                0.319916725,
                -0.3685683,
                0.977429867
              ]
            },
            {
              "weights": [
                0.476428837,
                -0.678638,
                0.359641761,
                -0.442005038,
                1.0,
                1.0,
                -0.43424952,
                0.172925115,
                -0.619340658,
                -0.5619204,
                0.7532139,
                0.3177404,
                -0.263497472,
                -0.2884084,
                -1.0,
                0.9280233,
                -0.2430867,
                0.09661114,
                -0.7484498,
                -0.104971051,
                0.6521499,
                -0.779192448,
                0.7546158,
                0.9589238,
                0.671785355,
                -0.57044363,
                -0.687636852,
                -0.255603433,
                -0.289981246,
                -0.08352482,
                0.08819401,
                -0.7096,
                0.6850467,
                0.544712067,
                0.8414099,
                0.455848426,
                0.02232647,
                -0.4602151,
                0.8722658,
                -0.5838642,
                0.050534606,
                -0.729354143,
                -0.0313152075
              ]
            },
            {
              "weights": [
                0.329828233,
                0.383239269,
                0.637290955,
                -1.0,
                0.0355292559,
                0.06234491,
                -0.3279924,
                -0.3770911,
                -0.6028347,
                -0.5135911,
                -0.5855875,
                -0.06743252,
                -0.385620952,
                -0.136417508,
                -0.5712011,
                0.6637454,
                0.170633912,
                0.270797729,
                0.8984654,
                -0.637965441,
                0.470273942,
                0.354132146,
                -0.8532715,
                0.00078356266,
                0.190749764,
                -0.542763948,
                -0.116768956,
                0.431015462,
                -0.7633729,
                0.588856,
                -0.431332,
                -0.871284,
                0.70532155,
                0.149790168,
                -0.6415807,
                0.447394341,
                -0.781232834,
                0.899167657,
                0.698052168,
                -1.0,
                -0.605387449,
                0.9994168,
                -0.924215555
              ]
            },
            {
              "weights": [
                0.07179296,
                -0.03909242,
                -0.831196547,
                -0.726887465,
                -0.6097734,
                0.8009913,
                1.0,
                0.489885062,
                -0.301249862,
                -0.6948426,
                -0.868202448,
                0.05520451,
                0.316959351,
                0.927769065,
                0.498028517,
                0.442759961,
                -0.789448,
                0.7074268,
                0.390063256,
                -0.957198143,
                -0.228356,
                0.07387936,
                0.648402,
                -0.381364465,
                0.142665267,
                -0.7492311,
                -0.04883325,
                0.14796555,
                -0.876942158,
                0.880048037,
                -0.101206422,
                0.3568616,
                0.199357152,
                -0.461547524,
                0.5697666,
                -0.9439926,
                0.9239545,
                -0.994695663,
                -0.0318719149,
                -0.6359496,
                -0.568369865,
                -0.770395041,
                -0.7078638
              ]
            },
            {
              "weights": [
                -0.800354242,
                -0.9202838,
                0.8426161,
                1.0,
                0.252664059,
                -0.220344424,
                0.254486054,
                0.8600397,
                -0.162423015,
                0.475015849,
                0.03550589,
                0.733304262,
                0.421838969,
                0.190474153,
                -0.120637059,
                0.368824452,
                0.798148155,
                0.815305948,
                -0.9809177,
                0.908936,
                0.8230703,
                0.0600858927,
                0.8287413,
                -0.00508773327,
                0.459886521,
                -0.169219613,
                0.764124453,
                0.728211761,
                -0.422197938,
                -0.379343867,
                -0.1256901,
                0.9028163,
                -0.353045821,
                -0.136869788,
                0.343419522,
                -0.6704185,
                -0.477514148,
                -0.706078053,
                0.686071157,
                -0.743564844,
                0.702282667,
                -0.199985653,
                0.9848912
              ]
            },
            {
              "weights": [
                -0.108390778,
                0.5603144,
                -0.8041966,
                -0.0309368372,
                -0.246061444,
                -0.0668969154,
                0.110865235,
                -0.474752069,
                -0.721644163,
                -0.6753702,
                -0.640542269,
                -0.06993383,
                0.777153552,
                0.280395478,
                0.7134745,
                0.987540245,
                -1.0,
                0.835822344,
                0.8465716,
                -0.203984141,
                -0.447013736,
                0.63195467,
                -0.6431836,
                0.818234265,
                0.3378577,
                -0.796676636,
                0.430423945,
                0.486767739,
                -0.8097389,
                -0.53676796,
                -0.318443179,
                0.7233083,
                -0.4035399,
                0.212483376,
                0.0012511611,
                -1.0,
                -0.2712432,
                -0.9812065,
                0.6899854,
                -0.873832941,
                0.7659471,
                -0.9164629,
                -0.64386797
              ]
            },
            {
              "weights": [
                0.6448467,
                -0.8949959,
                -0.109565377,
                -0.912082434,
                0.350622624,
                0.173032641,
                0.332793266,
                -0.408890128,
                -0.09906852,
                -0.621028662,
                0.6965289,
                -0.2479788,
                -0.0227373838,
                -0.29190433,
                0.6259934,
                0.486957282,
                -1.0,
                -0.977141142,
                -0.5299959,
                -0.7760782,
                0.30272004,
                -0.782521665,
                -0.3844813,
                -0.5795281,
                -0.952883959,
                -0.495189548,
                -0.7706498,
                -0.839453936,
                0.8959689,
                -0.4479419,
                0.50046134,
                0.9918349,
                0.673752546,
                0.540184,
                -0.332249284,
                0.213847518,
                0.8016153,
                0.412454516,
                -0.8870387,
                0.6532059,
                0.1235162,
                0.3230283,
                -0.459761858
              ]
            },
            {
              "weights": [
                -0.16576159,
                -0.3924867,
                -0.607426167,
                0.730095863,
                0.337748736,
                -0.466768384,
                0.643254757,
                -0.512932539,
                -0.892274857,
                -0.5486246,
                0.5619731,
                0.1374358,
                -0.2928541,
                0.371632785,
                0.6345396,
                -0.6452148,
                0.48049137,
                -0.3870815,
                0.3971183,
                -0.8824389,
                0.7963731,
                0.08225894,
                -0.8557575,
                -0.2513193,
                -0.1425848,
                -0.5326817,
                -0.8384476,
                0.4668457,
                -0.610342264,
                -0.0554808378,
                -0.5072081,
                -0.2611097,
                -1.0,
                -0.0424147844,
                0.63621664,
                0.5274422,
                0.9990108,
                0.44189474,
                0.85305953,
                0.7655646,
                0.553808451,
                -0.6916096,
                0.619289637
              ]
            },
            {
              "weights": [
                -0.191746831,
                0.19385612,
                0.0148931742,
                -0.365020871,
                0.854691744,
                -1.0,
                -0.9091239,
                -0.216981977,
                -0.2885629,
                -0.472469449,
                0.382843226,
                0.393288583,
                0.9399872,
                -0.456519246,
                -0.006854892,
                -0.292019576,
                -0.199078441,
                -0.0008186698,
                1.0,
                -0.6175828,
                0.217871785,
                -0.701577663,
                0.156983733,
                0.094823,
                -0.8782792,
                -0.5585017,
                -0.424028516,
                0.06486547,
                -0.170077682,
                -0.5031624,
                -0.2042104,
                -1.0,
                -0.196715951,
                0.216097951,
                -0.815551043,
                -0.7350664,
                0.241842628,
                0.862758636,
                0.19758302,
                -0.0200763941,
                -0.6170516,
                1.0,
                -0.4081961
              ]
            },
            {
              "weights": [
                0.005317807,
                -0.4903432,
                0.4436433,
                0.607074738,
                0.233651042,
                -0.8351829,
                0.845776141,
                -0.396142125,
                -0.262518048,
                0.589500666,
                0.9343052,
                -0.4820534,
                -0.129417,
                0.3832681,
                -0.214073539,
                0.636038065,
                -0.8398416,
                -0.616295338,
                -0.41599834,
                -0.5574057,
                0.293339461,
                -0.5422938,
                -0.5336983,
                -0.942132235,
                0.126714826,
                0.927935362,
                -0.8109212,
                -0.73756814,
                0.8069837,
                -0.180389762,
                -0.902420461,
                0.533707857,
                0.9481747,
                -0.215254188,
                -0.799761057,
                -0.2009345,
                -1.0,
                0.0006927252,
                0.319220036,
                -0.8742566,
                -0.5437031,
                0.5538118,
                -0.5319629
              ]
            },
            {
              "weights": [
                0.8123219,
                -0.898378849,
                -0.8556466,
                0.722481132,
                0.4175777,
                0.7255988,
                -0.392073035,
                -0.343117833,
                -0.2573129,
                -1.0,
                -0.943079,
                0.06347048,
                -0.3345245,
                0.7605822,
                -0.235881209,
                0.7334013,
                0.404083461,
                0.0853771,
                -0.795428038,
                -0.683467865,
                0.0585159063,
                0.297570229,
                -0.114405751,
                0.466318548,
                0.487926453,
                0.7535372,
                -0.5927243,
                -0.20059979,
                0.6944437,
                0.595157146,
                -0.212430835,
                -0.1663686,
                -0.955357552,
                0.20961225,
                -0.097558856,
                0.5055232,
                0.7130246,
                0.1571809,
                -0.613477945,
                -0.0444954634,
                0.7017727,
                0.483314633,
                0.2613432
              ]
            },
            {
              "weights": [
                -0.07963574,
                0.0424536765,
                0.271613568,
                -0.5620878,
                1.0,
                0.4890382,
                0.220210433,
                -0.809987068,
                0.7561314,
                0.8545437,
                0.6131432,
                0.868822634,
                -0.230772376,
                -0.674950838,
                -0.615738153,
                -0.352651715,
                1.0,
                0.188777089,
                -0.391601622,
                0.09065354,
                -0.156599879,
                0.256515,
                -1.0,
                -0.5431731,
                0.7202182,
                0.4534056,
                -0.209374636,
                0.005583644,
                -1.0,
                -0.0982736349,
                0.480037183,
                -0.9583757,
                -0.6115966,
                -0.368203759,
                0.175122857,
                0.422218531,
                -0.9854395,
                0.730015039,
                0.555493653,
                -0.396258,
                -0.89310503,
                -0.8866842,
                -0.557194948
              ]
            },
            {
              "weights": [
                -0.7427137,
                0.7800212,
                -0.8634689,
                -1.0,
                0.474145621,
                0.459798068,
                -0.275752664,
                0.030649066,
                -0.482782722,
                0.47498247,
                0.715168953,
                -0.5704613,
                -0.6464367,
                -0.135671735,
                0.7399733,
                -0.18244946,
                -0.5915284,
                0.41223833,
                0.144886851,
                -0.03393352,
                -0.5560851,
                -0.20880878,
                -0.8579676,
                -0.107729554,
                0.342199057,
                0.167767674,
                0.0114110708,
                -1.0,
                -0.7381747,
                0.9619782,
                -0.6245072,
                -0.9350009,
                -0.01719229,
                -0.8585589,
                0.06817877,
                0.0817984343,
                0.0601547956,
                0.730664968,
                0.8032179,
                -0.2575432,
                -0.525979757,
                0.7788832,
                0.901536465
              ]
            }
          ]
        },
        {
          "neurons": [
            {
              "weights": [
                -0.275220752,
                0.645251751,
                0.931569159,
                -0.794923961,
                0.6954918,
                0.563353539,
                0.3341014,
                -1.0,
                0.12845552,
                -0.324127316,
                0.8622873,
                0.8590923,
                0.119214371,
                -0.6841165,
                0.0476685166,
                0.858962536,
                0.5390334,
                -1.0,
                0.161425948,
                -0.899845362
              ]
            },
            {
              "weights": [
                0.511557341,
                0.944691956,
                -1.0,
                1.0,
                -0.3407811,
                -1.0,
                -0.446034074,
                0.308256835,
                -0.171462178,
                -0.539991856,
                0.185571909,
                -0.004903525,
                -0.639483,
                -0.0266481638,
                0.3396463,
                -0.52349627,
                0.120354533,
                -0.246953368,
                -0.4433068,
                -0.312829852
              ]
            },
            {
              "weights": [
                -0.0598202646,
                1.0,
                -0.8642168,
                -0.8688259,
                -0.97661376,
                -0.556632757,
                -0.6689012,
                0.274302036,
                -0.782954931,
                0.446540564,
                0.0485827923,
                0.356135815,
                0.9768634,
                -0.07901651,
                0.4564657,
                -0.684448361,
                0.04109299,
                0.3757433,
                0.2193073,
                1.0
              ]
            },
            {
              "weights": [
                0.363857657,
                0.148036748,
                -0.5911679,
                -1.0,
                0.0864163339,
                0.236717343,
                1.0,
                -0.07277858,
                0.128565669,
                1.0,
                -0.302884221,
                -0.00766468048,
                -0.5330212,
                -0.0419518054,
                -0.9966281,
                0.7055509,
                0.6887908,
                0.380700529,
                0.7464011,
                -0.92422986
              ]
            },
            {
              "weights": [
                0.8777516,
                0.21318233,
                0.694966555,
                0.03546256,
                0.7066381,
                -0.7373479,
                0.260005921,
                -0.3883928,
                0.8723161,
                -0.538445234,
                -0.382218,
                -0.50538826,
                -0.9212613,
                0.3858964,
                -0.5032507,
                0.687161446,
                -0.6411321,
                -0.7801709,
                -1.0,
                0.8565867
              ]
            },
            {
              "weights": [
                0.5788133,
                1.0,
                0.7783134,
                0.670000553,
                -0.243011832,
                -0.293039918,
                -0.361310363,
                0.5815108,
                0.407104462,
                0.333515376,
                -1.0,
                1.0,
                -1.0,
                0.4555762,
                -0.1465441,
                0.926139832,
                0.08592212,
                -0.387974381,
                0.7052066,
                -0.6266017
              ]
            },
            {
              "weights": [
                -0.323024869,
                1.0,
                -0.2887627,
                -0.273715854,
                0.04412353,
                0.044524312,
                0.344747275,
                0.0384658575,
                -0.7159674,
                -0.2792341,
                0.8748095,
                1.0,
                0.9573226,
                1.0,
                -0.04015374,
                0.2937636,
                1.0,
                -0.238709331,
                -0.6593828,
                0.056314826
              ]
            },
            {
              "weights": [
                -1.0,
                -0.597719669,
                0.12427187,
                -0.07747543,
                -0.744622,
                -0.9990011,
                0.169125438,
                -0.396792531,
                0.9994273,
                0.7476249,
                0.005704522,
                -0.443170428,
                -0.118574023,
                0.4537523,
                0.37003,
                -0.465710521,
                0.968436956,
                -0.463062167,
                0.0447314978,
                0.260235548
              ]
            },
            {
              "weights": [
                -0.6555846,
                -0.6560252,
                0.17799747,
                -0.8237233,
                0.112868667,
                -1.0,
                -0.1540252,
                0.5885633,
                -0.54531455,
                -0.8730371,
                1.0,
                -0.2108441,
                0.921234846,
                0.1789414,
                0.5240545,
                -0.5482542,
                0.7586873,
                -0.84826076,
                -0.803961039,
                -0.7463286
              ]
            },
            {
              "weights": [
                0.184194386,
                0.7043495,
                -0.384715676,
                0.18221581,
                0.872653246,
                1.0,
                0.276386,
                -0.281969428,
                0.193622947,
                0.0452245474,
                -0.212584376,
                -0.6382323,
                -1.0,
                -0.3898269,
                0.48181197,
                -0.671954155,
                -0.9373605,
                -0.729002,
                -1.0,
                0.043225944
              ]
            },
            {
              "weights": [
                0.024559617,
                -0.900700331,
                -0.121548772,
                -0.183244586,
                0.41503793,
                -0.6853396,
                1.0,
                -0.03267038,
                -1.0,
                0.679746866,
                0.8800807,
                0.290384263,
                -0.40616253,
                1.0,
                -0.342404485,
                1.0,
                0.378799647,
                -0.09509954,
                0.523480654,
                0.159779668
              ]
            },
            {
              "weights": [
                -0.5168688,
                -0.26783,
                -0.694089651,
                0.4224324,
                -0.462349564,
                -0.309041,
                -0.376959443,
                0.953265,
                -0.625647545,
                -0.21722725,
                0.9768474,
                0.998286247,
                0.0176960826,
                0.582523346,
                -0.6756059,
                -0.6384511,
                -0.5727215,
                -0.270924449,
                -0.913262367,
                0.305172652
              ]
            },
            {
              "weights": [
                0.442646,
                -0.422575355,
                -0.547289848,
                -0.7887142,
                -1.0,
                -0.357795358,
                -0.383898437,
                -1.0,
                -0.421783328,
                0.374135,
                0.0518852472,
                0.247701526,
                -0.189443469,
                -0.05707848,
                0.390359849,
                1.0,
                0.0480490923,
                -0.7629509,
                -0.266021132,
                0.6866567
              ]
            },
            {
              "weights": [
                1.0,
                -0.137182117,
                0.144999683,
                -0.354620576,
                0.8329303,
                -0.9321816,
                -0.1729902,
                -1.0,
                0.06726277,
                -0.215214849,
                -0.6522453,
                0.0575348139,
                -0.101535916,
                0.790158749,
                -0.9887066,
                0.204587817,
                -0.697460651,
                0.137919068,
                0.495650738,
                0.139646888
              ]
            },
            {
              "weights": [
                0.3286466,
                -1.0,
                -0.15438199,
                0.8481419,
                0.09356254,
                -0.299492,
                -0.253880143,
                0.4625053,
                0.84637,
                -0.560869455,
                -1.0,
                0.7853503,
                0.643311262,
                -1.0,
                0.06560978,
                0.07140359,
                -0.2982818,
                -0.532753,
                -0.669103861,
                -0.554315
              ]
            },
            {
              "weights": [
                0.5778501,
                0.311948985,
                0.6880245,
                -0.136274874,
                1.0,
                0.188716054,
                -0.288954377,
                0.588411331,
                -0.85289216,
                -0.331062675,
                -0.0567168,
                -0.7452087,
                -0.01670134,
                -0.533364654,
                -0.475062966,
                0.8221525,
                0.434010953,
                0.565472364,
                0.5818062,
                0.565858364
              ]
            },
            {
              "weights": [
                1.0,
                -0.745028555,
                -0.7286086,
                -0.5859325,
                0.7488668,
                -1.0,
                0.234108567,
                0.950729847,
                0.972990751,
                -0.2905898,
                0.244381547,
                0.7779994,
                0.12533316,
                0.5031419,
                -0.199952245,
                0.112134337,
                0.9582664,
                0.106268525,
                1.0,
                -0.184399486
              ]
            },
            {
              "weights": [
                0.79332304,
                0.615582466,
                -0.6695123,
                0.675902843,
                1.0,
                1.0,
                -0.9320953,
                -0.98438,
                -0.462135434,
                0.400356,
                0.9713793,
                -0.540880442,
                0.6740744,
                -0.6923487,
                -0.435437143,
                -0.00948679447,
                0.0706079,
                0.8458554,
                0.9295372,
                -0.917450666
              ]
            },
            {
              "weights": [
                -0.8111737,
                -0.8863578,
                -0.894993544,
                1.0,
                0.135023236,
                0.502839,
                -0.2445491,
                0.84924376,
                0.765759468,
                0.110270143,
                -0.31231153,
                -0.172738433,
                -0.63142395,
                -0.384017825,
                0.624326468,
                -0.9375863,
                -1.0,
                0.409978837,
                0.644377232,
                -0.460107565
              ]
            },
            {
              "weights": [
                -1.0,
                -0.7533386,
                0.2677631,
                -0.3613898,
                0.3915145,
                0.202507615,
                0.5735324,
                -0.8404105,
                0.297305554,
                0.3208978,
                0.319715858,
                -0.813500166,
                0.02989006,
                0.9538441,
                1.0,
                -0.5812762,
                -0.267349124,
                0.537580252,
                0.683496,
                -0.571723
              ]
            }
          ]
        },
        {
          "neurons": [
            {
              "weights": [
                -0.114249349,
                0.9874122,
                -0.486987948,
                0.140719533,
                -0.153264239,
                0.0600384474,
                0.719275,
                1.0,
                -1.0,
                1.0,
                -0.329468131,
                -0.120226651,
                -1.0,
                0.270766884,
                0.260430574,
                0.6904683,
                0.705465555,
                -0.576248169,
                0.4699161,
                0.5873918
              ]
            },
            {
              "weights": [
                -0.832285643,
                1.0,
                0.2605147,
                -0.00516068935,
                1.0,
                -0.463925242,
                -1.0,
                -0.1053406,
                -0.658356667,
                -0.9002323,
                -0.309326768,
                0.09188002,
                1.0,
                -1.0,
                0.7558956,
                0.05156839,
                -0.706109762,
                -1.0,
                -1.0,
                -0.09328604
              ]
            },
            {
              "weights": [
                -0.1924637,
                -1.0,
                -1.0,
                0.2403444,
                1.0,
                -0.9882686,
                -0.3388852,
                0.4304527,
                0.7594769,
                0.7724917,
                0.7545364,
                -0.485334873,
                0.239769578,
                0.5906136,
                0.112239718,
                0.261211127,
                0.725565434,
                0.912264943,
                0.134984851,
                -0.9764786
              ]
            },
            {
              "weights": [
                0.24153161,
                0.9284868,
                0.7285366,
                -0.7075508,
                -0.430528045,
                0.7993633,
                -0.0168949366,
                -0.9534538,
                0.82680583,
                -0.1978839,
                0.6277777,
                -0.7579248,
                -0.056568265,
                0.965605259,
                1.0,
                -0.477209151,
                -0.622038364,
                -0.303236127,
                0.261983216,
                -0.3542783
              ]
            },
            {
              "weights": [
                0.400227576,
                1.0,
                0.008587241,
                0.119851947,
                -0.5590719,
                -0.009007871,
                0.518735647,
                1.0,
                -0.3142356,
                -0.5816419,
                -0.4607419,
                -0.3926438,
                -0.30909574,
                -0.27727282,
                0.033082366,
                -0.727434158,
                -1.0,
                -0.0346428156,
                0.7619747,
                0.5489731
              ]
            },
            {
              "weights": [
                0.9577489,
                -0.5681866,
                0.469399661,
                -0.261063844,
                0.476728678,
                -0.1987375,
                -0.165455461,
                0.8481755,
                -0.129495442,
                0.728122,
                0.2067923,
                -0.3121382,
                -0.04672271,
                1.0,
                0.925987,
                -1.0,
                0.00739228725,
                0.468186617,
                -0.525807,
                0.131091714
              ]
            },
            {
              "weights": [
                0.913199663,
                0.452468842,
                -0.733841658,
                -0.6130321,
                -0.02554281,
                -0.752450466,
                1.0,
                0.597121954,
                -0.00406461954,
                -1.0,
                1.0,
                -0.303106964,
                -0.188878447,
                0.203612924,
                -0.308145076,
                0.6352012,
                0.6522443,
                0.5806422,
                0.469047517,
                0.9440057
              ]
            },
            {
              "weights": [
                0.900954962,
                0.2784221,
                0.497094363,
                0.355595648,
                0.8726523,
                0.0239608288,
                -0.223558366,
                0.634207,
                0.6695558,
                1.0,
                -0.119892448,
                0.7489872,
                -0.8767021,
                -0.427863359,
                -1.0,
                0.168415844,
                0.1463108,
                0.530141354,
                -0.8849566,
                -1.0
              ]
            },
            {
              "weights": [
                0.5741925,
                1.0,
                0.669388831,
                0.008149117,
                0.9830694,
                0.765282,
                0.310565442,
                1.0,
                1.0,
                0.5776541,
                -0.723333836,
                -0.20222795,
                -0.414319873,
                0.2418164,
                -0.199649841,
                0.772069335,
                -0.7535057,
                0.238474965,
                -0.975085,
                0.612007856
              ]
            },
            {
              "weights": [
                -0.277168036,
                -0.9216616,
                -1.0,
                -0.823707461,
                -1.0,
                -1.0,
                0.9210578,
                -1.0,
                -0.438774228,
                -0.170249343,
                -0.462860227,
                -0.2604336,
                0.9449265,
                0.157382131,
                -0.489245057,
                0.529881,
                1.0,
                1.0,
                -0.0658448339,
                -0.343293548
              ]
            },
            {
              "weights": [
                0.150143743,
                0.135260582,
                -0.007437587,
                0.9201055,
                0.103399515,
                -0.632526636,
                0.526270151,
                -0.857198238,
                -0.7660911,
                -0.718081236,
                0.6137247,
                0.7585466,
                0.5926335,
                -0.115402818,
                -0.1464327,
                0.0387755632,
                -0.466162473,
                -0.349994779,
                -0.6818938,
                0.601249933
              ]
            },
            {
              "weights": [
                -0.8040436,
                0.0398635566,
                1.0,
                0.363484353,
                -0.06781566,
                0.357765883,
                0.7708075,
                0.6931329,
                0.4264887,
                0.766674757,
                -0.8999444,
                -0.968139231,
                -0.878368855,
                0.955725431,
                0.540758133,
                -0.0574425459,
                0.52604866,
                -1.0,
                1.0,
                -0.2966723
              ]
            },
            {
              "weights": [
                0.440157861,
                -0.7186096,
                0.692080259,
                -0.6420021,
                -0.365906358,
                0.2416631,
                -0.739311,
                0.271612376,
                -0.381830752,
                0.793700933,
                0.2001394,
                -1.0,
                -0.22150147,
                0.23829639,
                -0.888846636,
                -0.4344517,
                -0.976428151,
                -0.548077345,
                0.302400231,
                0.172103614
              ]
            },
            {
              "weights": [
                0.908668756,
                -0.2459737,
                1.0,
                -0.0135320425,
                0.129718184,
                1.0,
                -0.0118424,
                0.164801955,
                -0.404473424,
                0.6874901,
                0.3685052,
                0.418717116,
                -0.604198456,
                -0.5222609,
                -0.4327048,
                -0.7391784,
                0.2416136,
                -0.5953367,
                1.0,
                0.460980356
              ]
            },
            {
              "weights": [
                1.0,
                -1.0,
                0.6273359,
                -0.497265279,
                -0.7812862,
                0.366635054,
                0.86265564,
                0.3318822,
                -0.9480198,
                -1.0,
                0.5740042,
                -0.711218238,
                0.78124,
                0.8154149,
                -0.9724333,
                -0.444018424,
                0.5533917,
                0.80909586,
                -0.36504066,
                0.071012795
              ]
            }
          ]
        },
        {
          "neurons": [
            {
              "weights": [
                0.5513864,
                -0.22391656,
                -0.155905843,
                -0.07325882,
                -0.2210573,
                0.42003125,
                -0.722004533,
                -1.0,
                -0.7214307,
                0.234557062,
                -1.0,
                0.07747877,
                0.395481318,
                -1.0,
                1.0
              ]
            },
            {
              "weights": [
                -1.0,
                0.008587778,
                -1.0,
                0.5853185,
                -0.1991069,
                -1.0,
                -1.0,
                -1.0,
                -0.363385081,
                0.6829634,
                0.480489,
                1.0,
                0.111388355,
                -1.0,
                -1.0
              ]
            },
            {
              "weights": [
                1.0,
                -0.249456286,
                0.643355131,
                -0.268148631,
                -0.782158136,
                -0.08836901,
                0.3078315,
                -0.19359076,
                0.40264532,
                0.0651525259,
                0.4901838,
                -1.0,
                0.8166921,
                0.30923146,
                0.03888786
              ]
            },
            {
              "weights": [
                -0.168093115,
                -0.225059241,
                -0.249556422,
                -0.7486485,
                1.0,
                -0.4066664,
                -0.148011,
                0.121334374,
                0.6330178,
                -0.3117607,
                0.391257882,
                0.349511057,
                0.498620242,
                1.0,
                0.669999063
              ]
            },
            {
              "weights": [
                0.65124774,
                -0.62024045,
                0.752913,
                0.212292552,
                -1.0,
                0.0485807657,
                -0.01909548,
                -0.858044863,
                0.282504141,
                -1.0,
                -1.0,
                0.1639868,
                0.4096129,
                0.5993068,
                -1.0
              ]
            },
            {
              "weights": [
                1.0,
                0.480996579,
                -1.0,
                0.479820937,
                0.243559718,
                0.4187338,
                -0.298863053,
                0.3135893,
                -0.7785568,
                -1.0,
                -0.5228809,
                1.0,
                0.6517391,
                -1.0,
                0.887812
              ]
            },
            {
              "weights": [
                -1.0,
                -1.0,
                -1.0,
                0.6620772,
                0.793401539,
                0.469482124,
                -1.0,
                0.796348333,
                -0.04553795,
                0.691318035,
                0.76643157,
                0.182851791,
                -0.195607364,
                0.8815862,
                0.5252402
              ]
            },
            {
              "weights": [
                -0.90802,
                1.0,
                1.0,
                -0.9451673,
                0.3890413,
                0.7435851,
                1.0,
                -0.990607262,
                0.454904526,
                -0.989639044,
                -0.522763133,
                0.3672796,
                -0.5195365,
                0.15779531,
                -1.0
              ]
            },
            {
              "weights": [
                0.7509129,
                0.2198467,
                -0.4613694,
                -1.0,
                0.08792731,
                -1.0,
                -0.5118183,
                -0.3376907,
                0.5989227,
                1.0,
                0.608961046,
                -0.9924892,
                0.922740936,
                0.3682921,
                -0.695678949
              ]
            },
            {
              "weights": [
                1.0,
                0.512546837,
                0.8790014,
                -0.242080092,
                1.0,
                -0.138418317,
                0.772732258,
                0.5381349,
                1.0,
                0.8497596,
                -0.135211587,
                -0.5943251,
                -0.259564042,
                -0.5651016,
                -0.8938526
              ]
            }
          ]
        },
        {
          "neurons": [
            {
              "weights": [
                -0.475864768,
                0.32109493,
                0.474209458,
                0.836105347,
                1.0,
                0.9179342,
                0.6377623,
                -0.618440151,
                0.416006148,
                -0.7234596
              ]
            },
            {
              "weights": [
                -0.7397332,
                1.0,
                -0.516139269,
                1.0,
                1.0,
                -1.0,
                -0.659417868,
                -1.0,
                -1.0,
                -1.0
              ]
            },
            {
              "weights": [
                0.008263946,
                -0.690570831,
                0.6971935,
                -0.647849441,
                -0.593989134,
                0.112300247,
                0.5150785,
                -1.0,
                -0.423470557,
                -0.132092476
              ]
            },
            {
              "weights": [
                -1.0,
                0.542379439,
                -0.112523913,
                0.08978516,
                -1.0,
                -0.466232121,
                -0.310101241,
                0.167741179,
                0.114301533,
                -1.0
              ]
            },
            {
              "weights": [
                -1.0,
                0.8271285,
                1.0,
                -1.0,
                -0.326012671,
                0.570213437,
                -0.5575485,
                -1.0,
                -1.0,
                0.707520545
              ]
            },
            {
              "weights": [
                0.587381363,
                1.0,
                0.3195361,
                -1.0,
                0.252662778,
                0.04573512,
                0.4128584,
                0.325006932,
                -1.0,
                -1.0
              ]
            },
            {
              "weights": [
                1.0,
                -0.474641323,
                0.2239775,
                0.591118157,
                -0.741870463,
                0.300641149,
                -1.0,
                0.770555854,
                -1.0,
                -0.5780027
              ]
            },
            {
              "weights": [
                -1.0,
                0.0495578051,
                0.755323648,
                -1.0,
                0.5529766,
                1.0,
                -0.482913017,
                0.125514865,
                0.3991163,
                -0.346786946
              ]
            }
          ]
        },
        {
          "neurons": [
            {
              "weights": [
                -0.308907628,
                1.0,
                -0.57283473,
                -0.250562042,
                0.395763248,
                -1.0,
                -0.358559281,
                0.0233585238
              ]
            },
            {
              "weights": [
                -1.0,
                -0.741035,
                -1.0,
                0.02221334,
                0.434556216,
                -0.6308906,
                0.384014755,
                0.5895596
              ]
            },
            {
              "weights": [
                -0.6137928,
                0.452528536,
                0.8255511,
                1.0,
                -0.907675,
                -0.544163465,
                1.0,
                -0.275442
              ]
            },
            {
              "weights": [
                -1.0,
                1.0,
                -0.11732614,
                -0.47643587,
                -0.8476788,
                -0.5926237,
                -0.376246,
                -1.0
              ]
            },
            {
              "weights": [
                -0.171638489,
                0.591376245,
                -0.7095405,
                1.0,
                1.0,
                0.331893742,
                -1.0,
                -0.221312821
              ]
            },
            {
              "weights": [
                -0.4069395,
                1.0,
                1.0,
                0.9216801,
                -0.569554031,
                -1.0,
                -0.190760911,
                -0.910394
              ]
            },
            {
              "weights": [
                -1.0,
                1.0,
                1.0,
                -1.0,
                0.0115159154,
                -0.246327758,
                0.92792,
                -0.425793648
              ]
            }
          ]
        },
        {
          "neurons": [
            {
              "weights": [
                0.105815649,
                0.178942382,
                -1.0,
                -0.592879951,
                0.860850632,
                -1.0,
                0.791550756
              ]
            },
            {
              "weights": [
                1.0,
                1.0,
                0.625537,
                -1.0,
                -0.109120339,
                0.447131425,
                -0.015221
              ]
            },
            {
              "weights": [
                -0.680196166,
                -0.3943256,
                -1.0,
                0.6108815,
                -0.7722641,
                0.0580647,
                1.0
              ]
            },
            {
              "weights": [
                1.0,
                0.5413376,
                -0.52020216,
                -0.0495862961,
                -0.5211908,
                -0.2193509,
                0.784351766
              ]
            },
            {
              "weights": [
                0.981111646,
                0.7248781,
                0.124472618,
                1.0,
                1.0,
                -0.443990052,
                -0.293281019
              ]
            },
            {
              "weights": [
                -0.466149628,
                1.0,
                -0.7575661,
                -1.0,
                -0.540087938,
                0.569193661,
                1.0
              ]
            }
          ]
        }
      ],
      "settings": {
        "layers": [
          43,
          20,
          20,
          15,
          10,
          8,
          7,
          6
        ],
        "error_min": 0.1,
        "error_max": 1.0
      }
    },
    "generation": 749
  },
  {
    "brain_network": {
      "layers": [
        {
          "neurons": [
            {
              "weights": null
            },
            {
              "weights": null
            },
            {
              "weights": null
            },
            {
              "weights": null
            },
            {
              "weights": null
            },
            {
              "weights": null
            },
            {
              "weights": null
            },
            {
              "weights": null
            },
            {
              "weights": null
            },
            {
              "weights": null
            },
            {
              "weights": null
            },
            {
              "weights": null
            },
            {
              "weights": null
            },
            {
              "weights": null
            },
            {
              "weights": null
            },
            {
              "weights": null
            },
            {
              "weights": null
            },
            {
              "weights": null
            },
            {
              "weights": null
            },
            {
              "weights": null
            },
            {
              "weights": null
            },
            {
              "weights": null
            },
            {
              "weights": null
            },
            {
              "weights": null
            },
            {
              "weights": null
            },
            {
              "weights": null
            },
            {
              "weights": null
            },
            {
              "weights": null
            },
            {
              "weights": null
            },
            {
              "weights": null
            },
            {
              "weights": null
            },
            {
              "weights": null
            },
            {
              "weights": null
            },
            {
              "weights": null
            },
            {
              "weights": null
            },
            {
              "weights": null
            },
            {
              "weights": null
            },
            {
              "weights": null
            },
            {
              "weights": null
            },
            {
              "weights": null
            },
            {
              "weights": null
            },
            {
              "weights": null
            },
            {
              "weights": null
            }
          ]
        },
        {
          "neurons": [
            {
              "weights": [
                -0.08113611,
                0.009022117,
                -1.0,
                -0.703237534,
                0.158350348,
                0.0463975668,
                0.672912359,
                -0.175094008,
                -0.78515327,
                0.9828098,
                -0.06287086,
                -0.0266748667,
                -0.0270048678,
                0.105037183,
                0.741533756,
                0.686612368,
                -0.780585051,
                -0.6571157,
                -0.376423955,
                0.297914,
                -0.60184145,
                -0.2860812,
                -0.534986734,
                0.351855,
                -0.9828728,
                -0.07213175,
                0.353584021,
                0.38292262,
                -0.0621539354,
                0.8490031,
                0.926156759,
                0.780035734,
                0.4325194,
                -0.685097,
                0.696520567,
                0.103540063,
                -0.0532583,
                -0.165692687,
                -0.6355586,
                -0.191972733,
                0.355535239,
                -1.0,
                -0.8800657
              ]
            },
            {
              "weights": [
                0.6034024,
                -0.37995708,
                0.628659844,
                -1.0,
                -0.630394,
                -0.0978063345,
                -1.0,
                0.6369455,
                -0.0265361071,
                -0.0490359068,
                0.548300564,
                0.170749784,
                0.237083554,
                0.224730134,
                0.4819245,
                0.8293402,
                -0.366345048,
                -0.335479379,
                0.5482209,
                -0.707844734,
                0.0264039338,
                0.132401824,
                0.335557342,
                -0.8350036,
                -0.9580848,
                0.4219398,
                0.6160503,
                -0.7321768,
                0.165461183,
                -0.361333728,
                -1.0,
                0.840590239,
                -0.3686868,
                0.7848766,
                -0.7814944,
                -0.059471488,
                -0.4623816,
                0.4060044,
                -0.0476681,
                0.3677785,
                -0.3387872,
                -0.8988669,
                0.417860717
              ]
            },
            {
              "weights": [
                -0.120402932,
                0.6461811,
                -0.7062278,
                -0.5375874,
                -0.175934434,
                -0.1258105,
                -0.6162152,
                -0.772220552,
                -0.6078818,
                -0.5687387,
                0.797175646,
                -0.5659299,
                0.00289857388,
                -0.4896711,
                -1.0,
                -0.4606861,
                0.170057178,
                -0.8610579,
                0.7784079,
                0.662632465,
                -0.469942451,
                0.4148173,
                0.01946342,
                -0.0381635129,
                0.530840635,
                0.495832652,
                -0.5836561,
                -0.144266248,
                -0.4248911,
                0.683122158,
                -0.191126466,
                0.7401407,
                -0.469112515,
                -0.495935082,
                0.995194435,
                0.216294169,
                0.9017031,
                -0.288880467,
                0.08370292,
                -1.0,
                -0.4202025,
                -0.6917679,
                0.9090669
              ]
            },
            {
              "weights": [
                -1.0,
                -0.448971868,
                -0.93158555,
                -0.657896042,
                -0.22050488,
                -0.0167137384,
                -0.4118419,
                -0.646391153,
                0.524652243,
                -0.915965557,
                -0.6708019,
                0.7579534,
                -0.636710644,
                -0.5523225,
                0.851661444,
                -1.0,
                -0.4179126,
                0.5650623,
                0.7755468,
                0.5682657,
                -0.735584736,
                0.4802458,
                -0.537729263,
                -0.282816768,
                -0.865901,
                0.8711755,
                -0.114516616,
                0.8525214,
                0.8894601,
                -0.5714898,
                0.254495233,
                0.729904652,
                -0.6631532,
                -0.7947099,
                -0.926346242,
                0.6428666,
                -0.6172688,
                -0.0308195353,
                -0.785080433,
                0.9125743,
                -0.1681155,
                -0.706956148,
                -0.758434057
              ]
            },
            {
              "weights": [
                1.0,
                0.133506179,
                -0.834922552,
                -0.89267087,
                0.451766938,
                -0.9374778,
                -0.866767168,
                -0.228242755,
                -0.8120121,
                -1.0,
                -0.503974438,
                -0.9140296,
                0.194907784,
                -1.0,
                -0.691225052,
                -0.195161939,
                -0.14695704,
                0.137672782,
                -0.5580394,
                0.238837361,
                0.340304464,
                0.294234961,
                1.0,
                0.6612501,
                0.607323647,
                -0.08525789,
                0.091778636,
                -0.434620261,
                1.0,
                -0.29216373,
                -0.274042,
                0.833987236,
                0.736719847,
                -0.0311974585,
                -0.688925266,
                -0.640737534,
                -0.0273128748,
                0.868026,
                0.737025,
                0.420221061,
                -0.943702,
                -0.6954639,
                -0.2712437
              ]
            },
            {
              "weights": [
                0.560889661,
                -0.315032125,
                -0.93109107,
                -0.953335762,
                0.8606665,
                0.4500229,
                -0.8525696,
                0.8287027,
                -0.6007304,
                0.8142605,
                0.7034154,
                0.1023227,
                0.7798207,
                0.0338120461,
                0.03190452,
                0.05501464,
                0.569337368,
                -1.0,
                -0.788627863,
                -0.8743329,
                0.9796958,
                -0.325228333,
                0.350652665,
                -0.51688534,
                0.167858958,
                -1.0,
                0.6089599,
                -0.09816396,
                0.377055138,
                -0.5635747,
                0.5434854,
                -0.201311946,
                0.5887089,
                -0.068128705,
                0.4196963,
                -0.5064907,
                -0.514420033,
                -0.6932473,
                0.258254737,
                -0.5433396,
                0.657925367,
                0.5393677,
                0.492877454
              ]
            },
            {
              "weights": [
                0.7520709,
                0.172973037,
                0.338119715,
                -0.1285621,
                0.483346671,
                0.489063,
                0.9943204,
                1.0,
                -0.53817606,
                -0.311790347,
                -0.487748742,
                0.463181674,
                -0.10373795,
                -0.402610719,
                -0.649430156,
                -0.5293734,
                0.418359,
                0.314631671,
                0.608552456,
                -0.9067786,
                0.467850417,
                -0.711956,
                0.302317351,
                0.802696645,
                0.350850761,
                -0.9993775,
                -0.9602568,
                -1.0,
                -0.311284184,
                -0.306730151,
                0.186574161,
                0.6978564,
                -0.8552878,
                0.161483824,
                -0.8918481,
                -0.538090467,
                0.952212453,
                0.288599461,
                0.499273747,
                -0.422408849,
                0.863488138,
                -0.382218957,
                0.09176242
              ]
            },
            {
              "weights": [
                0.803128,
                0.9090004,
                0.05620563,
                -0.475263476,
                -0.551994562,
                0.733101368,
                -0.6629095,
                -0.3066529,
                0.08460927,
                -0.6694608,
                1.0,
                -0.103266358,
                -0.392636657,
                -0.07552326,
                0.599051,
                1.0,
                -0.400893331,
                -0.030927062,
                -0.3151976,
                -0.492913842,
                0.916860342,
                -0.610667944,
                -0.532930136,
                -0.979753733,
                -0.236378789,
                0.8817468,
                0.825969458,
                -0.860278368,
                0.136312842,
                0.154914558,
                1.0,
                0.06614506,
                0.2450369,
                -0.8224385,
                -0.8936763,
                -0.231611609,
                -0.6567838,
                0.9540317,
                1.0,
                0.0234099627,
                0.319916725,
                -0.3685683,
                0.977429867
              ]
            },
            {
              "weights": [
                0.476428837,
                -0.678638,
                0.359641761,
                -0.442005038,
                1.0,
                1.0,
                -0.43424952,
                0.172925115,
                -0.619340658,
                -0.5619204,
                0.7532139,
                0.3177404,
                -0.263497472,
                -0.2884084,
                -1.0,
                0.9280233,
                -0.2430867,
                0.09661114,
                -0.7484498,
                -0.104971051,
                0.6521499,
                -0.779192448,
                0.7546158,
                0.9589238,
                0.671785355,
                -0.57044363,
                -0.687636852,
                -0.255603433,
                -0.289981246,
                -0.08352482,
                0.08819401,
                -0.7096,
                0.6850467,
                0.544712067,
                0.8414099,
                0.455848426,
                0.02232647,
                -0.4602151,
                0.8722658,
                -0.5838642,
                0.050534606,
                -0.729354143,
                -0.0313152075
              ]
            },
            {
              "weights": [
                0.329828233,
                0.383239269,
                0.637290955,
                -1.0,
                0.0355292559,
                0.06234491,
                -0.3279924,
                -0.3770911,
                -0.6028347,
                -0.5135911,
                -0.5855875,
                -0.06743252,
                -0.385620952,
                -0.136417508,
                -0.5712011,
                0.6637454,
                0.170633912,
                0.270797729,
                0.8984654,
                -0.637965441,
                0.470273942,
                0.354132146,
                -0.8532715,
                0.00078356266,
                0.190749764,
                -0.542763948,
                -0.116768956,
                0.431015462,
                -0.7633729,
                0.588856,
                -0.431332,
                -0.871284,
                0.70532155,
                0.149790168,
                -0.6415807,
                0.447394341,
                -0.781232834,
                0.899167657,
                0.698052168,
                -1.0,
                -0.605387449,
                0.9994168,
                -0.924215555
              ]
            },
            {
              "weights": [
                0.07179296,
                -0.03909242,
                -0.831196547,
                -0.726887465,
                -0.6097734,
                0.8009913,
                1.0,
                0.489885062,
                -0.301249862,
                -0.6948426,
                -0.868202448,
                0.05520451,
                0.316959351,
                0.927769065,
                0.498028517,
                0.442759961,
                -0.789448,
                0.7074268,
                0.390063256,
                -0.957198143,
                -0.228356,
                0.07387936,
                0.648402,
                -0.381364465,
                0.142665267,
                -0.7492311,
                -0.04883325,
                0.14796555,
                -0.876942158,
                0.880048037,
                -0.101206422,
                0.3568616,
                0.199357152,
                -0.461547524,
                0.5697666,
                -0.9439926,
                0.9239545,
                -0.994695663,
                -0.0318719149,
                -0.6359496,
                -0.568369865,
                -0.770395041,
                -0.7078638
              ]
            },
            {
              "weights": [
                -0.800354242,
                -0.9202838,
                0.8426161,
                1.0,
                0.252664059,
                -0.220344424,
                0.254486054,
                0.8600397,
                -0.162423015,
                0.475015849,
                0.03550589,
                0.733304262,
                0.421838969,
                0.190474153,
                -0.120637059,
                0.368824452,
                0.798148155,
                0.815305948,
                -0.9809177,
                0.908936,
                0.8230703,
                0.0600858927,
                0.8287413,
                -0.00508773327,
                0.459886521,
                -0.169219613,
                0.764124453,
                0.728211761,
                -0.422197938,
                -0.379343867,
                -0.1256901,
                0.9028163,
                -0.353045821,
                -0.136869788,
                0.343419522,
                -0.6704185,
                -0.477514148,
                -0.706078053,
                0.686071157,
                -0.743564844,
                0.702282667,
                -0.199985653,
                0.9848912
              ]
            },
            {
              "weights": [
                -0.108390778,
                0.5603144,
                -0.8041966,
                -0.0309368372,
                -0.246061444,
                -0.0668969154,
                0.110865235,
                -0.474752069,
                -0.721644163,
                -0.6753702,
                -0.640542269,
                -0.06993383,
                0.777153552,
                0.280395478,
                0.7134745,
                0.987540245,
                -1.0,
                0.835822344,
                0.8465716,
                -0.203984141,
                -0.447013736,
                0.63195467,
                -0.6431836,
                0.818234265,
                0.3378577,
                -0.796676636,
                0.430423945,
                0.486767739,
                -0.8097389,
                -0.53676796,
                -0.318443179,
                0.7233083,
                -0.4035399,
                0.212483376,
                0.0012511611,
                -1.0,
                -0.2712432,
                -0.9812065,
                0.6899854,
                -0.873832941,
                0.7659471,
                -0.9164629,
                -0.64386797
              ]
            },
            {
              "weights": [
                0.6448467,
                -0.8949959,
                -0.109565377,
                -0.912082434,
                0.350622624,
                0.173032641,
                0.332793266,
                -0.408890128,
                -0.09906852,
                -0.621028662,
                0.6965289,
                -0.2479788,
                -0.0227373838,
                -0.29190433,
                0.6259934,
                0.486957282,
                -1.0,
                -0.977141142,
                -0.5299959,
                -0.7760782,
                0.30272004,
                -0.782521665,
                -0.3844813,
                -0.5795281,
                -0.952883959,
                -0.495189548,
                -0.7706498,
                -0.839453936,
                0.8959689,
                -0.4479419,
                0.50046134,
                0.9918349,
                0.673752546,
                0.540184,
                -0.332249284,
                0.213847518,
                0.8016153,
                0.412454516,
                -0.8870387,
                0.6532059,
                0.1235162,
                0.3230283,
                -0.459761858
              ]
            },
            {
              "weights": [
                -0.16576159,
                -0.3924867,
                -0.607426167,
                0.730095863,
                0.337748736,
                -0.466768384,
                0.643254757,
                -0.512932539,
                -0.892274857,
                -0.5486246,
                0.5619731,
                0.1374358,
                -0.2928541,
                0.371632785,
                0.6345396,
                -0.6452148,
                0.48049137,
                -0.3870815,
                0.3971183,
                -0.8824389,
                0.7963731,
                0.08225894,
                -0.8557575,
                -0.2513193,
                -0.1425848,
                -0.5326817,
                -0.8384476,
                0.4668457,
                -0.610342264,
                -0.0554808378,
                -0.5072081,
                -0.2611097,
                -1.0,
                -0.0424147844,
                0.63621664,
                0.5274422,
                0.9990108,
                0.44189474,
                0.85305953,
                0.7655646,
                0.553808451,
                -0.6916096,
                0.619289637
              ]
            },
            {
              "weights": [
                -0.191746831,
                0.19385612,
                0.0148931742,
                -0.365020871,
                0.854691744,
                -1.0,
                -0.9091239,
                -0.216981977,
                -0.2885629,
                -0.472469449,
                0.382843226,
                0.393288583,
                0.9399872,
                -0.456519246,
                -0.006854892,
                -0.292019576,
                -0.199078441,
                -0.0008186698,
                1.0,
                -0.6175828,
                0.217871785,
                -0.701577663,
                0.156983733,
                0.094823,
                -0.8782792,
                -0.5585017,
                -0.424028516,
                0.06486547,
                -0.170077682,
                -0.5031624,
                -0.2042104,
                -1.0,
                -0.196715951,
                0.216097951,
                -0.815551043,
                -0.7350664,
                0.241842628,
                0.862758636,
                0.19758302,
                -0.0200763941,
                -0.6170516,
                1.0,
                -0.4081961
              ]
            },
            {
              "weights": [
                0.005317807,
                -0.4903432,
                0.4436433,
                0.607074738,
                0.233651042,
                -0.8351829,
                0.845776141,
                -0.396142125,
                -0.262518048,
                0.589500666,
                0.9343052,
                -0.4820534,
                -0.129417,
                0.3832681,
                -0.214073539,
                0.636038065,
                -0.8398416,
                -0.616295338,
                -0.41599834,
                -0.5574057,
                0.293339461,
                -0.5422938,
                -0.5336983,
                -0.942132235,
                0.126714826,
                0.927935362,
                -0.8109212,
                -0.73756814,
                0.8069837,
                -0.180389762,
                -0.902420461,
                0.533707857,
                0.9481747,
                -0.215254188,
                -0.799761057,
                -0.2009345,
                -1.0,
                0.0006927252,
                0.319220036,
                -0.8742566,
                -0.5437031,
                0.5538118,
                -0.5319629
              ]
            },
            {
              "weights": [
                0.8123219,
                -0.898378849,
                -0.8556466,
                0.722481132,
                0.4175777,
                0.7255988,
                -0.392073035,
                -0.343117833,
                -0.2573129,
                -1.0,
                -0.943079,
                0.06347048,
                -0.3345245,
                0.7605822,
                -0.235881209,
                0.7334013,
                0.404083461,
                0.0853771,
                -0.795428038,
                -0.683467865,
                0.0585159063,
                0.297570229,
                -0.114405751,
                0.466318548,
                0.487926453,
                0.7535372,
                -0.5927243,
                -0.20059979,
                0.6944437,
                0.595157146,
                -0.212430835,
                -0.1663686,
                -0.955357552,
                0.20961225,
                -0.097558856,
                0.5055232,
                0.7130246,
                0.1571809,
                -0.613477945,
                -0.0444954634,
                0.7017727,
                0.483314633,
                0.2613432
              ]
            },
            {
              "weights": [
                -0.07963574,
                0.0424536765,
                0.271613568,
                -0.5620878,
                1.0,
                0.4890382,
                0.220210433,
                -0.809987068,
                0.7561314,
                0.8545437,
                0.6131432,
                0.868822634,
                -0.230772376,
                -0.674950838,
                -0.615738153,
                -0.352651715,
                1.0,
                0.188777089,
                -0.391601622,
                0.09065354,
                -0.156599879,
                0.256515,
                -1.0,
                -0.5431731,
                0.7202182,
                0.4534056,
                -0.209374636,
                0.005583644,
                -1.0,
                -0.0982736349,
                0.480037183,
                -0.9583757,
                -0.6115966,
                -0.368203759,
                0.175122857,
                0.422218531,
                -0.9854395,
                0.730015039,
                0.555493653,
                -0.396258,
                -0.89310503,
                -0.8866842,
                -0.557194948
              ]
            },
            {
              "weights": [
                -0.7427137,
                0.7800212,
                -0.8634689,
                -0.8655896,
                0.474145621,
                0.459798068,
                -0.275752664,
                0.030649066,
                -0.482782722,
                0.47498247,
                0.715168953,
                -0.5704613,
                -0.6464367,
                -0.135671735,
                0.7399733,
                -0.18244946,
                -0.5915284,
                0.41223833,
                0.144886851,
                -0.03393352,
                -0.5560851,
                -0.20880878,
                -0.8579676,
                -0.107729554,
                0.342199057,
                0.167767674,
                0.0114110708,
                -1.0,
                -0.7381747,
                0.9619782,
                -0.6245072,
                -0.9350009,
                -0.01719229,
                -0.8585589,
                0.06817877,
                0.0817984343,
                0.0601547956,
                0.730664968,
                0.8032179,
                -0.2575432,
                -0.525979757,
                0.7788832,
                0.901536465
              ]
            }
          ]
        },
        {
          "neurons": [
            {
              "weights": [
                -0.275220752,
                0.645251751,
                0.931569159,
                -0.794923961,
                0.6954918,
                0.563353539,
                0.3341014,
                -1.0,
                0.12845552,
                -0.324127316,
                0.8622873,
                0.8590923,
                0.119214371,
                -0.6841165,
                0.0476685166,
                0.858962536,
                0.5390334,
                -1.0,
                0.161425948,
                -0.899845362
              ]
            },
            {
              "weights": [
                0.511557341,
                0.944691956,
                -1.0,
                1.0,
                -0.3407811,
                -1.0,
                -0.446034074,
                0.308256835,
                -0.171462178,
                -0.539991856,
                0.185571909,
                -0.004903525,
                -0.639483,
                -0.0266481638,
                0.3396463,
                -0.52349627,
                0.120354533,
                -0.246953368,
                -0.4433068,
                -0.312829852
              ]
            },
            {
              "weights": [
                -0.0598202646,
                1.0,
                -0.8642168,
                -0.8688259,
                -0.97661376,
                -0.556632757,
                -0.6689012,
                0.274302036,
                -0.782954931,
                0.446540564,
                0.0485827923,
                0.356135815,
                0.9768634,
                -0.07901651,
                0.4564657,
                -0.684448361,
                0.04109299,
                0.3757433,
                0.2193073,
                1.0
              ]
            },
            {
              "weights": [
                0.363857657,
                0.148036748,
                -0.5911679,
                -1.0,
                0.0864163339,
                0.236717343,
                1.0,
                -0.07277858,
                0.128565669,
                1.0,
                -0.302884221,
                -0.00766468048,
                -0.5330212,
                -0.0419518054,
                -0.9966281,
                0.7055509,
                0.6887908,
                0.380700529,
                0.7464011,
                -0.92422986
              ]
            },
            {
              "weights": [
                0.8777516,
                0.21318233,
                0.694966555,
                0.03546256,
                0.7066381,
                -0.7373479,
                0.260005921,
                -0.3883928,
                0.8723161,
                -0.538445234,
                -0.382218,
                -0.50538826,
                -0.9212613,
                0.3858964,
                -0.5032507,
                0.687161446,
                -0.6411321,
                -0.7801709,
                -1.0,
                0.8565867
              ]
            },
            {
              "weights": [
                0.5788133,
                1.0,
                0.7783134,
                0.670000553,
                -0.243011832,
                -0.293039918,
                -0.361310363,
                0.5815108,
                0.407104462,
                0.333515376,
                -1.0,
                1.0,
                -1.0,
                0.4555762,
                -0.1465441,
                0.926139832,
                0.08592212,
                -0.387974381,
                0.7052066,
                -0.6266017
              ]
            },
            {
              "weights": [
                -0.323024869,
                1.0,
                -0.2887627,
                -0.273715854,
                0.04412353,
                0.044524312,
                0.344747275,
                0.0384658575,
                -0.7159674,
                -0.2792341,
                0.8748095,
                1.0,
                0.9573226,
                1.0,
                -0.04015374,
                0.2937636,
                1.0,
                -0.238709331,
                -0.6593828,
                0.056314826
              ]
            },
            {
              "weights": [
                -1.0,
                -0.597719669,
                0.12427187,
                -0.07747543,
                -0.744622,
                -0.9990011,
                0.169125438,
                -0.396792531,
                0.9994273,
                0.7476249,
                0.005704522,
                -0.443170428,
                -0.118574023,
                0.4537523,
                0.37003,
                -0.465710521,
                0.968436956,
                -0.463062167,
                0.0447314978,
                0.260235548
              ]
            },
            {
              "weights": [
                -0.6555846,
                -0.6560252,
                0.17799747,
                -0.8237233,
                0.112868667,
                -1.0,
                -0.1540252,
                0.5885633,
                -0.54531455,
                -0.8730371,
                1.0,
                -0.2108441,
                0.921234846,
                0.1789414,
                0.5240545,
                -0.5482542,
                0.7586873,
                -0.84826076,
                -0.803961039,
                -0.7463286
              ]
            },
            {
              "weights": [
                0.184194386,
                0.7043495,
                -0.384715676,
                0.18221581,
                0.872653246,
                1.0,
                0.276386,
                -0.281969428,
                0.193622947,
                0.0452245474,
                -0.212584376,
                -0.6382323,
                -1.0,
                -0.3898269,
                0.48181197,
                -0.671954155,
                -0.9373605,
                -0.729002,
                -1.0,
                0.043225944
              ]
            },
            {
              "weights": [
                0.024559617,
                -0.900700331,
                -0.121548772,
                -0.183244586,
                0.41503793,
                -0.6853396,
                1.0,
                -0.03267038,
                -1.0,
                0.679746866,
                0.8800807,
                0.290384263,
                -0.40616253,
                1.0,
                -0.342404485,
                1.0,
                0.378799647,
                -0.09509954,
                0.523480654,
                0.159779668
              ]
            },
            {
              "weights": [
                -0.5168688,
                -0.26783,
                -0.694089651,
                0.4224324,
                -0.462349564,
                -0.309041,
                -0.376959443,
                0.953265,
                -0.625647545,
                -0.21722725,
                0.9768474,
                0.998286247,
                0.0176960826,
                0.582523346,
                -0.6756059,
                -0.6384511,
                -0.5727215,
                -0.270924449,
                -0.913262367,
                0.305172652
              ]
            },
            {
              "weights": [
                0.442646,
                -0.422575355,
                -0.547289848,
                -0.7887142,
                -1.0,
                -0.357795358,
                -0.383898437,
                -1.0,
                -0.421783328,
                0.374135,
                0.0518852472,
                0.247701526,
                -0.189443469,
                -0.05707848,
                0.390359849,
                1.0,
                0.0480490923,
                -0.7629509,
                -0.266021132,
                0.6866567
              ]
            },
            {
              "weights": [
                1.0,
                -0.137182117,
                0.144999683,
                -0.354620576,
                0.8329303,
                -0.9321816,
                -0.1729902,
                -1.0,
                0.06726277,
                -0.215214849,
                -0.6522453,
                0.0575348139,
                -0.101535916,
                0.790158749,
                -0.9887066,
                0.204587817,
                -0.697460651,
                0.137919068,
                0.495650738,
                0.139646888
              ]
            },
            {
              "weights": [
                0.3286466,
                -1.0,
                -0.15438199,
                0.8481419,
                0.09356254,
                -0.299492,
                -0.253880143,
                0.4625053,
                0.84637,
                -0.560869455,
                -1.0,
                0.7853503,
                0.643311262,
                -1.0,
                0.06560978,
                0.07140359,
                -0.2982818,
                -0.532753,
                -0.669103861,
                -0.554315
              ]
            },
            {
              "weights": [
                0.5778501,
                0.311948985,
                0.6880245,
                -0.136274874,
                1.0,
                0.188716054,
                -0.288954377,
                0.588411331,
                -0.85289216,
                -0.331062675,
                -0.0567168,
                -0.7452087,
